// *****************************************************************************
// 	THIS CODE WAS AUTOMATICALLY GENERATED ON 2024-02-06 21:39:29
// *****************************************************************************

#include "dummy.h"

static float32_t tensor_W_irweight[2500] = {-0.12195535, 0.053758644, -0.034329504, -0.119133465, -0.11238237, 0.097577475, -0.0067767585, -0.1312737, -0.13446493, 0.10051378, 0.11971656, -0.014553543, 0.11572984, 0.032845326, -0.016370073, -0.118931234, -0.056988325, 0.02941835, -0.006323966, -0.09613066, 0.026731607, -0.035804104, 0.09630633, 0.09230953, -0.055429533, 0.05457953, 0.09250812, -0.03310163, -0.058587056, -0.12197622, 0.045509174, 0.12586905, -0.1270178, 0.049157236, 0.13148734, -0.13544266, 0.1055127, -0.12632957, 0.04109028, 0.050466385, 0.020251898, 0.13821597, 0.13257219, 0.010902109, 0.1130743, -0.013942212, -0.03596726, -0.10179004, -0.099691145, 0.107091874, 0.1407643, -0.017031744, 0.073551714, -0.057206765, 0.027681006, 0.05252917, -0.010496134, 0.0067608776, 0.019226668, -0.03989476, -0.04355142, 0.002434301, -0.020508017, 0.034969594, 0.13858844, -0.07700235, 0.013992266, 0.053522978, 0.093721144, 0.08340636, -0.043878715, -0.08133, 0.1186847, -0.03963552, 0.058502205, 0.07908398, -0.062239703, 0.0236313, 0.11488247, -0.015455655, -0.02707861, 0.023991993, 0.073956475, 0.0074083544, 0.123619795, 0.06392, 0.0023518954, 0.13656425, 0.023792082, 0.07729213, 0.07894848, -0.093942545, 0.040740173, -0.028169101, -0.05768786, -0.03447437, -0.12821923, -0.004947821, 0.024939219, -0.07853546, 0.059723906, 0.056430116, 0.13308012, 0.046799593, 0.13645533, 0.121067874, -0.12660033, -0.06731472, 0.094421856, -0.06774816, -0.068956986, -0.078541905, -0.047034636, 0.055496342, 0.10900062, 0.08856365, -0.0003195237, -0.07683195, -0.048568428, -0.10779752, 0.09466877, -0.022396432, -0.01414509, 0.097498514, 0.1199891, 0.058693975, -0.012422801, -0.09068264, 0.0017189003, 0.040169742, -0.025212938, 0.042899508, -0.073231824, -0.11917042, 0.030816935, -0.054726355, 0.004956284, 0.112372555, -0.010432796, 0.04190415, -0.0047648363, -0.038693067, 0.12591581, -0.087860875, -0.10182974, 0.07209087, -0.082384855, -0.098930135, 0.13095824, -0.11097414, 0.12513788, 0.10878287, -0.053557724, -0.014794135, -0.10258739, 0.043726582, 0.12655868, 0.14028145, 0.008573715, 0.032044977, 0.094323255, 0.0935216, 0.03803846, 0.048229333, -0.12446676, -0.088633984, 0.044781182, 0.039843712, -0.040158715, 0.1217785, 0.02605719, 0.07440659, 0.085527815, 0.059938755, 0.06348376, 0.102049746, 0.010477758, 0.13267729, 0.05041028, -0.0062626344, 0.035685267, -0.13694459, -0.041234404, -0.10446496, 0.06096427, 0.04346765, -0.13228068, -0.05230404, 0.047517825, 0.06466431, -0.058209907, -0.12028538, 0.025224991, -0.02278929, -0.11219463, -0.024254618, -0.023479167, 0.11992222, 0.120094076, -0.06433199, 0.08360597, -0.060276706, -0.04990951, -0.08476472, 0.049140345, 0.022942504, -0.11363368, -0.06295612, -0.08766209, -0.122796096, 0.019651558, 0.069401905, -0.026039336, -0.017584678, 0.0677979, -0.05158633, -0.07052524, -0.13977261, 0.070345975, -0.09988645, 0.06317766, 0.04691167, -0.074525036, -0.09523022, -0.08445646, 0.06761983, 0.020493435, 0.10816424, 0.1158452, 0.07758947, 0.042729624, -0.11626721, 0.0035199365, -0.06584656, 0.013344654, -0.06384478, -0.003951284, -0.01529494, -0.10122487, 0.057631873, -0.003953307, -0.03167481, 0.010578337, -0.12874797, 0.082275964, 0.07038376, 0.013802757, 0.13890484, 0.043858603, 0.11265143, 0.040204182, -0.020600386, 0.07255658, 0.06847486, -0.05572144, 0.12682444, -0.13534865, 0.13724886, -0.123717494, -0.09723477, 0.039596982, -0.0018205753, 0.007409265, 0.10232018, -0.009636608, 0.050536282, -0.09718052, -0.06589466, 0.054438625, 0.123807214, 0.018522007, -0.10403028, 0.12923971, 0.120366566, -0.07187073, 0.10677028, 0.07674857, 0.05743837, -0.038147703, 0.062155124, -0.11400111, 0.13303512, -0.077235416, 0.025962831, 0.022966156, -0.06706294, -0.0035759578, 0.11719382, 0.08326579, 0.13464683, -0.004072077, 0.014976311, 0.1195533, 0.078352936, -0.047805436, 0.12326853, 0.057411157, -0.105154134, -0.004592995, 0.04007793, -0.10850501, 0.087689996, 0.104306914, -0.13776492, 0.025820475, 0.054465465, 0.02136466, -0.085797615, -0.09256966, -0.10072716, 0.07774312, -0.13646619, -0.081619985, -0.11629159, -0.09629485, -0.009245569, 0.007837426, 0.08667063, -0.035583306, -0.11827026, 0.07733177, -0.060418706, 0.010550537, 0.0060124, -0.1286084, 0.08544149, 0.004143221, 0.13016285, -0.03960698, 0.13895287, -0.08690962, -0.09964099, -0.022029703, -0.008895109, 0.12809916, -0.09682915, 0.032525364, -0.037048716, -0.11520061, 0.12868886, 0.07845159, 0.058239598, -0.10516164, -0.07087216, 0.029562645, 0.058345873, 0.029898807, 0.058098167, -0.12797365, -0.14042775, -0.016276, -0.057232067, -0.0034162889, -0.073398456, -0.08893108, -0.039447144, 0.10590634, -0.11606759, -0.0054064295, 0.012937043, 0.05382677, 0.12604368, 0.06764983, 0.028402325, -0.0156805, -0.10643992, -0.098048255, 0.13914073, 0.04085262, -0.051760733, -0.1152764, -0.025788106, -0.036741298, -0.04055296, -0.08700688, -0.09408612, -0.0480112, 0.0012339249, -0.023691537, -0.07395256, -0.027666777, 0.09214395, 0.005326064, -0.10898041, -0.06857475, 0.054574404, 0.05244223, 0.002916579, 0.10026554, 0.13234307, 0.0606054, 0.011267421, 0.034151137, 0.02777555, -0.1202347, -0.039881796, -0.108268045, 0.12684888, 0.116106495, 0.13201867, -0.045783736, -0.12491047, -0.12169331, 0.07380554, 0.10206362, 0.0947913, 0.0021320742, -0.09698819, -0.05421071, 0.073585905, 0.026107175, 0.102965444, -0.08177603, 0.064089246, -0.09291061, 0.026125416, -0.09349734, -0.08853125, -0.043153808, -0.023330001, -0.045776907, -0.1283273, -0.0561627, 0.04397648, -0.12337177, 0.13226406, 0.03398798, -0.021814805, 0.0011693222, -0.09104335, 0.120904915, 0.009321619, -0.07961827, 0.0954462, 0.123904996, 0.047872737, -0.0848935, 0.112984054, -0.027601989, 0.073425464, -0.13542107, 0.13666783, 0.104439236, 0.053907104, 0.06239779, -0.122341566, -0.045763556, 0.12615168, -0.043221038, 0.063915156, 0.115465276, 0.034683235, 0.10285757, 0.044845127, -0.0016752362, -0.11602692, -0.09079081, 0.09122529, -0.12986612, -0.08785261, -0.09824288, -0.110099845, -0.01592222, -0.07381242, 0.025635384, 0.112701505, 0.02355171, -0.055989712, -0.087472685, -0.12816076, -0.105128914, 0.08764458, -0.021252314, -0.10653318, -0.06648015, -0.09793139, -0.046867754, -0.04272536, 0.027145876, 0.012723258, 0.019651525, -0.13464992, 0.13399939, -0.0012911097, -0.11329442, 0.083492756, -0.100687444, -0.11216961, -0.105936766, 0.10219209, -0.051717322, -0.054760896, -0.07606502, 0.0929365, -0.093718156, 0.14119679, -0.08004376, 0.13295905, -0.014997906, -0.08610877, 0.010612307, 0.10450598, -0.10420072, -0.1352709, -0.12580886, -0.13334629, -0.093564376, 0.10969488, -0.0803603, 0.0031001368, 0.07825895, -0.10356455, 0.060526434, 0.06980176, 0.09245866, 0.10056223, -0.016527684, -0.001768937, 0.0787169, -0.08630057, 0.090921916, -0.110636845, -0.098157264, 0.11917189, -0.07108408, 0.07870559, 0.11340529, -0.08303132, 0.056739286, -0.05562366, -0.086407706, 0.016561655, 0.09190205, -0.1171451, 0.026379881, 0.00470197, 0.09469081, 0.010596072, -0.034408182, -0.101867504, -0.10630944, -0.053676642, -0.031217836, -0.13764451, 0.09348325, -0.13297255, 0.07649241, -0.0878811, 0.10503574, 0.13874929, 0.13646062, 0.105774164, -0.055707213, -0.019708997, -0.118879326, 0.07275745, 0.12032754, 0.092720225, 0.00018800866, 0.08590951, -0.0077139526, -0.102885924, -0.0037250398, 0.038060445, -0.038039606, -0.09783011, -0.06813008, -0.022538736, 0.062297463, 0.023682332, -0.0802239, 0.090613775, -0.11803507, 0.08577386, -0.058043394, 0.13192458, -0.061426606, 0.03804492, -0.028548187, 0.043355927, -0.089306735, -0.089428455, 0.08721142, 0.043426715, -0.00034794753, -0.090461925, 0.04316517, 0.1091864, -0.098823525, -0.0379045, 0.13703921, -0.06675234, 0.07717889, -0.123483494, -0.11517671, -0.11130592, -0.1029816, -0.0061699785, -0.061868995, 0.0759858, 0.012310151, -0.11357096, 0.09662012, 0.093008235, 0.046846192, 0.04079889, -0.06779422, 0.028565263, 0.12094762, -0.021837952, 0.032185443, 0.10249684, 0.1362272, 0.011142515, 0.056548934, 0.0610676, -0.09196429, -0.13160391, -0.030909505, -7.604978e-05, 0.08785707, -0.08897178, -0.0939089, 0.07159735, 0.13430011, -0.03691179, -0.080765605, -0.13986196, 0.09067721, 0.023828126, -0.0048688212, 0.046682086, -0.027669154, -0.08259636, 0.06622901, -0.112687916, 0.025907012, -0.030750224, 0.038052756, -0.052935265, 0.09368884, 0.12001063, 0.006242488, -0.058274176, 0.12783056, -0.039733134, 0.105310276, -0.058380015, -0.10506942, 0.07944983, 0.12755576, -0.07365729, 0.10423709, 0.031163044, -0.10441754, 0.07975765, -0.027829885, 0.051912207, 0.100396834, -0.025517626, 0.13898058, -0.096110955, 0.042596895, -0.090389684, 0.118396945, -0.070441246, -0.076474465, 0.019412383, 0.022200128, -0.010325608, 0.026730208, 0.09685078, 0.045771245, -0.0017790186, 0.049752925, 0.03525375, -0.020467034, 0.067340486, 0.11384488, 0.046287138, -0.09401015, 0.05951491, -0.08847646, -0.08873074, -0.06407272, -0.13395739, 0.10148375, -0.091635734, 0.12845007, 0.015803805, -0.11769911, -0.080030784, -0.08480325, 0.09772727, -0.024148224, 0.07971214, -0.138317, 0.11624521, -0.043529436, -0.061406847, 0.0918496, -0.10344442, -0.005596967, 0.006354885, 0.13654353, -0.0018997103, -0.024594272, 0.08855158, -0.073171064, -0.03345777, 0.021443088, -0.009365603, 0.024285065, -0.019530075, 0.1291152, 0.11662371, -0.10815889, -0.03889202, -0.046932187, -0.08171141, 0.038665283, 0.13628195, -0.020120181, -0.028243516, 0.016655559, -0.06447984, -0.13981669, -0.11384501, 0.112868235, -0.075836934, -0.10901981, 0.0036779365, 0.12715013, 0.07131072, 0.04151431, -0.018962407, 0.10117542, -0.04799112, 0.0436683, -0.102249436, 0.09476022, 0.050983444, -0.03072357, 0.0044431714, -0.12910326, -0.058890767, 0.07317504, 0.053288892, -0.054201137, -0.12481535, 0.13942209, 0.013526981, 0.01939158, -0.040312536, 0.12533216, 0.0021326137, -0.09767187, 0.090304986, -0.010170018, 0.008935132, -0.06956476, -0.12693068, 0.115120314, 0.11756915, 0.0116547, -0.018344231, 0.031520788, -0.11227887, -0.12462478, 0.06459506, 0.079570524, 0.022267934, -6.1112936e-05, -0.023424359, 0.025901431, 0.07032333, 0.08371722, -0.0011378301, 0.039282583, -0.06543236, 0.113139, 0.054997407, 0.073333904, -0.11479961, -0.064378895, 0.10533305, 0.05612794, -0.03734012, 0.059205096, 0.020779325, 0.022358954, 0.0472274, -0.1129217, 0.09573414, -0.093485676, 0.08999676, 0.07231887, -0.13911693, 0.09869904, 0.11149058, 0.13712694, 0.12908424, -0.0117138745, -0.010536983, 0.1037134, 0.07534491, 0.054756027, 0.018601647, 0.083333716, -0.12251351, -0.123820566, -0.12572458, 0.12219225, -0.022069052, 0.012585471, -0.034082353, -0.11116662, 0.06855135, 0.07092816, 0.011524399, 0.045432266, 0.10905224, 0.0331865, -0.061997697, -0.042979166, 0.009081837, -0.04959477, -0.102193065, -0.11470874, -0.041383184, -0.029465908, -0.0060905064, -0.10203599, -0.1368555, -0.106434435, -0.13776374, -0.025997492, 0.03875285, -0.028200239, -0.042966302, -0.048974726, 0.12703533, 0.12953854, 0.059016533, -0.114365175, 0.14053135, -0.121634126, 0.06995691, 0.13495868, -0.008897521, 0.102064095, 0.02214414, 0.015069235, -0.059141338, 0.08385403, -0.021353096, 0.12784055, 0.09215795, 0.02598495, 0.068732426, -0.039467406, -0.10873426, -0.02189566, 0.11084399, -0.036366697, 0.06441915, 0.0094039235, -0.11693878, 0.07989084, -0.06874268, -0.034309965, -0.04341633, -0.02658947, -0.10518657, -0.065740705, 0.09871708, -0.08626393, -0.116386876, 0.011969723, -0.054738358, 0.09470726, -0.030474465, -0.08315165, -0.03966494, -0.118672684, -0.05757447, -0.114697345, 0.046763685, -0.02548244, -0.056407727, 0.00718184, -0.07598219, -0.0758554, 0.028550513, 0.056143854, 0.08632353, -0.06567486, 0.058259927, 0.11428296, -0.097064905, 0.10138838, 0.004572259, -0.0272285, -0.021301221, -0.0032289713, -0.10302711, -0.10119626, 0.045690473, -0.06862981, -0.13251, 0.055077624, -0.008114045, 0.12580876, 0.109707795, 0.030337876, -0.07033242, -0.10823281, 0.07061044, 0.10277589, -0.020266263, 0.03528639, 0.029826365, -0.062806666, 0.102968045, -0.0037355428, -0.038233448, -0.12502947, 0.13294049, 0.07544897, -0.05943038, 0.06189587, 0.039080516, -0.11963436, -0.043486767, -0.13034873, 0.12621811, 0.11439272, 0.02440579, 0.054413743, 0.13515423, 0.008357602, 0.07661761, -0.022668077, 0.053720593, 0.08207367, 0.1283228, -0.14035852, -0.1361214, 0.02889932, 0.04638566, 0.009376561, -0.039959613, -0.11688918, 0.036197163, 0.12076064, 0.03651861, -0.041389085, 0.043575224, 0.0038137506, 0.08467973, 0.13350388, 0.0035024201, 0.04462839, -0.014954714, 0.021535607, 0.06541965, 0.036412686, -0.120786786, -0.066298865, 0.063440114, -0.117222644, 0.040149476, 0.13414165, -0.10064551, 0.03875946, -0.02773079, -0.119928405, -0.010114267, -0.054132823, 0.016355034, -0.10064393, 0.12050965, 0.10350088, 0.06949068, 0.115317896, 0.10751279, 0.044749588, -0.0051874174, 0.06693458, 0.1309232, -0.014915871, 0.026396723, -0.12447172, -0.08168437, -0.11867609, 0.070707306, -0.031640634, -0.04409719, -0.032762468, -0.05956525, -0.114768654, 0.011704416, -0.106804505, 0.018248068, -0.13709028, 0.043960817, -0.08740367, 0.09636943, 0.012354658, 0.09393648, -0.06543873, -0.04448381, -0.0851394, 0.0600172, -0.13689671, -0.0023887148, 0.087258056, -0.073414505, -0.09913639, 0.09723359, -0.10848134, -0.09129537, 0.11027912, -0.069304496, -0.1256901, -0.032963727, -0.09485383, -0.03627588, -0.1355318, -0.044436704, -0.12626398, 0.121904604, 0.045874488, 0.12720197, -0.11961696, 0.0034025153, -0.11380887, 0.07607945, 0.013992046, 0.036432225, 0.038164865, -0.1376188, -0.076408446, 0.11024303, 0.07184468, -0.00015737634, -0.12083389, 0.018904531, -0.0037778583, 0.036556527, 0.059144, 0.023803951, 0.05608505, 0.040813643, 0.029764494, 0.095755704, 0.119533174, -0.11263613, -0.12439365, -0.006310496, -0.05894974, -0.13188827, 0.056007214, 0.10824292, 0.13786018, 0.13226856, 0.06193569, 0.13681798, -0.045671776, 0.0017889147, 0.07164336, -0.108835794, 0.012240204, 0.13887998, 0.036309395, -0.12222907, 0.10731633, 0.120274246, -0.004929934, -0.075459875, 0.0076833707, 0.088642396, 0.011472642, -0.0022233138, -0.11219313, 0.08266975, 0.088761605, -0.024415182, 0.12523887, -0.044138625, 0.08096312, 0.01984535, -0.074903585, 0.09141558, -0.034944747, 0.069925606, -0.04100231, -0.070547655, -0.030634994, -0.031881884, -0.030975338, 0.07471362, -0.120270655, -0.12794818, -0.0071099037, -0.014203067, -0.12347164, -0.074398614, 0.020053336, -0.01333668, -0.12011354, -0.05379921, 0.13707834, 0.12166896, -0.0150603345, -0.07469267, 0.019218931, -0.117578015, 0.08466068, 0.0856832, -0.064172775, -0.019097582, -0.017778873, -0.040369485, -0.13998094, 0.057270877, 0.009946775, 0.059687056, 0.061722983, -0.12492893, 0.071600266, 0.06176368, 0.085928895, -0.0058549223, 0.08351218, -0.057254523, -0.009175116, -0.026856529, -0.08049565, -0.0102193635, -0.10104741, 0.12860087, 0.092280276, -0.081919216, 0.019271748, -0.09244728, 0.12401701, 0.062706895, 0.13506176, 0.13887705, -0.015799556, -0.0395971, 0.02558882, 0.015951943, -0.109195344, 0.06898106, -0.017063592, -0.0142100975, 0.13589586, 0.012120844, 0.0729172, 0.09347288, -0.04398282, -0.07625102, 0.025951654, -0.02675708, 0.13767979, -0.07887876, -0.060223468, 0.12875329, 0.048925363, -0.113018565, 0.032405518, 0.11061456, -0.09247641, -0.038669415, -0.046878103, -0.09124815, 0.10619499, -0.014173109, 0.03005497, -0.0956817, 0.0143917, -0.12136575, 0.026430104, -0.018890876, 0.011514014, -0.016367005, -0.11025921, -0.08298543, -0.060112704, 0.08699651, -0.07500026, 0.13819878, 0.13909112, -0.11405203, 0.11337471, -0.103836484, -0.004419485, 0.13418421, 0.09251544, -0.081425674, -0.013394775, 0.08175565, -0.11990465, -0.008189032, -0.022495897, -0.063765086, -0.0061886916, 0.08201327, 0.024641477, -0.0777104, -0.077918656, -0.0313333, -0.13118735, 0.034416713, -0.11416005, -0.11793567, -0.01744153, 0.02956696, 0.06673155, 0.12015054, -0.009414039, -0.1228829, -0.050881818, 0.07765475, 0.09878554, 0.061603826, -0.060064152, 0.097557284, 0.00893225, 0.13135225, -0.0879005, -0.10185558, -0.06363328, -0.113732874, -0.10229169, -0.09053466, -0.013297618, -0.020717924, -0.04450888, 0.07849512, -0.12049098, -0.09040801, -0.06613562, -0.030333964, -0.029028406, 0.04663994, 0.09099923, -0.106187575, -0.07721445, -0.11404494, 0.11836218, -0.08842109, -0.087328665, -0.09834015, -0.007153804, 0.10889731, 0.04940737, -0.13248733, -0.12571986, -0.02711993, -0.007885861, 0.049285617, 0.11612629, 0.037016954, -0.055812493, -0.12615682, 0.10977902, 0.00518821, 0.08371036, 0.056566264, 0.084817655, -0.13315466, -0.12262896, -0.12068872, -0.10410677, -0.008455299, 0.12762956, -0.043026134, -0.056026753, 0.0020159008, 0.085182056, -0.14068834, 0.051584844, 0.04500771, 0.018669875, 0.06329231, 0.13482608, 0.14020145, -0.086519845, 0.026113564, -0.13705504, -0.07475416, 0.06965517, -0.073175274, 0.015910875, 0.10063329, -0.040573, 0.13494, 0.117412664, 0.0663777, -0.04217632, -0.020965783, -0.0536612, 0.095971175, -0.13689122, -0.091642305, -0.003264695, -0.12777379, -0.07638742, 0.070996135, -0.010726913, -0.091170736, 0.10401043, 0.023423955, 0.057727292, -0.056114636, 0.11424118, -0.05898649, -0.022599377, 0.09739613, 0.009148547, -0.12228055, 0.085283525, 0.022216262, 0.05684076, -0.007335794, -0.10445965, 0.09419422, 0.064695925, 0.083446935, -0.04279834, 0.05054195, -0.065794066, -0.08727278, 0.1354671, 0.043883823, -0.0690753, -0.057076648, -0.09406609, 0.055845354, -0.08722328, 0.04947236, 0.039835095, 0.07651872, 0.109880514, -0.022758743, -0.09824894, -0.038846854, 0.09741157, -0.13902742, 0.12906478, 0.12293676, 0.068774015, -0.109840326, -0.04750761, 0.04026936, -0.13363639, 0.069147356, 0.010774083, 0.12014718, 0.0016875768, 0.05440403, 0.067140825, 0.042083006, -0.13415167, -0.12033231, -0.0037841634, -0.13976943, -0.0921567, 0.060819052, 0.12322009, 0.008489219, 0.06193938, 0.10986937, 0.054768432, 0.10549837, 0.11837289, 0.10142436, -0.055721205, -0.032738425, -0.081759125, -0.06758861, -0.012569017, 0.11288049, 0.05440661, -0.07648384, 0.112761945, -0.05745666, -0.0017764055, -0.027733335, 0.059151184, -0.1342687, 0.012606949, 0.11843125, 0.08731934, 0.086550884, -0.1120006, -0.088771924, 0.031620473, 0.06104602, -0.07618618, -0.14026386, 0.13393179, -0.11115905, -0.030645937, 0.09240946, -0.01088439, -0.05356438, -0.10050692, 0.00035128556, -0.031895522, 0.09466412, -0.006417937, -0.10397436, 0.060008314, -0.115833335, -0.13517976, -0.058889553, 0.026994754, -0.039284825, -0.026847038, 0.02322305, 0.037323765, 0.045748096, -0.04986588, -0.09955838, 0.031521007, 0.08172662, 0.12325917, -0.11354112, 0.05432461, -0.08838311, -0.0973339, 0.041883264, 0.108853176, -0.11871812, -0.070798144, -0.07990308, -0.0054362863, 0.12762187, -0.059467908, -0.033902135, -0.05838192, 0.13036877, 0.112472795, -0.07789918, 0.06640658, -0.010667975, 0.08708214, 0.02587321, -0.027013468, -0.043138582, -0.024936622, -0.1272389, -0.09607339, -0.08965454, 0.08183207, -0.11254983, -0.022368867, 0.05089679, 0.13843139, -0.028307797, 0.10437224, 0.062187795, 0.04281093, -0.12858486, -0.081091605, -0.10377858, 0.04946088, 0.09079285, -0.124950714, 0.119516686, -0.1210512, -0.045990594, 0.121157244, 0.04606403, 0.000592433, 0.1262108, 0.05051064, -0.08039405, 0.054032076, -0.009353549, 0.11207321, 0.07934959, 0.11326664, -0.1113818, -0.0028160503, -0.09673916, -0.0434062, -0.1375225, -0.05304805, -0.04138229, 0.02709181, 0.09642697, 0.096969604, 0.1276208, 0.1211595, -0.07057912, -0.08865755, 0.032749265, 0.09338845, 0.021134134, -0.025518317, 0.035353485, -0.0047011776, 0.035233755, -0.042358562, -0.10002053, 0.08028887, 0.07175805, 0.12736788, 0.14115818, -0.039394997, -0.061306387, -0.08705284, 0.09784751, 0.13854216, 0.11935287, 0.018952107, 0.030734848, -0.079370126, -0.034084395, 0.111180104, -0.09485211, 0.026449442, 0.04939432, 0.007882827, 0.10582388, -0.07985279, 0.0058353157, -0.004142142, -0.089192145, 0.09465945, -0.09470751, 0.08832228, -0.027269635, 0.120874554, -0.019707834, 0.13163689, 0.08616996, 0.01671969, -0.030950675, -0.0016298525, -0.093280606, 0.026734808, 0.006306248, -0.083781, -0.06214668, -0.09227942, 0.09004225, 0.016435822, 0.011566833, -0.11686278, 0.091545805, 0.06876899, -0.053936016, 0.073681496, 0.10158502, -0.05790512, 0.056667484, 0.021256493, 0.11305805, -0.109414086, -0.05422914, 0.0050563915, -0.10951581, 0.07116292, -0.13247746, -0.06440467, -0.078894995, 0.056321327, 0.12245705, 0.11878073, 0.016163284, -0.062129363, -0.047852673, 0.103156574, 0.010626165, -0.013502368, -0.09731609, -0.016616497, 0.13795684, -0.13612527, 0.030532999, -0.1017217, -0.114939265, 0.04670193, 0.034231756, -0.1162072, 0.030720385, -0.112857044, 0.0027409107, -0.10921198, -0.10002882, -0.11930713, -0.011823894, -0.07619319, 0.0748816, 0.09446709, 0.048214883, -0.0951219, 0.112435706, -0.0025691371, 0.07555582, -0.0812902, -0.064938016, -0.12438608, 0.01069972, 0.010009995, -0.091391705, 0.10975846, -0.07760432, -0.10329271, 0.055583924, 0.07917316, -0.016540464, -0.05775334, -0.043200035, 0.08066587, 0.063644476, -0.03746673, -0.05667175, 0.12654217, 0.08264293, 0.0073150243, 0.041051015, 0.020202503, 0.06823648, 0.12109677, -0.111401744, -0.12603135, -0.059211303, -0.050871737, 0.07362355, 0.004984371, -0.025451152, -0.105163455, 0.0483348, -0.032688506, -0.06728895, -0.09709812, -0.067039266, 0.025584368, -0.12540716, 0.011283522, 0.014407159, 0.015123892, 0.12962009, 0.082355924, 0.008747832, -0.03894455, 0.093034655, -0.078063905, -0.007900697, 0.033268616, 0.066151895, 0.12432265, -0.07733123, -0.006301106, -0.025462244, 0.12505528, 0.08599546, -0.034176998, -0.027090479, 0.07176034, 0.06837382, -0.14029846, 0.007867417, 0.031283095, 0.13810615, 0.13756634, 0.11448617, 0.12102089, 0.07149694, 0.098409355, 0.0034735748, -0.053107712, 0.0406504, -0.12429305, 0.1413729, -0.057400215, -0.033225257, -0.006448721, 0.13898133, 0.03274645, 0.05173563, -0.027444916, 0.032699853, 0.12039025, 0.06414914, 0.09828452, -0.13145164, -0.071059234, -0.07744602, -0.01445868, -0.090699464, -0.082005225, 0.07890538, 0.12917802, -0.13524681, -0.061948806, -0.052699614, -0.06621778, 0.05144959, -0.07096822, -0.0822512, 0.032847688, 0.12436532, -0.027313773, 0.04549852, 0.11273143, 0.05740622, -0.10674327, -0.12481336, 0.09419867, 0.012371146, -0.11117545, -0.010764761, 0.05935664, -0.06514592, -0.051558174, 0.043266505, 0.037279613, -0.024867788, -0.13314773, -0.13893151, -0.09525631, 0.08818247, 0.078437716, -0.08790285, -0.09916244, -0.022725025, -0.01720249, 0.085699886, 0.10669996, 0.034676593, 0.09527171, 0.1036973, -0.087041356, 0.08654776, -0.0676651, -0.12086024, 0.015774015, 0.06828995, -0.06091867, 0.015869418, 0.044462364, -0.0019145628, -0.011238356, -0.04818609, 0.107078, 0.024925597, 0.14105596, -0.02395278, 0.121375225, -0.05983961, -0.09579546, 0.07340911, -0.052695245, 0.03743871, -0.13459413, 0.047348093, -0.010080801, 0.11186447, 0.05423209, 0.12470656, -0.045119587, -0.011839927, 0.11982205, 0.0360892, -0.092571154, 0.13485372, -0.09349702, 0.14110054, -0.057844326, -0.029694546, -0.041982915, 0.033374455, 0.024496373, 0.074401364, 0.120449424, 0.032431394, 0.009482586, -0.1264325, -0.03009892, 0.1131091, 0.12527075, 0.12526278, -0.019307725, 0.108301945, -0.021029677, 0.05932793, 0.078802705, -0.079235874, -0.10400275, 0.10543124, -0.013469358, -0.015240335, -0.029481335, -0.018056873, 0.13423839, 0.08493023, -0.074654885, 0.11315789, -0.04459484, -0.0520226, 0.10362822, 0.015940731, -0.0030260934, -0.1287152, 0.085281745, -0.12927125, -0.116188854, -0.08001271, -0.1378949, -0.02773524, -0.12977822, 0.13684824, 0.0031606092, 0.08777869, 0.119753465, 0.08655247, -0.06472531, -0.008144053, 0.09749431, -0.092993654, 0.11655944, -0.06605949, 0.12986417, -0.08114417, -0.017563334, -0.052305102, 0.08249553, 0.118071705, -0.1355941, 0.078185394, 0.011669553, -0.052494474, 0.12317397, -0.029616456, 0.08781657, 0.13721663, -0.09137471, -0.03173545, -0.09471606, -0.069969, 0.080542736, -0.034686014, -0.06247222, 0.08618619, 0.116395004, 0.013808606, 0.07652157, 0.12907144, 0.039204493, 0.044329263, -0.09962904, -0.13691317, -0.113372214, 0.11769717, 0.11343759, -0.13572542, -0.08478276, -0.05862829, 0.13779637, 0.14102224, 0.056622572, 0.12453158, 0.059329666, -0.015477858, 0.06421853, 0.08272776, -0.14042652, 0.05664319, -0.069766425, 0.10410198, -0.06407738, -0.024560336, 0.12399354, 0.0109525, -0.04644566, -0.04845927, -0.016644213, -0.034781165, -0.040729992, -0.11212969, 0.035181206, 0.09772755, 0.11962814, -0.036062263, -0.05865707, 0.012887074, -0.057909403, -0.05268584, -0.017974822, 0.10340757, -0.14042531, -0.032973118, -0.013260006, 0.010341994, -0.079823524, -0.03193964, 0.0769636, 0.05051071, -0.14044273, 0.043875664, 0.07472812, -0.040091634, -0.057437308, -0.078673944, 0.011703119, -0.10871883, 0.039695673, 0.056333784, 0.04918409, -0.08489183, -0.011002486, 0.07973269, 0.09349505, 0.050084602, -0.11827313, 0.00035541595, -0.03967819, -0.018534988, -0.07961424, -0.049283896, 0.068038724, 0.09720553, -0.054241326, -0.04805451, 0.10640475, -0.050246093, 0.10520925, -0.052104954, -0.04333735, 0.006113721, -0.005142624, -0.09384268, 0.08273152, -0.0014795904, -0.045092445, 0.13440026, 0.022817073, 0.07141983, -0.0388963, 0.018847987, 0.0036714121, 0.07665472, -0.100865975, 0.03356555, -0.057109844, -0.00087156316, 0.067522086, 0.11619428, 0.034882806, 0.12132244, -0.12874304, 0.13384867, 0.09473994, 0.123513386, -0.010937597, -0.10429036, -0.08508353, -0.020652581, 0.07065282, 0.052276473, 0.058780763, -0.011323173, 0.1358123, -0.13217998, -0.056490872, 0.1303645, -0.10759679, 0.11021339, -0.03304549, 0.12092867, -0.04490656, -0.12266303, 0.04091463, -0.029024243, -0.06124627, 0.0898012, -0.03634141, -0.034395117, -0.12461645, -0.028070813, -0.055438027, 0.048230883, 0.13414496, 0.059823256, -0.08213925, 0.062999345, -0.08370693, -0.13211966, 0.11290015, -0.07903474, 0.114297524, -0.10151222, -0.0033243918, -0.030603401, 0.07645019, -0.065229565, 0.057994995, 0.02137599, 0.10365305, -0.011615504, 0.09986802, -0.117120534, 0.127725, -0.10179709, 0.10906727, 0.073395334, -0.099741295, 0.052616987, -0.13782789, 0.04865414, -0.0035243703, 0.048951797, -0.10739309, -5.710055e-05, 0.103757046, 0.05505085, 0.11358529, -0.13437882, -0.10722705, 0.13990651, 0.043732602, 0.118339114, 0.09157213, -0.09732064, -0.108658776, -0.1202189, 0.01559747, -0.05252865, 0.13951357, -0.019617453, -0.009219893, -0.043838, -0.044829026, -0.051490303, -0.084916584, 0.044378273, -0.116043024, 0.108852684, 0.038757652, 0.11308716, 0.14079468, 0.04978701, -0.13163348, -0.019547407, -0.13060626, -0.007268292, -0.010056222, -0.13694844, 0.06206697, -0.102985084, 0.12298962, -0.118876554, -0.12631585, 0.03152878, -0.050073206, -0.08802127, 0.0018597045, 0.09293487, 0.030695535, -0.051734485, 0.060518697, 0.11509376, -0.091482975, -0.10784936, 0.057189077, -0.1067207, 0.09025057, -0.10064288, 0.11863477, 0.0019278306, -0.11620642, -0.009928483, 0.057673093, -0.033474714, -0.09272366, 0.04234848, 0.08421551, 0.03198941, 0.096380524, -0.003812756, 0.105305746, 0.085509405, -0.13967338, -0.08062713, 0.022150345, -0.12259519, 0.084438466, 0.116407394, 0.08864826, -0.10891623, 0.037681628, 0.044052783, -0.02171045, -0.04831882, 0.13077962, -0.10710373, -0.07015224, -0.07912739, -0.059403304, -0.08598573, -0.04734895, 0.09401165, 0.1254541, 0.104904406, -0.083602205, -0.08541108, 0.081134506, 0.094347954, 0.1273693, -0.050555415, -0.024905063, -0.105905645, -0.010069473, -0.07888739, 0.13615087, -0.105645224, 0.07119308, -0.04558059, -0.091226, 0.06875256, -0.0040643727, 0.00034408687, 0.11198354, 0.12139298, 0.057410788, -0.11109561, 0.025815604, -0.026059179, -0.062272023, -0.04385997, 0.08623419, -0.008117534, -0.04704627, -0.09468408, -0.0714221, -0.0941956, 0.023807896, -0.13338529, 0.072895594, 0.061868627, -0.019464258, 0.049417958, 0.12440201, -0.120517656, 0.11876204, 0.08104342, 0.12422504, 0.0133826025, -0.06802957, -0.016112791, 0.09486007, 0.13881935, 0.06410622, 0.113983884, -0.00017529719, 0.047470722, -0.11460187, -0.027675916, -0.075273216, 0.111361556, -0.14076847, 0.09782137, -0.09429844, 0.051926486, 0.054312877, -0.13937163, -0.101181336, -0.013684273, 0.03639129, -0.042422693, 0.11985684, -0.072593346, -0.13913634, -0.101875156, 0.026266137, -0.022805003, 0.0118185505, -0.14107439, -0.016491186, 0.032828383, 0.091503985, 0.10970176, -0.12914667, -0.045582343, 0.062486347, -0.054138068, -0.050674524, 0.04491231, 0.1075485, 0.05256953, -0.106598675, 0.13680844, -0.11697621, 0.11249586, -0.082613185, -0.012058214, 0.008645466, 0.112565316, 0.013362709, -0.106686376, 0.09447675, -0.12977988, -0.0713125, -0.08971869, 0.07418161, 0.08888327, -0.13145739, -0.14048819, 0.11267131, 0.0005527475, -0.10675389, -0.07629081, -0.12704435, -0.039618462, 0.095769934, -0.14095488, -0.038240258, 0.124748744, -0.073811054, 0.022654252, -0.07797611, 0.1375053, 0.065581575, -0.0305637, -0.12901652, 0.08663875, -0.07844327, -0.063105755, 0.020896913, -0.14125778, 0.02570066, -0.09524511, -0.103189975, 0.067459576, 0.131946, -0.0549834, -0.046905853, 0.067265496, 0.04899185, 0.017062208, -0.10752469, -0.10351132, -0.098933004, -0.10348178, -0.029869406, -0.023999749, -0.102161184, 0.12980475, 0.080582336, 0.0635762, 0.0815814, 0.018894568, -0.034641575, -0.13462143, -0.113351695, -0.07812644, -0.016424341, -0.113089524, -0.12006871, -0.07579951, 0.0022152553, 0.07077207, -0.10215424, 0.08330829, 0.13289751, 0.0908368, -0.0113341315, 0.018831972, -0.12829447, 0.10755996, -0.07067864, 0.10538994, 0.13313945, 0.12950441, -0.054059424, -0.015186167, 0.057303328, 0.10416083, 0.096897885, 0.10653889, 0.10983233, -0.0048671183, -0.02404402, -0.0417594, 0.121380635, 0.023547411, -0.07465844, 0.09198864, -0.12930305, -0.08783427, -0.08101193, 0.088919416, -0.05387706, 0.013541378, 0.07972763, 0.09232023, 0.13014989, 0.11408316, -0.009595641, -0.06960751, -0.08592465, 0.090062626, 0.044703916, 0.01986108, -0.030806195, -0.09764683, -0.038468897, 0.100570664, 0.057152294, -0.018135976, -0.039935555, -0.056933414, -0.03293232, 0.11518507, 0.045333624, -0.13162853, 0.0038286874, -0.000365076, 0.014703856, -0.08456112, 0.13645416, -0.123994805, 0.08966561, -0.12641427, -0.05411723, 0.0720674, -0.106681705, -0.085960306, -0.0063776784, -0.13025859, 0.07688455, -0.09793207, 0.02386095, -0.008276158, -0.007318126, 0.088600874, -0.10087963, 0.04499001, -0.09649633, 0.069147706, -0.06307243, 0.043243982, -0.1022699, 0.0052880812, -0.004801403, 0.11855218, -0.061743736, 0.13383164, -0.015781753, 0.021647854, 0.0653712, -0.10349119, -0.0136179, 0.09175804, 0.099050425, -0.077074066, 0.029070841, -0.008701066, 0.09494313, -0.1353131, -0.013643239, 0.042570915, -0.07430967, 0.05603213, -0.11781203, -0.05632576, -0.06621262, -0.022417488, -0.003413996, -0.02094754, -0.122837044, 0.03165075, 0.057315435, 0.028687524, -0.015850993, -0.11790861, 0.07984287, 0.0024067538, 0.012842061, -0.0065403148, -0.050009616, 0.0035756882, -0.10401654, -0.09305444, 0.047979437, 0.10983749, 0.12216549, -0.13333343, 0.017494652, -0.048446238, -0.037111163, -0.122139886, 0.10307577, -0.06716384, -0.04069255, -0.06586512, 0.0715844, -0.0066522565, 0.09315152, -0.10426809, -0.08206307, -0.13529158, -0.0044545345, 0.13010591, -0.077547915, -0.012601032, 0.029956818, -0.016508399, -0.111223415, 0.05748692, -0.08247358, 0.12190504, -0.1129281, -0.10191203, -0.054790027, -0.04374398, 0.004897026, -0.13365133, 0.10255677, 0.12837078, 0.012517025, -0.0021000933, -0.1181576, 0.097859524, 0.055864368, 0.058799896, -0.064108565, -0.110904045, 0.09146248, 0.09977586, 0.043364238, 0.09346948, -0.008989098, 0.14036582, 0.08891977, 0.03947995, 0.015972763, -0.033968255, -0.0053289803, -0.025075387, 0.06210003, -0.06059817, -0.087102756, -2.9536513e-05, 0.07481393, -0.04887379, 0.12733363, -0.0165655, 0.09197785, -0.04851758, 0.03115925, -0.095718935, 0.029231286, -0.14042132, 0.11985006, -0.015588383, -0.023675943, -0.09718764, 0.08788817, 0.10907037, 0.14118114, 0.105176, 0.013799401, -0.09707804, -0.017868932, -0.08777671, -0.12547441, -0.053961203, -0.13354857, -0.049909692, 0.07046473, -0.062153928, 0.08251651, -0.03219067, 0.06719034, 0.112152986, 0.1353288, 0.07074777, -0.062698714, 0.0011638431, -0.004932783, 0.08429753, 0.02944819, 0.011240497, 0.052906957, 0.02639214, -0.12775382, -0.07572599, 0.020997105, 0.11316059, 0.11353753, 0.050976582, };

static float32_t tensor_W_irbias[50] = {-0.04051226, 0.1292615, 0.13666534, -0.0023548119, -0.13835844, 0.04010165, -0.11263522, 0.07865978, -0.12245823, 0.09735773, 0.018684795, 0.0991991, -0.012299884, -0.03569265, 0.03537842, -0.12364266, 0.01025588, 0.07428699, 0.12262778, 0.11384107, 0.08793306, 0.11043395, -0.006539876, 0.000110037, -0.030862503, 0.10178839, 0.029926775, -0.10478452, 0.12508349, 0.097306505, 0.12582186, 0.047339074, -0.12070157, -0.13840742, -0.090981364, 0.089362904, -0.085069455, -0.04109591, 0.05362295, -0.06622204, -0.091554224, -0.026603699, -0.07007954, 0.022165332, 0.024763988, 0.03146898, -0.0002142746, -0.122251324, -0.026727205, 0.0042431424, };

static float32_t tensor_W_hrbias[50] = {-0.06500062, -0.13129127, 0.022835854, 0.12469909, 0.0186122, 0.08326867, -0.0633557, 0.012073994, 0.025388606, 0.074939005, -0.02588029, 0.038474243, 0.11718239, -0.122467354, 0.031711828, 0.09916272, -0.13267577, -0.11776646, 0.072064154, -0.109664164, -0.10110967, -0.07718356, -0.00266653, -0.11290091, -0.008234382, -0.06736483, 0.07982426, 0.073055364, 0.07989964, 0.061869755, 0.13252151, 0.015510648, 0.07106441, -0.010745491, 0.10937529, -0.06828736, -0.018365962, 0.10521671, 0.046300575, -0.084094934, 0.09525228, -0.12551662, 0.080902226, -0.0034195932, -0.0036137046, 0.080499895, -0.118077524, -0.057773218, 0.11245636, -0.008885804, };

static float32_t tensor_W_izweight[2500] = {0.12796547, 0.102184296, -0.032097828, 0.10853581, -0.07923928, 0.103810646, -0.019893987, -0.040477734, 0.04166336, 0.08712042, 0.068401, 0.07364377, 0.116362534, -0.03365379, -0.046027765, -0.112076014, -0.09494649, 0.12792304, 0.057429247, -0.12137221, -0.015651992, -0.11471322, 0.03293913, 0.02172569, -0.1305396, -0.020101806, 0.014793275, -0.07847749, -0.117458805, -0.1321586, -0.03995685, 0.10372751, 0.05464002, -0.009207822, -0.0385145, -0.0908209, -0.06495372, -0.048150096, -0.108726464, -0.07039986, 0.12112784, -0.030731156, 0.071238, -0.019984385, 0.0632081, -0.041645758, 0.08009033, 0.13189249, -0.038272813, -0.06271026, -0.02187767, -0.036790576, 0.009571668, -0.00643225, 0.0969758, -0.03032793, -0.037774198, 0.026682312, -0.016965304, 0.13316956, 0.08200872, -0.101602785, -0.13486221, -0.07269457, 0.017261816, 0.0345034, 0.06528741, -0.10449173, 0.10449878, -0.094149455, 0.13466237, 0.069543704, -0.04402692, -0.015511777, -0.1178823, 0.003669878, -0.08101206, -0.0535954, -0.07838874, 0.08372605, 0.12993677, 0.029854182, -0.119187854, 0.13710569, -0.028596604, 0.0375725, 0.020715632, 0.06657604, -0.12019972, -0.010127736, -0.02927247, 0.1154131, -0.03638042, -0.08894546, -0.09806038, -0.039782934, 0.025862066, -0.0019808176, 0.063337006, 0.07404485, -0.03885884, 0.1295835, -0.0134322345, -0.12874052, -0.058990248, -0.0059694946, -0.1302867, -0.13852961, -0.08756399, 0.045090437, -0.097355045, -0.13253057, 0.02848488, -0.13242571, -0.10556019, 0.09559879, -0.09961937, -0.13876987, 0.032591082, -0.13445912, 0.029870147, -0.043222558, -0.06556175, -0.057347298, 0.14083567, 0.13254265, -0.14066622, -0.076151624, 0.11844449, -0.06382537, -0.08154005, 0.121134885, -0.05289342, 0.016574806, 0.0455801, 0.0505289, -0.067444146, 0.124029934, 0.0646602, -0.010272031, 0.13601719, -0.07488349, 0.113306634, 0.08818713, 0.04376337, 0.0003490265, -0.068911284, -0.12708592, 0.05521492, -0.033788893, -0.000980774, -0.12669231, -0.06349269, -0.13821074, -0.060058452, -0.06713727, 0.026550476, -0.11355499, 0.04529581, 0.09816749, 0.09207227, -0.0017697631, 0.027422292, -0.023355981, -0.07463757, 0.13478725, -0.034913674, -0.05393153, 0.016964495, 0.001920143, 0.08653598, 0.0078080245, -0.09941968, 0.070039146, 0.08999403, 0.05638156, -0.006641079, 0.05123629, -0.09966633, 0.1086523, -0.1235133, 0.07677223, -0.08265082, -0.11763562, 0.11577886, 0.0019084937, -0.065186106, -0.051938254, -0.10622699, -0.09955742, -0.088535495, 0.08524013, -0.13497207, 0.07610367, -0.09598567, -0.1298892, -0.07581723, 0.017641777, 0.13300501, 0.080660254, -0.044811442, 0.022059493, 0.030455247, -0.07108031, 0.038559224, 0.10464305, 0.08316734, 0.03715245, -0.039346885, 0.01365445, 0.05512496, 0.0478388, -0.120370984, 0.00061173626, 0.013801947, -0.10292534, -0.12175822, 0.13626607, 0.09407607, -0.12688355, 0.13188875, -0.066110335, 0.063556924, -0.036187034, -0.009575022, -0.10852782, -0.013279495, 0.08785722, 0.1254219, 0.02345607, 0.07771941, 0.019547995, -0.12225016, -0.09124426, -0.04426389, 0.10662937, 0.06666624, -0.061439976, 0.040486246, -0.10674937, -0.13618165, 0.13068125, -0.023036255, -0.038795553, -0.10148472, -0.11541915, 0.030533353, -0.057125, -0.11993279, -0.06445978, -0.09110337, 0.054006267, 0.0376502, 0.036342014, 0.013956424, 0.0995845, -0.09750662, 0.018544378, -0.113118306, -0.1332695, 0.042658597, 0.022515202, 0.0067575565, 0.006856551, -0.12703048, 0.09685145, 0.080073304, -0.093131945, 0.041678026, 0.004567808, -0.031226821, -0.050883587, -0.10671955, 0.06986737, -0.12390594, -0.06676383, -0.020326212, 0.029761814, -0.13550428, -0.06743464, 0.09504334, -0.10134721, 0.10283909, -0.018939631, 0.04572215, 0.10664699, 0.014131957, 0.054760393, 0.006934371, 0.08948198, 0.03216826, -0.029924095, -0.07415531, 0.0076172003, 0.057625044, 0.069293454, 0.019672144, -0.13977113, -0.090386115, 0.049304783, -0.050082985, 0.05179357, -0.06874252, 0.088057816, 0.054582145, -0.060168, -0.09786525, 0.09055212, -0.014866324, -0.062451232, 0.105288394, -0.08764136, 0.013621744, -0.013608173, -0.11291069, -0.06045775, 0.031256407, -0.009257741, 0.041825555, -0.06384186, 0.0012884967, 0.031935006, -0.046261664, -0.047951583, 0.034371767, -0.1297251, -0.13921268, 0.030995838, -0.01880203, -0.13029109, 0.06739743, -0.055480495, 0.08351218, 0.10679577, -0.012903865, 0.060027197, -0.045392495, -0.06007683, 0.044992067, -0.05891442, -0.09143662, -0.06913469, -0.06019096, 0.084765896, 0.004212662, -0.017928477, 0.064719945, 0.09306005, -0.08494848, 0.03408404, 0.010288282, 0.0021909955, -0.015300065, 0.118572004, 0.030009113, -0.13471986, -0.11718992, 0.052486688, -0.12917697, 0.09836962, 0.045344397, 0.09843134, 0.037888434, -0.041686237, 0.09810224, -0.052572716, 0.052123785, -0.09139853, 0.08820139, -0.021914726, 0.06478876, -0.1302653, -0.009739143, -0.044031996, 0.09248341, -0.023851898, -0.095072776, -0.13630041, 0.030610668, -0.056760952, -0.13596664, 0.13555747, 0.06599138, -0.09938981, -0.025553517, -0.07332487, -0.016062906, -0.07730221, 0.11608964, 0.008451893, 0.13224286, -0.10973798, 0.050038528, -0.12852071, -0.08971702, 0.1356826, -0.061364397, 0.10902937, 0.029367993, 0.08487356, -0.13087669, 0.12316323, 0.12463262, -0.08722107, 0.012440503, 0.13153678, 0.015472446, 0.002541944, 0.1231094, 0.11432041, -0.084433205, 0.041999184, -0.06742608, 0.12727256, 0.054237146, -0.12167829, -0.043978535, 0.09886469, 0.001387626, -0.12123874, 0.13170174, 0.002136036, 0.12987311, -0.08768632, 0.04022448, 0.036004588, -0.01727515, 0.040782303, -0.0032975865, -0.1310028, -0.08936675, 0.07381515, 0.1377294, -0.10322812, 0.13073526, 0.12000624, -0.07007268, -0.037565842, -0.11481269, -0.042558085, 0.11025725, -0.0838534, -0.14075679, 0.017442407, 0.04017876, 0.09735361, 0.019048017, 0.036927875, -0.03447218, 0.13290547, -0.067735486, 0.12887983, 0.07317673, 0.11724734, -0.07574923, 0.06526263, 0.064188674, -0.008302154, -0.09812052, 0.11115716, -0.10571988, 0.06553714, 0.12277715, 0.13638714, 0.05255026, -0.13679987, 0.064581014, -0.055579457, 0.06512628, -0.08333609, 0.015544956, 0.12407832, -0.11255222, -0.037337895, -0.135555, 0.07205004, -0.07498505, -0.00068572926, -0.028113838, 0.13903302, 0.10935909, -0.13336995, 0.12709002, -0.11018087, -0.10447157, 0.06444103, 0.02482468, -0.061652094, 0.005306457, -0.11523099, -0.015594773, 0.11072846, -0.056817308, -0.12444385, -0.058191534, -0.106000274, -3.4981887e-05, -0.01646128, -0.07840199, -0.002819658, 0.019321447, -0.007975701, -0.0474685, -0.054615643, -0.101359434, -0.11214452, 0.005326738, -0.044840895, -0.0019874938, 0.007092253, -0.09470628, 0.09525409, -0.022882419, -0.104003325, 0.04491165, 0.056737296, 0.030413605, 0.12579013, 0.027885605, -0.09561987, 0.09133784, -0.018740142, 0.11978073, -0.07063138, -0.083393835, -0.11190024, 0.06336356, -0.12222759, 0.06499264, -0.038487576, -0.09488536, 0.12028728, 0.119593866, -0.00058056443, 0.004329746, 0.11879653, -0.13122767, 0.07550778, 0.0036378463, 0.10972356, 0.07396644, 0.048823636, -0.066511355, 0.061592378, -0.09844287, 0.12234661, 0.08483109, -0.011416452, -0.017321277, -0.03530448, -0.088106945, -0.011808755, 0.120099, 0.09808796, 0.0749419, -0.12194893, -0.08484127, 0.08517022, 0.0567785, 0.07980697, -0.01165475, -0.06272323, 0.004232471, -0.079207554, 0.10090369, -0.11378085, -0.041990638, 0.12099764, -0.099427335, 0.064951435, 0.019178485, 0.040613364, -0.12737046, -0.1231739, 0.021205142, 0.10991941, -0.13404304, -0.0556065, -0.020792238, 0.059977345, 0.0201876, -0.040571183, 0.1300534, 0.044541936, 0.05807521, -0.014897125, 0.11488068, -0.11886041, 0.1025039, -0.07158757, 0.09610347, -0.05324678, -0.009464497, -0.13815957, 0.09235049, -0.059011087, 0.106324986, -0.12466753, 0.053218678, 0.09115709, -0.022431936, -0.03320988, -0.12591612, 0.07932539, -0.094004266, -0.12056397, 0.14001234, 0.05407933, 0.034722667, -0.012421773, 0.09019163, 0.12649386, 0.12765147, -0.11211098, 0.07119006, 0.05362207, 0.05638166, -0.10036524, 0.06877319, 0.031617083, -0.04766025, 0.12535985, 0.06731122, 0.012764629, 0.060659535, 0.06441976, -0.024587072, 0.06036658, 0.0138849765, -0.13957317, -0.10440985, -0.041656952, 0.01885065, -0.031640418, 0.11489402, -0.06462753, -0.0778375, 0.13605973, -0.047502603, 0.121985815, 0.03546369, 0.13469711, -0.10951088, -0.011750053, 0.10710715, -0.05285512, 0.019312479, 0.12364337, -0.009741553, -0.06806189, -0.012204953, -0.106805936, -0.02345388, -0.06681881, -0.08536256, -0.05877481, -0.108782254, 0.02316433, 0.09366156, -0.11520481, -0.13806757, 0.028789906, -0.004481812, -0.042595208, 0.046529315, 0.01660763, -0.007918196, -0.14009584, -0.094803505, 0.077843584, -0.028364375, -0.081960686, 0.09789285, -0.117084846, -0.10680619, 0.09698806, 0.13826306, -0.10132351, 0.12651952, -0.013473387, 0.03603982, -0.009799901, -0.10972444, 0.11225254, -0.10250824, -0.13233536, -0.056512117, 0.030138303, -0.0019636722, -0.105330795, -0.049766462, -0.09441243, 0.078137666, -0.10203464, 0.064118035, -0.0372153, 0.025568236, 0.069988824, 0.003523443, 0.1335591, 0.06011692, -0.011170922, 0.07574811, 0.049309473, 0.050820455, 0.12698133, -0.116145186, -0.06456648, -0.08217353, 0.04276196, -0.10209388, -0.074945986, 0.071017474, 0.09939952, 0.06227988, -0.06913088, 0.025995739, -0.11960396, -0.053954273, 0.021044597, 0.10888797, -0.04617636, 0.055705257, -0.13588946, 0.0038878277, -0.09021299, -0.028982736, 0.036906563, 0.07910912, -0.12471857, -0.046425767, -0.047311004, 0.104350545, 0.045053247, -0.049617533, 0.0721576, 0.007970897, -0.13200575, 0.03318722, -0.03572603, -0.08884696, -0.008122119, -0.0035120128, 0.10402947, 0.002972179, 0.044913083, -0.021633776, 0.00019487018, 0.09896431, -0.0026064625, 0.0793591, 0.08668334, 0.06754625, 0.038784932, -0.04748534, 0.0048514395, -0.07985299, 0.065533645, 0.09961435, -0.10809912, -0.05519201, 0.13747428, 0.08310794, 0.060265124, 0.06438705, 0.0030368997, -0.0031726968, -0.024116749, 0.01911422, -0.08144574, -0.13627592, -0.075529635, 0.088952005, -0.1397352, -0.042556617, 0.12526941, 0.060506422, -0.004690354, 0.025330022, 0.014235351, 0.037348785, 0.13920139, 0.13513258, 0.091240175, -0.10943369, 0.0067595285, 0.117307246, -0.00961889, -0.047106743, 0.09151241, 0.02715191, -0.010306102, -0.016014758, -0.028272327, -0.12582922, 0.035162374, -0.03426038, -0.10487045, -0.048787355, -0.0806949, 0.037080176, -0.0034887982, 0.063698426, -0.002719163, 0.06631196, 0.04936974, 0.03176839, 0.12416267, 0.012440401, 0.04507464, -0.10707581, 0.12693329, -0.07526521, -0.124012284, 0.11649877, -0.056469984, 0.12200906, 0.12136388, -0.012755576, 0.092974655, -0.05512857, 0.095179476, 0.09821767, 0.04989506, -0.13502145, -0.07603836, -0.06198544, -0.047601596, -0.1189824, -0.10455181, -0.031115755, 0.13562751, 0.0063601956, -0.061489794, 0.12510926, -0.11919215, -0.0108145615, -0.081259534, -0.13749315, -0.12649068, 0.115900435, 0.13852759, 1.7482513e-05, -0.13340518, -0.07307699, -0.10837735, -0.13476695, -0.05183004, 0.12571685, -0.07128064, 0.08309602, -0.06511756, 0.03958257, -0.113013156, -0.07027762, -0.048877735, 0.05701867, 0.012830749, -0.0933427, 0.09036322, 0.0171128, -0.0021205093, -0.019160531, 0.050523926, 0.12982471, -0.07722003, 0.09816451, 0.10656366, -0.12196855, 0.057233434, -0.053195056, -0.000391932, 0.13975431, -0.08885251, 0.12910855, -0.008699717, 0.11400256, -0.02474064, 0.075816624, 0.084694065, 0.14022453, -0.053426426, 0.009547324, -0.10282049, -0.062180445, 0.088739775, -0.1386326, -0.054898195, 0.10014928, -0.030094419, 0.084921315, 0.043816406, 0.06262746, 0.10444355, -0.07823413, -0.09147596, -0.12533809, -0.09247233, -0.121021695, -0.037457827, -0.085589364, -0.08720959, -0.07841858, -0.04001186, 0.098815024, -0.0860168, -0.09382858, -0.0070360624, -0.12207476, -0.11865534, -0.043033417, 0.057398938, -0.10134276, 0.04802851, -0.060508832, 0.0017332976, -0.035584956, -0.022830004, 0.1191143, 0.02551105, 0.13963863, -0.061654925, 0.036544673, -0.13782352, -0.09036003, 0.06427599, -0.10247477, -0.06353676, 0.13202485, 0.09414254, -0.07871376, -0.02589349, -0.05020283, -0.028935617, 0.13976325, 0.05276344, -0.077981904, 0.047497712, -0.07712464, -0.10278563, 0.09179252, 0.050972804, 0.028430006, -0.051116914, 0.112855546, -0.024518374, 0.014674337, 0.055449713, -0.1131487, -0.023730177, -0.032997847, 0.045427006, 0.12667358, 0.058336586, -0.056953378, 0.0039851535, 0.05111356, 0.13907956, 0.13521692, 0.12768675, -0.12333263, -0.027162634, 0.05322869, 0.10056771, -0.031423446, -0.0523575, -0.044474386, -0.0025151218, 0.074121326, -0.07352253, -0.12862809, -0.14090979, -0.028759595, -0.040463082, 0.0029364217, -0.09587889, 0.028917983, 0.075848065, -0.010523141, 0.07217469, 0.07828278, -0.11227225, 0.003009656, 0.1337161, -0.05606875, -0.02615153, 0.008420823, -0.0031863188, -0.07115061, 0.104383685, -0.12908566, -0.03615554, 0.12299255, 0.11984329, 0.11415225, 0.003693986, 0.077020824, 0.077575006, 0.012753283, -0.11532027, 0.034533594, 0.043851387, 0.032289106, 0.07412945, 0.032278433, 0.027987666, 0.034828573, -0.021662217, -0.1263708, -0.09833814, 0.08369248, 0.007931076, -0.019783394, 0.041663714, 0.050841898, -0.09059128, 0.013436146, 0.07412427, 0.1233287, -0.12521185, 0.13660364, 0.052185606, -0.04632234, -0.121591695, -0.11819737, 0.018616619, -0.020105902, 0.087518945, -0.03044068, -0.016194286, -0.01471709, 0.017496288, -0.0424173, 0.014838777, -0.081023715, -0.062488, -0.021851202, 0.11357152, -0.025533961, 0.0356075, 0.1364511, -0.1357506, 0.11608775, 0.12937883, 0.09316489, -0.036555313, 0.034633145, -0.13380273, -0.03445957, -0.05644507, -0.00023415104, 0.017016774, -0.0065689576, 0.039000943, 0.11537007, 0.09533468, -0.031583685, 0.09542185, 0.13471384, 0.016393978, 0.05539192, -0.0003315777, 0.06274078, -0.08149539, -0.11710425, 0.022866571, -0.12687354, 0.01738819, 0.019637262, -0.047299944, -0.06485247, 0.092978664, 0.0017771473, -0.050979093, 0.0557852, -0.12630777, 0.01855832, -0.046836093, 0.11985492, 0.07280923, -0.071944036, -0.13445444, 0.06547208, -0.08071857, -0.08376218, -0.09864118, -0.027040694, -0.116968535, 0.046954542, -0.084999375, -0.07590663, -0.011161852, -0.012231421, 0.045069903, 0.0010159245, 0.038162507, -0.13058339, -0.039942097, 0.13692282, -0.07284424, 0.121129036, 0.07141098, -0.047935367, 0.051478937, 0.12724428, 0.0145295365, 0.1174919, -0.05042181, -0.112782024, -0.13030462, -0.10500114, 0.052908678, -0.11878479, 0.13528834, 0.10236954, -0.096570894, -0.10872649, 0.07931297, -0.13187188, 0.0960424, 0.082475096, 0.0050891987, 0.112374105, -0.08581234, 0.046427757, 0.09291957, 0.004669753, 0.13154542, 0.123253696, -0.111593954, 0.057254337, 0.033167902, -0.12148275, 0.034957018, 0.110451505, -0.03527432, -0.11492573, 0.06796281, 0.10635355, 0.075906694, 0.08184915, -0.13164358, 0.1395394, -0.08624296, 0.1400206, -0.10776294, -0.12904909, -0.0007076456, 0.097964555, -0.010455117, 0.1386428, -0.03981507, 0.054524977, -0.04970046, 0.01052331, 0.050444856, -0.06643556, 0.13365372, -0.06493527, -0.13585222, -0.05693451, -0.10837899, -0.057192095, -0.01965048, -0.04943136, 0.015120503, 0.023352744, 0.06625021, 0.13357517, 0.036082204, -0.0658777, -0.0019630317, -0.052720297, -0.10975208, -0.054752283, -0.06388824, -0.0970211, -0.13993232, 0.12015657, -0.053017907, -0.106085256, 0.029740116, -0.06100772, 0.08420514, -0.110134624, -0.009826454, 0.06601362, -0.096988514, -0.09867783, -0.11759963, 0.05260401, 0.008314123, -0.073268116, 0.13116044, -0.058255527, -0.09127111, -0.06961318, -0.013404249, -0.022048889, -0.06494241, -0.04280677, -0.09427665, -0.056499, 0.11688529, 0.10722701, 0.065427676, -0.0704295, 0.05817779, 0.0472976, -0.11023913, -0.11926904, 0.1386252, -0.00278825, 0.1284403, -0.13172261, 0.0015222094, -0.099100545, 0.08995603, -0.043836735, 0.03389598, -0.10855398, 0.02542497, -0.023267101, -0.03705455, -0.03544066, 0.06022967, -0.0841505, -0.038670324, 0.08212988, -0.007107004, -0.07532222, 0.028338177, 0.018147085, -0.06970516, 0.1013122, -0.10278093, 0.04279625, 0.13928945, 0.08718194, -0.023949847, -0.037500195, -0.004009868, -0.12846288, 0.061870344, 0.06483491, -0.008637997, -0.08066482, -0.035253346, -0.11965511, -0.05912264, 0.13520211, 0.13075824, 0.044752907, -0.09722254, 0.071625605, -0.103447154, 0.11253435, 0.043746494, -0.040145077, 0.07652035, 0.10454811, 0.03304291, -0.05292788, -0.055594444, 0.07980039, -0.016047869, 0.0008159799, -0.11577264, 0.057147134, 0.13200657, -0.063326806, -0.12330452, -0.051425733, 0.08089265, -0.12739474, -0.0725954, -0.008397845, 0.07008129, -0.028873896, -0.07041822, 0.077286705, 0.026846245, -0.005116442, 0.06802766, -0.12403773, 0.07798762, -0.055297274, -0.08081502, 0.10139502, 0.10606022, 0.034049664, 0.10790995, 0.006377358, -0.036058318, 0.10348406, 0.014967561, 0.03474411, 0.0420371, -0.07811293, -0.082352415, -0.06698881, -0.020488141, 0.07723572, 0.084571026, -0.059062455, 0.01065872, 0.083165534, -0.02146674, -0.05167374, 0.12505938, -0.13939752, 0.05502231, -0.0057373494, -0.021921318, -0.053976074, 0.002702962, -0.017871782, -0.07977199, -0.008816262, 0.04867368, 0.10469448, -0.13246647, -0.06285743, -0.002139509, -0.020528635, -0.05481198, -0.12281882, 0.04597193, 0.024247421, 0.09508712, -0.12916882, 0.1266649, 0.034565322, 0.08482315, 0.061029397, 0.04713326, 0.091931686, 0.117562674, -0.10366001, 0.06667743, -0.116414, 0.07173893, -0.121180154, -0.053559393, -0.026429566, 0.08153738, -0.01453478, 0.010655736, -0.05051708, -0.06483546, -0.004134707, -0.0094044125, -0.06534282, 0.104976326, -0.021199007, -0.023146275, -0.08824554, 0.12688226, -0.111898586, -0.043314572, -0.06975174, 0.041840155, 0.07040297, 0.12473258, -0.036178723, 0.065460026, 0.045888647, -0.021303732, -0.00086466793, -0.037714217, -0.1356468, -0.049789287, -0.093028516, 0.095981665, 0.09673267, 0.08768022, 0.092709705, -0.05787857, 0.112220325, -0.029721031, -0.061043743, -0.04787481, -0.045282003, 0.034339603, 0.114363536, 0.08722217, 0.024226515, -0.0023360988, 0.007571867, -0.016770316, 0.044988103, 0.12217254, -0.02619941, 0.0016406926, 0.101942055, -0.039409142, 0.03357823, -0.04270088, -0.13565643, -0.073409684, 0.07075613, 0.07579556, 0.014219909, -0.06019086, -0.009205546, 0.08357513, -0.09254449, -0.1273503, 0.04284455, 0.13812815, -0.08521225, 0.03609709, 0.063748226, 0.106994785, -0.03468377, -0.06818887, 0.09619941, 0.0016802095, 0.09862628, 0.0033377272, 0.13841638, -0.020677194, -0.07992159, -0.042653203, -0.09822605, 0.009246969, -0.09309951, -0.03834932, -0.07748473, 0.06610064, 0.004365166, -0.034035336, 0.120881855, 0.09989181, 0.11281746, -0.07940308, -0.04497787, -0.10514695, 0.073857464, -0.06733983, 0.04847001, 0.0371379, 0.048864722, -0.13756317, -0.10539616, -0.030194964, 0.007439695, 0.05782897, 0.07664189, -0.10144897, 0.11275535, 0.022202168, 0.11455237, 0.038803358, 0.07568404, -0.118557185, 0.096551456, 0.11915776, -0.13010108, -0.012172802, 0.07666799, -0.002057761, 0.024728147, 0.09701487, -0.052965138, 0.06421471, -0.13747996, 0.086830854, 0.06566068, 0.03486873, 0.023652863, 0.08983554, 0.036396537, -0.00024800893, 0.12841876, 0.13922155, 0.04022401, -0.07016335, 0.077695444, -0.1053471, -0.048294593, -0.033162944, 0.041019727, -0.09129908, 0.011234614, -0.03247931, 0.03730819, -0.102726474, -0.06395621, -0.07095611, -0.055909198, -0.11796165, 0.07521346, 0.11704095, 0.11040459, 0.047825094, -0.13018014, -0.08839083, -0.004522458, 0.12403501, -0.008562031, 0.02527405, 0.025412124, 0.11308165, -0.003268859, 0.07760813, -0.060338072, -0.10297121, 0.086692736, 0.11646633, -0.013243468, 0.06592821, -0.12538166, 0.07832087, -0.040382955, -0.057335835, 0.0866543, 0.13415676, 0.11493485, -0.08338822, -0.13174427, -0.119523495, 0.1019593, -0.047423214, -0.114550926, -0.12752838, -0.04199003, 0.07638559, 0.1295417, 0.006907144, 0.07905746, 0.020551328, 0.114489645, 0.05029652, -0.026081888, -0.07346759, -0.08844528, -0.0028384556, -0.04020737, -0.10768075, -0.0546265, -0.0344667, 0.087526366, -0.10484808, -0.08226047, -0.05680325, 0.12626474, -0.047458433, 0.02098566, 0.083451204, 0.008075724, 0.022550352, 0.09618963, -0.09563466, -0.079117276, -0.13352723, 0.033788692, -7.733104e-05, 0.044774976, 0.10973499, -0.10642011, 0.06771126, 0.056466278, 0.12341606, 0.1216643, 0.07364154, -0.12623501, 0.055223078, 0.107751645, -0.08437174, -0.05373789, 0.05322043, -0.010442337, 0.043338392, 0.10816152, -0.0051587913, 0.060267907, 0.11956981, 0.019109517, 0.12589557, -0.05573078, -0.08865035, 0.06844967, 0.09019984, 0.027569603, 0.010024629, -0.019082172, 0.04118174, 0.04892735, -0.009591864, -0.081348665, -0.00062040164, 0.049777523, 0.048813723, 0.08109552, -0.003226628, 0.11567736, -0.10819277, 0.057618555, 0.10070755, 0.12011331, -0.031616762, -0.07328528, -0.0105959205, -0.07671182, 0.11410992, 0.1339554, 0.07783894, -0.124520205, -0.097131595, -0.12814641, 0.009702238, 0.059037942, 0.05604533, 0.13509904, -0.0947737, 0.05009283, 0.028890384, -0.023483146, -0.033331618, 0.045646, -0.09855476, 0.056998473, -0.09359044, -0.038800508, 0.11776541, 0.07189679, 0.11950637, 0.13983619, 0.11692211, 0.07743138, -0.0808558, -0.11457114, -0.042181443, 0.058749303, 0.13698359, -0.0055173766, 0.0831524, 0.057890993, -0.110707685, -0.06739082, 0.12309971, -0.027886901, 0.064816914, -0.029699722, 0.10808722, 0.058808275, 0.12834053, -0.05387942, 0.020030359, -0.11300206, 0.069574736, -0.09116389, -0.022593882, 0.12719917, -0.10292917, 0.0999301, -0.10280018, -0.03724551, -0.13622664, 0.119555674, -0.10191435, 0.093479924, 0.05625861, -0.07529027, 0.09399871, 0.02973334, 0.030515973, 0.056772582, 0.10022904, -0.022773882, -0.015463646, 0.016385213, -0.10105856, 0.116347946, 0.0585148, 0.100182354, 0.013249503, 0.012101373, 0.08799964, -0.13147327, 0.011278312, -0.07342511, -0.05801204, -0.08205951, 0.0772338, -0.07440875, 0.12813671, 0.13565287, 0.07542781, 0.13408016, 0.016637823, -0.11518574, -0.078571424, -0.10863454, 0.06752557, -0.040334065, -0.13594252, -0.07829007, -0.045121543, -0.13688137, -0.05846631, -0.01738679, -0.08412191, 0.090619974, 0.12756935, -0.12680362, 0.11421466, 0.011437054, -0.04524328, -0.017358096, -0.055740744, 0.038486008, -0.08954621, 0.11033457, -0.05276344, 0.0660604, -0.084044345, -0.13551518, 0.10660299, -0.032103695, -0.075967506, -0.048683472, -0.1306871, 0.0018768329, 0.050647095, 0.032466345, -0.016712777, -0.11971838, 0.08756187, 0.033878516, 0.1241378, -0.12324848, -0.04243404, 0.042574927, -0.05405, 0.009497978, 0.055935666, -0.0312964, -0.121529765, 0.053801313, -0.08734092, 0.12792636, 0.044281453, 0.06295274, 0.013070396, 0.036981132, 0.00015268961, -0.058168758, 0.039856657, -0.06833437, 0.1187662, 0.0048608636, 0.08746598, 0.111133374, -0.11462765, 0.035126667, -0.050316915, -0.017673202, 0.058631327, -0.06029832, 0.13991855, -0.050302636, 0.13663092, -0.0023661917, -0.024000894, 0.045576777, -0.0878868, 0.05616186, -0.061433453, 0.07269177, 0.0717787, 0.120554894, 0.015351333, -0.07732839, 0.0031865716, 0.038132682, 0.025734074, -0.07412153, 0.082898974, 0.10809989, 0.014633168, -0.030182, 0.1133127, 0.0900909, 0.012347914, -0.07617091, -0.08600024, -0.0012214663, 0.107533775, -0.059663232, 0.082505, 0.1385907, -0.050349116, 0.10119051, 0.101932645, 0.106144294, 0.08420234, 0.13539259, 0.0059025483, 0.049244616, -0.017471235, -0.00468356, 0.00027498291, -0.021212207, 0.114121735, 0.009079055, 0.036076456, -0.0054826476, 0.13799469, -0.116518825, 0.068613015, 0.017627161, 0.11427004, 0.08008989, 0.064713925, 0.1219656, 0.002701057, -0.115656085, -0.1085844, -0.1370008, -0.03668349, 0.1306319, 0.025518838, 0.041829772, 0.019624686, 0.13042414, 0.115202904, -0.10769357, -0.0007797167, -0.025069756, 0.035908762, 0.07565145, -0.012346195, 0.034536544, -0.09415143, 0.066844925, 0.05594686, 0.13543828, 0.14062667, -0.050459087, -0.06485741, 0.029950513, 0.06366713, 0.059246603, -0.005692556, -0.112929404, -0.096965104, -0.040466826, -0.041880447, -0.076058626, 0.00039616352, 0.096894935, 0.016839167, 0.03376153, 0.06553594, -0.060834594, 0.097430825, -0.10069439, 0.09139568, 0.029345267, -0.077200755, 0.019898085, 0.09991691, 0.06955308, 0.039972596, 0.041670524, -0.102026485, -0.095568925, -0.055045437, -0.051442407, -0.028211417, 0.065095454, 0.021398496, 0.095991306, 0.028561942, -0.030165108, -0.09143803, -0.0013999667, 0.06957619, -0.13630602, 0.12996423, -0.057716098, -0.13270487, 0.08956819, -0.013223119, 0.090344794, 0.08162312, 0.09046474, -0.11400735, 0.084997185, 0.047618523, -0.09401369, 0.04181743, -0.044876434, -0.0013116437, 0.067511834, -0.1230872, 0.020598143, 0.06319877, 0.11729232, 0.097377464, 0.049126856, -0.023947654, 0.11742598, 0.018583136, 0.11595121, 0.039611854, 0.060662027, -0.01787694, 0.019895015, 0.026368352, -0.025919892, 0.042918526, 0.103751704, -0.034811933, 0.11899445, -0.12410253, 0.12313393, 0.01608956, -0.13268714, 0.078799136, 0.10591345, -0.06693488, 0.073496185, 0.046850946, -0.13545936, 0.018963335, 0.1164443, -0.061483085, 0.06282143, -0.09296002, -0.047333963, -0.013823611, -0.035268534, 0.13028671, -0.06731847, -0.10955861, 0.10248728, 0.011312889, 0.01639595, 0.086769134, 0.12283133, -0.08489886, 0.13145779, 0.10013746, -0.11644099, 0.13306189, 0.038726818, -0.05742753, -0.02543109, -0.10670009, 0.031270973, -0.024988934, -0.10166997, -0.0051876535, -0.057834264, -0.055905942, -0.023304258, -0.08101778, 0.14137408, -0.0889672, 0.063823715, -0.0476721, 0.111261785, 0.089983106, 0.092428096, -0.010572149, 0.015893746, 0.13952234, -0.0840129, -0.10777828, 0.031631667, -0.022032013, 0.0017358601, -0.12690723, -0.056793824, 0.08769726, -0.022523563, 0.12117778, 0.03855702, -0.12923573, -0.123519994, -0.13908228, -0.09887119, -0.06614561, -0.002500539, -0.08863237, -0.093536705, 0.013657467, -0.0061866688, 0.09910515, 0.011280031, 0.09213806, -0.051907405, -0.10463121, -0.11052902, -0.009583233, -0.06431866, -0.01188875, 0.06600787, 0.018299388, 0.13608249, -0.053776193, -0.014284596, -0.048661876, 0.04919379, 0.13275923, 0.08657406, -0.0016849468, -0.024041373, -0.08335966, -0.08310516, -0.07096073, -0.08415034, 0.0029825978, 0.049083617, -0.011430209, 0.1182787, 0.137115, -0.07537802, 0.06057064, -0.13658576, 0.05763656, 0.048282977, -0.11191083, -0.11565478, -0.070966646, 0.116628125, 0.06210679, 0.10967953, 0.01751259, -0.13200338, 0.12622699, -0.10842945, -0.026182078, -0.04573586, 0.120152205, 0.0500009, -0.04864964, -0.08624978, -0.034722228, -0.12165601, -0.101529084, 0.044190433, -0.0003952869, 0.08746749, 0.111220196, -0.060306445, 0.1406606, -0.063018024, 0.1272408, 0.03770833, 0.12907542, 0.04514794, -0.04514757, 0.09830603, -0.010114148, -0.11131981, 0.005787184, -0.05706702, 0.12614968, 0.10543421, -0.0500375, 0.038854204, 0.10309827, -0.08127049, 0.05601974, 0.006598258, 0.1366697, 0.018004864, 0.021368993, -0.120584615, 0.058695894, -0.061129708, 0.019494114, -0.13857159, -0.13374875, 0.031429276, 0.10572996, -0.04534042, 0.054634407, -0.072419986, -0.0012634445, -0.1066269, 0.1309968, -0.014472419, 0.07495937, -0.023849487, 0.13123216, 0.040049084, 0.031866577, -0.094101325, 0.06453219, 0.026551133, -0.013460693, -0.104625896, 0.0012681987, -0.13739519, -0.027981158, -0.025307583, -0.032424312, -0.07793379, -0.12867996, -0.12523869, 0.10744586, 0.042355224, 0.04038098, 0.07517836, 0.031482264, -0.030874455, 0.015952853, -0.02743148, 0.096399896, -0.08431692, -0.10144983, -0.092991374, -0.1386752, -0.10554259, -0.03381086, -0.02117397, 0.023859097, 0.039615594, -0.093044564, -0.121401116, -0.0624778, 0.020753447, -0.066903725, 0.0021439428, 0.0037686534, 0.081379294, -0.08135554, 0.06736732, 0.10272676, 0.006028399, 0.11464764, -0.09387169, -0.029234523, 0.083139636, 0.016156439, -0.056168314, -0.12866183, -0.077086285, 0.08128988, -0.050338764, -0.005486188, 0.02338164, -0.08263473, -0.043607153, 0.122141756, 0.12216947, 0.059845004, -0.11643932, 0.08609866, -0.130516, -0.034245092, 0.11386412, -0.020403054, -0.1291291, -0.06855398, -0.09216388, -0.029616373, -0.08077925, -0.103436954, 0.13662603, -0.09029035, 0.053458, 0.0063886195, 0.11642103, -0.049452048, -0.12751532, 0.12445114, -0.10267295, 0.004549719, 0.12142796, 0.07560575, -0.02881919, -0.0567214, -0.056133855, 0.068086386, -0.116420664, -0.04814428, 0.13076513, 0.06818878, 0.110941336, -0.12397437, 0.08222272, -0.12295194, 0.0951644, 0.118107714, 0.0894955, 0.01323782, -0.11010979, 0.027994309, -0.07491727, 0.109195255, -0.061173238, -0.06119751, 0.06445425, -0.015878135, 0.08736204, -0.031906497, 0.045605674, 0.0838548, 0.13839263, 0.12758991, -0.04875241, -0.008604886, 0.0003328927, -0.08768029, 0.08024214, 0.12525807, 0.10145096, -3.811761e-05, -0.06080137, -0.11299464, -0.035957705, -0.10625218, -0.08878796, 0.11427626, 0.039113086, -0.0055295825, 0.13082609, -0.03526842, -0.097199, -0.07892542, -0.021090908, -0.12103195, 0.01596027, -0.13615726, -0.018857934, -0.09005042, -0.06325718, -0.076948464, 0.0059460104, -0.01456526, -0.09092121, 0.014458815, 0.12000242, 0.13172041, -0.004633203, -0.030185305, 0.01977301, 0.002025274, -0.020218603, 0.04649389, 0.11812449, 0.11465258, 0.1045652, 0.079964496, 0.05567724, -0.12231449, -0.13513325, -0.04587936, 0.0030672455, 0.13165593, 0.11327674, -0.046909377, 0.10659355, -0.03701574, -0.08915758, 0.02229265, 0.05835567, -0.12463852, -0.04355039, -0.12842202, 0.06803046, 0.11911172, 0.097295314, 0.13247909, -0.012843949, 0.050919194, 0.034887392, -0.020455165, 0.13931417, 0.04531926, 0.02630609, -0.051439304, -0.092923254, -0.058328796, 0.027145658, 0.062635005, 0.13670267, 0.0266711, 0.035764452, 0.023089781, 0.061175376, 0.07138867, 0.13679415, -0.12089202, 0.05289192, -0.08575323, 0.061176863, -0.12500267, -0.09369988, 0.029571764, 0.07248958, -0.017299714, 0.1323203, 0.122462966, -0.1378793, -0.086683005, -0.022773849, -0.014526165, -0.14022994, 0.025635991, 0.137918, -0.011039626, -0.019738162, 0.08811999, -0.035575736, -0.027312255, 0.0871184, 0.069479726, -0.02599965, 0.023267068, 0.022201663, 0.10731554, 0.13715008, -0.04413045, -0.12774725, -0.1306224, -0.06502593, -0.08253577, -0.017884275, -0.01742125, -0.11207385, 0.062397182, -0.12656003, 0.13297378, -0.0163491, 0.0009609819, 0.07056824, 0.04399256, 0.044433434, -0.08653529, -0.020933127, 0.12587251, 0.13465896, -0.09244224, -0.11640183, -0.077785246, -0.08009284, 0.025991593, 0.087763295, 0.12392159, 0.08454941, 0.09222655, 0.059548408, 0.1241616, 0.10716425, -0.013131812, -0.0458379, -0.1268237, -0.1409922, 0.1262174, 0.11253248, 0.063136674, 0.07138319, -0.060627066, -0.032752622, 0.09562186, -0.101884365, 0.13599628, -0.07637547, 0.049559504, -0.122113906, 0.060031023, -0.12387602, 0.08563884, -0.07489455, 0.12940632, 0.10898712, -0.05088268, -0.085263684, -0.12965147, 0.1029716, -0.09788198, 0.044891976, -0.13098885, -0.058381144, 0.03421751, -0.105470136, 0.019820534, 0.035462763, 0.006658629, -0.04037781, 0.024255108, -0.099090785, -0.0666177, -0.019462725, 0.02620885, -0.056707982, -0.12417344, 0.06908326, 0.111896366, 0.051060133, -0.015535076, -0.079940535, -0.0831795, -0.0039018206, 0.016269224, -0.10286426, 0.08462998, -0.10410434, -0.011987795, 0.011544377, -0.040049523, -0.08850987, 0.09953198, 0.13858528, -0.0022361602, 0.03338027, -0.03486846, -0.07676633, 0.009720547, 0.004055825, -0.09995252, 0.07279169, -0.079389594, -0.09546261, -0.017601317, -0.022670858, 0.021758413, 0.10003516, -0.06644212, 0.09366858, -0.1092007, 0.052550513, 0.027534723, 0.07587489, -0.14007507, -0.1338553, -0.0071363384, 0.06324605, -0.10073711, 0.10308922, 0.123869255, 0.019466063, 0.017091442, -0.10681795, 0.0841764, 0.00033398852, -0.040134523, -0.073086075, 0.058699623, -0.014746036, 0.086378284, 0.08290633, -0.1359694, 0.04770801, -0.0383332, -0.105195574, -0.0998748, 0.037159342, 0.0937975, -0.10753405, -0.055523504, 0.01880456, -0.006806093, 0.005331914, 0.022778755, -0.12653647, 0.01689153, -0.026170025, -0.013842998, -0.13396238, 0.04900701, 0.13610175, -0.04651436, -0.12765725, -0.10178684, 0.06899608, 0.13898249, -0.059244126, -0.08502358, 0.002969819, -0.12720013, -0.07894254, -0.10535676, 0.05692679, -0.03835011, 0.020990817, 0.138038, 0.037891686, -0.010574055, 0.11481326, 0.13498761, -0.10056208, 0.051223494, 0.07896917, 0.099674046, -0.09712656, -0.080916084, -0.038860794, 0.12312014, -0.03854311, 0.065544695, 0.002289299, -0.006490446, };

static float32_t tensor_W_izbias[50] = {-0.119466245, 0.08950794, -0.027475616, 0.024039738, 0.015901957, 0.12399814, 0.063919134, 0.1406087, 0.0126698995, -0.09759235, -0.07043206, 0.071718544, -0.010451307, -0.105480336, 0.085002564, 0.031111877, 0.14027117, 0.10744498, -0.10665411, -0.11334945, -0.08742577, 0.10680339, 0.04150487, 0.139885, -0.07846041, -0.03630702, 0.08778776, 0.008818166, -0.024465388, -0.13814609, 0.06562767, -0.088353254, 0.11317004, 0.0327347, -0.13881566, 0.069579884, -0.13907607, -0.11986728, 0.10765597, 0.13239126, 0.05626743, 0.0051358296, 0.113723665, 0.0710226, -0.024987502, -0.12371225, 0.03437556, -0.078351416, 0.07253628, 0.08494692, };

static float32_t tensor_W_hzbias[50] = {0.08131692, -0.04005859, 0.032468416, -0.044074446, -0.04553097, -0.07233307, 0.10773069, -0.1153229, -0.06198625, -0.12512664, -0.022739407, 0.09959817, -0.10369054, 0.025940072, -0.085501626, -0.082662754, 0.05846719, 0.0117113795, 0.08695, -0.046044625, 0.03224325, -0.040936813, 0.10289317, 0.10388217, 0.10585844, -0.110500306, 0.050415184, 0.02357022, 0.06498133, -0.13548212, -0.1048631, 0.008442318, 0.03721663, -0.11282545, -0.124100156, -0.13788253, 0.031375363, 0.1306135, -0.003717487, 0.11099326, 0.057152107, 0.12846895, -0.046954997, -0.092420325, 0.011004206, -0.029266806, -0.033926513, 0.025072891, -0.10864007, 0.010945689, };

static float32_t tensor_W_inweight[2500] = {-0.13205433, -0.09980217, 0.0788472, 0.10417865, 0.064349204, -0.009520519, -0.038127508, -0.026523924, -0.04216349, 0.010924346, -0.09786059, 0.064665966, -0.05174114, -0.11460632, -0.11695318, 0.024926895, 0.09551086, 0.104859136, 0.057937287, 0.11167341, -0.019273907, 0.049570464, -0.07732005, 0.058959078, -0.060658135, -0.061453328, -0.13913757, -0.123660326, 0.09430486, 0.07378207, 0.09393098, -0.13508283, 0.086000144, -0.08181051, 0.10374567, 0.12348845, 0.073167674, 0.10731203, 0.012496052, -0.03395116, -0.018880457, 0.00032913318, -0.10033697, 0.1328132, -0.044925205, -0.097750485, 0.053613324, 0.091808215, 0.066487834, -0.01812677, 0.088282645, -0.13353269, -0.111991145, 0.057501066, 0.028199852, 0.02692147, 0.080781, -0.061918344, -0.01235776, 0.004020034, -0.14028668, 0.116807066, 0.11738802, -0.027702989, 0.091827855, 0.0022430385, 0.08116226, -0.08199924, 0.062414125, 0.0032108987, 0.03363415, 0.008588618, 0.092192896, -0.071117684, 0.071350574, 0.13261464, -0.036928263, -0.11728088, 0.099349216, 0.09510852, -0.13286668, 0.05732823, 0.05763971, -0.07947318, -0.06313526, -0.041435227, 0.06534208, -0.012032083, 0.09790732, 0.1409752, -0.09732231, -0.047213998, -0.11798252, -0.115586706, -0.053400718, -0.09882612, 0.11804949, 0.10081033, 0.13777468, 0.05847169, -0.04445815, 0.06797245, -0.13433415, -0.11239732, 0.0728906, -0.08897227, -0.11932772, 0.05563256, -0.12990624, -0.0051381732, -0.03213308, -0.039851703, -0.010416965, -0.04019316, -0.06917045, 0.07606505, -0.047181442, 0.03316276, 0.09447439, 0.08804354, 0.01950954, -0.11971277, 0.12873897, 0.009106249, 0.10351811, 0.024156097, 0.106358774, 0.07029712, 0.050738808, -0.103986375, -0.12516268, -0.08906402, 0.06267166, -0.09286925, -0.10366714, -0.096173614, -0.12579808, -0.09693224, 0.028840045, -0.10362806, -0.14075698, 0.00991127, 0.010576179, 0.06421319, 0.12657303, 0.01652239, 0.06942195, 0.09900793, -0.025926214, 0.08196903, -0.029423255, -0.13280728, 0.025019467, -0.06702209, 0.089494675, -0.036737673, -0.042018756, 0.04975685, 0.11609372, -0.13964556, 0.06562536, -0.12430779, 0.008182238, -0.0053772973, 0.111348525, -0.014080335, -0.090375036, -0.09992512, -0.06714455, 0.12139461, -0.036245197, 0.090755165, 0.12598458, 0.07166976, 0.12814376, -0.020670485, -0.14007224, -0.021783466, -0.011321251, -0.056137566, -0.120572865, -0.04822107, 0.08927212, -0.01883482, -0.1269948, 0.12935607, 0.115329914, -0.018915035, 0.04724765, 0.11476287, 0.093909636, -0.075787924, -0.13177785, -0.08133262, 0.0070123426, -0.06537179, -0.095626116, -0.0934596, -0.058850087, 0.056010265, 0.07338166, 0.12503779, 0.082211815, -0.017046023, -0.004560424, -0.017361637, -0.093658425, 0.023126617, 0.080889806, -0.0596501, 0.0023419824, 0.060056128, 0.13263738, -0.13423494, 0.07655121, 0.026420241, 0.0069725728, -0.04460831, -0.033425454, -0.13917936, 0.0005167035, 0.12650095, 0.13082628, 0.08743973, -0.10890466, -0.1378461, 0.05999884, 0.04679462, -0.12986891, -0.0014241758, 0.1262352, -0.1315572, 0.033834193, 0.069129266, -0.011621066, -0.06511919, 0.09291909, -0.07186862, -0.02990808, -0.13408667, -0.06387617, -0.13927314, -0.03405565, 0.0074886694, -0.10915579, 0.08979917, -0.00406476, -0.01724993, -0.06397194, 0.04129439, -0.123366274, 0.07534865, 0.022470374, 0.13784331, 0.050662655, -0.010895281, -0.029858043, -0.12685889, -0.025443278, 0.12070359, -0.112973146, -0.06673104, 0.085843205, -0.0069068237, -0.0063144243, 0.061684106, -0.06216473, -0.0821751, -0.046598822, -0.0600243, -0.09379372, -0.034107573, 0.13345206, 0.045722254, -0.052146442, -0.0808444, 0.13123624, -0.10675691, 0.10253557, -0.02241147, 0.002910965, 0.09494937, -0.018778412, 0.08232927, -0.09333944, -0.020371545, 0.080619745, 0.0065660914, -0.085008815, -0.13330692, -0.10810598, 0.1037293, -0.12311338, -0.12501884, -0.025560683, 0.051379, 0.049287252, 0.121510655, 0.059554897, -0.021731894, 0.104802795, 0.075879924, 0.057311658, -0.03069486, -0.10360985, -0.015370703, 0.005584407, -0.1102943, 0.114226006, -0.017300237, 0.07835838, 0.015077783, 0.1139588, 0.020366048, -0.09024174, 0.104967, -0.12048112, -0.12166334, -0.12593752, 0.13386136, -0.10175649, -0.14061315, -0.13348804, 0.05835577, -0.039290257, -0.099923186, -0.1386266, 0.09172807, -0.0814819, -0.029789528, 0.042116776, -0.031609852, -0.0890128, 0.12862748, -0.11345212, -0.052319314, 0.13544749, 0.08186296, -0.069949105, -0.08197851, 0.12030058, 0.13899264, -0.049563028, 0.048473783, 0.068872556, -0.0031837057, 0.07147211, 0.11397668, 0.03080788, 0.045311354, -0.039276466, 0.035934083, -0.09642334, -0.044527456, 0.06141732, 0.12795927, -0.014680372, 0.11540612, 0.05518985, 0.011211854, -0.09849636, 0.028937556, -0.00621752, -0.09826081, -0.086565234, -0.090224676, 0.11881482, 0.04525616, 0.053533413, 0.060131554, -0.027697815, 0.11346062, -0.04041377, -0.006724614, 0.10322819, 0.14026102, -0.020432288, 0.027185848, -0.09560035, 0.076997325, 0.044979423, -0.13784382, 0.0059408853, -0.03050633, 0.038036723, -0.03338115, -0.058823414, -0.100105815, -0.122387, 0.11434636, -0.08435112, -0.0590254, 0.109288335, 0.019554924, -0.05618575, -0.040040504, -0.1293964, 0.12741572, -0.09136306, 0.017591774, 0.07027758, 0.117237635, -0.044793688, 0.0026795112, 0.013479591, 0.12256975, -0.10540309, 0.08279425, 0.14057836, 0.0401381, 0.0027931898, 0.07898522, 0.09189, 0.07376604, 0.11743001, 0.12406693, -0.12482303, 0.015861226, 0.08867441, 0.11329434, -0.06771984, -0.11018407, 0.046175063, 0.1272738, 0.083254546, 0.037838314, 0.09517573, 0.08958308, 0.118131705, 0.015150326, 0.04915162, 0.12148059, -0.11489832, -0.12325356, 0.09137171, -0.10640323, -0.014847139, -0.10774802, 0.09074755, 0.095588386, 0.0880283, 0.10710943, 0.00054084527, -0.07214128, -0.033520468, -0.13077725, 0.13248038, 0.06331088, 0.055809155, 0.08933399, 0.01510351, 0.1322382, 0.098591685, 0.10781793, -0.12104427, 0.113550745, -0.035937455, 0.08227841, 0.050666902, -0.070029065, -0.12557681, -0.0029049465, -0.016397636, -0.087012105, 0.12563275, -0.07799608, -0.013145687, 0.10167368, 0.0041473005, 0.13767163, 0.022687279, -0.118397884, -0.04432692, 0.12867485, 0.123646215, -0.043144215, -0.119340815, -0.060819373, 0.0972782, 0.012747365, 0.008787871, -0.051238213, 0.13288686, 0.07710849, 0.1047036, -0.08202649, -0.0024815223, 0.021589808, 0.12992154, -0.0029925276, 0.13123877, 0.04943038, -0.040787227, 0.06327073, -0.10500667, 0.05175677, 0.07818478, -0.1085292, -0.029688023, -0.13968839, -0.038504653, 0.009246699, 0.101742834, -0.08030226, 0.12005281, -0.071041144, 0.093007445, 0.0514301, 0.11081661, -0.023655256, -0.11397103, -0.047743633, 0.0366725, 0.048903447, -0.024368078, -0.058089808, 0.0027820799, -0.048675667, -0.014484035, -0.084156536, 0.0069201924, -0.02885901, -0.087272085, 0.044570006, 0.01306817, 0.13517582, 0.000113796494, 0.1342652, 0.051832687, 0.017674804, -0.007975414, -0.1020791, 0.07780631, 0.10607592, -0.11346099, -0.017620485, -0.047964938, 0.0421949, 0.106507145, -0.10541672, 0.051059913, -0.1295383, 0.0488965, 0.12127492, -0.109402925, -0.12009892, -0.07389916, -0.01008537, -0.051167607, -0.058232296, -0.010808071, 0.101347156, 0.11343366, -0.10448312, 0.026852196, -0.030854275, 0.05822289, 0.11418408, -0.12077131, 0.121719345, 0.10362594, 0.06833234, 0.13983728, 0.053477895, 0.10589463, -0.121071264, 0.11156549, -0.12957923, 0.102131054, 0.10280424, 0.021695126, -0.051118042, 0.09222653, 0.07421713, -0.124306, -0.025317496, 0.020444797, -0.0972007, 0.002165421, -0.13978654, -0.12069543, 0.11592889, 0.0031848184, -0.09477444, 0.06748844, -0.108976215, -0.025209144, 0.12864366, -0.049823124, -0.13779701, 0.06514143, 0.07214455, 0.11816347, 0.060171474, -0.08805263, 0.09172536, -0.06946184, 0.02724573, -0.0033314556, 0.1365049, -0.08540336, -0.097926855, -0.10000281, 0.0985464, 0.11652941, 0.096220285, 0.14006251, 0.1265235, -0.026872883, 0.09902494, 0.06911991, -0.06221214, -0.017503789, -0.04677621, -0.0010287203, -0.050743222, -0.061452318, 0.074370004, -0.10969608, -0.05305017, 0.015522533, 0.06428551, 0.016594328, 0.03894364, 0.09871659, -0.042192843, -0.13469052, 0.0612826, -0.05354813, 0.05530628, 0.024234878, 0.0897327, 0.09925386, -0.13975544, 0.104527764, 0.08796648, -0.044196066, -0.09907865, 0.07526128, 0.08306281, -0.064367935, -0.09432553, -0.036872037, -0.036388967, -0.0434252, -0.08975399, -0.13389243, -0.08159108, 0.097133756, 0.13566448, 0.12546548, -0.016218023, 0.09155739, -0.13074496, 0.051007535, 0.08673765, 0.12539749, -0.13857904, -0.019296734, -0.001976603, -0.006878147, 0.081519395, -0.014833314, 0.103278816, -0.09923525, -0.10224686, 0.065991126, 0.06361548, 0.12231483, 0.015536998, -0.08108319, 0.0817628, -0.048243377, -0.075040564, -0.10109355, -0.07543192, -0.13835394, -0.02622409, 0.0881553, 0.05451078, 0.027007533, 0.090388134, 0.12421818, -0.032781802, 0.11816535, -0.12542604, -0.12058619, 0.013881908, -0.12610796, -0.10700507, 0.12945646, 0.017161641, -0.09259967, -0.013278382, -0.024951728, -0.054088805, 0.12779506, -0.0490164, -0.10797615, -0.12238132, 0.03433183, -0.08923551, 0.005943987, -0.11518122, -0.13666902, 0.026032256, 0.10028568, -0.034766752, 0.11071935, 0.029436743, 0.07176831, 0.049723692, 0.018274806, 0.022955552, 0.10175359, 0.096646845, 8.002844e-05, -0.13674748, -0.100921996, -0.03276026, -0.023840787, 0.06977526, 0.0466731, 0.06086767, -0.0593751, 0.0828175, -0.08572202, -0.07721603, -0.04332275, 0.077845216, -0.018167702, 0.016512277, 0.037773237, -0.06582998, 0.13816372, -0.13314734, 0.0921068, 0.021831866, 0.12943728, -0.021945326, -0.12559225, -0.056972105, 0.066977344, 0.11290093, -0.042183384, -0.02502975, 0.094133034, 0.09979304, -0.12523994, -0.0063205273, -0.09997329, 0.06850574, -0.043943148, -0.094617486, 0.088324055, 0.12393522, -0.035885412, -0.06550447, -0.13822858, 0.028350567, -0.069509044, -0.089116596, 0.051509168, 0.11803915, 0.005626318, 0.08199231, -0.08302916, -0.12548979, 0.04869836, -0.1287522, 0.0503403, -0.09718253, 0.04329852, 0.10103247, -0.037392687, -0.07549801, -0.104417324, 0.1008284, 0.054304495, 0.08654266, -0.0075824377, -0.050769, -0.11903557, 0.023669671, -0.1276472, -0.010788784, 0.12325969, -0.017924989, 0.032626115, 0.0361271, 0.061280727, 0.03509096, -0.13904716, 0.024025036, 0.07070483, -0.1198299, 0.043289486, -0.0688803, -0.13891748, 0.076965846, -0.04263225, -0.098526895, 0.057122704, -0.060582828, -0.05682933, 0.002273047, 0.059537854, 0.12041674, -0.054015335, 0.0468967, -0.059277978, 0.053262055, 0.05827151, -0.012055921, 0.059454504, -0.018382754, -0.12669225, 0.05789445, -0.0331561, -0.0441392, -0.0524863, 0.09372932, 0.052182622, 0.063979626, -0.03023482, -0.12933329, -0.07650621, 0.13813359, -0.057033066, -0.10111847, -0.10755487, -0.009473904, -0.040104583, 0.13990767, -0.009920442, 0.060149085, -0.014602805, 0.0036592402, -0.0655645, -0.1347138, 0.060687773, -0.07492395, -0.13562186, 0.030383563, 0.1260397, -0.11847697, -0.135246, -0.1381423, -0.08441745, 0.13435519, -0.11099263, -0.05107819, -0.060118232, 0.064505674, 0.023211518, -0.09510255, 0.04538968, -0.11912919, -0.092408404, 0.10091401, 0.048235755, -0.018487278, -0.004480598, -0.071164235, -0.13607873, -0.05476339, 0.05049139, -0.014578748, -0.040155478, 0.039212555, 0.08768927, 0.010462854, -0.09669939, 0.12198157, -0.027993584, 0.08635276, -0.094762824, -0.09273084, -0.113991365, 0.09887501, -0.12256291, 0.08265198, -0.04150942, -0.06594659, -0.04791205, -0.076334804, 0.0025870411, 0.11290543, -0.07799791, 0.047323342, -0.026243512, -0.12711836, -0.09215753, -0.062906414, -0.10383464, 0.07286976, 0.016502177, -0.13332707, 0.084415875, -0.06547618, -0.10275176, 0.1192037, 0.13020805, 0.11369823, -0.12195759, -0.082908854, -0.1295162, 0.019010978, -0.13538168, 0.05129808, -0.12773967, 0.010429221, 0.0085044755, -0.010832128, 0.111513145, 0.026415925, 0.05934998, -0.10971643, 0.0855108, -0.029328477, -0.045179028, 0.11961337, -0.008307701, 0.053587396, 0.029387599, -0.093401045, -0.04067205, -0.024109667, -0.09191673, 0.016077118, 0.011962794, -0.030156476, -0.07302852, -0.026819205, 0.11739506, -0.022402821, 0.09811065, 0.0049604145, -0.03345553, 0.034965955, -0.051345248, 0.12329419, -0.02568274, 0.116935186, -0.078624, -0.10073077, 0.11446603, 0.09214471, 0.09324306, -0.024099266, -0.03872874, -0.13275626, 0.07466942, -0.02804942, 0.039952785, -0.08996547, -0.08516231, -0.037249066, -0.06540736, -0.019378245, 0.13858075, -0.12807195, -0.12088239, 0.033453137, -0.10586427, -0.08451056, 0.050760757, 0.028354933, -0.022517275, -0.013055729, 0.017950075, 0.07097054, 0.013363806, -0.0740595, -0.10390524, -0.04109163, 0.06138569, -0.11659623, -0.0017760008, -0.022741396, 0.029872827, 0.030940104, -0.07073656, -0.026453521, 0.13118657, -0.123422615, 0.04153542, -0.011029241, -0.04803387, 0.046631224, -0.0010291587, 0.04388524, 0.0073085334, -0.07770539, 0.110915475, -0.03461349, 0.07140088, -0.036535673, 0.067279994, -0.08263308, 0.05808089, -0.007715976, 0.11005042, -0.06541678, 0.05731928, -0.037443228, 0.0024007184, 0.124102145, 0.055726618, -0.08822466, 0.1323656, 0.07292022, 0.07059014, 0.021350903, -0.09339946, -0.034388274, 0.11773832, -0.1205933, -0.021605099, 0.009363766, 0.041388545, 0.03711649, 0.017313167, -0.036284562, 0.101819456, -0.039565627, 0.13346094, -0.016578244, 0.12083972, -0.027042937, 0.049033932, -0.06972716, 0.09542836, -0.103289455, -0.10087727, 0.017828926, -0.05642202, -0.10213635, 0.11877834, -0.12493928, 0.043243546, -0.008089886, 0.12470437, -0.040904883, -0.055192616, -0.12529616, 0.06263742, -0.062113855, -0.08385817, -0.09173879, 0.0439665, 0.08710685, -0.04516996, -0.038751923, 0.08830399, -0.10846632, 0.06071183, 0.0056470544, 0.12887235, -0.04905347, 0.093256176, 0.13400693, -0.05044858, -0.13573587, -0.09125658, 0.0028152072, -0.07197768, -0.04064708, -0.12264459, 0.098749265, 0.13330255, 0.13553344, -0.049260985, -0.068020396, 0.016380914, 0.026377235, 0.06656759, -0.08218032, -0.022504462, 0.077708624, 0.008879128, -0.068994716, -0.03382514, -0.07739194, 0.10637452, 0.08491983, 0.06255021, -0.01626575, -0.07606485, 0.11942777, -0.00037977684, -0.12211274, 0.13937493, -0.047650285, -0.10507426, 0.038091075, 0.034969293, 0.05676397, 0.10652455, 0.120937385, -0.12756261, 0.051373705, 0.0900607, -0.061456043, -0.10464994, 0.05627633, -0.056525048, -0.029428229, 0.03459577, 0.06783281, -0.004154213, -0.10669841, -0.07253905, -0.05010689, -0.06458143, 0.09275816, 0.017088642, 0.096660465, -0.0218729, -0.045992784, -0.08636117, -0.1062415, 0.007299025, 0.008198169, 0.042674143, 0.09028779, -0.10236775, 0.13714723, -0.03992627, 0.033276606, -0.061725378, 0.11808787, 0.04993574, -0.12060247, -0.037702784, -0.0070823063, -0.11229354, 0.12355349, 0.13388571, -0.12849768, -0.13918273, -0.0741692, -0.10276029, -0.03204319, 0.12809102, 0.13027395, 0.11928761, 0.099803455, 0.11286537, 0.1070015, 0.13116966, -0.13303898, 0.12580675, -0.04555808, -0.10390058, -0.07617598, 0.06983445, 0.11914574, 0.08649193, -0.12773809, 0.122203104, 0.072303005, 0.026373189, -0.0862598, 0.1130579, 0.10252673, -0.1250361, -0.056115262, -0.13820916, 0.079993576, 0.07599979, -0.07426349, 0.13048907, 0.14105624, 0.022984987, -0.03725679, 0.08419902, 0.11293491, -0.019369664, 0.0636609, 0.13668035, 0.08706787, 0.092566215, -0.048228674, -0.058948625, -0.10117303, 0.035013597, -0.07972597, -0.06711686, 0.08330957, -0.049570598, -0.13761675, -0.0576167, -0.0026460972, 0.01040948, -0.030083057, 0.09608413, -0.13540494, 0.040710386, 0.13445842, 0.009756102, 0.07764079, -0.045476317, 0.029842887, 0.08055339, -0.11608947, -0.097502306, -0.091127746, -0.14093886, -0.0020223407, 0.051705115, 0.017964808, 0.08761407, 0.06934065, 0.07039854, -0.009324873, 0.07221588, -0.1127012, -0.091529034, -0.13576314, 0.12595099, -0.015099413, -0.0208166, -0.07179212, -0.073813535, 0.033182923, -0.056384966, -0.0574032, 0.075066455, 0.025867714, -0.09172788, -0.08525901, 0.12724608, 0.015561865, 0.04567899, -0.06487606, 0.09554632, -0.13959704, -0.109441884, -0.011688468, -0.07794751, -0.08761703, -0.00050456525, -0.00739072, -0.02512534, -0.049682472, 0.111947715, 0.07880414, -0.010913353, -0.1407756, -0.08626005, 0.042656254, 0.09467742, -0.06851247, -0.053226195, -0.12559192, 0.07895417, -0.0899626, -0.0036593582, -0.04797556, -0.03935378, -0.04834876, -0.07658573, -0.03896461, 0.07741522, -0.070673995, 0.10201677, 0.09814577, 0.10817921, -0.040440932, 0.053074196, -0.031927876, 0.12298751, -0.12733932, 0.097821005, 0.14087135, -0.09834403, -0.07578186, 0.05173044, 0.06557423, -0.008212566, -0.011910312, 0.05311115, -0.004814671, -0.021335224, -0.04624907, 0.081741825, 0.12500215, 0.046979208, 0.09526331, 0.07389085, -0.10507753, 0.114054404, 0.026026927, 0.091517754, 0.026719047, -0.06702627, -0.05746836, 0.006365388, -0.018463995, 2.9789393e-05, 0.005954541, -0.045989413, -0.062005635, -0.01455351, -0.07363456, 0.12340105, -0.10926807, 0.06746338, -0.019598741, -0.10654312, 0.05619635, 0.12379139, -0.057174142, -0.10616645, 0.10266843, 0.06439557, -0.10097665, -0.07713044, -0.116522536, -0.097564936, -0.1287189, -0.046250656, 0.032564376, -0.13949311, 0.06765912, 0.025810495, 0.01491744, 0.10566789, 0.048487592, 0.11902441, -0.09362518, -0.021357816, -0.028320037, 0.06905689, 0.08077805, -0.054921914, -0.09616898, -0.066530526, -0.09228857, -0.097073115, 0.0847721, -0.14000055, -0.09670234, -0.12551276, -0.0012252595, 0.021688364, 0.050156288, -0.11960388, 0.06434101, 0.05925043, -0.105936095, -0.025783235, 0.08886218, 0.08767372, 5.152031e-05, 0.13275397, -0.0150102135, -0.0074493885, 0.07585278, -0.0013063501, -0.0069087623, 0.1169231, 0.004392831, -0.020076163, -0.0438906, -0.0878501, -0.030637136, -0.01427239, 0.02763392, -0.03748551, 0.025658548, 0.026923357, -0.09054602, 0.00905896, 0.07656038, -0.01642773, -0.09192988, -0.023236334, 0.08593964, -0.07524531, -0.10282061, 0.08665969, 0.034653578, 0.11953641, 0.04933498, 0.13144282, 0.040951263, 0.07064697, -0.089565985, 0.10626064, 0.13133699, 0.036739916, -0.06076731, -0.12051216, 0.1267905, -0.032809436, 0.0006581821, -0.0024052365, 0.025266835, -0.10686257, -0.0065656025, 0.133986, -0.12050563, -0.020461723, -0.004198214, -0.017479276, -0.06419392, -0.007259913, 0.007085745, 0.11941658, 0.07652012, 0.0061852527, -0.01483001, 0.0747342, 0.102955855, 0.10555441, -0.049695555, 0.06454613, -0.070809945, -0.051146872, 0.09759424, -0.02213266, -0.10694843, 0.08212314, -0.103358105, -0.07319013, 0.12972231, 0.0106132, -0.07102218, 0.030283961, 0.055653248, 0.0025043322, -0.07423485, -0.13831691, -0.047862604, 0.05151483, -0.06678968, -0.046132848, -0.067521326, 0.01999767, -0.06121968, -0.13707677, -0.044775296, 0.017796002, 0.12374467, 0.09166935, -0.095425025, -0.12620649, 0.12368838, -0.10805331, -0.135697, 0.07616563, -0.022411082, -0.093541004, 0.039513938, -0.09523504, -0.00042475597, -0.026935749, -0.11520966, -0.02718251, 0.024449203, -0.04106329, 0.020632215, -0.032914195, -0.056254867, 0.11807612, -0.13500766, -0.03529846, 0.088752806, 0.04263488, 0.12726036, 0.08874437, 0.121276334, -0.0035661124, 0.11188212, -0.13886268, -0.05790839, 0.06203718, 0.07790001, -0.0154294735, -0.09934709, -0.11851345, -0.0641808, -0.011661629, -0.04143388, -0.10360235, -0.08387446, 0.051551785, 0.028797021, 0.071480416, -0.07824937, -0.11363025, -0.0076762903, 0.0039235684, 0.11714977, 0.10919563, -0.10031513, -0.06903888, -0.09706214, 0.033706825, 0.026522862, -0.115923785, -0.13624954, 0.13969167, -0.07139152, -0.115222745, -0.063218944, -0.119401254, 0.06831738, 0.0031185467, -0.08221136, -0.13412945, 0.057520993, -0.021384148, -0.11121922, -0.019356042, -0.07389231, 0.07380299, -0.091048375, 0.065364525, -0.12806828, -0.077956975, -0.13599594, -0.042062845, 0.02485206, 0.09736115, 0.0178207, 0.037412982, 0.031229468, -0.06124364, 0.12735315, 0.11525294, -0.10487632, -0.07564783, 0.0025485526, -0.049476456, 0.12804826, 0.03349235, -0.0943362, -0.055389356, 0.09132948, 0.103079274, -0.008961365, 0.007116698, 0.107045636, -0.02358231, -0.06914669, 0.1025607, 0.04117341, -0.06272748, -0.04344484, -0.11126401, -0.061274946, 0.10628724, -0.048143234, -0.084784456, -0.12621832, -0.023208635, 0.12673154, -0.052944858, 0.13466442, 0.05174313, 0.0861294, 0.058712233, -0.11475282, -0.13579763, -0.1398233, 0.08389675, -0.08746402, -0.13461672, 0.13465239, 0.09436199, -0.08584078, 0.11701255, -0.11001102, -0.122285746, 0.13019693, 0.03665102, -0.017638559, -0.020698942, -0.13239983, -0.03209877, 0.13485655, -0.007461611, -0.14070559, -0.014790695, -0.10772988, 0.13756724, 0.05587944, -0.1389086, 0.047163557, 0.119402535, -0.12587509, 0.10039876, -0.044634156, 0.09964928, 0.03911027, 0.10934542, -0.14024556, -0.03299156, 0.018732859, 0.13066933, -0.0051247873, 0.06848374, -0.13678312, 0.022333937, 0.122479744, -0.09616859, 0.028518194, -0.07673849, -0.12946886, 0.06997658, -0.028640943, -0.12923571, -0.035313178, 0.0011395497, 0.06261594, 0.07782096, -0.013368256, -0.023332244, 0.0483917, 0.00016582257, 0.12843814, 0.12595886, 0.023636999, 0.10626241, -0.13590433, -0.05110415, 0.12143924, -0.12033866, 0.07995136, -0.08624105, 0.004202614, 0.083602056, 0.04229777, 0.05195326, -0.014458291, -0.076380074, -0.052953623, 0.059357215, 0.11365647, 0.078439035, 0.05752602, 0.017555833, -0.017766077, 0.051497094, -0.037270762, -0.11974173, 0.1386202, -0.027128208, -0.12281026, 0.096047916, 0.032283645, -0.10106501, -0.064720385, -0.08778157, -0.01887368, 0.0948221, -0.06178015, -0.010985526, -0.1289284, -0.041539058, 0.088404775, -0.0789763, 0.03250387, 0.040326983, -0.0463436, -0.09746021, 0.12508364, 0.074988775, -0.051632926, -0.09752021, 0.08652426, 0.09373562, 0.04282553, 0.07272321, 0.06126724, -0.07088989, -0.13844217, -0.06776638, 0.05818936, 0.044694595, 0.035830438, 0.057912555, 0.035425052, 0.13141179, 0.09241102, -0.042213965, 0.07993706, 0.1323052, -0.08479375, -0.06439681, 0.12706725, 0.06513233, 0.06597481, 0.038963027, 0.019819606, -0.052747726, 0.004028143, 0.06110973, 0.07015901, 0.043500606, 0.09558653, -0.040365588, 0.07292449, 0.04645849, -0.044704895, 0.0453357, -0.062699914, 0.027870785, -0.013187969, 0.031370237, 0.13550274, 0.13402912, -0.095347114, -0.12637278, -0.024562746, -0.088149786, -0.12728745, 0.13499717, 0.05874278, 0.11004234, -0.051566437, 0.050441757, -0.03649759, 0.13477021, -0.09886766, 0.04504367, -0.041373067, -0.04512901, 0.12941633, 0.12546106, -0.08041675, -0.07545072, -0.036035743, -0.058426343, -0.07391944, -0.06719392, 0.026963836, 0.09596307, -0.0363086, -0.11799631, -0.023621658, 0.016391702, -0.12328702, 0.011953757, 0.09391001, -0.040681876, 0.034758408, -0.0066274237, -0.11440264, 0.010901367, 0.028643169, -0.11756795, 0.009962959, -0.025343407, 0.077514805, 0.088858865, -0.049793366, -0.01327351, -0.11399721, -0.101284094, -0.020678679, -0.07712488, 0.06424881, -0.09037621, -0.0999044, 0.051490586, 0.13120905, 0.054280963, -0.009576287, -0.11124961, -0.016120227, 0.12601371, 0.06410111, 0.08035641, -0.07142571, -0.06597046, -0.13048252, 0.04941988, 0.06601638, -0.013145906, 0.08222068, 0.0031757315, 0.108691774, 0.025634103, 0.0070995865, -0.084070966, 0.019614572, -0.0972562, -0.101828694, -0.08111099, 0.005060235, 0.1156702, -0.05166759, 0.10253813, -0.10727211, -0.11792611, 0.08950155, 0.010595735, 0.07039615, 0.0070642335, 0.036509626, 0.069251135, -0.00901747, -0.040512633, 0.08214111, 0.077501096, 0.07118763, 0.0947737, -0.050896063, -0.13827692, 0.031133322, -0.09575238, -0.12743321, -0.10223487, 0.046591558, -0.12772655, 0.13132507, 0.03649801, -0.009571229, 0.041244805, 0.08628826, -0.003520358, 0.112538815, -0.105504625, 0.046086065, 0.0044310503, 0.07085128, -0.10249561, 0.06314738, 0.066006556, -0.044817057, -0.0798273, 0.029737605, -0.0014376459, 0.027424248, 0.13047835, 0.05749225, 0.02706669, -0.09706548, -0.12966675, 0.085380584, 0.015409563, -0.04101261, -0.12839554, -0.06005734, 0.014039386, 0.0078259455, -0.074721895, -0.07983199, 0.09373881, 0.07402563, 0.0018083022, -0.119329, 0.06250427, 0.07339019, -0.0037626517, -0.0441509, -0.08420963, -0.10865421, -0.006339072, 0.10093007, -0.0114200935, 0.052364074, 0.015491968, -0.117378406, 0.06968636, -0.11026183, -0.1192339, 0.09746884, -0.002502916, -0.047129653, -0.12292621, -0.03412489, 0.001473319, -0.13928755, -0.09742563, -0.05962771, -0.0609299, -0.023435807, -0.087307535, 0.0019101964, 0.12891951, -0.09497449, -0.03123783, 0.011676094, -0.07877909, -0.00020316467, 0.065937586, -0.13705814, 0.10747194, -0.0855915, -0.00448397, -0.019669294, -0.10310015, 0.026066646, 0.00990279, 0.06510501, 0.035431914, 0.12411243, -0.08517919, -0.09994711, 0.092023335, 0.04099314, 0.041777056, 0.09243551, 0.09476441, -0.113446325, -0.1089516, -0.026523216, 0.067288354, 0.025360703, 0.05086061, 0.12354493, 0.016560527, 0.0063953293, -0.056064483, 0.013584486, 0.12806424, 0.13756357, -0.13144782, 0.050551977, 0.023690779, 0.13430817, -0.10175831, 0.124898784, -0.07211872, -0.119581304, -0.049842663, 0.016011655, 0.019143876, 0.12832712, 0.113935985, -0.009413111, 0.122470334, 0.039288063, 0.034655787, -0.02416692, -0.13607015, -0.023686867, -0.106941886, -0.024878813, -0.114390954, 0.057216205, 0.10922058, -0.01485899, 0.05821667, -0.010489677, -0.004640823, -0.10326975, 0.04399435, -0.016373832, 0.06471873, 0.050183833, 0.09445807, 0.035378672, -0.035598546, -0.07082188, 0.07643695, 0.017429274, 0.03758833, -0.019312648, -0.08689801, -0.0015685541, 0.08980609, -0.09453946, 0.13634072, 0.13795136, 0.044330057, 0.095787026, -0.038756996, -0.12459654, -0.13342275, -0.03515949, -0.10596352, 0.06389586, 0.092860185, -0.12873045, 0.042300634, -0.026013255, -0.08494823, -0.07136881, 0.062516086, -0.11768883, -0.024566421, -0.025333477, 0.021256663, 0.10359124, 0.047020208, 0.041935477, -0.07921802, 0.05246755, 0.077299684, -0.13323936, 0.13830335, -0.07633392, 0.11176898, -0.039927416, 0.041418992, -0.13768257, -0.03763938, -0.036459334, 0.13021503, 0.014916277, -0.06582182, 0.079945154, 0.08301291, 0.0050806343, -0.025268892, -0.09571142, 0.09796285, 0.09617431, 0.05453064, 0.076363295, 0.076377526, -0.023862299, 0.11427129, -0.06491301, 0.14004335, 0.085583225, 0.1001954, 0.0018578164, 0.11550107, -0.12458693, 0.01742978, 0.070789374, -0.054563314, 0.016713638, 0.11163883, 0.11834524, 0.0025344419, -0.1137905, 0.11384449, 0.11260486, 0.11475227, -0.08457735, -0.07011408, -0.12055548, -0.05985465, -0.13681923, 0.13304064, 0.11748033, -0.114538334, 0.02922589, 0.12379661, -0.015507108, -0.015100846, -0.052026276, -0.02936833, -0.019946773, 0.11198427, 0.053582657, 0.0049985154, -0.01962853, 0.12161785, -0.10219834, -0.06884867, 0.1141393, -0.042247664, 0.045082834, 0.020761538, -0.05288757, -0.008792946, 0.035559215, -0.007278542, 0.0037379535, 0.016089898, -0.016743798, 0.087854706, -0.03702336, -0.121024325, -0.033011016, -0.028579291, 0.09197967, 0.013129823, 0.052919604, 0.123227105, -0.047172304, 0.05468286, -0.13809931, -0.09356216, -0.06875229, 0.098162524, 0.01169651, 0.023500476, -0.13592389, 0.024905905, 0.07332122, -0.13619101, -0.12941179, 0.0018957317, 0.07726652, 0.09335955, -0.10299365, 0.032618746, 0.061839543, 0.11896662, -0.02431929, -0.049770996, -0.0366726, 0.011853296, -0.045138568, 0.09238045, 0.13696417, 0.1199187, -0.118672445, -0.040513456, 0.011254642, 0.042252284, 0.06372118, 0.056904823, 0.10819685, 0.111731976, 0.09755495, 0.113689445, -0.020575115, 0.034427367, 0.067818984, -0.07016658, 0.13256754, 0.076519124, 0.06322454, -0.10221496, -0.1300629, -0.011419234, 0.019355318, 0.09295626, -0.11054706, -0.053425398, -0.093281046, -0.015342296, -0.06657365, 0.12065747, -0.082597494, -0.13018265, -0.060699455, -0.02942356, 0.140415, 0.094791606, -0.022705419, -0.12241664, -0.09837276, -0.034969732, -0.089039266, 0.06437756, -0.051991392, 0.08411834, 0.077322796, -0.029036146, 0.10762738, 0.1389744, -0.09826528, -0.111613326, -0.050794236, -0.08109995, 0.08135335, -0.11409282, 0.11270562, 0.07880898, 0.057022564, 0.09281721, -0.02982033, -0.028490918, -0.12206788, -0.0069331736, -0.012794874, -0.038273368, 0.051675275, -0.09071085, 0.009223653, -0.10515343, 0.062100787, -0.11681055, -0.137091, 0.07928025, 0.13217382, -0.10888435, -0.04740172, 0.13162975, 0.0526109, 0.1150197, -0.054160777, -0.022365412, -0.008236608, -0.008988457, 0.121162295, -0.104938276, -0.054092247, -0.10672277, 0.13090448, -0.021180596, -0.07343411, 0.07064952, -0.057471547, 0.10242437, -0.10557557, 0.03208827, -0.06041638, -0.13301885, 0.065053985, 0.12890346, 0.07708703, 0.14037655, -0.029341001, 0.08595732, -0.009740879, 0.09554927, -0.08129741, 0.06126166, -0.06798815, 0.073671326, 0.116463095, -0.04093223, 0.12003745, 0.037389062, -0.053495836, -0.07020974, 0.082419984, 0.09214416, 0.11653312, 0.06870408, -0.075212, -0.12525879, -0.11676122, -0.105334744, 0.08513366, -0.10776294, 0.0036225219, 0.013098078, 0.048072074, -0.09370519, 0.05862025, -0.08826897, -0.020192893, -0.010593004, -0.09782083, -0.07245379, 0.07712425, 0.13280107, 0.10749052, -0.07243855, -0.018354027, 0.06292525, -0.09019333, 0.10216606, -0.090190955, -0.05282017, -0.12241268, -5.393111e-05, -0.05492092, 0.06523552, 0.097095385, 0.11799945, 0.023708936, 0.07733605, -0.101875745, 0.028507894, -0.112868235, 0.08682762, -0.10061564, 0.0756493, 0.07026669, -0.09592431, -0.046127923, -0.04732395, -0.05220395, 0.10441061, -0.10642884, -0.0729068, -0.046267565, -0.11339629, -0.034158234, 0.12288225, 0.11669762, -0.072845146, 0.01872819, 0.043552633, 0.0771397, -0.05824614, -0.11819061, -0.040580183, 0.048091173, -0.114147566, -0.071901344, 0.122136176, -0.07623841, 0.013752753, 0.13893856, 0.13206472, 0.0106497845, -0.059758082, -0.0742872, -0.083081335, 0.07456744, 0.13978596, 0.062320862, -0.073665425, 0.12696652, 0.029819958, -0.016138045, -0.08213543, -0.13429852, 0.10071646, 0.068330325, 0.04148759, -0.032483656, -0.14131571, -0.035706542, -0.021279978, -0.01462435, -0.12856618, -0.100852475, 0.119807765, 0.027615039, 0.07478303, 0.033968523, 0.025731208, -0.073136605, 0.045162052, -0.14078422, 0.06610821, -0.114335164, -0.08857808, 0.042900655, 0.1367755, 0.13438368, 0.13517594, -0.010135508, 0.051301923, -0.11452822, 0.010581136, -0.13130146, -0.11976282, 0.033265464, -0.07915944, 0.074473925, 0.008706865, 0.10573382, 0.113965824, 0.043206405, -0.07632802, -0.031201852, 0.10326464, 0.07306638, 0.021007255, -0.05004512, 0.12432212, 0.008632282, 0.0035614595, 0.03757665, 0.05575145, -0.05558524, -0.066521436, -0.13828664, 0.13534035, -0.022468098, 0.073695675, 0.11639036, -0.1116878, 0.05853346, -0.012460969, -0.0024230394, -0.11918234, -0.10694429, 0.024705017, 0.13199231, 0.11904508, 0.0922489, -0.0058709215, -0.08981674, 0.06444046, 0.10056149, -0.018373279, -0.12824003, -0.0881472, 0.050272763, 0.055965487, 0.049645603, -0.010091592, 0.118265934, -0.009631651, -0.047361746, -0.002733611, 0.07328567, -0.0024612918, -0.07726017, -0.0817746, -0.05959037, -0.0072959065, -0.048243746, 0.044529513, -0.09718789, -0.032200918, -0.10361335, -0.0019006375, 0.088444084, -0.11037168, -0.026821733, 0.000752237, 0.05615314, 0.1153928, -0.108809985, 0.055385344, -0.10836596, -0.01836367, 0.060700603, -0.13926469, -0.032405853, 0.08826211, -0.033310864, 0.122368306, -0.1317932, 0.012112701, 0.12479696, -0.024970526, -0.097204834, 0.13059136, -0.12779209, 0.04870185, -0.014287613, 0.10889876, -0.014557067, 0.10163046, -0.0199654, 0.010230321, 0.059147272, -0.13418223, -0.11940378, 0.072849855, -0.016966248, -0.013880526, -0.10068169, 0.10808858, -0.035837755, 0.030865487, 0.097730875, 0.1071982, -0.10526889, 0.0830294, 0.11756759, 0.0657562, -0.102429725, 0.11716315, -0.026884431, -0.07845741, -0.10784076, 0.13397582, -0.13789828, 0.062381063, -0.08248165, -0.050196614, 0.04956461, -0.056983504, -0.13581055, 0.06946516, 0.082910545, 0.05798419, -0.026166433, -0.12651391, 0.116176866, 0.13860446, -0.09661061, -0.043094784, 0.0027970504, -0.12331519, 0.13188936, 0.08836593, 0.14032486, -0.06726413, 0.11288727, -0.13796353, -0.1015309, -0.10836866, 0.086946726, -0.0835451, -0.05325293, -0.05165882, -0.11879247, -0.031941395, -0.13176993, -0.12962025, 0.0011255401, -0.1071158, 0.09606643, 0.071363926, 0.10099761, 0.04775405, 0.103059806, 0.12905093, -0.094610035, 0.045297615, 0.09066027, -0.07203393, -0.11328114, 