// *****************************************************************************
// 	THIS CODE WAS AUTOMATICALLY GENERATED ON 2024-02-06 21:40:41
// *****************************************************************************

#include "dummy.h"

static float32_t tensor_W_irweight[4900] = {0.024902752, -0.07485558, -0.0021184704, -0.10793276, -0.059738576, 0.059354916, -0.06925561, -0.061400976, -0.08384931, -0.064315565, -0.11633157, 0.06105705, 0.09605176, 0.03942364, 0.073789805, 0.0041083363, 0.07468651, -0.00019880563, -0.044327587, -0.08648793, -0.026008943, 0.09510629, 0.079119965, -0.022050314, -0.012913775, -0.0954932, -0.10643006, 0.048018493, -0.020225726, 0.07637937, -0.015758306, -0.053577952, -0.06438796, 0.08426988, -0.1027009, 0.04348101, -0.00053999387, 0.09089653, -0.02643109, 0.034611057, 0.076981574, 0.012680017, -0.010995121, 0.02914468, 0.11598584, -0.08676083, -0.096215315, 0.004271051, -0.08604861, 0.082703725, 0.01532251, -0.03205595, 0.05281785, -0.06804392, -0.023075217, 0.0798939, 0.053118847, 0.027934792, 0.084064774, 0.010951992, -0.07533178, -0.035962205, -0.10259523, 0.007089181, 0.014304188, 0.055913024, -0.110141784, 0.057646923, -0.03515798, 0.08322303, 0.068532534, -0.041679766, 0.06892171, 0.0024821851, -0.10253517, -0.07028563, -0.032233384, -0.034687415, -0.052183278, 0.11061958, -0.029371925, 0.057132673, -0.10500845, 0.091256015, 0.085485384, -0.002545547, 0.010630366, 0.008298429, -0.092538156, 0.08286821, -0.0046272995, 0.013009978, 0.11379037, -0.10217333, -0.046200715, -0.0025898162, 0.012758668, 0.10191487, 0.075598955, 0.0671438, 0.116670705, 0.014416578, 0.02933659, 0.02073721, -0.028071431, 0.105714954, -0.0637433, 0.08491528, 0.047392253, 0.01031038, -0.11708297, -0.08314326, 0.079879925, 0.025297742, -0.07596465, 0.09066445, -0.035383683, -0.04053315, 0.041998427, -0.08263023, -0.09317786, 0.09048326, -0.028477464, -0.06865055, -0.00205726, -0.035383955, -0.04394891, 0.08855978, -0.099405736, -0.11888585, -0.023842612, -0.05257022, -0.020279756, 0.09410294, 0.1032922, 0.10777213, -0.036707688, -0.015125343, -0.09766921, -0.03289587, -0.061609827, -0.045940913, -0.066334516, -0.053794425, 0.10211464, 0.024428956, 0.10834898, 0.101436265, 0.01175706, 0.09252933, -0.036839824, 0.0850275, 0.08389561, 0.115898296, -0.025879769, 0.056323502, 0.07800014, 0.080700696, 0.09523124, 0.043781124, -0.08868627, -0.04346729, -0.044225484, 0.0017003274, 0.0065558697, -0.07530353, -0.11874088, -0.11101903, 0.10249299, -0.10864566, -0.021293774, 0.064853534, -0.04041069, 0.045268655, -0.019304408, -0.03452296, -0.10184902, -0.053329833, 0.11211928, -0.066914044, -0.07971846, 0.05420278, -0.10881922, -0.059904084, 0.089080624, 0.06798255, 0.06172558, -0.046242137, 0.00039191198, -0.10354124, -0.11480966, 0.08946132, -0.018633815, 0.04860995, 0.06186806, -0.10253435, 0.0055535776, 0.05147739, -0.004348918, 0.04454701, -0.016163412, 0.10627091, 0.017547272, -0.072877415, 0.013049275, -0.070738226, -0.0400917, -0.06348736, 0.06752753, -0.10220171, 0.026823258, -0.09809739, 0.046132695, 0.0108543625, 0.0564377, -0.09045893, -0.09304406, -0.025082707, -0.050136633, -0.021978758, 0.02704781, 0.07758586, 0.0007174699, 0.0068939803, -0.11224351, 0.023849523, -0.03267488, 0.041286357, -0.0736768, -0.027597906, 0.096797496, -0.11813316, 0.065765694, -0.104241945, 0.049615335, -0.11042706, -0.10428745, -0.108060226, -0.042750776, 0.00940868, -0.025747359, -0.018215913, 0.0053753178, 0.0118719, 0.001508361, -0.0036637913, 0.1065297, 0.033151284, -0.09128247, 0.08943773, -0.09117179, -0.10882137, 0.06815814, -0.06022806, 0.11929189, 0.11184664, 0.07154972, -0.020550886, -0.012037978, 0.09966511, 0.016579546, 0.032438073, -0.022570815, 0.09401068, 0.04623122, 0.03395939, -0.038006812, 0.042954255, -0.035999306, -0.03302439, 0.020048292, 0.055656858, 0.055928484, 0.10032962, 0.048560906, 0.0641083, -0.103049524, -0.11246833, -0.050422598, -0.029773783, 0.054586984, 0.10185528, 0.050928935, -0.04087883, 0.08810581, -0.069903694, 0.083077796, -0.10601266, -0.05882618, -0.026445381, 0.08418, -0.03374864, -0.107320584, -0.026437957, -0.01146101, 0.0543478, 0.04170584, -0.03683873, -0.0683265, -0.035153117, 0.08162801, 0.06851225, 0.016814329, -0.016442422, 0.035106, 0.014492692, -0.03088949, 0.052627183, -0.0939943, 0.046992347, -0.10460115, -0.061207686, -0.04925313, 0.0030339765, 0.020354431, -0.048035573, 0.06320754, 0.060652774, -0.04369911, -0.098898895, -0.02204856, 0.09965431, -0.018732626, 0.044176854, -0.10746219, 0.012015067, 0.07483823, -0.09201784, -0.010887917, -0.037177566, -0.07533344, -0.10604195, -0.042675205, -0.06867185, 0.010018832, 0.028852904, 0.095928796, -0.036579452, -0.10828487, 0.026379127, -0.028750176, 0.07575815, -0.021018883, 0.08240257, -0.007667232, 0.009745409, 0.0008751266, 0.059657104, -0.019107312, -0.05032967, -0.09000341, 0.08144721, 0.011480801, -0.016770957, -0.019468775, -0.089800104, -0.0173797, -0.020218644, -0.057529386, 0.02748127, -0.09623659, 0.008946068, -0.09153988, -0.0818989, -0.024962937, 0.0521584, 0.06373823, 0.065176375, -0.054647997, 0.019575965, 0.00465212, -0.036580108, -0.010450924, -0.06972638, 0.08546499, -0.11193895, 0.09305774, -0.01165916, -0.06103495, -0.06468438, -0.08163404, -0.04445984, -0.0036775123, -0.0025077893, 0.07831926, 0.046305567, 0.0376298, -0.11479731, -0.10434312, 0.064738154, 0.034416027, -0.009985976, -0.076142624, 0.028164644, 0.0036257913, -0.11538185, 0.06623328, 0.07725671, -0.06947462, 0.0832022, 0.07954532, -0.10641051, 0.0811814, 0.020222591, -0.04940067, -0.0029971732, 0.06430609, 0.018357184, -0.101446554, 0.10330759, -0.10094892, -0.05389673, -0.010244368, 0.038920466, -0.06684174, 0.07240997, 0.1001238, -0.0933206, -0.09796126, 0.07886682, -0.11825467, -0.078956984, -0.09911217, 0.08825279, 0.06750039, -0.09315464, 0.07836883, -0.10402818, 0.11876755, -0.008116835, 0.00063034194, 0.10050739, -0.0392502, 0.045471776, -0.07987917, -0.11534546, -0.09088009, -0.021101493, -0.08652704, -0.09768694, -0.112680234, 0.112553254, 0.052730825, 3.690293e-05, 0.118905924, 0.084584735, -0.0018498626, 0.0656123, 0.09588531, 0.09086355, 0.0015928672, 0.095134825, 0.05672905, -0.04388492, 0.022614572, 0.112229705, 0.0112919975, 0.059215568, 0.026408976, -0.09799279, -0.014433349, -0.02859675, 0.08313797, 0.05806763, -0.05760419, 0.025125965, 0.06817419, 0.037296653, 0.02445446, -0.0026789675, -0.09575178, -0.0985608, -0.116157584, -0.09430645, -0.060542434, 0.10212239, -0.009273536, -0.11252085, 0.08032441, 0.10907616, 0.05139689, 0.0715674, -0.01116278, -0.07513682, -0.023408169, -0.08159111, 0.08344763, -0.013210194, 0.107912414, -0.03921415, -0.10289034, 0.031414095, 0.04028881, 0.03993363, -0.03499726, -0.101914234, 0.05637709, -0.05705122, 0.0865306, 0.08872731, 0.0125641655, -0.10432166, 0.049913134, 0.0038487476, 0.044763196, 0.039993785, 0.085215345, -0.10771468, -0.07225458, 0.08230284, -0.0832954, -0.053168744, -0.0658399, -0.093816355, 0.06342052, 0.09000191, 0.013838428, 0.0861985, -0.0872831, 0.003976953, 0.11044644, -0.026985502, -0.087666884, 0.07854592, 0.09214542, 0.08998045, -0.07971627, 0.058057543, 0.01423839, 5.1949068e-05, -0.009908978, -0.018693471, 0.026247658, 0.0924132, -0.007375172, -0.052443024, 0.09870701, -0.11599134, 0.08218045, -0.01969867, -0.015502664, 0.040660247, -0.06552149, 0.02406272, -0.08185895, -0.10818392, -0.03165069, -0.098270975, -0.10150044, 0.023949873, 0.046669524, 0.06405645, -0.059777174, 0.116677515, 0.06876083, -0.10446814, 0.06366055, 0.067706235, -0.028118936, -0.05380111, 0.09114223, -0.06008844, 0.10580177, -0.0063250056, 0.09889994, 0.11842713, 0.060095552, -0.037156634, 0.10274976, 0.06524126, 0.052060187, -0.055806234, 0.033608682, 0.11778603, -0.1104034, 0.04255402, 0.101035506, -0.06442045, -0.045443635, 0.011510053, -0.044731952, 0.112919204, -0.013514152, 0.10424176, -0.007717457, 0.033904288, 0.07839172, -0.09878551, 0.04222795, -0.06887473, -0.01879214, -0.102217965, 0.105888255, 0.08029861, -0.002755851, 0.08510293, 0.09463318, -0.115617365, 0.09272087, -0.10684247, 0.08347627, -0.011381433, -0.034753855, -0.018673368, 0.064910844, 0.09815577, -0.11413897, 0.102916, 0.051015794, -0.009994111, -0.011994777, 0.077335775, 0.099309616, -0.059750903, -0.08519647, 0.10585321, 0.03458275, 0.049391367, -0.012279856, -0.00853465, 0.06729033, 0.10515442, 0.0067414385, 0.02315475, 0.08247105, 0.09838102, -0.102039136, 0.09701265, -0.07303336, -0.07372704, -0.10797336, -0.026968077, 0.053138096, 0.036655094, -0.042728562, 0.098315135, 0.009000154, -0.11541783, 0.003208731, -0.04004917, -0.10853374, -0.006844781, -0.01878563, 0.10885287, 0.09469366, -0.064176105, -0.04824263, -0.011701107, 0.06010309, -0.085281804, -0.081751615, -0.042459983, -0.0069442196, 0.051858634, -0.030496411, 0.07437822, -0.058932584, 0.08086355, 0.076273836, -0.08405805, 0.034962878, 0.04001959, 0.014290424, -0.058040887, -0.009199274, 0.0135684945, 0.07757843, -0.107281476, -0.08260852, -0.008984297, 0.108429454, 0.060356636, -0.018573757, 0.026090357, 0.013571686, -0.061142184, 0.10700127, 0.09972599, -0.10382543, -0.07982558, 0.043422837, 0.017754426, 0.0838698, 0.101281345, 0.060633436, -0.02474293, 0.08027973, -0.087420136, 0.0028175458, -0.0035515865, 0.107876286, 0.025091058, 0.010609792, 0.068967484, 0.06879598, 0.083453484, -0.03347375, 0.06410555, 0.019419875, 0.11016556, -0.07886608, 0.02361125, -0.03642037, 0.1111332, -0.035859946, 0.01459954, 0.04403239, -0.11852932, -0.045286693, -0.100550726, -0.0070348666, -0.039009202, -0.09860072, 0.04243948, -0.08401328, -0.06591181, -0.06400018, 0.032508533, 0.097960055, 0.045250528, -0.004574809, -0.034666684, -0.028062455, -0.115295, 0.0016778294, 0.026139485, 0.074855424, -0.0008190028, -0.035818197, 0.08253762, -0.099163346, -0.022023555, -0.11254876, -0.099121414, -0.00803733, 0.047058817, -0.031891126, 0.005097078, 0.012391334, 0.032421704, 0.04743484, -0.066167966, -0.049408622, 0.07867599, -0.08636481, 0.08843984, -0.07792913, 0.044096764, -0.092712425, -0.10972638, 0.03322385, 0.033237115, -0.011939024, 0.06689958, 0.047211003, 0.024190897, -0.0046040323, 0.113594055, 0.01689392, 0.020388683, -0.060760815, -0.022193836, -0.10344124, 0.001934198, -0.007458082, -0.0062358687, 0.10160566, -0.08210986, 0.0023594936, 0.020071175, 0.03548288, -0.03466781, -0.11058138, -0.09751723, 0.0043930304, -0.11021929, 0.013528072, -0.05946672, 0.09704167, -0.057887845, -0.0935993, -0.02478217, -0.06576257, 0.02470218, -0.103122674, 0.06591082, 0.015967712, -0.04216207, 0.034333687, 0.031072097, -0.009752546, -0.035384566, 0.096926525, 0.08478732, -0.0906441, -0.08649428, -0.08040288, 0.10232919, -0.06519122, 0.10736845, 0.09488714, 0.060265776, -0.049053054, -0.08992273, -0.054000642, -0.0063306335, -0.04894447, 0.048437774, 0.11123226, -0.10608095, 0.02367618, 0.110337265, 0.018480817, -0.049345672, -0.09513287, 0.049553454, -0.06930468, -0.09910977, -0.09383633, 0.04236016, 0.036427867, -0.05165638, 0.09129309, -0.09716129, 0.024089549, 0.046269536, 0.08046741, -0.034227982, 0.030349297, -0.099110216, 0.09604358, -0.017023165, 0.016590403, 0.11777773, 0.112294346, 0.024701267, 0.092959106, 0.01736062, -0.054312363, -0.10754534, -0.023711544, 0.0979027, -0.080843516, 0.06975141, 0.07068923, -0.032730717, -0.07973676, 0.027367812, -0.07547396, 0.034014855, 0.089736484, 0.019080354, 0.11201888, -0.027064124, 0.014700987, -0.0034910885, 0.10223995, -0.05001886, -0.11820924, 0.030540423, 0.035384197, -0.10896011, -0.02136265, -0.0930807, -0.05839614, 0.012312741, -0.118459076, 0.022399636, 0.02507376, 0.09986392, 0.11061793, -0.026822489, -0.118524946, 0.076945946, -0.042008344, 0.090873994, 0.011405185, -0.10130483, 0.10626974, -0.06940619, -0.11002721, 0.11849528, -0.005923319, -0.087584876, -0.047164194, -0.0645319, -0.102758974, -0.09632954, -0.06841276, -0.099615425, 0.030521872, -0.061114985, -0.040535517, 0.030763779, -0.088547885, 0.029438779, 0.014900277, 0.01911502, 0.036505945, 0.05356328, 0.012111954, 0.028790312, 0.034294575, -0.04465427, -0.035556786, -0.079777494, 0.06702169, -0.044551156, -0.05386263, -0.11917375, 0.09078793, 0.06887218, -0.061410636, -0.026927484, 0.087456584, -0.0696591, -0.10254267, 0.032573987, 0.032241408, -0.103409536, 0.08910945, -0.053659353, -0.07359608, 0.11220325, -0.029698737, 0.02532832, 0.08284809, 0.08920426, 0.052267414, 0.0029187226, -0.026003543, -0.09911412, -0.051158745, 0.0050991015, -0.032369897, 0.0067528086, -0.029577184, 0.11141081, 0.007245698, 0.032224778, 0.0038771017, 0.03938299, 0.07202066, -0.028353205, 0.06463936, 0.06657924, -0.037659567, 0.028132899, 0.046008434, -0.10142592, 0.11118226, 0.028837346, -0.05567746, -0.07561313, 0.10420239, 0.008408553, -0.100223, -0.051237553, 0.08745936, 0.049479518, 0.003939965, -0.062364243, -0.08637392, 0.020057669, -0.051888995, 0.08028601, 0.009520172, -0.03534799, 0.015830971, -0.09182679, -0.08057222, -0.11354122, -0.08176128, -0.03495045, -0.006768425, 0.06474273, -0.016298912, -0.037674356, 0.0031865323, 0.021385062, -0.11727013, -0.00094387436, -0.09470784, 0.11098811, 0.07951242, 0.06566211, -0.053594153, -0.008249814, -0.07256464, -0.043301415, 0.042005394, 0.003075325, -0.020192798, -0.07763959, -0.038152516, 0.11647136, 0.0809207, -0.057974316, -0.029896203, 0.06326007, 0.05150999, 0.040195197, -0.08705642, 0.016445057, 0.06213842, -0.09091577, 0.00034973718, -0.037844826, -0.107895985, -0.047231577, -0.008143351, 0.030495884, -0.032770913, 0.019371744, 0.058023516, -0.04171429, 0.09524662, -0.08574511, -0.059516262, -0.06388007, -0.0068207015, 0.055441935, 0.11089352, -0.10314608, -0.032155033, -0.062206443, 0.032986987, 0.022663942, -0.0099321455, 0.066194065, 0.030233402, 0.026047, 0.06321036, -0.005416794, 0.04540763, 0.09573767, 0.108477004, 0.048609067, -0.08775809, -0.017566465, 0.09979664, -0.006674258, 0.012404642, 0.07138409, -0.050090343, -0.013317897, 0.013732179, -0.107446514, -0.0028651063, -0.11848217, -0.0888903, -0.104890876, -0.0075327856, -0.099404156, 0.06055004, -0.042415787, -0.027732024, 0.10327422, 0.05949529, 0.06647768, 0.08642494, -0.068082914, 0.09910447, 0.087048896, 0.012048963, -0.06978847, -0.07628839, 0.11342331, -0.11099023, -0.012405198, 0.11323825, 0.10933151, -0.018335855, 0.025851272, 0.020537078, 0.10363578, -0.054772284, -0.021331945, -0.075292364, -0.08454215, -0.054054685, 0.10349898, -0.033302456, -0.031992003, 0.028932894, 0.087739095, -0.01373111, 0.048569415, 0.037093528, 0.003518046, 0.0990286, -0.09427445, 0.03851613, 0.08508489, 0.00292076, 0.033683356, -0.09314562, -0.040075384, 0.028326875, -0.077862985, 0.038024507, 0.061029438, 0.109184586, 0.05225318, 0.012866257, -0.109950855, 0.106971875, -0.037101794, -0.05221662, -0.11057033, 0.109381266, -0.016744241, -0.117452905, 0.09686036, -0.11204274, 0.077414, 0.09548418, -0.03581961, 0.08994291, 0.09897585, -0.019413035, 0.08057342, 0.04800537, 0.052140605, 0.088904686, 0.015179885, 0.060744073, 0.10145299, 0.045162346, 0.0010032326, 0.10057829, -0.110353485, -0.09340526, -0.018010268, 0.04794312, 0.029214296, 0.06139113, -0.019340584, -0.03197512, 0.11013643, 0.049127717, -0.031000229, -0.083856024, -0.095607825, -0.0076227207, 0.055598967, -0.042300545, 0.104202375, -0.10519743, -0.07006597, 0.03420809, 0.0791732, 0.0110522425, 0.024815567, -0.02150234, -0.0701949, 0.096000366, 0.020749548, -0.088345826, -0.09745726, 0.02297971, 0.0071459743, 0.027577901, -0.036062997, 0.062413584, 0.025117802, 0.04685106, -0.048767835, 0.023327582, -0.06779644, 0.09488926, -0.009209461, -0.018275756, -0.0962472, -0.11194851, 0.053228173, 0.060803175, 0.051670726, -0.016786274, -0.09544363, -0.012893528, -0.0402484, 0.012804875, -0.07703289, 0.009023949, 0.04909093, -0.020094244, 0.10607572, 0.041985817, 0.03315472, -0.068794355, -0.11506086, -0.11561699, -0.06324752, -0.0019027664, -0.03754101, -0.051547837, -0.0027225956, -0.1015316, 0.0015052691, -0.027915014, -0.025127461, -0.06919383, -0.10220372, 0.11905561, 0.030980267, 0.029648185, -0.10089697, 0.07086789, 0.03091682, 0.085278764, 0.09589241, 0.036605127, -0.036483478, -0.019947786, -0.07310768, 0.046560027, -0.10427276, 0.10814977, 0.062270902, 0.002555136, -0.0132888025, -0.014999858, 0.09671202, 0.094905205, -0.042364135, -0.0070486874, 0.0585626, 0.050072104, -0.097574584, -0.02771953, -0.021421723, 0.050142832, 0.02232321, -0.08338647, 0.06565328, -0.11628636, -0.04946963, 0.03963637, 0.032135427, 0.0313644, 0.04031115, 0.029330263, 0.1173069, 0.038610637, 0.07891415, -0.070236094, -0.083352916, -0.012931371, 0.10554949, -0.05309119, 0.11576374, -0.10117575, 0.06801072, -0.08844142, 0.04278557, -0.02950982, 0.027308311, -0.03109555, -0.054387465, -0.032907654, 0.021540355, 0.06425763, -0.019184679, 0.06192592, 0.035575096, 0.015251881, 0.026430491, 0.045184348, -0.007197539, 0.103210114, 0.061476734, 0.046473157, -0.11238328, -0.048392422, 0.09306745, 0.10383621, 0.08453247, 0.09883159, 0.06294808, -0.108447224, 0.015156532, -0.08973097, 0.10832778, -0.006690729, -0.08555658, -0.095143095, 0.102260426, 0.011775084, -0.014834821, 0.109313115, 0.055166647, -0.08012253, 0.013745501, -0.035769083, -0.0062504443, -0.027977336, -0.014422634, 0.005927152, 0.062258307, 0.11042595, 0.111702465, -0.051570006, 0.017189898, -0.055535033, -0.10366698, 0.104301386, 0.013285411, -0.06435307, -0.007499744, 0.027666854, 0.019153332, 0.06948944, -0.035084486, 0.09692489, -0.05716006, -0.030088926, 0.014086888, -0.030259505, -0.116252325, -0.08355515, -0.08898275, 0.01869162, -0.04376618, 0.013364318, 0.08740889, -0.067401424, 0.113355115, 0.08130555, 0.039597556, 0.10194429, 0.09693327, -0.03355643, -0.11165231, -0.056519546, 0.0041089347, 0.08324956, -0.0003044278, -0.11333475, 0.05544198, 0.09680295, 0.015246139, -0.06078273, -0.08838624, 0.0048875865, -0.03128911, -0.029827813, -0.079266265, -0.04617839, 0.034252387, 0.04491645, 0.09439637, -0.02079798, 0.004426927, 0.009991974, -0.058504023, 0.0810103, 0.017537868, 0.016288113, -0.04562301, -0.017388804, 0.1048226, -0.020988505, 0.023767538, 0.07409646, 0.11352404, 0.1087601, 0.0024792214, -0.049206525, -0.042426843, -0.08889491, 0.09973872, -0.06497107, -0.03832439, -0.05710499, -0.034413435, -0.002416857, -0.078386165, 0.082966834, 0.009339548, -0.06896868, 0.059367724, -0.08641284, -0.039843466, -0.035535756, -0.032321382, -0.109915875, 0.07433876, 0.072184764, -0.09906006, 0.08778487, -0.034124937, 0.057865933, 0.037084494, 0.07920422, 0.041577034, -0.017347682, -0.104879975, 0.118890256, 0.069857575, 5.3559117e-05, 0.08251709, -0.073197946, -0.0080052, 0.03784257, 0.06416853, -0.09831445, 0.07475046, -0.014261415, 0.07138476, -0.07914966, 0.08441696, -0.028074667, -0.11651328, 0.012002685, 0.099547036, -0.09785628, -0.08354537, 0.07209831, -0.08131985, -0.100878246, -0.02415177, 0.05395134, 0.09906098, -0.0821064, 0.056147695, 0.01204486, -0.0003638287, 0.10134022, 0.033790473, -0.10478238, -0.029807778, -0.05211503, 0.038264733, -0.0006985625, 0.020515507, -0.048440084, 0.06313489, 0.060332473, 0.07282792, 0.04057943, -0.023941154, -0.058547124, -0.070642255, 0.018075041, 0.0895493, -0.113823466, 0.043460924, -0.013382014, -0.017340615, 0.090131246, -0.025168525, 0.1140989, 0.104696706, -0.0031291547, 0.03858241, 0.08660532, 0.07375747, -0.0038972485, -0.09230887, -0.020513598, 0.11641807, -0.11808597, 0.1045295, 0.09232023, 0.10072834, -0.049862813, -0.0011172469, -0.07161669, -0.014514606, 0.026039178, -0.089845255, -0.03769197, -0.005150267, 0.007534196, -0.06310217, 0.06250306, -0.059279256, -0.087823816, 0.07683221, -0.0012702302, -0.009189584, 0.08878764, 0.017998457, 0.012028845, 0.023965802, 0.05556933, -0.061024465, -0.011760593, 0.11259477, 0.0763016, -0.05477693, -0.035397034, -0.088996984, -0.02173621, 0.117264114, -0.11366316, -0.035250947, 0.0044745584, 0.11855642, 0.0029151035, 0.020286353, -0.071413524, -0.09585033, 0.06776314, -0.11691967, -0.010424152, 0.053932037, -0.012175516, -0.04234654, 0.069753475, -0.08635721, -0.030170996, 0.021218643, -0.0040170336, 0.07804682, 0.01346823, 0.09505941, -0.019999465, -0.022778982, -0.082473956, 0.11566219, 0.09379125, 0.039218795, 0.016878873, -0.077877834, -0.1179378, -0.03469488, 0.10999686, 0.08339653, 0.021820333, -0.065014966, -0.027565192, -0.10767991, -0.012855712, 0.11424015, -0.11099117, 0.035412595, -0.09500588, 0.07406707, -0.10147006, -0.023112334, 0.10118544, 0.111998096, 0.010339361, 0.056009926, 0.1006067, 0.01653331, -0.038032558, 0.0003734035, -0.072797686, -0.06349557, 0.022578381, 0.026755879, -0.06422717, 0.034682557, 0.08737165, 0.07524519, -0.07591266, 0.009996733, 0.02981865, 0.007434872, -0.053772043, -0.022343898, 0.0767456, 0.07496518, -0.019506732, 0.006886671, -0.10741766, -0.06181611, -0.05552214, 0.022876682, 0.02448337, 0.08034529, -0.08443349, 0.005970153, -0.102330185, 0.115448266, -0.10048765, -0.02370905, 0.11580252, -0.042365547, 0.050899856, -0.0510176, 0.063417815, 0.074055776, -0.017683556, 0.052874617, 0.020031465, -9.432332e-06, 0.09311498, 0.11380327, -0.11221456, 0.03539595, 0.028377127, 0.04184664, -0.08105871, -0.00807617, 0.05055251, 0.011711166, 0.033223394, 0.020980284, 0.0038019991, 0.024398722, 0.024300309, 0.05064393, 0.079693384, 0.032713436, -0.09174868, -0.11900592, 0.05579998, -0.095639154, 0.08492215, 0.027575964, 0.06828403, 0.08635971, -0.036228575, -0.07899652, -0.007307749, -0.053322483, -0.05882871, 0.003891934, -0.024355749, 0.048867643, -0.091795824, -0.055046845, -0.007898395, 0.047351204, 0.056794707, -0.08810586, 0.043848615, 0.025770072, 0.057136007, -0.025827762, -0.016063903, -0.011422398, -0.092965394, 0.11479417, 0.0014949249, -0.064133376, -0.0302726, -0.037644137, 0.0076440787, 0.021877112, 0.0593165, 0.0040462, -0.012651778, -0.08555793, -0.034722865, -0.08392875, -0.045783315, 0.032115225, -0.04489565, -0.03490078, -0.08779297, 0.05946541, -0.07474422, 0.045203652, -0.11293798, -0.08024498, -0.016496394, 0.0307065, 0.10187739, -0.041319568, 0.022331588, 0.11000759, -0.10026569, -0.013770677, -0.06068322, -0.051794942, -0.0041121547, 0.037515562, -0.028939947, 0.03578192, 0.11782339, 0.032213923, 0.04715321, -0.10076488, -0.024473852, 0.06497372, -0.09013183, -0.050165173, -0.074333146, -0.086109184, 0.11323986, 0.09022262, 0.07376591, 0.0378497, -0.03584387, -0.06499136, -0.02738786, -0.0026697489, 0.08431063, -0.021075236, -0.088942975, -0.060322955, -0.022155166, 0.08429078, -0.052817725, -0.059997126, 0.022448422, -0.10966304, 0.06067467, -0.07259267, -0.11010652, 0.06972891, 0.017327208, 0.038838968, -0.028660497, 0.046425723, 0.014847559, 0.09607444, 0.032488868, 0.02255745, 0.019598164, -0.006603259, 0.118035235, 0.07730293, 0.041321322, -0.06959907, -0.09400125, -0.03618264, -0.011960254, 0.049174823, 0.10145728, -0.03730526, 0.002264814, -0.024961142, 0.0211315, 0.09149559, 0.052640874, -0.039506424, -0.07233738, -0.11552182, 0.06946834, 0.04024477, 0.048553683, -0.014170027, -0.09897712, 0.09030704, 0.11812374, 0.04218911, 0.0128840525, 0.09702472, -0.051294886, 0.07422947, -0.004357609, -0.026710227, 0.09469302, -0.026048923, -0.021351509, 0.10522484, -0.095452845, -0.073036544, -0.09750266, 0.045565415, 0.0041237385, 0.034450125, 0.051985357, -0.0012979145, -0.07623323, -0.017663153, 0.0118358955, -0.10858519, 0.08300503, -0.042677484, 0.03601806, 0.118314356, -0.026718576, 0.06295325, 0.1028402, -0.093967654, 0.026964372, -0.08598383, 0.025999937, 0.11018981, 0.09697442, -0.0123176, -0.07162312, -0.08823402, -0.0254227, -0.062344152, -0.021301312, -0.09641017, -0.0058875135, 0.06110494, -0.06314862, -0.07772554, -0.031009005, 0.05825733, 0.032190226, -0.099509165, 0.055861644, 0.009482485, 0.07758485, 0.10275712, -0.07656006, 0.116175696, 0.03825174, -0.06666959, 0.036392245, 0.01721647, 0.110862255, 0.09957794, 0.068551384, 0.104029, 0.069348015, 0.0011054494, -0.114968926, 0.03107449, -0.07795231, -0.063896865, 0.09895186, 0.07047895, -0.04390987, -0.0044401917, 0.033542283, 0.031640656, 0.112855546, 0.10055888, 0.09260165, 0.054166034, -0.10707006, -0.069084875, -0.072895095, -0.05185484, 0.032905985, 0.099197656, 0.03242219, -0.062097058, 0.09970152, -0.100951955, 0.04457106, 0.06735583, -0.027426386, -0.113869905, 0.008273879, -0.08040816, -0.06535889, -0.048863027, 0.11319579, -0.1073118, 0.033247985, 0.09494531, 0.032746136, -0.0651488, -0.07031423, 0.06048798, 0.07378698, -0.042785384, -0.10185471, -0.11421941, 0.08675715, 0.06990334, -0.097587764, -0.07661717, 0.0074618864, -0.099018015, 0.013944834, -0.044525452, -0.09567663, -0.0045962245, 0.03906172, 0.016339961, -0.11662678, -0.009737757, 0.060814463, 0.04656768, 0.04178248, -0.10673768, -0.08340078, 0.084844954, -0.09731163, -0.046399664, 0.056697406, -0.027432228, 0.039411873, -0.03017886, 0.039106134, 0.054799054, -0.08147369, -0.10454329, 0.11170269, -0.03703648, -0.100411445, 0.048000053, -0.012534728, -0.06627507, -0.082697526, -0.0707695, -0.059285697, 0.09763526, -0.04078002, -0.097320676, 0.074364774, -0.08426045, -0.050615348, 0.04742008, -0.11791483, 0.046338238, 0.08899809, 0.11113644, -0.051271036, 0.021894025, -0.024140202, 0.08750017, 0.069919, -0.057589315, -0.109467156, 0.115473986, 0.0682698, 0.068601154, 0.05100652, -0.009758531, -0.03250859, 0.061282072, -0.09363975, -0.05361416, 0.08207582, 0.008802517, 0.114118665, -0.01726772, -0.03723721, 0.01573655, 0.016708294, 0.052088927, 0.02404287, 0.112417124, -0.0064646667, 0.035154685, 0.02478254, 0.112491444, 0.077483326, -0.05058893, 0.08403306, 0.08985623, -0.06169771, 0.11709406, -0.08726447, -0.07237988, 0.0044197314, -0.0830618, 0.112026066, -0.0870548, -0.09131725, 0.048452407, -0.0968497, -0.048334617, -0.012758454, 0.014515475, -0.02107421, -0.036642957, -0.043458544, -0.02020424, -0.11286784, -0.07907215, -0.09392177, -0.099012285, 0.118724965, 0.07278731, 0.03843379, -0.1059743, -0.002182502, -0.09985642, -0.086476244, -0.030245056, -0.026315067, -0.0063785645, 0.103686646, 0.025958817, -0.02708041, 0.09737758, -0.0040143547, -0.026756277, -0.02549602, -0.07098336, 0.054983985, -0.08327189, -0.07442596, -0.055321995, -0.050849702, -0.07901002, 0.08242798, 0.055602543, 0.020472877, -0.04509112, -0.043629367, -0.07897782, 0.058562256, -0.05767355, 0.008772852, -0.0027306885, 0.09782931, 0.054050125, 0.044774596, -0.05423739, -0.0054087867, 0.09385668, 0.0075469627, -0.10111595, -0.07024256, 0.11674367, -0.058665514, -0.021468116, -0.02976777, 0.082533844, 0.047340516, -0.020008598, 0.06264167, -0.016809812, 0.027373996, 0.082783476, 0.06564306, -0.087723695, 0.011575765, -0.093082696, -0.072273776, 0.027776878, -0.085066244, -0.031979337, 0.04823481, 0.09171388, 0.108242564, -0.102067836, -0.11757848, 0.07585174, -0.02438688, -0.113588355, 0.10349079, -0.10270211, 0.0016189843, 0.016650872, 0.08972816, 0.07712037, 0.06960588, 0.045923274, -0.10332682, -0.007717058, 0.08945482, -0.09828315, 0.10851318, -0.0024325158, -0.06521939, 0.016825913, -0.09284032, -0.015651202, -0.035373423, -0.023588495, -0.09107928, -0.052736368, -0.012114919, 0.082157716, 0.06718206, 0.06333428, -0.11635457, 0.083499976, -0.11646824, 0.054748617, -0.0848686, 0.02839867, 0.10049023, -0.024489624, -0.060161848, -0.11449219, 0.08618872, -0.08506881, 0.01625027, -0.07544646, 0.049029604, 0.06542781, 0.053436127, 0.09956465, 0.06529174, -0.06169845, 0.0781647, -0.029974198, 0.08400684, -0.06293088, -0.113010764, -0.07603224, 0.08314819, 0.03763318, 0.010297399, -0.09905253, -0.08761015, -0.0421443, 0.07433171, -0.1176855, -0.09249677, 0.016568262, -0.09991363, -0.08725319, 0.100315444, 0.08365354, -0.006484415, -0.020039203, 0.10919514, 0.04131625, -0.060237776, -0.102031216, 0.06304334, -0.004176343, 0.11157614, -0.10246772, -0.033111032, -0.0442132, -0.06080963, -0.043733377, 0.08737407, 0.061209578, -4.683395e-05, -0.094726674, -0.04981484, 0.05111097, 0.059398316, -0.07950564, 0.03345269, 0.07476337, 0.064151295, 0.004534843, -0.08707661, 0.113768324, 0.061633136, 0.08380769, -0.05770209, -0.08536956, -0.03423922, -0.017806234, -0.07197706, -0.07418348, -0.11002205, -0.04293646, 0.06865176, 0.056401923, 0.011735929, -0.08971092, 0.05680515, 0.0029870856, 0.010800761, -0.09313584, -0.054303616, 0.08601513, 0.10034948, 0.02920032, -0.09187958, 0.042988393, -0.09733548, -0.07735547, -0.11871749, -0.08585562, -0.06644835, -0.101174, -0.06918251, 0.11718192, 0.058730755, -0.059656095, -0.112352625, -0.10659088, -0.0006185159, 0.015417018, -0.042270496, 0.09799382, -0.011798522, 0.04137927, -0.008547987, -0.10805061, -0.026920417, -0.014178092, -0.10849564, -0.09130244, 0.09033199, 0.10980119, 0.013830563, -0.058740303, 0.073549874, 0.06389392, 0.08627655, 0.003666584, 0.017533807, -0.08593065, -0.010730773, 0.06530064, 0.00662751, 0.03679597, -0.11005743, 0.07271218, -0.09817246, -0.061131585, 0.030887624, 0.0055221743, -0.09497884, -0.027057612, -0.040916357, 0.040862728, -0.030762596, -0.026859848, -0.03501565, -0.0047056223, 0.0907443, -0.046178404, 0.06246733, -0.09754332, 0.008405376, -0.0561677, 0.07153153, -0.1140569, 0.0920701, 0.021663459, -0.10042906, -0.020565704, -0.015371153, 0.025955468, 0.114476606, -0.04994132, -0.02427033, -0.03949062, 0.068059534, -0.0606105, 0.026979035, -0.07927265, 0.015020589, -0.0429699, 0.037558094, 0.10056245, 0.09249946, -0.033288836, 0.11537014, 0.013733788, 0.014062367, 0.08157558, 0.030174771, 0.070781626, 0.09560094, -0.11910074, 0.008235252, 0.037829038, -0.117501624, 0.08105234, 0.09522104, 0.026485091, -0.08620124, -0.036629077, -0.0941175, -0.034012005, 0.07242931, -0.11701355, -0.06696189, -0.09464292, 0.07783256, 0.04191288, 0.046609383, 0.08071113, -0.11874954, -0.031644136, 0.111223765, -0.009831995, -0.079432674, 0.076061286, 0.0013683578, 0.058832973, -0.04175337, 0.02622412, 0.055396482, 0.08976923, 0.0049904445, 0.1071081, -0.085717894, 0.06317427, -0.012252072, -0.004940462, 0.09664342, 0.054003518, -0.10320176, -0.005052054, 0.093571894, -0.118450485, -0.045647655, -0.06825858, 0.07234099, -0.019722264, 0.092029154, -0.0026848377, 0.023102418, -0.115274325, 0.11541028, 0.016873473, 0.106505945, -0.032320913, 0.08072837, -0.108481616, -0.10866078, -0.097901106, 0.06253642, -0.056371205, -0.061963838, -0.046943005, -0.016061978, -0.0732738, -0.048237644, -0.02186708, -0.06102203, 0.08745973, 0.02385042, -0.07198626, -0.031811837, -0.10316867, -0.014580063, -0.025518946, -0.047338977, -0.11082955, -0.10112144, -0.011604262, 0.10262428, -0.07289058, 0.0016617575, -0.10311458, 0.0878242, -0.0016130143, -0.10389144, 0.06609549, -0.06550363, -0.06611357, 0.06576899, 0.024020687, -0.10175158, -0.0687349, -0.043703243, -0.044872496, 0.0037874517, -0.059677396, 0.101078354, 0.06754048, 0.027817072, -0.03958177, -0.10778946, 0.06818333, 0.022381812, 0.017710159, 0.07528175, -0.03789928, -0.11396192, -0.09017371, 0.0646249, -0.026448771, 0.0033305679, -0.032770485, -0.010204258, 0.07156585, 0.09643478, 0.07789392, -0.04712889, 0.040944528, -0.07985461, -0.08952836, -0.032027695, 0.0063949213, -0.049828444, 0.06893748, -0.044989146, 0.06981564, 0.034753498, 0.006071287, 0.09893245, -0.059768543, 0.11651847, -0.0923042, -0.11907146, 0.030478472, -0.07661212, 0.01035643, -0.0021416808, -0.06992779, -0.022403883, -0.09173722, 0.0040647793, -0.05455893, 0.072450384, -0.06656398, 0.07005421, 0.060746327, -0.09933713, 0.011332078, 0.11913891, -0.016720347, 0.026114708, -0.0072693927, -0.09219137, 0.0962964, -0.11721253, -0.11589233, 0.079426706, 0.09161131, 0.014257867, 0.039806534, -0.038988642, 0.08051105, 0.008356662, 0.006621397, 0.013120459, 0.11706815, -0.046460304, -0.09379424, -0.022148555, 0.018318472, -0.11260698, -0.09884306, -0.017799694, 0.08622485, -0.10877324, -0.0055476646, -0.031940028, -0.040555265, 0.0646994, 0.03951064, 0.016682277, -0.07072696, -0.11530231, -0.023393665, 0.025449358, -0.03843957, 0.068503805, 0.11283125, 0.05513329, 0.11144343, -0.030707812, 0.07741511, 0.021504464, -0.06383825, -0.09542397, -0.056009658, -0.09220386, -0.10114215, 0.082863264, -0.114836715, 0.04785297, 0.0773247, -0.029679744, 0.09847627, 0.09236365, 0.002500024, -0.060225125, 0.089897245, 0.10736123, -0.031871308, -0.09309558, 0.06289707, 0.092506826, -0.11935331, -0.117127165, 0.05321244, -0.022151817, 0.08730921, -0.11146133, -0.02137194, 0.10914935, -0.08932153, 0.031711172, 0.097459055, -0.011125435, 0.012593232, 0.012938694, 0.049306147, 0.013448867, 0.03494599, 0.10378592, -0.08780324, -0.09369003, -0.098543406, 0.013047565, 0.024371935, -0.100434855, -0.08956636, -0.09203411, 0.011376489, 0.07843937, -0.09098005, -0.09380772, -0.09101609, 0.11262169, -0.10966894, 0.022195688, -0.11604146, 0.10167217, 0.012039887, 0.08392802, 0.031808745, -0.10822514, 0.051234547, 0.028756829, 0.050574068, -0.08742142, 0.11876543, -0.072275214, -0.112158135, -0.042741615, 0.105380945, 0.027637104, 0.0059901862, -0.081815235, -0.06889691, -0.039435096, 0.014984641, -0.06958795, 0.015590989, 0.05970699, -0.090312384, 0.09754537, 0.012595341, -0.002334032, -0.08234505, -0.11773026, 0.015218612, 0.009966399, -0.0050891563, 0.045135334, 0.04197402, 0.028890263, 0.06543994, -0.040428016, -0.05915749, -0.07817169, -0.055281673, 0.05965327, -0.057137262, -0.11620539, -0.0570513, -0.11073994, 0.002792697, 0.048288595, 0.0109968735, -0.06759976, -0.0077042775, 0.05488644, -0.021938065, -0.03520652, 0.034902405, -0.028543077, 0.060840093, 0.04310718, 0.036270194, -0.09795334, 0.07815146, -0.11601416, -0.09637762, -0.07388317, 0.0060349256, -0.114331946, 0.1137654, -0.03323089, -0.05492394, -0.023027157, -0.11133135, -0.020397931, 0.06895433, -0.11635532, -0.03074705, 0.05244784, 0.03904437, -0.10504913, -0.009478653, 0.065471426, -0.043187585, 0.06960769, -0.098953426, -0.105016336, 0.010427229, 0.05673516, 0.033472996, 0.015897354, -0.11425444, 0.038436156, -0.026879452, -0.05265196, -0.06457484, -0.053180683, -0.019003043, 0.067994975, 0.07396473, -0.07901607, 0.055726074, -0.0850809, -0.04724306, -0.048101418, -0.11578896, -0.05270354, 0.08161375, -0.057288863, -0.10624002, -0.0063384417, -0.032642268, 0.03230199, -0.043286394, -0.11768088, 0.032836042, -0.11078056, 0.09584083, -0.04643571, 0.1120339, 0.07769623, 0.024698988, -0.0046903626, 0.0897678, -0.112218305, -0.05755623, -0.10664281, -0.02819478, 0.10101966, 0.00067415525, 0.03683096, -0.06651914, -0.039625324, 0.057369765, 0.08130788, 0.115840375, -0.09367655, -0.091497965, -0.085311666, 0.017464846, -0.0036192797, 0.07873619, 0.060376115, -0.0044222535, -0.030993361, -0.036433194, -0.09980799, 0.009781043, 0.11158419, -0.09987635, 0.09500202, 0.05628321, -0.072073646, -0.07554433, -0.07531701, -0.045075376, -0.0854622, 0.08629072, 0.072836995, 0.0072107897, -0.06880436, -0.04227017, 0.048727553, 0.057260737, -0.11507949, -0.094737954, 0.06721863, 0.026619194, 0.058649912, -0.025984522, 0.03393445, -0.06591996, 0.0681687, 0.050370477, 0.013236026, 0.048724007, -0.07648547, 0.08889916, -0.04130558, -0.07423449, 0.10028723, -0.028680986, 0.0447397, -0.060235783, 0.0024169567, 0.119397566, -0.07682923, 0.09268336, -0.04600563, 0.03625475, 0.09831865, 0.10210346, 0.013256359, 0.11910764, -0.020074425, -0.006614017, -0.038167175, 0.059158873, 0.06547315, -0.041866004, -0.038507808, 0.0871442, -0.02761442, -0.10437077, -0.08201218, -0.005987935, -0.056915887, 0.05666572, 0.056271527, 0.022998605, 0.020040771, -0.11866103, 0.070265755, -0.06223276, 0.030762097, 0.013529169, 0.09575829, 0.08206763, -0.008033896, -0.039742205, -0.10483134, 0.0789866, 0.059049975, 0.044904925, 0.05348557, -0.04705501, -0.07095269, -0.09085696, -0.09317833, -0.025733411, 0.10115116, -0.08716508, -0.05771289, -0.032961585, -0.04424845, -0.069335036, 0.11804256, -0.06996542, -0.040509943, 0.063262664, -0.05343526, -0.11269941, 0.0040167915, 0.01778526, -0.032009218, 0.037658002, -0.08953802, -0.088870294, 0.018955339, -0.011973989, -0.04331458, -0.003080554, -0.041916214, 0.0077158897, 0.10505944, 0.02521137, -0.08354214, -0.11719497, -0.08254745, -0.004665613, 0.05249587, -0.04359691, 0.059782546, -0.06335629, -0.10783773, 0.05166158, 0.056124028, 0.04396296, -0.10940169, 0.009307489, 0.108330004, -0.11933607, 0.05392755, 0.05397793, 0.10259643, -0.064358026, -0.02999366, 0.057347026, 0.024861475, 0.006175997, 0.02792221, 0.056635156, -0.0019199355, -0.06386126, -0.105597265, 0.08681928, 0.08985362, 0.014341276, 0.07718218, 0.068223275, 0.0051937527, -0.023167446, -0.08752527, 0.04840855, 0.08175775, 0.1023808, -0.08801568, 0.034350958, -0.06337512, 0.00017568075, -0.113023944, -0.059054535, -0.078288615, -0.07413478, -0.05466857, 0.076200336, 0.10603732, 0.099502854, 0.09135366, -0.06698496, -0.043095596, -0.08984664, -0.0025034577, -0.055603296, -0.10598294, 0.07525991, -0.016203735, -0.018170176, -0.021818222, -0.050540984, 0.09845078, -0.0003467593, -0.0424374, -0.03817024, -0.030145334, 0.045728672, -0.0910285, 0.0046002422, -0.034829456, 0.055803273, -0.014961645, 0.00020038718, 0.11269092, -0.06900902, -0.10637481, 0.05104044, -0.065020725, -0.033606615, 0.012344358, -0.09312661, -0.030070843, 0.087382, 0.08404678, 0.059619278, 0.044810615, 0.0912768, 0.05972188, 0.11337381, 0.07417264, 0.02885014, -0.032612488, -0.035775594, 0.09546305, -0.015730778, -6.0327027e-05, 0.025267735, 0.06265803, -0.092319444, 0.10290328, -0.01257119, -0.09770109, 0.038511273, 0.008514788, -0.093201414, 0.006286478, -0.11123431, 0.10179325, -0.10146236, 0.09747759, -0.03295477, 0.023584548, 0.106333025, -0.105335526, -0.021753123, 0.055817563, -0.05190058, -0.011712035, -0.06359302, -0.029773483, -0.088434435, -0.048966784, -0.033943858, -0.07526253, -0.10646602, -0.0026144371, 0.073152035, -0.059648786, -0.033792995, -0.07456737, -0.09548892, -0.020315377, -0.104559764, -0.030823592, 0.11711063, -0.035988975, -0.06865983, 0.035137404, 0.07832713, -0.05770726, 0.11287526, -0.034695778, 0.038987804, -0.10017973, -0.017242245, -0.036404654, -0.0067871613, 0.03275363, -0.09568092, 0.09700092, -0.06469257, 0.10766168, -0.10262322, -0.036268428, -0.03174135, -0.013800798, -0.009808429, 0.1024073, 0.01005592, 0.07899283, 0.042302113, 0.092341386, -0.018020626, -0.09838627, 0.10319192, 0.013423633, 0.11841318, -0.018825667, -0.06224216, 0.1012505, -0.06660705, 0.04322088, -0.09179426, -0.075093314, -0.041948587, 0.10749319, -0.103029914, 0.020408275, -0.029881755, 0.04522175, -0.036772545, 0.027995275, 0.10797692, 0.11466332, 0.06631894, 0.0677197, -0.0019822859, 0.08765023, -0.0769246, -0.06772181, -0.07404817, -0.06277359, 0.092354044, 0.015428916, 0.0007770703, -0.05142536, -0.088535175, 0.08211884, 0.082498156, -0.024458151, -0.08417498, 0.06426081, 0.07348369, 0.06712768, -0.095157094, 0.008421134, 0.055946182, -0.11444925, -0.033604704, 0.0933787, 0.108179145, -0.100433506, -0.06052337, -0.08484468, 0.018684508, 0.06621588, 0.054444246, 0.00027564637, -0.047954675, 0.11916864, -0.0421878, -0.061480936, 0.00545706, -0.0051733204, -0.010801374, 0.034390938, 0.08838991, -0.09101733, 0.021913758, -0.04527605, 0.0055658026, -0.0006892584, 0.06923558, 0.083005734, 0.01949388, -0.03052492, 0.07145953, 0.017038966, 0.077278025, -0.011648018, -0.008868657, -0.08244453, 0.07525345, 0.027411312, -0.083033584, -0.015819289, 0.07469605, 0.107367896, -0.07730339, -0.01029539, 0.021685217, -0.06444403, -0.10760934, -0.06075305, 0.03765236, 0.05176395, 0.036837418, -0.090639226, 0.013189193, 0.10443277, -0.07689738, 0.004036625, -0.11705638, 0.034734163, 0.11712706, 0.08108276, 0.11097345, 0.036578756, -0.08853852, -0.07829619, -0.0018012762, -0.0067245974, -0.077000074, -0.017299382, -0.01150877, -0.108648226, 0.065905444, 0.06914134, -0.059155438, -0.021413216, -0.03088513, 0.10351994, -0.06240089, 0.01471847, 0.072575524, -0.08558961, 0.042652935, 0.050757274, 0.0962436, 0.062442064, 0.08674984, -0.09440302, 0.009156714, 0.048644386, 0.10096178, 0.043970127, -0.11727167, -0.10914754, 0.097335055, 0.044622865, -0.044942196, -0.055271868, -0.09181152, -0.11724906, 0.020759081, 0.06716783, -0.059806183, 0.061014462, 0.045930285, 0.044120744, 0.11918004, 0.115835935, 0.0958025, -0.06850249, 0.061686482, -0.0793628, 0.025444513, 0.08751819, -0.109290734, -0.026118498, 0.06570093, 0.11559468, 0.08173512, 0.11871049, 0.09574649, 0.006778128, 0.02933089, 0.051675186, -0.08747456, 0.07626053, -0.005587588, -0.0016326056, 0.018833831, -0.08028524, 0.11887561, -0.11712156, -0.049312714, 0.07954515, 0.11696167, 0.019076236, -0.027747598, -0.10090639, -0.026287852, -0.116584495, -0.08809258, 0.04133808, 0.030718654, 0.097646594, 0.071984254, 0.062087044, -0.11768363, -0.031487063, -0.034429666, 0.09555887, 0.08583956, 0.0090453215, -0.012558794, -0.002410032, 0.071174964, -0.104647316, 0.06808435, -0.0860104, 0.11062235, -0.06374886, 0.078376085, -0.08416685, 0.0061434545, 0.025128586, 0.10267012, 0.01856035, 0.07864549, -0.068924345, -0.11336227, 0.04335449, 0.008093924, 0.08440149, -0.026309852, -0.09306169, -0.0793552, -0.056563657, -0.010675462, -0.027873551, -0.0598158, -0.101070546, -0.11117139, 0.09809728, -0.09013277, 0.102054656, -0.09528385, -0.11426039, 0.1084657, -0.060167264, -0.08224657, 0.10129924, -0.11690525, 0.022621725, 0.06367199, 0.095574684, 0.06781932, -0.10141424, 0.11494734, 0.005268214, -0.08928149, 0.0668155, 0.07531907, 0.050273873, 0.108940385, -0.025444899, 0.058888912, 0.05941158, 0.025530102, 0.07245869, -0.023182321, 0.07038785, -0.085969225, -0.023138821, -0.02801719, -0.0052136146, 0.037530866, 0.021925427, 0.113619104, -0.080529206, -0.037651446, -0.02656726, 0.077201426, -0.06670106, 0.056034107, -0.036247157, 0.048463747, 0.017468778, -0.08247775, -0.035170913, -0.10837724, 0.09416009, 0.0066056955, 0.025433071, 0.005584083, -0.04270262, -0.03365298, -0.07343231, -0.03218393, 0.11373674, 0.03078783, -0.04706191, -0.0654609, 0.07622066, 0.09853819, 0.11242114, 0.079555765, -0.111863025, -0.09122002, 0.0070728096, 0.055243272, 0.03856718, -0.06951176, -0.07246906, -0.03429402, 0.003727039, -0.014518083, 0.07036917, 0.079648465, 0.094149165, -0.027381347, -0.06873421, -0.06975835, -0.07222838, -0.07151343, 0.080811635, 0.0718996, 0.080048636, 0.049047228, -0.11531176, -0.07938721, -0.060129464, 0.06764925, -0.08733754, -0.013753879, -0.05224456, -0.0098362975, -0.05659868, 0.0021467388, -0.053196, 0.012016235, 0.0071916115, 0.018576223, 0.036349785, -0.033191036, 0.012666981, -0.08788839, 0.093591146, -0.06968954, -0.079361446, -0.05499387, 0.060386688, -0.02086835, -0.032806817, -0.024333892, -0.07377246, -3.7757825e-06, 0.030122053, -0.07441217, 0.06975932, 0.09008967, 0.08149714, 0.038567893, -0.041671146, -0.101186626, 0.05361933, 0.10864516, 0.111885294, -0.032788966, 0.051736154, 0.026518902, -0.06008555, -0.0629108, 0.107524954, -0.08604989, 0.105971776, -0.007870569, 0.09010343, 0.11663383, -0.11043079, 0.0060326746, 0.025800604, 0.0891066, -0.017104294, -0.031400092, 0.0077737235, -0.06678489, 0.037258167, -0.05414841, -0.088138856, -0.021660594, -0.006067882, -0.1103957, -0.008132522, -0.08439448, -0.0881225, -0.11549591, -0.11831913, 0.023785377, -0.08586089, 0.01815402, -0.069703594, -0.019764768, -0.031684984, -0.009755923, -0.084169485, 0.049690694, -0.08619926, 0.07146775, 0.014549629, 0.045835063, -0.0010077492, 0.010897336, -0.032986872, 0.044038575, -0.08476828, 0.1099383, 0.06853891, 0.10080961, 0.032673057, 0.06691804, 0.058677908, 0.032283995, -0.057816405, 0.08265934, 0.07500372, -0.06414094, 0.090184875, 0.041798625, 0.09279853, -0.1050982, -0.080746815, -0.09050163, -0.10080528, -0.043697927, 0.07256609, 0.11369125, -0.040597368, 0.04906125, -0.06344115, 0.054293957, -0.032386225, -0.09978165, -0.018582206, 0.11480295, 0.038643267, -0.012431899, -0.11428113, -0.03778353, 0.10100029, -0.049595557, -0.047314357, 0.10871472, 0.0025369695, -0.04315316, 0.0022934102, 0.009264759, 0.042694423, 0.07845456, 0.0790222, 0.10085032, 0.100489385, -0.068920225, -0.058660015, -0.012586421, 0.11917498, 0.0009703476, -0.007547604, -0.10958489, -0.07668107, 0.042112157, 0.018601399, -0.05570054, -0.08541483, 0.0628863, -0.027220627, -0.01542551, -0.056846585, 0.11408915, 0.05117265, 0.07193867, -0.08773644, 0.10523822, 0.08977868, 0.05709661, -0.0593715, 0.032593094, -0.09186365, -0.014159526, 0.05930325, -0.09967916, -0.06025878, -0.047212698, -0.03956081, -0.031356774, -0.00867397, -0.00073550816, -0.08018639, 0.056213576, -0.04496844, 0.09628748, -0.08870303, 0.0783036, 0.01015781, 0.021267472, 0.0099546155, -0.044698652, 0.07524089, 0.07617821, -0.077149235, -0.0076539386, 0.10287788, -0.040125538, -0.08526572, -0.007493902, -0.009864609, 0.047222756, 0.11640509, 0.06907707, 0.063515626, 0.080622986, 0.0055504143, -0.024869967, -0.025339775, 0.013129578, 0.04400683, 0.04996638, 0.031992648, 0.023842756, -0.06669917, -0.075701684, -0.01138709, 0.09094852, -0.06929699, -0.041540302, 0.06881879, -0.008502521, -0.10057292, 0.0018712208, -0.11529855, 0.04472823, 0.045138497, 0.06964931, -0.03377141, -0.036733888, 0.017891552, -0.1107271, -0.005254635, 0.11302491, -0.055190228, 0.08375695, 0.03877163, -0.05502073, -0.07210855, 0.028957786, 0.08043273, 0.1060066, 0.10659123, 0.0780273, -0.08187719, -0.05525218, 0.10133069, -0.09032546, 0.03327546, 0.04648216, 0.10480515, 0.0442954, -0.06820646, 0.04361694, 0.10835343, 0.076176085, 0.04989718, 0.097222306, -0.024689157, 0.108160265, 0.07277476, 0.056946762, -0.114120774, -0.050251845, -0.09371471, 0.10489353, 0.0550316, 0.097731926, -0.02703852, -0.043878198, 0.11016334, 0.08176423, 0.028629264, -0.09992977, 0.01642397, -0.016827138, -0.078957796, -0.10049079, 0.06571241, 0.07571289, 0.020688081, 0.06884873, 0.0096462695, -0.06220982, 0.035117127, -0.103062406, -0.03976553, 0.02596376, -0.08518887, -0.083392516, 0.06665421, 0.10386461, 0.021766901, 0.09725055, 0.03274139, 0.0531694, -0.110121265, -0.09509383, -0.06312396, 0.06531538, -0.04182102, -0.005545898, 0.04915279, 0.023582011, 0.11893864, 0.012795144, -0.09922155, -0.11371185, -0.07631925, 0.040475205, -0.009883417, -0.091903284, 0.08988287, -0.027041754, -0.0032995208, 0.045801993, -0.10665824, 0.074981436, 0.10791641, -0.05126505, -0.09712211, -0.007498718, -0.06542414, -0.09949446, -0.046885487, -0.018916884, -0.100939184, 0.11838193, 0.06410962, 0.06154142, 0.054881625, -0.058538176, 0.055471487, -0.048059154, 0.0634976, -0.097331665, -0.033963177, 0.110204704, 0.11362833, 0.029003095, -0.020145038, -0.06813934, -0.0351817, -0.013172864, 0.03471476, 0.08078701, -0.050950307, -0.038904224, -0.05541019, -0.03990784, 0.092843555, -0.11188373, -0.07122103, -0.10649603, -0.094796784, -0.048839062, -0.112177595, 0.039477613, -0.077301435, 0.07983607, 0.10440285, -0.10386251, 0.1126539, -0.044136345, -0.011434536, -0.03341683, 0.0708208, -0.013524539, 0.026554778, -0.08004341, 0.0992295, -0.09198889, -0.083836116, -0.088110745, 0.01013799, 0.1085495, 0.1028778, 0.027427483, -0.0399176, -0.10697625, 0.113073215, 0.082946144, -0.04199109, 0.024594521, -0.036551997, 0.06575853, 0.009300592, -0.04841291, -0.027329626, 0.11901894, 0.006396731, 0.038652826, 0.08637473, 0.09808612, -0.05651745, 0.054857116, 0.017925605, 0.05715882, -0.02178672, -0.086220175, -0.08577375, -0.089012615, -0.097002484, 0.10909913, -0.050978877, -0.08062193, -0.053838953, 0.046409667, 0.084908515, 0.10542381, -0.08928294, -0.11556752, 0.082266636, -0.09203735, 0.03244457, -0.05604025, -0.070006624, -0.026273247, 0.030747721, 0.009496477, 0.026969288, 0.08802262, 0.0726667, 0.051109046, 0.06000422, -0.046184756, 0.002596228, -0.015626809, 0.053283855, 0.09914632, -0.03441372, -0.044431884, 0.0944484, 0.1068492, -0.03577162, -0.02529891, 0.011445693, 0.113637574, -0.006087801, 0.022939004, 0.086976655, 0.053522144, 0.1021301, 0.098137185, 0.02516274, -0.010740547, -0.055641014, 0.11103788, -0.09282375, 0.07651901, 0.061047804, -0.0924876, 0.108268976, -0.09551501, 0.054169256, 0.110748015, -0.101987645, 0.055758078, -0.08933791, 0.05161812, 0.040113084, 0.08816242, -0.09322122, 0.047965672, 0.1151865, -0.1187644, 0.013606966, -0.057935305, -0.07858664, 0.11336088, 0.06596634, 0.060922604, 0.068816215, 0.103588715, -0.027169006, 0.011365063, -0.028727919, 0.10639952, 0.04348704, -0.06347928, -0.015828507, -0.02321653, -0.009865051, -0.08635613, -0.08423503, 0.0841585, -0.030452797, -0.031007195, -0.032268334, 0.008372776, 0.003977523, 0.079132006, -0.083379276, 0.048168056, 0.031418286, -0.016452523, -0.08647841, -0.09928072, -0.105029255, 0.0032979962, 0.024854494, 0.00034049008, 0.09399896, -0.07284509, 0.02896374, 0.027102025, -0.090397485, -0.0732591, 0.013223788, -0.03211696, 0.06554587, -0.08313398, -0.069350846, 0.083127186, 0.029314434, -0.05539966, 0.04351827, -0.069332086, 0.022416009, 0.069625415, 0.02978491, 0.089089684, 0.05452881, -0.07743085, 0.03351208, 0.030256271, -0.04694634, 0.030530222, 0.038525548, 0.033228938, 0.07221335, 0.03970013, -0.059532434, 0.030365242, -0.07298409, -0.10184838, -0.024320185, 0.09547801, 0.05718223, -0.011437558, -0.0050348137, -0.0012487439, -0.032495808, -0.1115751, 0.044202443, 0.067129806, -0.0036313052, -0.050624195, 0.025071252, 0.003851113, 0.083686054, 0.09235586, -0.027590726, 0.012397802, -0.049246036, 0.053445105, 0.10550944, -0.051351808, 0.08039406, -0.048869323, -0.082335524, -0.09933526, 0.03947441, -0.05312496, 0.11609448, -0.06659718, -0.05893609, 0.040234666, 0.012570791, 0.040476047, 0.09777098, -0.005379806, 0.11509264, -0.035371542, 0.0005147887, -0.109617345, -0.058140423, 0.020804133, 0.016888676, -0.01621281, -0.075882316, -0.0066420003, 0.033369552, 0.004506503, -0.053436555, -0.05444738, 0.029114787, -0.09059964, 0.11243968, 0.060574535, -0.043726593, 0.02841044, 0.0887034, 0.004132957, 0.0759885, -0.08286581, -0.008960202, 0.0054411874, 0.04884228, -0.057820622, 0.00067647774, 0.07713916, -0.040507946, 0.0055455416, -0.075903915, 0.08515923, -0.096871175, -0.10742643, -0.10021867, 0.04887602, 0.07966527, 0.023238773, 0.085396886, -0.102846146, 0.048228383, 0.07070433, 0.06860494, -0.098603174, 0.024137594, 0.08692051, -0.082746625, 0.03915834, -0.05579998, -0.117083624, -0.09249739, -0.072380155, -0.061371367, 0.117192976, 0.0016347714, 0.056721613, -0.06904458, -0.10532219, 0.020639922, 0.092669666, -0.046310984, -0.07981883, 0.003293679, 0.05237784, 0.028095156, 0.08876295, 0.02736046, -0.042892918, -0.03129008, 0.0840155, -0.044706505, -0.031878103, 0.036358092, 0.03903478, -0.017395044, -0.07139519, -0.021584168, 0.088348396, -0.112813525, 0.0063280547, -0.07023179, 0.09312122, 0.06044529, 0.11719869, -0.10229725, -0.006383195, -0.11049662, -0.021549344, -0.0912784, 0.034761164, -0.020954324, 0.10585365, 0.102094464, 0.0792952, 0.10771169, 0.0777057, -0.116560884, 0.10664406, 0.116499156, -0.067483716, -0.015788883, -0.0027107268, 0.10281273, 0.024350263, -0.040285178, -0.09882485, 0.1062193, 0.09011972, 0.037303977, 0.10737916, -0.047979124, 0.015893308, -0.11338693, 0.0005935102, 0.088144146, -0.09624694, 0.0027994362, -0.010298952, 0.060104642, -0.10904317, -0.08880039, 0.1020798, 0.11163972, 0.028332744, 0.09772048, -0.0017961183, 0.07786286, 0.009336911, 0.08235845, -0.09430759, -0.017335743, -0.013275323, 0.006696785, 0.10710564, -0.107399695, 0.021370372, -0.10752641, 0.10313206, -0.048867214, 0.023288043, -0.0068041594, -0.05006783, -0.03764787, 0.016649961, 0.059832543, -0.0067355684, -0.105958484, -0.053812224, -0.042529486, -0.07181135, 0.09432442, 0.017419863, -0.03505908, 0.026206238, 0.09479425, -0.064380094, 0.06798889, 0.11710346, 0.10918416, 0.008787272, -0.050217323, 0.042881433, -0.053837344, 0.022048917, 0.0017664962, -0.085494354, 0.06059095, 0.054876965, -0.09825656, 0.03434383, 0.017091243, -0.104383916, -0.0694176, 0.04874605, -0.08969135, 0.117636725, -0.06650552, 0.0650852, -0.08411837, -0.008384189, -0.024211114, 0.07542792, 0.05640727, 0.084873915, 0.05051873, -0.028569978, -0.02447264, -0.11590603, -0.065673664, 0.04350874, 0.031885598, -0.034495845, 0.049619865, -0.09339886, -0.022479456, 0.09441667, 0.0787932, 0.11092564, -0.021948338, 0.07575674, 0.07440522, 0.07547236, -0.05696607, 0.117379285, -0.01777483, 0.07609742, 0.060630146, -0.0813346, -0.056489892, -0.044820946, 0.082296684, 0.10127708, -0.02223336, 0.08482251, 0.028723061, -0.008931407, 0.028493451, -0.031019263, -0.06333581, -0.07452021, 0.05729257, 0.014484956, -0.05246729, 0.041327693, -0.04657433, 0.06825651, -0.010719974, -0.047516014, -0.03751874, 0.0710946, 0.022960762, 0.095185876, 0.085420094, 0.08653276, -0.11949093, 0.10096438, -0.07745948, 0.0629738, 0.103915855, -0.11159537, -0.089615315, -0.09539222, 0.018727511, -0.08640864, 0.08179298, 0.014608872, 0.032188103, -0.010757931, -0.016062833, 0.090324424, -0.018302485, -0.05945988, 0.047756482, -0.010973592, 0.093638204, 0.06053953, -0.030667247, 0.10128392, -0.00703414, -0.088255435, -0.07248311, 0.10659555, 0.11260577, 0.05797651, -0.09953086, 0.049376007, 0.02829684, -0.0076936483, -0.110893436, -0.10793663, -0.035639524, 0.029131914, 0.061383776, -0.11708989, 0.043967377, 0.11050279, 0.05123486, 0.058669303, 0.10170047, -0.06336453, 0.10341857, 0.07113834, -0.039821696, 0.09130222, -0.0734067, -0.07382434, -0.095298424, 0.06426796, 0.007340862, -0.011857652, -0.0030155536, -0.02006274, 0.0686249, 0.07382351, -0.08661803, -0.08647106, -0.05165407, -0.07991981, -0.042056575, -0.095536515, 0.085619226, 0.10234235, 0.058475684, 0.076106876, -0.072046384, -0.117226675, -0.022547448, 0.013837744, 0.11731038, 0.086101204, -0.07466318, 0.031548712, -0.014426794, -0.10007717, 0.043883525, -0.102555476, -0.031964276, -0.0327544, -0.110444725, 0.061550397, -0.039753035, -0.021847745, -0.020017233, 0.05419764, 0.09405347, -0.08160738, -0.08986271, 0.00019235117, -0.043860983, -0.049665943, -0.1000213, 0.010547912, -0.07808123, 0.006539028, -0.065708585, 0.076664925, 0.066666536, 0.08761413, 0.031864442, 0.106376685, -0.057478793, -0.0013972532, 0.02801783, -0.095111005, -0.035520665, 0.09460351, -0.062561676, -0.041679993, -0.049594402, 0.09547311, -0.077201374, -0.020252826, 0.0037170227, 0.083528385, 0.0066044135, 0.028650295, -0.11398705, 0.0058779814, 0.07938799, -0.086309925, 0.021146704, 0.024358, 0.08901844, -0.059774667, -0.09062553, -0.11034667, 0.017067662, 0.085536, -0.007818577, 0.09839923, -0.09318016, 0.002302586, -0.029959338, -0.097680315, 0.09065408, -0.11218814, 0.011290145, 0.11019691, -0.06260921, -0.11584961, -0.08214786, 0.03082878, -0.10158192, -0.10428483, 0.0155053, -0.079472266, -0.037571672, 0.066772774, 0.015143509, -0.0031883277, -0.07805152, -0.07678105, -0.015281632, -0.10237917, -0.07661225, -0.035885748, 0.058319952, -0.079441905, 0.097748265, 0.10607683, 0.025681546, 0.078679726, 0.029520135, 0.017736431, -0.114157714, -0.10860297, 0.036369305, 0.09968292, 0.0062408554, 0.08912961, -0.036775693, -0.082000546, 0.08956704, -0.057704728, -0.026302457, -0.09696942, 0.028593246, 0.055915277, 0.11117206, 0.016815469, -0.0490149, 0.006430713, -0.00893836, 0.030123947, -0.09284086, 0.1194005, -0.0916791, -0.09147588, -0.066034205, 0.09291008, -0.09858907, -0.045666777, -0.057157524, 0.109634444, 0.068393484, -0.110888205, 0.06404478, -0.113613024, 0.10380361, 0.0340076, -0.06772923, -0.045354955, -0.042080667, 0.0464407, 0.038713794, -0.03220393, 0.080456965, -0.08387656, 0.011332334, -0.046023894, -0.03842333, -0.10051164, -0.048158552, 0.0068719666, 0.02530454, 0.11649183, -0.04610769, 0.09734041, -0.019049035, 0.051790126, -0.06074212, -0.11045308, 0.075966105, 0.027194254, -0.027108451, 0.050584625, 0.07986253, -0.09561157, 0.08737324, -0.10210005, -0.03131275, -0.031105792, 0.107514866, -0.03720465, -0.021662077, 0.10571861, 0.07460657, -0.026410017, 0.03618163, 0.03844915, 0.047177147, -0.0006322512, 0.08767196, -0.0962963, 0.046803147, 0.031698335, 0.09655167, -0.0030305712, -0.09038036, 0.115406804, 0.03433363, 0.007837983, -0.10414326, -0.06699277, -0.039914567, 0.026146738, 0.114053205, -0.03362055, 0.09153705, 0.08913806, 0.019526936, 0.07723323, 0.07805265, -0.03963104, 0.11530983, 0.00013307852, 0.012620304, -0.041986246, -0.08554981, 0.04618825, 0.037087757, -0.10948196, 0.087201655, 0.04374328, 0.10541611, -0.073432885, -0.043665286, 0.0069915378, 0.05034198, -0.002801659, -0.089691974, 0.09021907, 0.04580453, 0.026917053, -0.049747244, -0.038084466, 0.053142626, -0.0371269, 0.1013955, 0.027373554, 0.08403752, -0.02622868, -0.0582103, 0.020602664, 0.10805082, -0.107217684, 0.110628515, 0.018924506, 0.012460966, -0.031792317, -0.09152619, -0.05235406, 0.10892984, -0.086933374, -0.016299997, 0.015565684, 0.07599007, 0.035858676, 0.09817168, -0.0649504, 0.07292371, -0.0029963753, 0.109825656, 0.06810443, 0.032615423, -0.0148181645, 0.054250527, 0.01971896, -0.11693145, 0.11275816, 0.11037346, -0.021835022, -0.048124157, 0.09371975, -0.107381724, -0.1173761, 0.08677821, 0.117176816, 0.026986115, 0.0052430658, 0.062242746, -0.05638728, 0.10724735, -0.04422316, -0.018236743, -0.11803463, -0.06496258, 0.0784185, 0.045107376, -0.039559342, -0.06806522, -0.10568905, -0.103014745, 0.07646767, 0.026712734, -0.04019155, 0.109424464, -0.09920854, 0.053055968, 0.01126977, 0.006471392, 0.054084163, 0.032899547, 0.09077386, -0.025310067, 0.05829127, 0.013480156, 0.010207393, 0.055267595, 0.112421714, -0.051370416, 0.07242036, -0.092316, 0.04749672, 0.036009766, -0.01650356, -0.089506134, 0.046809573, 0.10606711, -0.08456309, -0.05987774, -0.101343825, 0.06578125, 0.048644103, 0.09864723, -0.04539445, -0.10364902, 0.10502257, -0.06951847, 0.023902284, 0.039791275, -0.093284324, -0.05316131, 0.028398985, 0.05764594, 0.09869097, 0.016946979, 0.07946867, -0.056286145, -0.09576449, -0.03039908, -0.036113564, -0.010556204, -0.034024075, -0.080588944, -0.094122946, 0.11385913, -0.037733402, 0.02837016, -0.06108063, -0.11373587, -0.11771295, -0.059047267, -0.083193, -0.025574956, -0.05861905, 0.11218192, 0.004539388, 0.09424896, 0.10885651, 0.112405114, -0.111690335, 0.026984463, 0.04126279, 0.08135663, 0.08639574, 0.06257935, -0.11904786, -0.11187586, 0.0803714, 0.11346963, 0.009064884, 0.051523898, 0.061454806, 0.086244315, 0.054525632, -0.030630443, -0.102496594, 0.062491022, -0.046466745, -0.03338594, 0.11047053, 0.07075298, 0.07064349, 0.075866856, 0.09901988, 0.024692647, -0.021895818, -0.10063097, 0.026920302, 0.04275404, -0.083001375, -0.074465, 0.052392885, -0.1019388, -0.10211247, -0.09431389, 0.09590218, 0.071238816, -0.09941356, 0.093297645, 0.044853233, -0.03714022, 0.084532484, -0.118524134, 0.0197362, 0.09951657, 0.05350724, 0.017517293, 0.081996985, -0.103621975, -0.0011068884, 0.002102427, 0.04963642, -0.11735975, 0.09488467, -0.11074575, -0.11588165, 0.04176786, -0.0050174305, 0.028717048, -0.05398491, -0.08859432, 0.11808829, -0.03908056, 0.082492165, 0.015804457, -0.0970392, -0.070326015, -0.0677207, 0.08199117, 0.09127933, 0.109010674, 0.06604787, 0.116882466, 0.02793811, 0.04924065, 0.057425603, -0.05742465, 0.0534364, 0.10210465, 0.06455241, -8.548941e-06, -0.06364362, -0.002606615, 0.035340667, 0.038828008, -0.110596344, -0.027627101, 0.031245768, 0.00024011126, 0.002635382, -0.0058567086, 0.03534584, -0.037951715, -0.04589817, -0.015122493, 0.10849684, 0.04677415, -0.02271374, -0.023629801, -0.02074466, -0.097170115, -0.11765419, -0.10055515, -0.085103855, -0.020860542, 0.098479286, -0.09258486, 0.012685817, -0.0105524, 0.026325995, 0.10786849, -0.070356816, -0.025456753, -0.096145526, -0.059528444, 0.028686557, -0.0076608774, -0.07233624, 0.016339848, 0.088735044, 0.08540351, 0.03449814, 0.017701823, -0.060525708, -0.02791054, 0.052099686, 0.114206575, 0.11293046, 0.10050429, -0.06877808, -0.09314231, 0.09107008, -0.07770254, 0.03938416, 0.040140472, -0.089200184, -0.03589709, -0.03930253, 0.078943074, -0.11536709, -0.01906884, 0.06523991, -0.084445, -0.013785325, -0.074346706, 0.11584214, 0.03412213, -0.07060147, 0.017434526, -0.046094153, 0.07390038, 0.012969599, 0.09030203, 0.07115547, 0.05749371, -0.013367381, -0.09539732, 0.008045224, -0.038114913, 0.033474747, -0.09270319, -0.044147387, 0.030817052, 0.018861316, 0.049360603, 0.09048103, 0.1088376, -0.0051678065, -0.017450897, 0.11028784, 0.06721306, -0.055858698, -0.09182676, -0.034445122, -0.10972852, 0.0006132298, -0.030507738, 0.028891632, 0.05720054, -0.021352349, 0.091010846, -0.0722328, 0.04801111, 0.08013038, -0.0548527, 0.11107769, 0.004004794, 0.10751342, -0.011748639, 0.06509695, 0.09372703, -0.1086777, -0.095934294, 0.002707749, 0.040486574, -0.010403378, 0.043344658, -0.02349544, 0.041835867, -0.09558785, -0.054578863, -0.07046793, -0.009567889, -0.11780038, -0.057848107, -0.027302284, 0.10206161, -0.034796044, -0.07248351, -0.11699695, 0.0978575, -0.05996216, -0.09964653, -0.087800935, -0.11224361, 0.10916065, 0.1182963, -0.0009912925, -0.07976352, -0.06848752, 0.057965755, -0.109790765, -0.09291696, -0.023840688, -0.045588598, 0.037878763, 0.01707463, 0.058580026, 0.02170924, 0.07878776, 0.10963849, 0.08183054, 0.09925442, -0.041634455, -0.09261305, -0.0506657, -0.03172918, 0.01714154, -0.022177178, 0.013906434, 0.007877422, 0.08196558, 0.08817691, -0.014219853, -0.050662193, 0.09606007, -0.027162736, 0.102763504, -0.11882148, -0.09313821, -0.0868191, 0.08017898, 0.03147676, 0.034426913, 0.012457132, 0.072345786, -0.05157659, -0.07667223, -0.07020231, 0.080104776, -0.07225725, -0.012445421, -0.042572714, 0.006753507, -0.025262734, 0.11282025, 0.041221555, -0.07319125, 0.06551118, -0.06635452, -0.03575871, -0.079779446, -0.089744635, 0.010604847, 0.09764897, 0.06904421, -0.033024445, -0.057089116, -0.039856374, -0.04221416, -0.09432698, 0.09627555, -0.07754574, 0.055092055, 0.048511323, -0.0030486807, 0.11917984, 0.028411822, -0.08287599, 0.03536381, -0.06907783, 0.008447979, 0.014954577, -0.011855885, -0.020403117, 0.042417195, -0.094994724, 0.031772666, -0.108755685, 0.012882499, -0.061353657, -0.11470375, 0.04991898, -0.10363099, 0.062598884, 0.01670372, 0.031440657, 0.030706486, -0.10418132, -0.02232395, 0.0019834114, 0.005488463, -0.104062356, -0.116964206, 0.10071683, 0.096383, 0.091695234, 0.09534413, -0.035356898, 0.043592647, 0.015015973, -0.073829256, -0.08623917, -0.049697462, 0.05345942, -0.09871991, 0.0866908, -0.026255807, -0.016628802, -0.026140397, 0.005890306, 0.08792378, -0.036615442, 0.07622094, -0.0930985, -0.035519283, 0.0054528425, -0.028600825, 0.064808495, 0.06794719, 0.039338324, -0.08266715, -0.011922054, 0.10144751, -0.09187473, 0.00843373, 0.09110688, 0.08616605, -0.10134392, 0.030119859, 0.05770373, -0.118420616, 0.014348828, -0.045375172, 0.06296872, 0.094370835, -0.02955922, 0.004231954, 0.02564782, 0.048927173, -0.081882626, 0.03959492, -0.025862314, -0.09855921, -0.116425484, -0.07385128, 0.013727705, -0.10905703, 0.11158631, 0.005685687, -0.059508767, 0.024428243, -0.11596448, 0.03450341, -0.005142929, -0.10358956, 0.08105703, 0.0048671686, -0.0017840643, -0.0894311, -0.043160483, -0.09206513, -0.015681123, 0.055218995, -0.06783609, -0.038129434, -0.065064296, 0.014015947, 0.11464016, -0.116216205, 0.022251513, -0.032013405, 0.060381614, -0.059376102, 0.098459885, -0.07752949, 0.08568875, 0.06396442, 0.053388823, 0.041812103, 0.04714493, 0.010493526, 0.066975765, -0.0021196816, 0.030152515, -0.08021194, 0.029506385, -0.018535914, 0.045287747, -0.032148365, 0.0724592, -0.06563234, 0.10376564, 0.00097566214, -0.084614374, 0.051060647, -0.02250848, -0.038911235, 0.0039151586, -0.015140161, 0.08515225, -0.069394365, 0.01811619, -0.068636075, 0.06197582, 0.00021922335, -0.026014885, 0.001956525, -0.101407215, 0.03298324, 0.085444674, 0.10129128, 0.11574967, -0.0544406, 0.09189104, 0.027305704, -0.08943642, -0.0042805118, 0.09302065, 0.08397306, 0.028626628, 0.021399995, 0.109074846, -0.101667546, -0.10795453, -0.116376, -0.049854763, -0.10028129, -0.092764616, 0.07030981, -0.048082992, 0.100981876, -0.0616575, 0.043770038, 0.0973111, -0.070823744, 0.034875963, 0.118829146, -0.0076728314, -0.10110471, 0.008152441, 0.0950047, 0.03265844, 0.07285902, 0.04793075, -0.09258575, -0.052938636, -0.116722345, -0.0031926022, 0.030988416, 0.1151051, -0.09577172, -0.012177425, -0.115714595, -0.11593756, -0.11799773, 0.07148595, 0.026504824, 0.09223114, 0.027647076, };

static float32_t tensor_W_irbias[70] = {0.018070595, -0.033942346, 0.042534545, 0.11196111, 0.040693816, -0.10054681, -0.0540331, -0.02021467, -0.03533437, -0.09196498, -0.058035143, -0.0066835196, -0.04160113, 0.022967685, 0.07635988, -0.094794065, 0.061255474, 0.068372555, -0.0034791057, 0.09739477, -0.09153933, 0.08357314, -0.06754907, -0.031790648, -0.07701107, -0.071574084, 0.04986988, 0.035138328, -0.09325892, 0.074535154, 0.0948139, 0.037527073, -0.011943441, 0.09806494, -0.10926386, 0.008704931, 0.114481136, 0.0617719, -0.11528443, -0.0262913, 0.021822982, 0.02973879, -0.079666756, -0.06152854, 0.102644615, -0.0021809775, -0.09215554, 0.118345246, 0.033253346, 0.03636547, -0.082528256, 0.012270652, 0.09359491, -0.0220444, 0.03194024, 0.030550852, 0.07249677, 0.041261036, -0.11242865, 0.04354147, -0.058770906, -0.087643944, -0.046271887, 0.11641704, 0.06719924, -0.034321535, 0.10863286, 0.039362904, 0.050954867, 0.0076150694, };

static float32_t tensor_W_hrbias[70] = {-0.056745563, 0.112883925, 0.06828834, -0.02950905, -0.006966532, -0.09611703, 0.10511369, 0.11585105, -0.06392613, -0.09255169, 0.06770247, -0.0692077, 0.07997086, 0.07643352, 0.034240846, 0.089414574, -0.09407294, 0.062958166, -0.05083846, -0.09532124, -0.11917572, 0.011270212, -0.052635547, 0.08457177, 0.012704625, -0.11574335, 0.11700476, 0.026577732, 0.018461866, -0.07286414, -0.06946945, 0.035987608, 0.083119616, -0.08134698, -0.10478235, 0.108940385, -0.031886883, -0.02420117, 0.10058865, 0.10288322, -0.012285099, 0.07099716, -0.019969856, 0.032571707, 0.017571224, 0.09387848, 0.070564725, -0.011175931, -0.02528368, -0.081847, -0.072746515, -0.049135808, 0.017511366, -0.079790436, -0.11030736, -0.07971489, 0.1024928, 0.06276375, 0.097271435, -0.07630377, 0.08165679, -0.026424335, -0.08861276, -0.11147048, -0.11287599, 0.041814353, 0.10350594, -0.035492327, 0.095257305, -0.09692391, };

static float32_t tensor_W_izweight[4900] = {0.014781576, 0.01384531, -0.11316078, -0.113294914, -0.016666304, -0.021152545, -0.06308424, 0.06957671, 0.069436, 0.10465115, -0.0036441144, -0.060310073, -0.03569263, -0.104371674, 0.000861776, 0.097603105, -0.118731156, 0.06888985, 0.011425119, -0.11946684, -0.039406586, 0.068001844, -0.07874396, -0.045326516, -0.04527813, -0.013618307, 0.0198011, -0.10342275, -0.06913228, -0.022717899, 0.10048745, -0.041323945, 0.10458481, -0.016613642, -0.063070014, 0.118406, 0.09328277, -0.022667333, -0.08790124, -0.10525136, -0.0019774414, -0.09854811, -0.06985322, -0.09216046, -0.043991055, 0.118583746, -0.06391965, -0.028372739, -0.010250893, 0.085687816, -0.08368936, 0.043986384, 0.07248218, 0.10008925, 0.025820924, -0.06850802, 0.08945226, -0.049530458, 0.047479723, 0.05589322, 0.03614351, 0.048122674, 0.10991458, -0.022777086, -0.007823278, 0.0024638192, -0.09436833, 0.020397604, -0.054419328, 0.06930027, -0.04769594, -0.020831618, -0.025683898, -0.0046431436, -0.003102767, -0.07583945, 0.10403774, -0.06638515, 0.09711117, -0.032994453, -0.10156424, -0.06736731, -0.078642964, 0.050952148, -0.07585677, -0.05153782, -0.10700972, 0.113362126, -0.018390397, 0.107955374, -0.00251943, -0.030200945, -0.043010864, 0.03631485, -0.102138095, -0.05481527, 0.11037451, -0.07076747, 0.10450876, 0.033264387, 0.09416588, -0.00013790868, 0.0982688, 0.023248019, -0.10940294, -0.067701556, 0.024905588, 0.05400738, -0.00799175, 0.06003256, 0.03666785, -0.021485697, 0.107910834, 0.04548256, -0.014500657, 0.016235977, 0.068175785, 0.08105069, -0.027156696, -0.05397219, 0.10655014, 0.11210668, -0.09426403, -0.09315354, -0.047736235, 0.04006313, 0.10262606, 0.026591383, 0.037189405, 0.10971773, 0.034564793, 0.058936816, 0.0027074213, 0.080035456, -0.11202149, 0.08089667, -0.0574481, 0.07078348, -0.09359968, -0.071216896, -0.06860092, 0.015125756, 0.0075346665, 0.112923, 0.0056651696, -0.07559269, 0.07398503, 0.0043355958, 0.096685566, -0.103726424, 0.029817468, 0.116241194, 0.10993544, 0.09071175, -0.100573264, 0.02406849, -0.028787121, 0.07220097, 0.054660693, -0.025642479, -0.048565365, -0.09500723, 0.08083383, -0.05772261, 0.071681105, 0.056851156, 0.10549602, -0.028076135, -0.027357938, -0.03327057, -0.031579845, 0.0679039, 0.068382725, 0.07473852, 0.02996149, 0.10208298, 0.07078921, -0.02324138, 0.08197332, 0.03150047, -0.005900978, 0.035510477, -0.039887905, 0.07006124, 0.10054052, -0.05242936, 0.1060336, 0.00074979913, 0.02785114, -0.10120554, 0.020023543, -0.021158857, -0.016802758, 0.0923203, 0.07316721, 0.00043224872, 0.06241937, 0.008566524, 0.0058688056, -0.039741166, -0.08855585, -0.015143466, 0.050513014, -0.014014963, -0.02850056, 0.07185308, -0.054886654, 0.11780111, 0.081277564, 0.061664324, -0.028951546, -0.112578884, -0.0072540757, -0.020218402, -0.044483192, 0.083588146, 0.036708627, -0.100656606, -0.059346125, -0.070861705, -0.07671686, -0.11077054, -0.077226065, -0.06846501, 0.1097913, -0.07180726, -0.0706503, 0.08199024, 0.11305285, -0.03230223, -0.10200206, -0.0321409, -0.09216783, -0.11675722, 0.11076527, 0.06347449, -0.0036263755, -0.06321967, 0.06768351, -0.04856819, 0.070500895, 0.013995814, 0.0811016, -0.049273618, -0.09559181, 0.039102316, 0.0050220187, -0.07719054, 0.09381997, -0.0088269105, -0.03668999, 0.02890082, -0.046965405, 0.0084932875, -0.0033625122, 0.1101932, 0.01079291, 0.0965948, -0.05318104, -0.10475736, -0.037467957, -0.02605941, -0.03305189, 0.09240994, 0.08769626, -0.02977733, 0.11667361, -0.011766563, 0.07421012, 0.008391313, -0.035147704, -0.05236184, 0.0856626, -0.11853766, -0.10044406, -0.07869706, 0.011441433, -0.012003326, -0.110617146, -0.03497527, 0.11334201, -0.0027474444, -0.11532416, 0.014013795, 0.054533355, -0.049278792, 0.037391502, 0.106001355, 0.08869445, -0.024882449, -0.0052856966, -0.07419677, 0.038136184, -0.08884379, -0.07661651, -0.0470543, -0.053163357, 0.09834729, -0.042031825, -0.083766505, -0.0011447174, 0.05578804, -0.018851157, -0.04968351, 0.067341305, 0.0018608053, 0.09965813, -0.04493516, -0.116920866, -0.08191206, -0.10849615, 0.09008706, -0.06538413, 0.035176914, 0.043894853, 0.042452503, 0.068023495, 0.006079936, 0.059186287, -0.11874552, -0.032472484, -0.007427064, -0.032063957, 0.07734149, 0.0015988372, 0.08021556, -0.009114795, -0.10425706, -0.09275849, 0.015155264, -0.1011089, 0.10541724, -0.095888816, -0.01630058, -0.021869032, -0.109405704, -0.05288415, -0.115712784, 0.11769751, 0.07835847, 0.054267682, 0.021856623, -0.06264257, 0.06245747, -0.069691144, 0.06564685, -0.06145066, 0.046244916, -0.05637424, -0.110456824, -0.0874174, 0.07559686, -0.07662571, -0.025111774, 0.052461933, 0.09368386, -0.09418944, -0.113755316, 0.033687215, 0.021444164, 0.041559026, -0.10333574, 0.016830074, 0.093732476, 0.020787692, 0.035533477, 0.09067524, 0.03060692, -0.056439012, 0.039283127, -0.11101279, 0.0958243, 0.09525014, 0.018549863, -0.06794549, -0.11337901, -0.015073593, -0.063606046, 0.06310337, 0.087289095, -0.10467227, 0.009303713, 0.035646778, -0.06365177, -0.11089285, 0.09560831, 0.042486202, 0.047051877, -0.09898327, 0.056568015, 0.08827556, -0.10401823, 0.074435934, -0.07030521, 0.019709742, 0.013813009, -0.02255215, 0.060842488, -0.014603529, -0.055159107, 0.029868847, 0.015592713, -0.02291347, 0.027973462, 0.048509885, 0.06363134, 0.045983132, 0.072627306, -0.115989454, -0.050217677, -0.043363065, -0.016584931, 0.019785754, -0.0453917, 0.10122778, -0.0014259634, 0.1141569, -0.008307547, -0.059529383, -0.07319006, -0.03786802, -0.09987839, -0.05310131, 0.014453951, 0.06488138, 0.01087176, 0.08468417, -0.09695451, -0.045145564, -0.076618165, 0.088782825, -0.11092711, -0.051411737, -0.04691662, 0.009350177, -0.058630876, 0.02334451, -0.04734563, -0.023956697, 0.059959468, 0.0057509015, -0.056064397, 0.06905486, -0.09163781, 0.058186617, 0.0024871863, 0.025366632, -0.059205167, 0.005439264, 0.08835321, -0.045736108, 0.097743236, -0.10752672, 0.010372559, -0.084795564, -0.00092875696, -0.073353834, 0.018285759, -0.08494239, -0.03617027, -0.09457698, -0.08491789, -0.11556611, 0.028463459, -0.04158795, 0.005892101, 0.054174542, 0.10691028, -0.014850181, -0.028043134, -0.07551776, 0.03582562, 0.04054975, -0.10030862, -0.044526834, 0.10364909, -0.115779825, -0.113665655, -0.08393561, 0.009794536, 0.044647958, -0.05214065, 0.069424175, -0.057189025, 0.003761292, 0.036874406, 0.08678338, -0.110100105, 0.04050504, -0.1145019, -0.085632965, 0.03477276, -0.08731689, -0.04002975, -0.065768756, -0.011440492, -0.030177064, -0.093719676, -0.018902393, -0.012006162, 0.044432323, -0.10416339, 0.04926611, 0.083361395, -0.028563451, -0.063334234, 0.040709574, -0.062177576, -0.08482338, -0.0659542, 0.039697424, 0.048344307, 0.07410536, 0.040181264, 0.06654816, -0.0139125185, 0.027384894, -0.080585144, -0.026980743, 0.051259566, -0.030245798, 0.06799468, -0.074290425, -0.07304874, 0.02728718, -0.08485337, -0.10339021, 0.069134876, -0.0038241267, -0.058455724, -0.09811988, 0.08647449, 0.006663173, 0.111543536, 0.016491521, 0.0622393, 0.021241711, -0.010255153, 0.036853176, 0.06042637, -0.055408012, -0.061468083, 0.07597491, -0.03358077, -0.10806157, 0.017955028, 0.075650305, 0.11394991, 0.006659896, 0.01594785, -0.029803377, -0.04510215, -0.11026683, -0.07251179, -0.08193086, -0.0403187, -0.06630254, 0.11913095, 0.10231138, -0.011605331, -0.02806643, 0.015402912, 0.09211067, -0.082153775, 0.06254643, 0.0473912, 0.058883768, 0.09460451, -0.07949697, 0.0684946, 0.049904644, -0.06692997, -0.03326316, 0.047227073, 0.08088969, 0.1182804, -0.09758686, -0.0075570787, 0.009144018, -0.08719493, 0.023012126, 0.058800317, -0.086616375, 0.105879605, 0.04282401, -0.046189103, 0.11619698, -0.09557331, -0.088435695, -0.10168805, -0.10604299, -0.017883217, -0.077068806, 0.10475911, 0.06301637, -0.07736789, 0.083454825, 0.08246143, 0.067722246, 0.08860956, 0.10738804, -0.005456946, 0.0775426, -0.025626378, 0.059089743, 0.0330198, 0.1099976, -0.07851447, 0.07760488, 0.009899731, 0.045072854, -0.0056158993, 0.08009578, -0.11572723, -0.051409714, -0.02981479, 0.07463821, -0.051691245, 0.014408044, 0.012350428, 0.00053231406, 0.049317203, 0.08804731, 0.09864718, 0.10078026, 0.07309021, -0.07591712, 0.028975468, 0.007139292, 0.00034839785, 0.031935025, -0.07755961, -0.027368909, 0.071345106, 0.086006165, -0.044740003, -0.044622768, 0.07846743, 0.114821486, 0.016362105, 0.032523394, 0.021195177, 0.10324321, 0.027859133, 0.045546394, 0.034070425, 0.03124457, 0.1145458, 0.06257143, -0.03975427, 0.020663148, -0.07152597, -0.092827156, -0.036845695, 0.071690194, -0.049575597, -0.088514216, -0.0490418, 0.089704484, 0.105948955, 0.08611534, -0.060310643, 0.02870924, -0.11163408, -0.08174082, -0.0031177704, 0.07937588, 0.082191974, -0.05609231, 0.07495081, -0.076804616, -0.00064508885, -0.07364896, 0.11459874, 0.005015151, 0.060732633, 0.063568674, -0.08922041, 0.09257929, -0.10442168, 0.07609048, 0.0027233222, -0.016559042, -0.029373791, 0.092746496, 0.013548889, 0.041763928, -5.628053e-05, 0.08993277, -0.05419899, 0.11824683, 0.00590947, -0.036644038, 0.030592386, -0.007674242, 0.021345653, -0.07480993, 0.00010265854, 0.053131327, -0.018819483, -0.029454693, 0.07911442, 0.05932468, 0.10706164, -0.08772201, 0.10599793, 0.065013915, 0.058437455, -0.023610951, -0.08468559, 0.05390588, -0.10717701, -0.08961455, -0.075338416, 0.11004559, 0.03112359, -0.09096381, -0.014054346, -0.038240697, 0.033655785, 0.045992892, 0.005592404, 0.0353926, 0.07178925, 0.062259402, 0.03951848, -0.066786125, 0.0031162316, -0.08154147, 0.002554552, 0.06370192, -0.07435092, -0.0049425988, 0.062316865, 0.0706344, -0.043653216, -0.086202934, 0.016122134, 0.06810731, -0.08036254, 0.10916563, 0.025557416, 0.10808003, 0.07705168, -0.03365527, -0.105043866, 0.11525334, -0.015339636, 0.09026414, -0.08456695, 0.011548551, -0.0816656, -0.060776062, 0.08301159, -0.0052207955, 0.10536405, -0.008600719, 0.09556833, 0.0768007, -0.015528867, 0.082389265, -0.031298913, -0.03215794, 0.044281263, 0.02868409, 0.091971494, 0.017143063, 0.018063955, 0.08569915, 0.037777543, -0.048829872, 0.08818837, 0.07818469, 0.060004007, -0.08206506, -0.081667535, -0.038147714, -0.040466726, -0.099262215, 0.049409132, 0.11121635, -0.08418708, -0.019563496, -0.07560218, 0.050777607, 0.054811336, -0.013284371, 0.09613228, 0.004712889, 0.06570152, 0.046487674, -0.10501142, -0.10407803, -0.0014013567, -0.02680938, -0.008394448, -0.02033655, 0.093186766, 0.046707228, 0.05918348, 0.0045322357, -0.007595421, -0.059765164, -0.03379315, -0.11877882, 0.0642048, 0.085164465, 0.026430078, 0.064331114, -0.05639604, 0.032635428, 0.051456433, 0.09519593, 0.1188353, -0.03285964, 0.09903654, -0.036098063, 0.015524564, 0.04808694, -0.013236739, -0.10967111, -0.076540925, -0.0644169, 0.11249576, 0.05420405, -0.06740641, -0.050906766, -0.022275649, 0.029583797, 0.0848206, 0.06244627, 0.03141636, -0.0523057, -0.031167189, 0.01736283, -0.054930452, 0.07147129, 0.07726119, 0.09004201, 0.09346843, -0.10341543, 0.07878211, 0.079326265, -0.015021729, -0.011371802, 0.11335889, -0.05863736, -0.06374168, -0.03822226, 0.0023190712, 0.09535107, 0.07960633, -0.07461789, -0.002777024, -0.06969429, 0.102852084, 0.017566891, 0.09453392, -0.068851024, 0.08727465, -0.024421575, 0.07950295, -0.088454925, -0.04566937, -0.016833663, 0.00012169418, 0.0553964, 0.08929598, 0.10443652, 0.07248059, -0.05732068, -0.016162729, -0.03750596, 0.07831034, -0.07234073, 0.096158236, 0.00845241, -0.048455942, -0.06744817, 0.07978586, -0.007719808, 0.007378278, 0.012018971, 3.7444363e-05, 0.05135882, -0.020016918, -0.025034934, 0.010304295, 0.012228434, -0.118860334, -0.043101426, 0.036091864, 0.1094456, -0.10088027, -0.073321365, -0.11673584, -0.0925908, 0.035723574, -0.000613757, 0.09196013, 0.090956956, -0.014679373, 0.11818847, -0.086050406, -0.036567867, -0.06474559, 0.07879757, -0.05516468, 0.008846274, 0.0075254478, -0.08929275, 0.04445361, -0.0268452, -0.002097967, -0.04860217, 0.033866744, -0.03027817, -0.07097816, -0.09116628, 0.11468791, 0.07874266, -0.027644541, 0.023997292, -0.09903757, 0.08654561, -0.048358142, -0.018609948, 0.026369993, 0.06448509, 0.096334375, -0.07196385, -0.019874165, -0.06518417, -0.08528938, 0.036380205, -0.108846575, 0.084669925, -0.037435144, -0.107362434, 0.11021637, 0.044599526, -0.11702492, -0.08802775, 0.0012652006, -0.029448895, -0.052916564, -0.013498094, 0.10904767, -0.10417039, 0.09830969, -0.031640872, 0.119088046, 0.0029880118, 0.04362441, 0.08408856, -0.1003974, 0.05843167, -0.099923305, -0.01631289, -0.044487607, 0.018821064, 0.09177029, 0.00023404152, -0.04078398, -0.019814394, -0.017400686, 0.021079965, 0.09010045, 0.027378596, -0.014775762, 0.07711258, -0.07794906, 0.07277312, -0.11816064, 0.020818695, 0.07315177, -0.0951109, -0.056717608, 0.1096835, -0.0197957, 0.012074724, 0.040082168, 0.036015593, -0.006435515, -0.11642836, -0.08450989, -0.10691159, -0.012405183, -0.03509815, -0.029387271, -0.01814879, 0.048920862, -0.0053036776, -0.05319559, -0.010760068, 0.034792908, 0.047757063, 0.07165101, 0.084846646, -0.091110766, -0.11154191, 0.05285172, 0.05228869, 0.055686265, -0.058533974, -0.0916044, 0.061458252, -0.007904081, -0.09462679, 0.061694846, -0.07664703, -0.0838056, 0.02264968, -0.11324069, -0.09537946, 0.019123297, -0.06856716, -0.099999875, -0.035755176, 0.0017320297, 0.03457454, 0.114015564, -0.08522749, 0.05793414, -0.092596985, 0.06807475, -0.10664662, -0.0021798376, -0.0011178168, -0.09573654, 0.074883595, -0.08390069, 0.0048977453, -0.030350965, 0.08137798, -0.011667453, 0.08662159, 0.022943279, 0.107387796, 0.054509573, -0.08706769, 0.014978457, -0.11410835, -0.07120168, 0.06074959, 0.08866771, -0.102109976, -0.08635657, -0.08224331, 0.043089572, 0.013523356, 0.026008103, -0.011557613, -0.04123519, 0.009041931, -6.349014e-05, 0.107160196, -0.10480765, 0.110941306, 0.010695709, -0.07062866, 0.030811025, 0.09427245, -0.051038817, -0.010589103, 0.04171802, 0.043031152, -0.07407077, -0.07194484, 0.053435814, -0.024075385, 0.10608703, 0.07040948, -0.042394314, 0.045226865, -0.025127161, 0.032444615, -0.05731591, -0.06730693, 0.051399086, 0.08023791, -0.078183375, -0.10169018, 0.108536616, 0.11624437, -0.10217049, 0.024931407, 0.056878228, -0.11510605, 0.012074311, 0.046743672, 0.11073279, -0.07577875, -0.037130248, -0.05640841, -0.010183171, 0.05834127, -0.072802156, -0.021113591, 0.03099547, 0.054763608, -0.07934432, -0.018153805, -0.028677793, 0.06893772, -0.04239893, 0.057218064, 0.09825665, -0.08112196, -0.06919992, -0.05133424, -0.013818537, -0.037027374, -0.05819129, -0.05263639, 0.03616902, 0.073440105, 0.051413734, 0.07503881, 0.0072616846, -0.11943592, -0.004700108, 0.0771354, 0.001968294, -0.04866606, 0.107869186, -0.11303856, -0.07272996, -0.02995881, -0.08999493, -0.042676713, 0.108617365, 0.020109631, -0.020022875, -0.048177816, -0.07266412, 0.10536842, -0.059575137, 0.07478736, -0.028835023, 0.08646315, -0.010081738, -0.024141327, 0.0026432187, -0.054622933, -0.035916567, 0.03471188, -0.10880176, -0.00058437715, -0.07475076, -0.030948991, 0.10745037, -0.008647653, -0.06805, 0.011808895, 0.025411215, -0.009332737, 0.036242027, -0.040748898, -0.10339641, -0.0323356, -0.0482387, 0.08379685, -0.057831194, -0.06616294, 0.09030725, -0.02872326, -0.022338925, 0.0069343313, -0.08358073, -0.053250402, 0.09677035, -0.02611837, -0.014233674, 0.0535384, -0.072075665, -0.074898176, 0.08814473, -0.08326905, -0.09594162, 0.06993041, 0.017803583, -0.045824364, -0.056866873, -0.004114506, -0.009139787, 0.025374241, 0.039255258, 0.08466752, 0.06428344, 0.08423376, -0.014305513, -0.06689615, -0.077544615, 0.09085758, -0.11484903, 0.11266071, 0.055722527, -0.031559158, -0.08563912, -0.103271626, -0.065471694, 0.07142126, 0.07121207, 0.062432833, -0.055366747, -0.1117977, 0.09802974, -0.0891836, 0.0116267735, -0.015351277, 0.09363513, 0.014997935, 0.11325612, 0.094253905, 0.00470226, -0.02765648, -0.10818108, -0.06271797, 0.06437182, -0.025222711, -0.09105267, 0.014017343, -0.04442453, 0.037837185, 0.0030386073, -0.028266547, -0.027678395, 0.01441551, 0.029224427, 0.014809388, 0.077776216, -0.08918774, 0.10875534, 0.04052057, 0.10860954, -0.043247413, 0.04025715, 0.09869853, -0.017242916, 0.0059120203, 0.015248333, -0.114298105, 0.073795445, 0.110987596, -0.039910432, -0.03447858, -0.056203377, -0.05017476, -0.08880121, 0.079167426, 0.064463735, 0.05051494, 0.0838276, -0.0041640326, 0.068779, -0.048353765, -0.044573653, -0.027150981, -0.04012598, 0.014501783, 0.039257538, -0.06201553, -0.0020541395, -0.024032157, -0.1103458, 0.040544193, 0.014888352, 0.057825793, -0.014417035, -0.06359898, -0.06266217, 0.06792442, -0.0045370227, -0.10668599, 0.04314135, 0.08269612, 0.08022346, -0.011443313, 0.02499501, -0.06632001, -0.089140765, 0.0903786, 0.05198745, -0.08171285, 0.08762089, -0.060296252, -0.053096704, -0.092469655, -0.022573166, 0.107159026, -0.1077968, -0.015537558, 0.007731235, 0.09282704, -0.07991681, 0.029417805, -0.107211344, -0.0080674365, -0.08880066, -0.104399644, 0.072174326, 0.008463822, -0.04361483, -0.04804538, 0.0007127395, -0.037908956, -0.060237776, 0.029457914, -0.112442456, 0.09967719, 0.026804307, 0.0950734, -0.05712196, -0.067720026, 0.05255544, 0.09885132, 0.0895014, -0.057586737, -0.07417985, 0.010338633, -0.0083780475, 0.113081075, -0.10353375, -0.05465334, 0.00958835, 0.117803514, 0.11354386, -0.009339675, 0.024494285, -0.095621265, 0.057893828, 0.06923044, -0.06980108, 0.0929455, 0.008105579, -0.07978533, -0.028400438, -0.010706409, -0.09119572, 0.073479146, -0.0746286, -0.09566295, 0.10407967, -0.10635336, -0.007916262, 0.07494873, -0.11016954, -0.08768153, 0.10489081, -0.10895889, -0.011203202, -0.10741731, 0.11661065, 0.021868875, 0.008365068, 0.05749338, 0.032266926, -0.036542166, 0.08792583, 0.09308404, 0.07369962, 0.07963272, 0.102113, 0.08061472, 0.11780676, -0.07451532, 0.09765098, -0.06354408, -0.08888373, -0.028849928, 0.074168175, -0.07242996, 0.0040548197, -0.07014496, 0.026498057, 0.021616155, -0.0055671846, 0.017374897, 0.03914569, -0.0005313167, 0.004045516, -0.021548618, -0.085362874, 0.074209355, -0.011684608, 0.10029638, 0.08879479, -0.03478547, -0.0112040145, 0.06430602, -0.10289442, 0.0739151, 0.11399292, -0.046540324, 0.11833037, -0.007046949, 0.10826613, 0.08595345, -0.046661403, -0.063965514, 0.011966366, 0.09704882, 0.0034147606, -0.09413775, -0.021845493, 0.03746998, 0.085463256, -0.040800847, 0.09614612, 0.03941401, 0.114611596, 0.005424061, 0.090254836, -0.036925156, -0.099573694, 0.09485628, 0.01920521, 0.027965253, 0.1039097, 0.11837471, 0.07740243, -0.08467947, 0.09435308, -0.049634997, 0.11527851, 0.070488356, -0.06547352, 0.050973374, 0.0013438223, -0.043163177, 0.08209845, 0.06505138, 0.11901353, 0.020434761, -0.09442716, -0.06107734, -1.1398588e-06, 0.09232089, -0.03532461, -0.03731942, -0.094018765, 0.076532684, -0.063871734, 0.05527905, -0.041754056, -0.048974376, 0.09449219, 0.033345643, 0.071182065, 0.06561304, 0.0019538177, -0.10414703, 0.006591248, 0.097595155, 0.06794425, -0.086351246, -0.06203672, -0.1010626, 0.064878926, 0.049217593, 0.082894236, -0.08949438, -0.09954151, -0.079456754, -0.11588278, 0.024580216, 0.023768308, -0.017135696, 0.031895757, 0.086365424, 0.07553075, -0.055669453, -0.06981222, -0.06417501, -0.021289628, -0.03633766, -0.10246617, -0.02798828, -0.0012684349, -0.095211424, 0.010016595, 0.021398, 0.08726406, 0.05661163, 0.06053008, -0.022123164, 0.09275415, -0.02148225, -0.06705622, -0.0065229847, 0.0109698735, -0.015951298, -0.00674909, -0.025660602, 0.054057248, 0.1170057, -0.0796381, -0.06785491, -0.01839168, 0.06456659, 0.008051265, 0.101596504, -0.009715373, 0.109537944, -0.04014392, -0.0036555415, -0.089118354, 0.039417885, 0.06887768, 0.064730816, -0.0031976176, 0.05462108, 0.04514106, -0.11494141, 0.107390076, -0.09485848, 0.09313487, -0.09642602, -0.05816503, 0.069039665, 0.036357068, 0.044716876, 0.04848347, 0.045969337, 0.007937493, 0.112599604, -0.017176177, 0.11201374, -0.09366386, 0.01933517, -0.019308481, -0.016914621, 0.05302831, 0.09036315, 0.04396635, -0.019199412, 0.071898945, -0.027634496, -0.090319835, 0.10729189, -0.082362495, -0.017293042, -0.10829568, 0.06628336, -0.041892875, -0.044441428, 0.048171744, 0.099598475, -0.06873593, -0.013171681, -0.03999313, 0.10842474, -0.03151073, -0.11231056, 0.11229917, -0.024819884, -0.022965947, -0.073000975, -0.04994488, 0.077335544, 0.057680305, 0.111322075, -0.027432313, -0.020501202, -0.0022764264, -0.055819955, -0.111255206, 0.055717025, -0.08046212, 0.03514806, 0.016956441, 0.086067565, -0.063192934, -0.002717751, 0.04203174, -0.02827249, 0.10208741, -0.03467905, -0.108885854, -0.09534624, -0.06115541, 0.01602009, -0.050280955, 0.0015073351, 0.06803397, -0.057455767, -0.08911047, 0.034141965, -0.051857322, -0.050276924, -0.08273291, 0.068364486, 0.0027966294, 0.0489493, 0.07327897, 0.09051002, 0.09377346, 0.092100255, -0.05845397, -0.11519143, 0.060497764, 0.08145272, -0.026339902, 0.10603788, -0.106336564, -0.052223586, 0.08542977, 0.06585571, 0.06300497, 0.024803612, -0.055490352, 0.069982216, -0.023653552, 0.04601841, 0.089744836, 0.024725975, -0.09981479, 0.0040707635, -0.065865956, -0.038026802, -0.040757008, -0.027698798, -0.09299304, 0.09087425, 0.022389477, 0.11571639, 0.03305421, 0.0959054, -0.0023387624, -0.056962907, 0.08047594, 0.103442974, 0.029021233, 0.07526855, 0.0922723, -0.008820256, 0.09038905, 0.055779863, -0.028036524, 0.064267464, 0.095176406, -0.023983628, 0.038431793, 0.098207116, 0.079113215, -0.056818943, 0.0481663, -0.08043046, 0.0926294, -0.02338456, -0.05718508, -0.03958506, 0.029888695, 0.11028053, 0.08619829, -0.012056985, -0.006413772, 0.04804656, 0.087505266, -0.0940208, 0.03155957, 0.08316118, 0.11340967, 0.08728574, -0.055151116, -0.05953611, 0.028578939, -0.059167936, 0.09102042, 0.11907739, -0.09998581, -0.017363185, 0.060014024, 0.07540377, -0.01126068, 0.06276711, -0.027367812, 0.11516295, 0.08023599, -0.09552, -0.014853144, -0.053904552, 0.026001193, -0.028571773, 0.004558281, 0.057207905, 0.03820136, 0.046728756, 0.045382783, 0.033886805, 0.08983209, -0.05640114, -0.0061373417, 0.029121868, 0.08536734, -0.06920998, 0.04718534, 0.06765316, 0.047415107, 0.045747437, 0.11759295, -0.08804045, 0.042820107, -0.0035612183, -0.06274286, -0.06035369, 0.08424373, 0.0036360926, 0.022298673, -0.023491152, 0.09902081, 0.075862266, -0.088021606, 0.033722725, -0.044052195, 0.046675067, 0.0704342, -0.032937847, -0.10633588, 0.09126153, 0.0597405, 0.028333172, -0.036811627, 0.10762094, -0.082834594, 0.0027994649, 0.017357044, -0.112370476, 0.07415507, -0.01914893, -0.02529941, 0.10559402, -0.050445992, 0.093825, 0.05465237, 0.03938399, -0.012176642, 0.0934018, 0.094750054, -0.03131956, -0.06454361, 0.09918144, -0.038113005, -0.015602445, 0.07979536, -0.017271625, 0.07212648, -0.05801313, 0.09331715, 0.06624452, 0.010715713, -0.041170247, 0.06719841, -0.0037505203, -0.067626, -0.0010812131, -0.08306039, 0.104573146, 0.08973403, 0.10707015, 0.0697548, 0.1126614, 0.09633711, -0.08025243, 0.04708469, 0.06147736, -0.0015314146, 0.027944623, 0.06804087, -0.0654213, -0.0036774697, -0.04992988, 0.024315411, 0.017103197, 0.07711875, 0.07152381, -0.05321981, 0.083753996, 0.0101614855, 0.061759647, -0.052917562, -0.032506395, 0.062233686, 0.021863092, 0.010787766, -0.028196517, -0.11756782, -0.005153159, 0.029640147, -0.03665813, 0.0076478827, 0.005577073, -0.08640812, 0.031849638, 0.020621885, 0.100638665, 0.097266965, -0.10827878, 0.04300558, -0.08246533, -0.1120069, -0.015260886, -0.0034513073, 0.055694174, 0.030346334, -0.11280774, 0.04391625, 0.024024805, -0.081051916, -0.021238506, -0.090456516, 0.02393856, -0.01294227, -0.068586476, -0.030165609, 0.092873745, -0.062510625, 0.030493846, -0.08568075, 0.05660533, -0.014587942, 0.07915904, -0.079132445, 0.071714714, 0.04508374, -0.03741421, 0.025684895, 0.108127706, -0.11652116, -0.0024445984, 0.019309293, 0.0641182, -0.06933324, -0.11208052, 0.02779218, -0.10124043, 0.107141234, 0.0014181839, 0.03545068, 0.031405818, -0.07252517, -0.09697422, 0.11130994, 0.072495475, -0.029793188, 0.092577055, -0.064858936, 0.083413675, 0.10747531, -0.11069544, 0.073266804, -0.008192051, -0.029832998, 0.10654121, -0.05596818, 0.06502906, 0.11159154, 0.0851953, 0.03744657, -0.06890159, 0.03814844, -0.09633279, -0.024229152, -0.008040849, -0.037348986, -0.0404722, 0.030750584, -0.04697478, 0.06552563, -0.020841792, -0.112366855, 0.06708722, -0.10850566, -0.066568784, -0.11771711, 0.0038924185, -0.032373287, 0.004009653, -0.06666052, -0.09178978, 0.08847254, -0.02237979, -0.09998309, 0.06695827, 0.035434265, 0.0022883378, -0.09040524, 0.111822, -0.073127314, -0.078747876, 0.11173097, -0.04447209, -0.07916402, 0.055510726, -0.0460336, -0.07546558, 0.008216131, 0.095881745, -0.07690127, -0.04185448, -0.001319871, -0.016130414, 0.036748808, 0.09179045, -0.05062351, -0.030257396, 0.042180277, 0.11855944, -0.105052695, -0.030643838, 0.080139674, 0.077901185, 0.053730525, 0.057787396, 0.02000109, -0.042349875, -0.043091323, 0.020816686, 0.014572824, -0.11404216, 0.091185585, -0.10932466, -0.010320324, 0.027224246, 0.023411034, -0.010339788, -0.014117309, 0.10556435, -0.0826463, -0.03835477, -0.06754529, -0.08634289, -0.07944762, -0.057641722, -0.011210868, 0.030796707, 0.11730873, -0.08382234, -0.101172805, -0.04353403, 0.004162451, -0.030332983, 0.005696573, 0.031667016, 0.07005293, 0.08542444, -0.092355624, -0.052153144, -0.076539814, 0.10735208, -0.070972525, -0.054447994, -0.05287657, -0.08758619, -0.010946021, 0.094413824, 0.0864216, 0.041555222, 4.7432375e-05, -0.035020027, 0.099027015, -0.033202607, 0.094912045, 0.08976733, -0.037557464, -0.04438854, -0.038372166, -0.11662459, 0.09429337, -0.04030092, -0.0006223914, 0.10354492, -0.0012036196, -0.03364641, 0.08544429, -0.051234502, 0.013079225, -0.035105273, 0.014860425, 0.114585966, 0.02884041, 0.11440972, 0.08792391, 0.028172636, 0.028324196, 0.1131059, 0.064733356, -0.058210324, 0.03309358, 0.10292448, -0.085636355, -0.09256466, -0.010658891, 0.089147516, 0.09231909, 0.04420431, 0.03073212, 0.03561657, -0.008268009, 0.10605515, -0.06888226, -0.07950189, -0.016226673, -0.026620805, 0.00076330645, -0.10139586, -0.10341472, -0.10896019, -0.08024206, -0.033180192, -0.0003343206, -0.09455021, 0.09611498, -0.10210176, -0.11743788, 0.10145325, 0.011669134, -0.003506847, 0.06838354, -0.049117457, 0.03673282, 0.016862417, 0.0016456, 0.10108954, 0.012044475, 0.049214147, -0.0363125, -0.015324205, -0.06480344, 0.09524915, 0.00025561335, 0.079930104, 0.089055166, -0.05177977, -0.08660723, -0.010506592, 0.054001838, 0.0680977, 0.10424415, 0.055684343, 0.040690638, -0.014365014, -0.0699463, -0.060162064, 0.016203634, -0.055025518, -0.08572595, 0.017552117, 0.065332234, 0.028104616, 0.074116655, 0.047208022, 0.04378645, -0.03633246, 0.08068564, -0.118576206, 0.058143016, -0.052975908, -0.074416414, 0.0835024, -0.01080351, 0.113099344, 0.119006395, 0.08109939, 0.09816356, -0.10740072, -0.07000016, -0.09223247, 0.112144455, 0.0049793595, 0.107040115, -0.08250625, -0.0018110363, 0.030614229, -0.1124197, -0.0848981, 0.083871126, -0.011589742, -0.04430436, -0.053162433, 0.07557657, 0.11009887, 0.073005654, -0.02440828, -0.1149091, 0.11676631, 0.06763059, 0.055643577, -0.106336035, -0.060958967, -0.05265196, 0.02288818, 0.022872664, 0.11857114, -0.032023937, 0.02434992, 0.05424212, 0.018406782, 0.024070099, 0.058658104, -0.048431106, -0.0057663466, -0.05361654, -0.062215276, 0.106076, -0.08839275, 0.08434183, 0.07046221, 0.0052304277, 0.07699355, -0.0024948518, -0.08923751, 0.029294074, 0.06198186, -0.11297383, 0.10573982, -0.06364503, -0.031797774, 0.029273327, -0.04750094, 0.07892414, -0.06202697, -0.07144813, 0.09171679, 0.04133094, -0.02924171, 0.044270065, 1.664194e-05, 0.113063864, -0.028638853, 0.016546845, 0.08499335, 0.052628763, 0.059395038, 0.061828908, 0.029463043, -0.0067190547, 0.07812444, -0.101996206, 0.047345262, 0.064447366, 0.09120488, 0.0805105, -0.09983361, -0.030567594, 0.032843564, -0.06460713, 0.047298428, 0.037416294, -0.091359034, 0.020445919, 0.109019816, -0.004875048, -0.04726952, -0.051258612, 0.11618713, -0.049868282, -0.10003306, -0.11534719, 0.012822899, 0.08652543, 0.014896473, -0.05228836, -0.0006784867, -0.065738864, -0.102433614, 0.04636705, -0.08474615, 0.11938896, 0.10824698, -0.11523605, -0.018812444, -0.04526321, 0.014699006, 0.008361235, -0.10588335, 0.11169571, -0.021112721, 0.033522565, 0.055411033, -0.0058001005, 0.07134637, 0.032561578, 0.042043965, -0.11780806, 0.07986601, 0.05047127, 0.09620949, 0.066384636, 0.07113705, -0.097752355, 0.007780876, 0.0070575215, 0.00052786863, 0.031892423, -0.015230537, 0.052920256, -0.028140265, -0.0246133, -0.040396582, -0.08035944, -0.11496291, -0.051959183, -0.034921814, -0.0889768, 0.058779813, -0.008283468, -0.10547246, 0.077067666, -0.11348942, 0.11766837, -0.07159231, -0.017636636, -0.07322653, -0.092966974, 0.02331, -0.06789973, -0.117828235, 0.0017796902, -0.107097715, -0.074913, -0.09720303, 0.07438592, -0.07050642, -0.016280746, 0.11404739, 0.026158292, -0.053706445, 0.07820098, -0.075304076, 0.0780913, 0.08416974, 0.04705732, 0.09417851, 0.04859512, -0.10557542, -0.059738804, 0.08454421, 0.06074543, -0.118347384, 0.01892311, -0.100125484, 0.031584363, -0.062439844, -0.0065899943, -0.07574194, -0.017033394, 0.03366429, 0.08396895, -0.044999164, -0.101248115, 0.09598169, 0.0009837836, -0.03359268, 0.02419668, -0.008646214, 0.116593756, 0.0237388, -0.07794814, -0.08412668, 0.067865625, -0.07121452, 0.03950939, -0.021838883, -0.076495655, -0.09549203, -0.10476092, -0.009659078, 0.06709178, -0.0719325, -0.077462725, 0.0047116494, 0.015616194, -0.057178654, 0.050057527, 0.003947374, -0.103646055, 0.109811336, -0.028684733, -0.07672728, -0.04329584, 0.1049187, 0.06370026, 0.11200311, -0.099753335, -0.040139202, 0.023570001, 0.028035255, 0.010869423, -0.04667641, -0.1195033, -0.079455145, -0.027019827, 0.080875546, -0.03294045, 0.01315779, 0.10178338, -0.08264853, 0.03848122, -0.062019777, 0.07853493, 0.088909715, 0.1154971, 0.07781142, 0.0763227, 0.023112034, -0.096709415, -0.009180153, 0.036232065, 0.062067535, 0.02785778, -0.06039549, -0.108603016, 0.11737199, 0.071852416, -0.050357126, -0.081509635, 0.0737694, -0.031495966, -0.10167425, -0.11860512, -0.11328701, 0.07222346, -0.015699845, -0.050599985, 0.0035088132, 0.0501396, 0.11563237, 0.023051023, 0.10820227, 0.06865871, -0.1136259, -0.011858421, 0.092064634, 0.091573, 0.038138635, 0.03397207, -0.07680154, 0.078397684, 0.10014491, 0.1154339, -0.011841139, -0.057270583, 0.1073661, 0.02990974, -0.020483704, 0.11796476, -0.11946433, -0.08391454, 0.06728508, 0.09880691, -0.07945412, -0.11889657, -0.016621606, -0.011233622, 0.051584426, -0.006700019, 0.048257876, 0.035770066, 0.024433872, -0.012047097, -0.02582004, 0.06679036, 0.10986048, 0.0474012, -0.061926067, 0.11035572, 0.019448157, 0.11550375, -0.08805546, -0.019742342, 0.10110699, 0.0033233867, 0.030545468, -0.030373406, -0.08322557, 0.117235325, -0.09433519, 0.024037272, 0.030322924, -0.08751645, 0.0062040947, 0.009732086, 0.07870111, 0.074545786, -0.039287314, -0.025179796, -0.035805415, 0.044912603, 0.09843181, 0.09918174, 0.049365163, -0.09811262, -0.033761192, -0.09363264, 0.08356452, 0.056755837, 0.06996902, -0.04173865, 0.053484157, -0.10268183, 0.111431316, -0.09698238, 0.0019402963, 0.103146255, 0.0714754, -0.11776922, -0.07105034, 0.08418053, -0.080906965, 0.021020679, -0.09364724, 0.022562038, -0.095516905, -0.030768167, -0.03282614, 0.117096, 0.10404614, 0.032582566, -0.11081031, 0.114331886, -0.09353605, -0.080080815, 0.09668331, 0.022697026, -0.10656891, 0.001324345, -0.075191416, -0.03744656, 0.1153867, 0.06103964, -0.089998655, -0.09707655, 0.043478362, 0.09464689, 0.041799236, 0.0961882, 0.005389523, 0.03406022, 0.109461114, 0.08263474, 0.073290855, -0.07744946, -0.023326071, 0.11359335, -0.067904055, -0.0013766503, -0.10579704, 0.01297782, 0.10731694, -0.038315017, 0.09263993, 0.04427132, 0.04636185, 0.01878191, -0.06540407, -0.056035616, -0.078791335, -0.002410716, 0.02550591, 0.064441495, 0.028826417, 0.043801397, 0.11117729, 0.054930866, 0.062404364, -0.07095152, 0.0978396, -0.019302383, 0.06446939, -0.102487944, -0.107807636, 0.07078584, 0.024109397, -0.093853936, -0.03801013, 0.10901111, -0.020600298, -0.10996424, -0.11568688, -0.07617281, -0.046593398, 0.05099623, -0.08551657, -0.11854998, 0.113820635, 0.050394967, -0.054730777, 0.062029567, 0.035704684, 0.043533687, 0.0029596006, 0.10786078, -0.015969308, 0.11405211, -0.11593078, -0.018534603, -0.046094794, 0.036452487, 0.07677633, -0.056291174, 0.08097938, 0.018017165, 0.03786537, -0.041938156, -0.060525406, 0.06384248, 0.08661781, 0.058039345, -0.0066537834, -0.021420442, 0.06493072, -0.067374066, -0.043781478, -0.09152709, 0.05282103, 0.113552526, -0.04863816, -0.086780705, 0.03456901, 0.033956125, -0.015501838, -0.085363515, 0.10806694, -0.051056772, -0.06140904, -0.008418342, 0.032637037, -0.041118726, -0.08704549, -0.098521106, -0.096722536, -0.030047975, -0.023127507, 0.06651118, -0.049005125, -0.08655728, -0.062206954, 0.10303107, -0.07446618, 0.046782985, 0.06899731, 0.036349002, 0.062126525, -0.06523855, 0.08047553, 0.07059942, -0.04962367, -0.024938202, 0.11077681, 0.07106382, -0.034573756, 0.032086, 0.017382761, -0.06020381, 0.03865733, -0.06077807, 0.0153589565, -0.050642345, -0.06406659, -0.07881772, -0.08714705, -0.041966666, -0.07290165, -0.06789553, -0.10390678, 0.08983645, -0.05152028, -0.054601945, -0.111723594, 0.037616197, 0.08524779, 0.021827927, 0.022688476, 0.061389364, -0.071329035, -0.047713794, -0.072146624, 0.11409004, -0.067447126, 0.07167052, 0.05634573, -0.06898038, 0.09965618, 0.09232495, -0.11793462, 0.024455942, -0.0979622, -0.048518647, -0.11365913, -0.04804569, -0.09846699, -0.018017776, -0.02389633, -0.0019150483, -0.0965138, 0.110631734, -0.052068267, 0.11020644, -0.049205285, -0.063714445, -0.10659317, -0.104961604, -0.0781836, -0.0137930615, 0.112765536, 0.052303407, -0.09460669, 0.06518209, -0.08810643, -0.059880946, 0.053323396, -0.052923333, -0.08743076, -0.022209223, -0.049584713, -0.044196546, 