// *****************************************************************************
// 	THIS CODE WAS AUTOMATICALLY GENERATED ON 2024-02-06 21:38:41
// *****************************************************************************

#include "dummy.h"

static float32_t tensor_W_irweight[900] = {0.07434793, -0.14397702, 0.009430814, 0.058588136, 0.03342824, 0.07030873, -0.13341954, -0.06525873, 0.016690137, -0.10463824, 0.10449993, -0.11430344, -0.070221044, 0.07624586, -0.09152263, 0.06495333, -0.14231223, -0.02084984, -0.05329008, -0.13768058, 0.1380153, 0.0538957, 0.0045274813, -0.090150066, 0.13623513, 0.09079981, 0.005115102, 0.0024661398, -0.13046631, 0.12115689, 0.03603435, 0.009348261, 0.06723368, 0.03512879, 0.0045154886, 0.12322766, -0.10094911, 0.081463866, 0.1503227, -0.033072654, -0.14354408, 0.16059999, -0.014652888, -0.005046413, 0.05790638, 0.039527666, 0.028233025, -0.05254101, 0.12553614, 0.07625047, -0.038776115, -0.09412288, -0.11742985, -0.17771094, -0.09628403, 0.081110016, -0.11830524, -0.09068941, -0.023416119, 0.07715518, -0.017088145, -0.045765296, 0.0062586977, 0.074978575, 0.0010544918, -0.16705815, -0.03736436, -0.013524441, -0.04353343, 0.12901387, 0.021087749, -0.16692735, 0.12434194, 0.10463021, 0.0743064, -0.11966947, -0.0038001537, 0.17846717, -0.09563382, 0.13979883, 0.11618228, -0.1163053, -0.01851875, 0.15372661, 0.079012804, 0.008618539, 0.11290949, -0.18119201, -0.023776975, 0.12901485, 0.0045062825, 0.08831808, -0.037736055, 0.10068996, 0.1344406, 0.16282526, -0.020264026, -0.10782949, -0.041496683, -0.10394017, -0.102870025, 0.04261244, 0.13790947, -0.005945441, 0.016317898, -0.049659256, -0.04624958, 0.05826267, 0.030159773, 0.047263697, 0.11440177, -0.14520764, 0.15133038, 0.0734618, -0.007947583, 0.016532518, 0.00921504, -0.0035289458, 0.053087212, -0.16549605, -0.14274989, 0.067645036, -0.12317723, 0.10412262, 0.06752639, -0.012891245, 0.012709663, 0.1372825, 0.082285844, 0.065517984, 0.15856725, -0.026974272, -0.15785308, -0.14762312, 0.042179763, -0.17376646, -0.01991353, 0.08008292, -0.14207427, -0.1671314, 0.044974484, -0.15677471, -0.07171862, -0.08899661, -0.14505875, -0.044462275, 0.13111429, -0.1290514, 0.1638991, 0.02461565, -0.1326901, -0.034553513, -0.08610944, 0.011344744, -0.15370741, 0.11306167, 0.03576667, -0.08266659, -0.08760035, -0.12079062, -0.065190084, 0.10749664, 0.08327628, 0.014493594, -0.040080637, 0.016544444, -0.04500443, 0.13994113, -0.14101055, -0.08403469, 0.06446815, 0.1045738, -0.11154953, -0.17705752, 0.03516529, -0.088784516, -0.15298977, -0.0037863115, -0.17360364, -0.101260535, 0.045318514, -0.021632688, -0.041408688, 0.055205077, -0.09005666, -0.055375516, 0.06296803, 0.012204705, -0.010025856, -0.16282134, 0.015920194, 0.16583973, 0.16195919, 0.09139683, 0.019892462, -0.067046314, 0.16862844, 0.1360001, -0.07616716, 0.17481038, 0.16034362, 0.11886416, -0.16648053, -0.10269826, -0.048764255, -0.15070158, 0.164844, -0.0895579, 0.09022181, -0.04114316, 0.02238992, -0.016462065, -0.10092191, 0.027163668, 0.046359055, 0.14102624, -0.13822092, -0.17045131, -0.025261382, -0.13317713, -0.049940106, 0.14470619, -0.0072588436, 0.017031753, 0.15738598, 0.16828023, -0.01869045, 0.11999959, -0.022204662, -0.15599294, 0.023298133, 0.14889392, -0.0263342, 0.0002955189, -0.11254959, -0.033250645, -0.12452792, -0.026640993, -0.081322744, 0.027609732, -0.05493522, 0.0028098018, 0.16214569, -0.04622762, -0.13573441, -0.04117139, -0.13267301, -0.15339309, 0.17647493, 0.1659444, 0.15853105, 0.16868965, 0.04828452, -0.082313724, -0.09518331, -0.016219413, 0.054656044, 0.00021255248, 0.111565284, -0.0845677, 0.03384342, 0.007105099, 0.060352977, -0.18210505, -0.093244486, 0.097544394, -0.03833767, 0.17127287, -0.08461933, -0.04817032, -0.16176474, -0.14754659, 0.17105, -0.07428609, 0.08079826, -0.1679029, 0.10761739, -0.17338881, -0.1530523, 0.15482593, -0.073238, 0.057464823, -0.1785205, 0.07955879, -0.07232835, -0.00047120225, 0.036706157, 0.10265915, -0.0108836405, 0.105117604, -0.1823265, -0.045213174, -0.12569669, 0.06979726, 0.00674729, -0.0014940485, 0.07591452, 0.17521983, 0.15099484, -0.026557177, 0.068612926, -0.17648521, 0.13473523, -0.0993063, -0.10539223, -0.14873472, -0.08727697, -0.055895384, -0.033848517, -0.18131499, -0.12158701, -0.0647115, -0.057701882, -0.081415005, -0.16373985, -0.14925876, -0.08428607, 0.011016992, 0.16728128, 0.16704269, 0.13400955, 0.045740813, -0.046979476, 0.1155948, -0.17345841, -0.09777331, 0.021199662, -0.09886021, 0.070809595, -0.17113525, 0.15484871, 0.07424261, -0.070073046, -0.032377798, 0.16219333, -0.13598923, -0.17417762, -0.03178896, 0.120421104, 0.03134307, 0.15210487, 0.118061915, -0.16465427, 0.03415829, 0.14895594, -0.12669528, -0.17688946, -0.015951796, 0.02479906, -0.03840714, -0.090808116, -0.0694614, 0.06882748, -0.04667103, 0.119876556, 0.15965436, -0.14386486, -0.08177068, -0.12743343, -0.17401709, -0.109774455, -0.07658802, -0.17448126, -0.06576958, 0.052844234, -0.043899097, 0.12886284, 0.077582374, -0.007689651, -0.121207915, 0.0060326294, 0.17393668, 0.17087059, -0.0965999, -0.04254236, 0.019170772, 0.15555765, -0.12370209, 0.0940484, 0.09220952, 0.10510581, 0.057281632, 0.08503314, 0.14099972, 0.14668183, 0.09125956, -0.09984491, 0.073147655, -0.020869972, -0.10039995, -0.005128291, 0.11274271, -0.0005262013, 0.00037617827, -0.0061017536, -0.122288786, -0.056867212, 0.012535983, -0.10519576, -0.08196018, 0.16453417, 0.05464697, 0.08094134, 0.0014491047, -0.090112135, -0.17515974, 0.06401619, -0.15957399, 0.1087125, 0.07229172, -0.143498, 0.17906621, -0.1398814, -0.14739779, 0.021536577, -0.09995624, 0.08865691, -0.04580358, 0.14683352, -0.021804694, 0.09142338, -0.1251483, 0.10428022, -0.008688535, 0.10198081, 0.13472483, 0.0037853322, 0.019254107, 0.0013531884, -0.009943086, -0.047548596, -0.12679455, 0.016525727, -0.035925962, 0.08752174, -0.03367133, -0.039441176, 0.14578086, -0.115089685, 0.13884313, 0.056200914, -0.1342154, -0.1629009, 0.14567445, -0.049345367, -0.14129773, 0.07186714, -0.029832697, -0.11735696, -0.0009357011, -0.095757574, -0.17906204, -0.020040657, 0.11796952, 0.07508692, -0.12476219, -0.12767984, 0.16177343, 0.08654906, 0.0027257036, 0.13633858, -0.124631345, -0.065763794, 0.06977226, -0.005911532, 0.12612711, 0.04170031, 0.118593924, -0.057465542, 0.11270153, 0.024974655, 0.032426115, 0.090087384, -0.15736046, 0.17512366, 0.08969073, -0.13197409, 0.14789072, 0.17554899, -0.110629104, -0.15716927, 0.10290054, 0.14365527, -0.0740414, 0.17811374, -0.15372948, -0.13481086, 0.08170277, 0.07921545, -0.1380956, -0.05593556, -0.15237406, -0.101347096, 0.098613165, 0.017950542, -0.15576173, 0.14233384, -0.086956516, -0.107870646, 0.16842419, -0.123181805, 0.020776581, -0.117296845, -0.051528156, 0.13615628, -0.069855765, -0.112300776, 0.17092536, 0.14514622, -0.051452238, -0.13850537, 0.008942984, -0.1449752, 0.1267257, 0.06459741, -0.041048072, 0.09017383, 0.14640796, 0.02925535, -0.14780681, 0.16180103, -0.045901585, 0.039391812, -0.13258718, -0.063556455, -0.17971215, 0.15259847, -0.014809594, -0.034407735, -0.13204058, -0.052936908, -0.109728076, -0.13383098, 0.17947702, -0.1378249, -0.15147313, 0.16262887, 0.118777424, 0.10979115, 0.17261945, -0.054427236, -0.031295013, 0.058345962, 0.15833972, -0.11163115, -0.02050805, 0.07062029, 0.008078235, 0.058235507, 0.1589382, -0.07221872, 0.050471943, 0.05426509, 0.18165189, 0.16283658, -0.03458494, -0.03312578, -0.062439807, -0.07850053, 0.053603336, 0.08729234, 0.08486057, -0.06567441, 0.002127549, 0.1807186, 0.08121246, -0.028582258, -0.16382045, 0.05721349, -0.06538624, -0.00433456, 0.1005511, 0.03230961, 0.10463502, -0.055697937, 0.08304743, -0.034107253, -0.1580694, -0.055830155, -0.15286757, 0.13277738, -0.12825973, 0.0051585003, -0.04932169, -0.032298423, -0.17154177, 0.07098528, 0.17696474, 0.0029439803, 0.16889632, 0.1718863, 0.13823044, 0.053135358, 0.18160857, 0.034933824, 0.1687348, 0.043521937, -0.067522, 0.1240435, 0.18201277, 0.15882213, -0.028876036, 0.08954961, -0.14596449, -0.035386723, 0.021908162, 0.062674664, 0.07045701, 0.14350499, 0.06324333, 0.043898728, 0.1713282, -0.13215515, 0.15978958, 0.16244528, -0.09086087, -0.18193637, -0.045477875, -0.051449433, -0.052215956, -0.07546471, -0.041001584, -0.11981324, 0.008447166, -0.070196055, -0.13398568, -0.01605816, -0.17990938, 0.036725264, -0.028155869, 0.14909956, -0.17829563, -0.10001885, 0.08906437, -0.044229962, -0.07848865, -0.14893073, 0.08895437, -0.022820946, 0.09258885, -0.08712143, -0.15186779, 0.066048585, -0.047704864, -0.091911644, -0.13734111, 0.019193102, 0.1392865, -0.020947454, -0.1429211, 0.12026592, -0.030670326, 0.15052907, -0.170781, -0.12413326, 0.101046875, -0.14690366, 0.15458249, 0.06320429, -0.16550176, -0.14956231, -0.124477014, -0.025551002, 0.03542797, 0.15697333, 0.118075736, 0.025688227, 0.059140738, -0.019767795, -0.12067634, -0.010989873, -0.014516533, 0.064516686, 0.090338595, 0.12151436, 0.09659849, -0.08396596, -0.07744885, 0.0049474495, -0.17812893, -0.056467183, -0.091070056, 0.0007652847, 0.10220157, -0.035164922, -0.06499472, -0.08841267, 0.15143749, -0.091004215, 0.05951054, -0.04108677, 0.15290387, -0.18158361, -0.117010534, -0.062477265, 0.031738333, -0.14020537, -0.05004216, 0.04857762, 0.17704639, 0.1481317, 0.08072426, 0.03847089, 0.07329428, 0.092439696, 0.0979865, -0.10546227, 0.08423693, -0.03653633, -0.09084549, -0.17959675, 0.032265253, -0.07099934, 0.073603205, -0.118919566, 0.03806102, -0.11951581, 0.16917793, -0.13252231, 0.1546273, -0.168587, 0.035345305, -0.0049773324, 0.07768645, 0.09761785, 0.06156794, -0.110942625, 0.1823083, -0.025466295, -0.16130267, 0.08501455, 0.1386422, 0.06504902, 0.057630192, 0.18058138, 0.008066939, -0.05520917, -0.1655192, 0.071367316, -0.034461927, 0.10084401, 0.17622766, 0.019940518, -0.09965477, -0.15643194, -0.16177246, -0.11644507, 0.111793876, 0.08715723, -0.054566834, 0.03943469, 0.07861739, 0.0799771, -0.15328553, -0.15484768, 0.051925465, -0.07651208, -9.2803995e-05, -0.056553718, 0.13532425, 0.044124622, -0.08393383, 0.055996653, 0.084208176, -0.14501451, -0.07929213, 0.02649493, -0.08639031, 0.06240629, -0.1765278, 0.05878504, -0.044750545, -0.021712935, -0.16016394, 0.13715692, -0.08853322, 0.07294916, 0.15646793, 0.0596852, 0.09165574, 0.15341814, -0.027122706, 0.15264992, 0.13177708, 0.11761215, -0.0633907, 0.17678581, -0.04471712, -0.17345092, 0.10172193, -0.0028667597, 0.13954666, 0.07243458, 0.1237751, -0.022372661, -0.15955737, 0.041278712, 0.07111454, -0.055743944, 0.12628493, 0.06416826, -0.111806065, 0.17190301, -0.15795094, -0.020642664, -0.005198438, 0.10983213, 0.008567219, 0.09220512, -0.1377719, -0.04966376, 0.038086005, -0.09912692, -0.022126375, 0.12394162, 0.10828304, 0.10523046, -0.08264402, -0.1206964, 0.12600854, 0.095469885, 0.18129094, 0.08793799, -0.04383069, -0.17403439, 0.03923426, -0.121061176, -0.05634915, 0.11490142, 0.16054793, -0.061456114, -0.09856742, 0.027451025, 0.13840944, 0.05601274, -0.13722523, 0.034043785, -0.17261335, 0.15788588, 0.12762295, 0.036698017, -0.13141803, -0.088020384, -0.07765363, -0.027166888, -0.033936445, -0.17515683, -0.1577115, -0.053897377, 0.13966827, -0.06484381, -0.14332199, 0.11797856, 0.12183351, -0.11297909, 0.16983871, -0.047837432, 0.05574205, 0.11486559, 0.0031771655, -0.07547492, -0.054152742, -0.14457129, 0.010781521, 0.16782828, 0.10319025, -0.15493126, -0.1095927, 0.16174977, -0.05168323, -0.11695149, 0.17811556, 0.089856096, 0.100840986, 0.007894781, 0.1300617, 0.042768255, 0.17320359, -0.16175894, -0.07210751, -0.16916797, 0.052699346, -0.16187774, -0.015655102, 0.05854221, 0.01112305, -0.0569445, -0.010109019, 0.16787979, -0.12247339, 0.1735207, -0.15217093, -0.15605949, -0.022694232, 0.11546453, 0.123841204, -0.04022322, -0.014529244, -0.024246741, -0.12216331, };

static float32_t tensor_W_irbias[30] = {0.14784186, 0.18123743, 0.083686635, -0.10409173, 0.15189925, 0.041039847, 0.15722325, 0.07377454, -0.028409906, -0.12345693, -0.14015573, -0.1396723, -0.009224943, 0.16722727, 0.08443211, -0.17269589, 0.014106381, -0.09361646, -0.015689578, -0.100295104, -0.052498266, -0.09641142, -0.043187615, -0.15339926, -0.16478868, -0.13081089, 0.10503523, -0.059883907, 0.10425379, 0.13133885, };

static float32_t tensor_W_hrbias[30] = {0.0050031017, 0.018072445, -0.04022779, -0.00228939, -0.08179446, -0.112352185, 0.06543206, 0.15420371, -0.18133734, 0.13516995, -0.16942962, -0.048455305, 0.06912753, 0.0831815, 0.12932785, 0.03335061, 0.049364347, 0.021935977, -0.03948172, -0.04238339, 0.008402331, 0.07811865, -0.05209423, -0.023833128, -0.04638067, -0.1362754, 0.099268906, -0.074119836, 0.17155708, -0.083897226, };

static float32_t tensor_W_izweight[900] = {-0.15900327, -0.04494967, -0.07534441, -0.08461093, 0.1022369, 0.17015362, 0.17657533, 0.10352529, -0.02986086, -0.17076187, -0.052329265, 0.007914588, -0.074054234, -0.15775627, 0.042357143, -0.06590409, 0.0466339, 0.04881, 0.07097982, -0.07249376, -0.088332705, -0.072314054, -0.163944, -0.11145995, -0.026560094, 0.17996414, 0.019655881, 0.054249637, -0.1111537, 0.086434774, 0.11052559, 0.016419537, 0.14787702, -0.15855715, -0.15471387, -0.051872622, 0.07475882, -0.04755506, 0.14689071, 0.0051180837, -0.027278606, -0.09224858, -0.07109117, 0.15149575, -0.12207384, 0.06867086, 0.15181704, -0.042625174, -0.17091656, -0.056679036, -0.15642186, 0.14614215, 0.04869084, 0.06611616, -0.004101266, -0.09413074, 0.06554837, -0.13192172, 0.13105293, 0.033886775, 0.1377042, 0.034106534, -0.13544498, -0.1198574, -0.12658362, -0.13298288, 0.030700274, 0.14914526, -0.17638864, -0.020337002, 0.056158733, 0.09717194, 0.0068752873, -0.14908661, 0.16306148, 0.05566074, -0.061041173, -0.10976044, -0.13829802, 0.020591909, 0.0072902935, -0.018002668, -0.15491937, -0.14175178, 0.11358003, -0.018920632, -0.061650056, 0.16989015, 0.000953178, 0.15569472, 0.060135704, 0.12413429, -0.114799365, -0.15642883, 0.06296294, 0.15614496, 0.039321166, -0.040619876, 0.010034889, -0.058608007, -0.028509174, -0.18043171, 0.04625983, -0.0050498736, -0.123200916, -0.099853635, -0.06568457, -0.00063826685, -0.03595343, 0.14981642, -0.10735609, 0.07252316, -0.009398842, -0.15523279, 0.106017746, -0.08734839, -0.09823196, 0.18021317, 0.11920281, -0.0131343985, -0.113207504, -0.109157756, -0.1089787, -0.073639885, 0.17453325, -0.1222078, 0.1088512, 0.08337205, 0.022816049, -0.17920223, -0.100904234, -0.1538073, -0.03581429, 0.11920004, -0.132108, -0.1302078, 0.029309455, -0.14621498, 0.023206526, -0.054691434, 0.12344766, -0.144392, 0.09287288, -0.039676797, 0.01945147, 0.1333284, -0.15157811, -0.13577981, -0.01437156, 0.0730513, 0.10146045, -0.09071507, -0.113243416, 0.0049499525, -0.06574416, -0.03511669, 0.00199324, 0.13478209, 0.04274294, -0.089065365, 0.0020696989, 0.07648059, 0.111534946, 0.15796567, 0.07967234, -0.18007, -0.12587799, 0.18128364, -0.014443971, -0.16342115, -0.08377364, -0.07104222, 0.00034929908, -0.033715077, 0.09502232, 0.091087855, -0.16542801, -0.048904985, 0.004852578, -0.011100023, 0.009980935, -0.009061774, 0.06674183, 0.112725556, 0.11409054, 0.039477978, 0.09190138, 9.145459e-05, 0.09379134, 0.027782673, 0.09859268, 0.13599074, -0.13535874, 0.020949848, -0.1437422, -0.09786864, 0.037670825, 0.16789365, 0.11384632, 0.14581396, -0.13935871, -0.12917325, -0.119599015, -0.041448016, -0.086211294, -0.16192223, -0.102816075, -0.09239558, 0.047079723, 0.15879545, -0.09558199, -0.045226492, 0.12305687, 0.062353965, 0.065519296, 0.15136664, 0.10194845, 0.12472524, 0.13379923, 0.060685433, 0.121975765, 0.060984258, 0.051317193, -0.092854224, -0.048251633, 0.14504966, 0.061077803, -0.13178617, -0.09358802, -0.14585201, 0.058846675, -0.14256698, -0.17067218, 0.05830659, 0.0016517544, -0.09570629, -0.044071056, 0.14363524, -0.17119224, 0.16664465, -0.010364208, -0.097226985, 0.025581473, 0.09779452, -0.15996464, -0.030899573, 0.012361627, -0.05505377, 0.12821186, -0.17991528, 0.08447553, -0.1753307, -0.121973634, 0.17270562, 0.15003574, -0.059691206, 0.17615463, -0.12837905, 0.15180518, -0.11720463, 0.13803284, 0.17567393, 0.10725552, 0.048879758, 0.11868915, -0.16157818, 0.06476798, 0.13439925, 0.07965438, -0.13941771, -0.024013076, -0.14502004, -0.11799238, 0.016845688, 0.016080534, 0.064001694, 0.084020585, -0.16870397, -0.08114824, 0.07713881, -0.18060638, 0.13061546, -0.030077266, -0.12065501, -0.12026649, -0.113400474, -0.18051748, -0.03669312, 0.062490385, -0.058255203, 0.03197278, 0.022807779, 0.13810906, -0.12651102, -0.09969606, 0.041094344, 0.17908624, -0.12253631, -0.048929013, -0.15685764, -0.06617941, 0.05217835, -0.14487393, 0.013215668, 0.07887194, 0.07827943, 0.0013072, 0.10170201, 0.07719183, 0.0008443335, 0.01779584, 0.122743815, -0.018093014, -0.047907166, 0.09052366, 0.12966089, -0.103845425, 0.098666534, 0.07539266, 0.071135305, 0.002690271, -0.057662707, 0.14274079, 0.09715827, 0.062164485, -0.15433224, 0.15456302, 0.14068937, -0.0745045, 0.1417428, 0.033525616, -0.13496874, 0.17177035, -0.00808422, 0.025806975, 0.16041155, -0.10100661, -0.11717608, -0.17808048, 0.11858973, 0.17697626, 0.027375937, 0.10014184, 0.14551629, -0.14968927, -0.14589772, -0.14228795, -0.05439217, 0.03991697, -0.04497973, 0.08126811, -0.14536302, -0.002066173, 0.14324123, -0.097377375, 0.15790835, -0.17384732, -0.06352124, -0.17056793, -0.008879257, -0.15388598, 0.1113284, -0.049724855, 0.10091844, 0.0008984619, 0.067639485, 0.03547202, -0.1681995, 0.08702553, -0.08469283, -0.030240303, -0.04114769, 0.060611475, -0.13450813, 0.009123847, -0.13517652, 0.09281141, 0.17039342, -0.14719115, 0.11331833, -0.0515524, -0.095564544, 0.04501218, -0.00523768, -0.059861403, 0.06907183, 0.03580308, 0.13085818, 0.023494666, -0.17604935, -0.01254976, -0.09519444, 0.13309659, -0.0345277, 0.022775, -0.159886, -0.102935776, -0.1393951, 0.12945047, 0.11337801, 0.026390374, -0.14203005, -0.11589978, -0.00261329, 0.03916779, 0.13573237, -0.10028266, -0.06951613, -0.11065707, -0.13352782, 0.01681045, 0.04047808, 0.13605577, 0.15309067, -0.13303195, 0.053962998, -0.14849089, -0.08695347, -0.07851083, -0.15755033, -0.099956036, 0.028537793, 0.07821237, 0.12455343, 0.1275015, 0.08799409, 0.10213471, -0.16876456, 0.11672879, -0.13268945, 0.17787498, 0.12365597, -0.023587927, 0.15270941, 0.09294218, 0.0033490837, -0.048560843, -0.03925326, 0.10083752, -0.027165845, -0.114211835, 0.17953378, 0.10844614, 0.120332606, -0.13603376, 0.1356165, 0.06453965, 0.018041562, 0.08822667, 0.11607614, 0.14575638, 0.102698565, 0.15785335, -0.16846326, -0.15581211, 0.118271135, 0.0659908, 0.12419338, -0.07262252, 0.016386304, 0.026213884, 0.06491396, 0.0055674994, -0.0053657857, 0.06813948, -0.17775482, 0.038651798, 0.13107891, -0.051641222, 0.11397229, -0.1251195, -0.06106677, -0.037211116, 0.0630416, 0.15402439, -0.011235051, -0.069516934, -0.019150248, 0.1263485, 0.17459354, -0.041084506, 0.03900338, 0.079657756, -0.11342158, 0.074304156, 0.002634989, 0.10520695, 0.045554094, -0.1435814, 0.03483841, -0.0020591212, -0.07323491, 0.072213, -0.081401706, -0.00059841597, 0.029005209, -0.16741677, -0.111621045, 0.18061711, -0.054073997, -0.17627047, -0.083440624, -0.12568377, -0.084116615, 0.1638805, 0.09547319, 0.04344008, -0.06359071, 0.13473323, -0.1526944, -0.1039986, -0.051296037, -0.0707728, 0.04339122, 0.12591164, 0.120865166, -0.1033374, 0.07649937, 0.108157, 0.07516314, -0.14646555, 0.122881584, 0.12235745, 0.05853427, -0.066958755, 0.16126648, 0.077870384, -0.11254056, 0.083261356, 0.07065141, 0.13131495, -0.1505525, 0.18239552, 0.0768049, 0.03896712, 0.1798421, 0.013057678, -0.0008264213, 0.070455074, 0.11020028, -0.1704617, -0.047083467, 0.03619247, -0.09557658, 0.107412525, -0.03721462, -0.16667998, -0.059360884, -0.027991764, -0.16068678, -0.14573772, -0.08040654, -0.0808893, -0.1820836, -0.091319345, -0.14627047, -0.07963547, -0.07453303, 0.059815526, 0.060288884, -0.09357835, 0.17982839, 0.13318153, 0.15016459, 0.112105094, -0.1679091, -0.091871075, 0.03514677, -0.15337904, -0.075409055, -0.0062400675, -0.13423851, -0.0014551989, -0.1522063, -0.099226534, 0.13391133, 0.079149425, 0.15889181, 0.08287662, 0.12383948, -0.09624797, 0.09044021, 0.16291946, -0.055356625, 0.1694459, 0.06721941, -0.04262084, 0.13851878, -0.034970675, 0.04970235, -0.17635314, 0.097444475, -0.11252138, 0.0870592, -0.034268223, 0.17504176, -0.03334852, -0.1751524, -0.053137425, 0.056013085, -0.02806757, 0.013057199, 0.17745794, 0.09109276, -0.050002243, 0.071735546, -0.14449407, -0.0908367, -0.014063853, 0.14876099, 0.15261507, 0.102940544, -0.11814488, -0.020117639, -0.021871228, 0.037189025, -0.022960022, -0.13276444, 0.17317957, -0.067437425, -0.15299924, 0.023158776, 0.08413026, -0.12321765, -0.1028929, -0.090219736, -0.044426776, 0.04629733, -0.057929803, 0.10460279, 0.13515742, -0.005533068, 0.065240726, 0.13811678, 0.17540209, 0.030934744, -0.06309827, -0.028743533, 0.18172045, -0.04611799, -0.06409981, -0.057295453, 0.102687836, 0.102775805, -0.1644616, 0.017869491, -0.1125014, 0.0034411042, 0.14075096, 0.122503445, -0.034105055, 0.047549922, -0.049060512, -0.11279838, 0.04251015, -0.008965118, -0.015110205, 0.072410926, -0.12424729, -0.048476048, 0.01960752, 0.06683587, -0.0045217355, 0.036812212, 0.1540287, 0.06320877, -0.07879433, -0.094803564, 0.0032623084, 0.008926747, 0.0470644, 0.09812229, 0.0051657045, -0.06129758, -0.17397857, -0.026368544, -0.059321754, -0.042199787, -0.11942592, -0.065947466, 0.0011904332, -0.16744182, 0.04120408, 0.08714491, 0.038487997, 0.16438286, 0.13377373, 0.18120001, -0.16679864, 0.1464659, -0.05138984, 0.14870177, 0.11652196, 0.08840375, -0.08876049, -0.029775217, 0.00868453, 0.17748183, 0.042800598, 0.10773053, 0.124562636, 0.12266278, -0.12436697, 0.16558766, -0.0236204, -0.078207865, 0.14496683, -0.13631104, -0.010381707, 0.020813668, 0.12360023, -0.12907997, -0.15393601, -0.08007274, -0.14572257, 0.06722208, 0.1632654, -0.12100111, 0.031789307, 0.16093521, -0.16626935, -0.017286137, -0.019816265, 0.17071144, -0.07672333, -0.14217408, 0.04069479, 0.032077078, -0.05571404, -0.18146993, -0.08577026, 0.11098907, 0.010579459, 0.08673003, -0.015866501, -0.08754511, -0.11053554, -0.053582683, -0.040829185, -0.16838484, -0.100153156, 0.07000309, 0.007473703, -0.014699421, 0.09122119, 0.17609313, 0.13485193, -0.13946494, 0.01089646, -0.11027206, -0.15760453, -0.0013815694, 0.142286, -0.030070562, -0.13511848, 0.095560715, -0.021507021, -0.16961847, -0.16013806, -0.12566268, 0.06794427, 0.016385956, 0.12798193, 0.072853945, -0.053251665, -0.04976118, 0.06060277, -0.06704092, -0.11204219, -0.07343869, 0.011579518, 0.14629385, 0.04910156, -0.08039331, -0.0944162, 0.14044197, 0.1076133, 0.13186161, -0.17206718, -0.0036730706, -0.056712817, -0.13682847, 0.06866028, -0.014370494, -0.17984757, -0.044921312, 0.095124006, 0.13260208, 0.064498015, 0.13444027, -0.020079223, 0.14355339, 0.084582545, 0.1195912, -0.028280385, -0.010820589, -0.09934585, 0.010712179, 0.17098902, 0.14981148, 0.09161985, 0.023742521, 0.13876422, -0.12565906, 0.017726324, -0.17399551, -0.13515414, -0.09116941, 0.10522671, 0.08904589, -0.040701013, 0.06125046, -0.09545154, 0.0036082559, 0.01899067, 0.046496388, 0.014318651, -0.13263927, 0.10389364, -0.024769459, -0.006178147, -0.074078195, -0.13288634, 0.16502224, -0.08137369, 0.014697811, 0.031022368, -0.115614794, 0.10212916, -0.15960225, 0.12862405, 0.096556135, -0.047558345, -0.06543918, 0.03427795, -0.15385884, -0.1809522, -0.029135274, -0.0383319, -0.107683904, -0.054903768, 0.015482661, 0.10016387, -0.08477658, -0.1455282, 0.17253222, 0.03961266, 0.09292744, 0.019743048, -0.006243593, -0.09684131, 0.10829878, -0.13510934, 0.036875505, 0.06601454, -0.17467745, -0.002951968, -0.10742894, 0.11533725, -0.026857028, 0.017413873, -0.13648586, 0.110222414, 0.12383376, 0.020135615, -0.08034012, 0.023223002, -0.17801836, -0.040394876, -0.15093474, -0.045977872, 0.016739782, -0.066694185, -0.005559512, 0.13297822, 0.096670724, 0.17101255, -0.14633419, -0.04650466, 0.12883873, -0.084875345, -0.068444684, -0.1130518, 0.110349104, -0.01569332, -0.015074599, -0.10617865, -0.16766772, 0.15123455, 0.09143398, 0.01871106, 0.08080342, -0.08049847, -0.15210213, -0.15462281, 0.014011378, -0.17188464, -0.16418968, 0.12636052, -0.028270634, };

static float32_t tensor_W_izbias[30] = {0.024011705, -0.0195234, 0.10538514, -0.060136836, -0.05557096, 0.1773906, 0.043840896, 0.13479456, 0.064263366, -0.0023847404, 0.16930352, 0.14056161, 0.11280443, 0.16619548, -0.08336761, -0.055668533, -0.1602176, -0.077873126, 0.17346068, 0.0037038892, 0.08030782, -0.13287634, 0.15129817, 0.0761272, 0.17071117, 0.054891232, -0.13333732, -0.08055363, 0.14541885, -0.034012556, };

static float32_t tensor_W_hzbias[30] = {-0.15813963, -0.021297712, -0.01748785, 0.02081556, -0.1627631, -0.073029384, -0.1587896, -0.055218898, 0.121189564, -0.12512273, 0.07935505, 0.12886345, 0.06349001, -0.121794835, -0.019378014, -0.16789898, -0.18030497, -0.008352904, 0.06591628, -0.057883594, -0.034654085, -0.031837147, -0.17397517, 0.07771601, -0.13812429, -0.0064727087, 0.062024757, -0.06710956, -0.14544477, 0.09101645, };

static float32_t tensor_W_inweight[900] = {0.12212783, -0.12111058, 0.005606371, 0.036439605, 0.060185175, -0.17627248, 0.11834733, -0.1706475, 0.013610672, -0.039609957, 0.037113328, -0.08591045, 0.15920945, 0.17091107, 0.08658262, -0.1299765, -0.15466598, 0.009083582, -0.1615335, -0.16548419, 0.15604076, 0.0055812984, -0.14022611, 0.1016688, -0.023101034, 0.055174217, -0.0064460034, -0.018242078, -0.10000107, 0.0013134247, -0.018287132, 0.17127329, 0.0634519, -0.075339325, 0.12084882, -0.016855307, 0.12573425, -0.030406715, -0.02331241, 0.0389286, -0.051987104, -0.00488751, -0.0143504925, -0.12816884, 0.08032727, -0.065140374, 0.11894342, -0.09931807, 0.17403369, -0.043064773, 0.07495287, 0.08551947, 0.09027093, -0.13063474, 0.022496153, -0.002232541, -0.109814696, -0.091840915, -0.10710597, 0.15902384, 0.091821454, 0.12531821, 0.055432778, -0.1587173, 0.14946061, -0.12569232, 0.16570821, 0.028612772, 0.045109924, -0.09833408, -0.12354218, 0.02529046, -0.037318632, 0.10247217, -0.056166135, -0.09878319, 0.09197163, -0.09545206, -0.039561465, 0.09306736, -0.1593314, -0.002243075, 0.071027376, 0.0400143, 0.1357395, -0.06380051, -0.1475959, -0.121176615, -0.0006413357, 0.12898684, -0.07243602, -0.09789052, -0.14723793, 0.075230956, 0.10634571, 0.18191056, -0.056916576, -0.16858527, 0.021042326, 0.17936148, 0.097015515, 0.017622115, -0.12531124, -0.039850675, -0.17707595, -0.09036345, 0.0040487484, -0.13396972, 0.09585769, 0.024088686, 0.13888037, -0.16817081, -0.025467165, -0.13172364, -0.046878837, 0.063424304, 0.16485034, 0.16424766, -0.026684064, -0.15280254, 0.06545043, 0.16164386, 0.097171746, -0.10346537, -0.020932306, -0.05776509, -0.10147433, -0.062753, -0.13305385, -0.09665651, 0.055562757, 0.01688456, 0.09501736, -0.024422381, 0.111769244, 0.059151314, 0.028983444, -0.022822643, 0.12587842, 0.025630508, 0.14577405, -0.124952435, 0.104131654, -0.111792505, -0.12668106, 0.17078625, -0.17970103, 0.050620575, -0.034982424, 0.07915765, -0.045277685, -0.05362865, 0.065676756, 0.11316774, 0.108849876, 0.087219276, -0.055364523, -0.1517732, 0.12412201, 0.159974, 0.12742567, -0.15021338, 0.13664593, -0.03555923, -0.109325975, -0.00565767, -0.07887101, -0.1359449, -0.13391809, -0.07602998, 0.017903117, 0.085214265, 0.0018818926, -0.07010719, 0.12580484, 0.12310247, 0.045426596, 0.119116925, 0.15585625, -0.15793866, 0.12562239, 0.106911875, 0.082851246, -0.08643399, -0.011852707, -0.08710634, -0.04297539, -0.16182198, -0.119861014, -0.1564248, 0.06438603, -0.043768663, -0.12496567, -0.053744044, 0.03384453, 0.15926334, 0.015568088, -0.07118182, 0.070933506, -0.10543422, 0.076424934, -0.022021012, 0.09342735, -0.090081796, 0.17624989, -0.1082219, 0.024412673, 0.1581287, 0.050781738, -0.09076185, -0.010308317, 0.031917587, 0.065240644, -0.013589169, 0.049362563, -0.13244113, -0.09858779, -0.098238446, 0.07617969, -0.030588906, -0.13525128, 0.13470705, -0.012902737, -0.16594112, 0.1604941, -0.112113886, -0.049094487, 0.13324842, -0.17250913, 0.10064097, 0.07211553, 0.014369971, -0.104305334, 0.039530016, 0.042614553, -0.15625355, -0.053098988, 0.056191534, -0.118520886, 0.10656565, 0.035366874, -0.106890395, -0.12369505, -0.12562354, -0.17031167, -0.09459447, -0.0692972, -0.09258101, 0.0844534, -0.041240558, 0.15747015, 0.051869377, 0.16716826, -0.105107464, -0.094638415, -0.15798023, -0.16604494, -0.057713006, 0.03465918, 0.14212304, 0.12985557, -0.13214427, -0.05485826, 0.027123991, 0.140669, -0.027745912, 0.14795876, -0.14023045, -0.03955511, 0.026259286, -0.17232215, 0.15896381, -0.1752841, -0.1469146, -0.053720105, 0.1369505, 0.17486495, -0.09060209, 0.046296306, -0.17884474, 0.009971141, 0.08570884, 0.08999219, -0.17115207, 0.07015346, -0.1729202, 0.12712029, 0.0124123385, 0.029233323, -0.1258448, -0.1524441, 0.1016264, -0.13500415, 0.077567905, -0.17057507, -0.0044550924, 0.14439833, 0.016203264, -0.0049318443, -0.11050239, 0.108544305, -0.073434725, -0.087719776, -0.04751018, -0.003053543, -0.07537884, 0.11903444, -0.1286257, -0.14293168, 0.09000192, -0.14841372, -0.10314561, 0.030296825, 0.1252759, -0.16311137, 0.074356325, 0.16363327, 0.17853242, 0.14679128, -0.121087275, 0.10726159, 0.04884511, 0.04050211, -0.09414976, 0.09579104, -0.055329245, 0.104836516, -0.009743418, -0.010463084, 0.015976826, 0.17879042, -0.13819052, -0.051103987, -0.114736795, 0.104305744, -0.06394206, 0.16139929, -0.07840997, 0.11837859, 0.123554565, 0.0061205584, 0.008946923, -0.060948566, -0.031718418, 0.12755905, -0.038518596, -0.11018863, 0.046000134, 0.15425926, -0.01723338, -0.0059495107, -0.08873324, 0.08275152, -0.13167018, 0.16834553, 0.011339281, -0.06956884, 0.11480435, -0.1427618, -0.1382565, 0.1422547, 0.030493446, -0.09857323, -0.018829983, -0.08256221, -0.17752394, -0.058209978, 0.117527835, 0.18239017, 0.08814947, 0.14803182, -0.030057568, 0.12586215, 0.14547849, 0.098631166, -0.12552534, -0.01883562, 0.089665376, -0.14048888, 0.063481696, -0.15989172, 0.12110203, -0.020828184, -0.15904386, 0.053443607, -0.09648882, -0.017575039, 0.1471638, -0.060099967, -0.055557903, -0.028420439, -0.037641943, 0.12756279, -0.15747362, -0.0002809802, -0.06919001, -0.09612933, 0.12819532, 0.11635392, -0.016686698, -0.11066023, -0.15433834, -0.059460588, 0.061470304, 0.13438074, 0.014448955, 0.072473995, 0.1404379, 0.10906506, 0.074860066, -0.0455833, -0.16420794, 0.12615398, 0.084928475, -0.09269963, 0.11797679, 0.14330731, -0.036941126, -0.18083827, -0.080555886, -0.06646344, 0.0055449298, 0.038912795, -0.14347264, 0.030016802, -0.16013965, 0.18047273, -0.10361986, -0.10441535, 0.009003794, -0.1281987, 0.00971593, -0.15844883, -0.030510118, -0.15434068, -0.11955635, -0.16079818, 0.043198604, 0.06049125, -0.06603975, 0.13032772, 0.14702538, 0.056112353, 0.11022794, 0.023717297, 0.11853871, 0.051852293, 0.115105025, 0.110262044, -0.011716983, 0.12371612, -0.12605727, -0.12654412, 0.15072522, 0.121324725, 0.06772256, -0.083942644, 0.18050483, -0.116449945, 0.07509917, 0.09389781, -0.176851, 0.11993192, 0.035912838, -0.088471, 0.08450337, -0.04534929, 0.09139461, 0.049150314, -0.05465598, 0.11769135, 0.107234314, 0.05830633, -0.11078048, 0.17470543, 0.038564913, -0.1407119, 0.03492057, 0.16961262, 0.02287292, -0.01968903, 0.098302044, 0.17167726, 0.078073665, 0.10176014, -0.17537937, -0.082540184, -0.07458385, 0.058378607, -0.04846214, 0.0066154185, -0.019585907, 0.1638727, -0.059868716, -0.17751592, -0.16883951, -0.18194878, 0.06239173, 0.14743604, -0.0976742, -0.1788746, -0.012891224, -0.02126241, -0.033858724, -0.04771862, -0.037180383, -0.15945892, 0.12668586, 0.10223206, 0.16513748, -0.13496989, 0.016152639, -0.060597874, 0.049118515, -0.019669527, -0.010647386, -0.1487545, 0.12342056, 0.14779599, 0.034697115, 0.022008933, -0.1367733, -0.10818891, -0.005901694, -0.021745581, 0.06646435, -0.16742304, 0.052235242, 0.12806632, 0.0758009, -0.081887856, 0.123170964, 0.11197587, 0.15330467, -0.062331658, 0.09222656, 0.05829355, 0.15178141, 0.18016824, -0.10842103, 0.019951269, -0.030409304, 0.06616102, -0.1742596, 0.12503414, 0.043601204, 0.1361663, -0.12718587, -0.11866286, -0.039881386, 0.0034239101, 0.039602842, -0.10700272, -0.034371343, 0.11723597, -0.08671793, -0.1229514, 0.017374065, 0.005504274, -0.08108527, 0.057007965, 0.13347772, 0.041845545, -0.11422772, 0.026546229, -0.10784385, 0.00042432145, 0.079218306, -0.15855484, -0.012962959, -0.026225813, -0.057392325, 0.18137935, 0.00408059, 0.111341506, 0.13152774, -0.007587009, 0.08327036, 0.16039951, 0.018068071, -0.08112863, 0.13249391, -0.08483319, -0.10624921, -0.16999991, 0.023203893, 0.0626529, -0.14690791, -0.124774314, 0.04336308, 0.14835761, -0.08898815, 0.024667602, 0.093497105, -0.08303576, 0.03299652, -0.017816734, -0.03739424, -0.0094364295, -0.08299781, -0.16023493, 0.058308657, -0.09363444, 0.09907594, 0.17757489, -0.054297104, 0.017418856, 0.01577187, 0.09579871, 0.01861989, -0.171987, 0.06800386, -0.05120334, -0.029727051, 0.03652564, 0.13959606, -0.0046152356, 0.05195944, 0.17503686, 0.115325265, 0.05201468, -0.064587206, 0.112918064, -0.15222293, -0.1717622, 0.070675485, -0.0031647163, 0.14554398, 0.07580933, -0.012701807, 0.0590924, -0.055531718, 0.09016419, -0.16296159, 0.14075936, 0.10431976, -0.12398209, 0.062839426, -0.14608023, -0.15731288, 0.11182531, -0.05589273, -0.02537519, 0.0021887727, -0.16189763, -0.03615314, 0.056714166, -0.16368936, 0.033123452, -0.15504317, -0.14459561, 0.10993923, 0.07488207, 0.049631003, -0.061789133, 0.012052592, -0.05519735, -0.045708776, 0.02350581, -0.09715746, 0.033281635, -0.016926782, -0.1092463, 0.100421295, -0.043372046, -0.105615295, 0.14203556, -0.05029922, 0.13545911, 0.056489076, -0.05481351, -0.093549535, 0.16066411, -0.17185947, 0.07778346, -0.15511353, -0.020335892, -0.14509079, -0.10732645, -0.124549724, -0.035814635, 0.1640494, 0.08255252, 0.0015689404, 0.08701552, -0.12725286, -0.063986, 0.08806659, 0.1760204, -0.0028759227, -0.11146887, -0.16673897, -0.08561447, 0.15980288, 0.17098975, -0.08933806, 0.012074792, -0.07256663, -0.023195688, 0.13116029, -0.12300893, 0.10267208, 0.10449721, 0.071409106, -0.12901995, -0.11067187, -0.13090956, 0.1530596, 0.051581085, -0.04732366, -0.16219474, -0.17774326, 0.06222612, -0.103858635, -0.17427556, -0.13139023, -0.10374668, -0.130871, 0.12787108, -0.061495855, -0.0047181165, -0.1349842, 0.052163113, 0.1089767, -0.05232591, -0.17092885, -0.10041923, 0.10225783, 0.070732534, 0.08775186, 0.0502548, -0.004029508, 0.15809242, 0.045391534, -0.08347105, -0.062855594, 0.04523583, 0.05429258, 0.044555537, -0.07714112, -0.060541395, 0.1654239, -0.05362767, 0.06901446, 0.030285355, 0.15379956, -0.1738073, 0.12534446, 0.054433044, -0.12824963, -0.025186991, -0.049380627, 0.04441137, 0.08711927, -0.05721516, -0.13849829, -0.12263978, 0.0012457804, -0.020815017, -0.053721804, 0.009292848, -0.060634613, -0.03505564, 0.051599238, 0.1399828, -0.030259935, 0.026555827, 0.12237793, -0.15519059, 0.13814738, -0.06736416, -0.15307623, 0.105429426, 0.016133573, 0.007204911, 0.037954982, 0.019095315, -0.0997449, 0.1279758, -0.08506443, 0.041001648, -0.0016429833, -0.10988356, 0.12336478, 0.1313767, -0.014721338, 0.121821284, 0.073622406, 0.17858692, 0.109871246, 0.099189185, -0.030266464, -0.089785814, -0.058733653, -0.106535085, -0.099506535, 0.15475386, -0.10982149, 0.11548062, -0.022316858, 0.0670338, -0.1131391, -0.15046649, -0.030262023, -0.1110378, -0.06405876, 0.14780405, 0.10912248, -0.17167507, 0.12487352, 0.020369584, -0.145222, -0.028297622, -0.1481759, 0.06046511, -0.106904104, -0.075974956, 0.17958772, 0.12012476, -0.09992999, -0.027553624, -0.17777504, -0.16749936, -0.085508674, 0.15302823, -0.14885247, 0.07920209, -0.006172902, 0.052320298, 0.09954151, 0.16637856, -0.096392706, 0.1387424, 0.067557, 0.054259975, 0.023883926, 0.07145167, 0.037497077, 0.07852049, -0.107868515, 0.124924645, -0.15496576, -0.112658516, -0.008835641, 0.11956171, 0.029162284, 0.020423256, 0.036752753, 0.03765705, -0.07785252, -0.13199794, -0.12377541, -0.041738268, 0.11088236, -0.16206452, 0.07761517, 0.0206525, 0.048466884, 0.1266535, -0.1293855, 0.13938394, -0.11356688, 0.17114292, 0.03413809, -0.047612585, 0.0796283, 0.098771505, 0.020419534, -0.01677787, 0.105382174, -0.039805558, 0.06723216, 0.10026686, -0.004934021, 0.0022531739, 0.05533841, 0.023039505, -0.14928989, -0.004115892, -0.16529633, -0.11016391, -0.03323602, -0.07558252, 0.010589667, 0.15598115, 0.009078925, -0.09471407, -0.06767592, -0.06040887, 0.091422684, -0.0064057824, -0.06094156, -0.02378222, -0.17164993, -0.11407152, 0.17725931, 0.028580366, 0.04237956, 0.18005274, 0.13708588, };

static float32_t tensor_W_inbias[30] = {-0.09962737, -0.05521533, 0.11664763, -0.13507716, 0.026304448, 0.03937018, 0.16014324, -0.11434146, 0.17572103, -0.019339468, 0.030719427, 0.09105445, 0.03537704, -0.16596098, 0.11594081, 0.020564856, -0.064685255, -0.10859787, -0.022666026, 0.06122258, -0.08839373, -0.12970403, 0.1437333, 0.011172674, 0.16620609, 0.17494461, 0.09482729, 0.09504184, 0.018716611, -0.17457874, };

static float32_t tensor_W_hnbias[30] = {0.1069738, -0.13863434, -0.17545374, -0.14177519, -0.053961515, -0.16316703, 0.024234073, -0.15801269, -0.05733093, -0.07459343, -0.014308595, -0.14588821, -0.05222904, 0.13645057, -0.15160951, 0.061257906, -0.09047656, 0.08868682, 0.124448344, 0.08239288, -0.13227625, -0.08793102, -0.023537435, -0.047859676, -0.088642396, -0.13875973, 0.06953585, -0.026693337, -0.090729676, -0.015271502, };

static float32_t tensor_onnxMatMul_38[900] = {-0.1613536, 0.07993046, -0.1286594, -0.16477408, 0.089752406, -0.08467555, -0.053660624, -0.1647667, 0.0050217104, -0.010024399, 0.099849306, -0.051328965, 0.0155070815, -0.14585851, -0.17033803, 0.17230238, -0.12122313, 0.14194928, -0.028143356, -0.05972675, 0.108246304, -0.04230419, -0.055725444, 0.10544088, 0.16823411, 0.08745403, -0.1320457, 0.13728757, 0.18005204, 0.16152701, 0.121173434, -0.13167827, 0.16780382, -0.04478389, 0.080656335, -0.105635606, -0.016532822, 0.024698747, 0.097686544, 0.12402877, -0.11537278, 0.0720583, -0.17577611, 0.1559369, -0.1600907, 0.15209131, 0.046930615, -0.13909678, 0.15590544, -0.050097983, -0.090290315, -0.038663853, -0.1556819, -0.12755123, 0.06045893, 0.1329981, -0.118035145, -0.024379743, 0.08248854, 0.0052164593, -0.14607076, -0.15059282, -0.0942785, -0.092911445, 0.108012855, 0.052926898, 0.009731883, 0.12508385, -0.047466196, 0.11188762, -0.08169749, 0.09174948, -0.14526731, -0.087995246, 0.059794284, -0.110652745, -0.09428124, -0.10897417, 0.14563082, 0.0955236, -0.123342015, 0.109350026, -0.04845437, -0.04134407, -0.0013816782, -0.14137456, 0.03646936, 0.1577016, 0.122789256, -0.055548195, 0.06263867, -0.04314574, 0.14685564, -0.014147211, -0.14299855, 0.16603437, 0.075827025, -0.18178765, -0.043819938, 0.17511088, 0.111771114, -0.085693344, 0.012354357, -0.005621519, 0.1087105, -0.1198981, 0.018244822, -0.055983268, -0.09443503, 0.13077442, -0.1745884, 0.10281263, 0.08931472, -0.009374335, 0.010668411, 0.10841668, -0.0050284574, -0.14461556, -0.11994257, 0.1612736, -0.027750395, -0.083635725, 0.07593332, -0.12429682, -0.06135493, 0.023602793, -0.043702934, 0.15554367, 0.009338816, -0.0706443, -0.00470669, 0.050121795, -0.02268779, -0.095383696, 0.03242296, -0.093663126, 0.052880015, -0.1364412, -0.019322209, 0.036624778, 0.046865124, -0.14344949, -0.13151781, -0.03622433, -0.06467585, 0.001141093, -0.13696413, -0.098449714, 0.031761166, 0.08353243, 0.12293939, -0.12857775, -0.14832753, 0.008134039, -0.03348237, -0.07146232, 0.042391226, -0.05045018, -0.04218281, -0.0705286, 0.039024167, 0.1673095, 0.0023648043, -0.15056545, 0.057275385, -0.12822609, 0.10647587, -0.16094136, -0.15919304, -0.0026426069, 0.16602717, 0.10459791, 0.0053043445, -0.12686566, -0.06903724, -0.10571219, -0.16805802, -0.15842466, 0.09698272, 0.09131946, -0.11233499, -0.006337377, -0.024155851, -0.17216429, -0.14952657, 0.12932998, -0.14603774, -0.015761836, 0.019679451, 0.03661185, 0.14079078, -0.12688269, 0.089232326, -0.12060814, 0.037371323, 0.16228008, -0.06637381, -0.0060040527, 0.14423767, 0.17155693, 0.0556425, -0.081530616, -0.11344598, -0.02527, 0.17808738, 0.05636591, 0.11424093, -0.09927189, -0.075555116, -0.043739583, 0.117740825, 0.014436441, -0.10616731, -0.09524956, 0.14214624, -0.04332547, -0.063281596, 0.14535007, -0.18039076, 0.061172087, 0.06797655, 0.049569715, -0.08674934, 0.16974795, 0.00069337466, 0.16821018, -0.07434706, 0.035111945, -0.15635046, -0.013001504, 0.06765635, 0.011509132, 0.04110603, 0.021707254, -0.10286145, 0.036177147, -0.121002235, -0.10613971, 0.08945909, -0.09217565, -0.1310888, -0.06402402, 0.08787276, 0.09520621, 0.010740995, -0.09578556, -0.114741646, -0.12274873, 0.03987131, 0.1138335, 0.14818725, -0.025183748, -0.018354231, -0.11431591, 0.07199211, -0.12508711, -0.059187096, 0.151843, 0.07165204, 0.063303664, 0.1718466, 0.16647215, 0.16180117, -0.045560382, 0.069290325, -0.05359311, -0.08910213, -0.1646341, 0.09409986, -0.10665416, 0.038519684, -0.10838577, 0.045811284, -0.15570906, -0.09572673, -0.025159089, 0.14972834, -0.11953126, -0.10171801, -0.057824876, -0.059497394, -0.15595742, -0.014230199, -0.08558019, -0.042060036, -0.15472075, 0.01780261, -0.14451678, -0.13089973, 0.09861029, -0.04320679, -0.12296936, -0.03344304, 0.12889443, 0.08075508, -0.1502259, -0.10854032, 0.082016855, 0.01019488, 0.1488741, 0.0526519, 0.17247975, 0.041527264, 0.1693783, 0.09343083, 0.13584195, -0.17234226, 0.15083383, -0.071733505, -0.018129054, -0.029417885, 0.14036617, -0.03649495, 0.08448389, 0.16021031, 0.052513413, 0.1559243, 0.061017167, 0.15205973, -0.08834019, -0.115239576, -0.11674695, 0.017723538, 0.012190645, 0.08758673, -0.17059729, -0.09907941, -0.00050559023, -0.14523366, 0.026410984, 0.1369876, 0.16854948, -0.1817102, -0.034869358, 0.045223445, -0.13449028, 0.01600142, 0.04404568, 0.052165247, 0.105671905, 0.13517275, -0.120795585, -0.16738679, 0.14841345, 0.06940557, -0.15311159, -0.05398339, 0.12946029, 0.14759289, 0.10626116, 0.1322411, 0.02451821, -0.16569406, 0.13792318, 0.12157582, -0.022839403, -0.05909488, -0.06494312, 0.045702636, 0.029892223, -0.05521757, 0.15033211, -0.0819037, 0.05175431, -0.038611118, 0.08497176, 0.062959194, -0.16782692, 0.11413361, -0.14666146, 0.07123707, 0.046829954, -0.08651602, -0.09169487, 0.02381293, 0.08407306, 0.1390019, -0.12906659, -0.143201, -0.002555701, -0.1350257, 0.12758105, -0.0895804, -0.050597396, 0.118081346, 0.14345434, 0.11936206, 0.01842253, -0.08920932, -0.060343273, -0.02025038, -0.06477856, -0.04176776, 0.15208784, -0.046092134, -0.0054277275, 0.010846379, -0.15364769, -0.06339231, -0.039577987, -0.052416563, 0.17334421, -0.0641219, 0.17457332, -0.06991849, 0.1149476, -0.051324546, -0.114464104, 0.12227233, 0.15448292, 0.13504209, 0.16863704, 0.11406897, 0.16501392, -0.11998873, -0.017630909, 0.083985396, -0.13902482, 0.16640389, 0.11450326, -0.111758575, 0.11912167, 0.09003365, -0.066557355, 0.10611904, 0.14518726, 0.059535284, -0.02460394, 0.010017739, -0.110498324, 0.1255777, -0.02946925, -0.06616054, 0.030191746, 0.08952414, -0.13408071, 0.1278945, -0.09175111, 0.18204191, -0.057471875, -0.14777745, 0.13552569, -0.17946842, 0.02893763, -0.054152023, -0.072063, 0.10269443, 0.069838725, 0.11005124, -0.08385687, 0.08832578, -0.016600683, -0.050957423, -0.0021466147, 0.14048102, -0.10744626, -0.16624558, -0.16840373, -0.1771924, -0.040928934, 0.052307956, 0.10417135, -0.1096277, -0.05213658, -0.09235377, -0.058179986, -0.055218767, 0.012667288, 0.10674325, -0.12218658, -0.10977106, 0.1229213, -0.03239978, 0.023849996, -0.101491176, 0.17095177, 0.09658371, 0.077782474, 0.120348625, -0.12019784, -0.11470517, -0.020433007, -0.017712068, -0.04511321, 0.14770932, 0.13022591, 0.17778376, -0.034514576, 0.055546477, -0.11979864, -0.037512902, -0.05737766, 0.09069902, 0.05919739, -0.0043282486, 0.1788614, 0.0848343, -0.1474456, -0.16353835, 0.09932062, -0.10683618, 0.09501577, -0.01453573, -0.14322686, 0.06589156, 0.03534474, 0.16046873, -0.022191864, -0.009266013, -0.054762494, 0.048768803, -0.057735726, -0.014139789, 0.07952776, 0.043132026, -0.17900456, -0.059885412, 0.1716808, 0.1607108, -0.16144648, 0.06014513, 0.14337538, -0.1706366, 0.1756533, 0.12551644, 0.18172409, -0.104583286, 0.15672141, -0.12859742, -0.029017376, 0.050852563, 0.10150467, 0.17065701, 0.114172414, 0.031961378, -0.0021118785, 0.025643785, -0.10463361, 0.16350411, 0.12718235, -0.146698, 0.13998602, 0.03265488, -0.033757538, 0.14296632, -0.04620059, 0.17518477, 0.081702664, -0.13097459, 0.044514272, -0.10180513, 0.00849631, 0.061153043, -0.10819962, 0.046246424, 0.0464166, -0.018798336, 0.14254989, 0.12695366, 0.10308809, 0.17124608, 0.06414234, -0.035896625, -0.124694005, -0.0037649604, 0.039256264, 0.00845992, -0.0376372, -0.13462381, 0.023491293, -0.15293868, -0.11172125, 0.072935104, 0.08770469, -0.16447987, -0.033778194, 0.118542515, -0.106190905, -0.17882672, 0.023493536, 0.10857878, -0.1487019, -0.17557593, 0.04108801, -0.16043118, 0.048295684, 0.10238307, -0.0678753, -0.10381062, 0.049589913, 0.1516655, -0.1469851, -0.06332482, -0.14500916, -0.1075516, -0.12573537, -0.08739707, 0.004900242, 0.10487014, 0.15042222, -0.15941414, -0.17306754, 0.04120765, 0.15063292, -0.04059731, -0.08610868, 0.16720727, 0.01999828, -0.16975611, 0.0106868455, 0.010819479, -0.14690663, 0.11823159, 0.10306267, -0.08617221, 0.025237376, -0.1455586, 0.065540925, 0.15923123, -0.024391562, 0.1730921, -0.09347321, 0.008576947, -0.117804915, 0.054362766, -0.035084523, -0.08721941, -0.07322555, 0.09797664, -0.08971824, -0.001402224, 0.04616115, -0.13547574, 0.07996607, -0.09096156, -0.01233157, 0.025974693, 0.17232203, 0.17115751, -0.03426004, 0.10314426, -0.16083395, -0.16829439, 0.027715225, -0.004054864, 0.15167636, 0.073365845, 0.18218826, 0.046477128, -0.13470706, 0.021659415, 0.052288607, -0.069265775, 0.029027997, 0.122362524, -0.13660437, 0.17568764, -0.14538094, -0.17366931, -0.03013383, -0.081057124, 0.15650831, 0.15163563, 0.021097302, 0.063643605, 0.047599632, -0.0768856, -0.07727791, 0.016891219, -0.09146863, -0.13256313, -0.04567482, 0.14704148, -0.09978743, -0.12352379, -0.025555095, 0.18200706, -0.027235905, -0.080021374, -0.055311877, -0.04838133, 0.1292579, 0.016158994, 0.05645915, -0.09465296, 0.18251048, -0.015656713, -0.025990123, -0.16008002, 0.12928669, -0.10414519, 0.059741396, -0.08288726, -0.012136538, -0.101134524, -0.015833158, 0.12126054, 0.036707137, -0.018614491, -0.0046834457, -0.1542521, 0.029840749, 0.031070163, -0.17490721, -0.17547409, 0.06456722, -0.16991876, 0.0636589, -0.03651012, -0.13589264, -0.17566085, 0.09118391, 0.17817268, 0.004332884, 0.04066941, -0.018059736, -0.12649019, -0.030928563, 0.010531033, 0.109985895, -0.1487262, 0.03600353, 0.025726119, 0.09972416, -0.040509466, -0.103565276, -0.0392079, -0.07547859, -0.13149801, -0.021808024, 0.005985618, 0.17299184, -0.16350065, 0.09009834, 0.13025524, 0.13548025, 0.12795396, 0.037989154, 0.18172821, -0.05545833, -0.06644492, 0.11027541, 0.02096404, -0.09970736, -0.112352945, -0.047955506, -0.16279022, -0.04131939, -0.0955512, 0.013626038, -0.04996905, -0.08076107, -0.17951156, 0.14021622, 0.040888496, -0.05083343, -0.02094974, 0.021165121, 0.11315342, 0.059316944, 0.07826445, 0.05259403, 0.038930405, -0.16808304, -0.1396487, 0.15908195, -0.12467642, -0.048410058, 0.08293305, -0.17005518, 0.097816475, -0.17744254, 0.12662545, 0.17936021, -0.14094755, -0.11881993, -0.012465792, -0.11475558, -0.10928149, 0.015280795, -0.020622075, 0.015534962, -0.11962291, 0.17168061, 0.11907997, -0.15287192, 0.08218266, -0.1715983, 0.047136985, -0.07139981, 0.16070707, -0.108531676, -0.042150315, -0.15183116, -0.17228842, 0.0011209826, -0.10430749, 0.14903152, 0.055946205, 0.012236437, -0.12115511, -0.067706734, -0.06954362, 0.08983054, -0.15122339, 0.12678728, 0.1437178, -0.1684438, 0.047795538, 0.10651772, -0.15274146, 0.15767929, -0.03727299, 0.03536152, -0.07895487, 0.116876766, -0.12563677, 0.15279655, 0.120981514, 0.17118444, 0.17412393, 0.17603174, -0.002707748, 0.07865979, 0.0043169744, 0.11185852, -0.03562065, 0.16037081, -0.16665575, -0.012806494, 0.10587449, -0.047688108, 0.030823572, 0.04308521, -0.16830488, 0.04922477, -0.037650824, -0.09177825, -0.06865456, -0.017404275, 0.065742746, 0.03241027, -0.01328255, 0.004827048, 0.05337146, -0.0024815926, -0.11656456, 0.03414793, -0.14814599, -0.039778046, 0.07158015, 0.06361424, -0.15928571, -0.035336383, -0.0936525, -0.15970498, 0.13598706, -0.047331255, 0.10359968, 0.015621715, 0.10829205, 0.08325169, -0.16613124, 0.04472123, -0.17204863, -0.0060933745, -0.0679786, -0.10521629, 0.05096106, 0.14626434, -0.033831757, -0.06934689, -0.12564011, 0.073298834, -0.014632669, -0.13894555, -0.1123933, -0.1535155, -0.044120856, -0.005495176, 0.084451005, 0.16492657, 0.039415948, 0.01275859, -0.06675852, 0.014437681, -0.021728126, 0.03904284, -0.0044143056, 0.0626403, 0.09561993, 0.15850082, 0.092697695, -0.009733189, 0.043627996, -0.019719869, 0.16011377, -0.090926364, -0.17265408, 0.061461337, };

static float32_t tensor_onnxMatMul_39[900] = {0.14164308, -0.033962168, -0.060210813, 0.10961819, 0.036852088, -0.10435722, 0.03367777, -0.005167772, -0.0073807905, -0.09397292, 0.031211764, -0.1821711, -0.0075544715, 0.08034275, 0.008479747, -0.17934778, -0.05412943, 0.089690685, -0.01265473, 0.02517365, 0.016493037, -0.11858313, -0.11444078, 0.0030590494, 0.13893674, -0.1296554, 0.17706852, -0.089269586, 0.12423074, -0.15654156, 0.15646331, -0.077074565, 0.1803695, -0.09914953, -0.12654838, 0.093222894, -0.010317349, -0.11808361, -0.09564152, 0.11451788, -0.17355968, -0.072997086, 0.09535016, -0.16995423, -0.09351874, -0.08190462, -0.07247286, -0.1264954, 0.092811786, 0.014109101, 0.032151513, 0.06642193, -0.04212091, -0.034198556, 0.058433607, 0.030117987, -0.17444776, 0.04295234, -0.071214505, -0.14598991, -0.07008349, -0.018303303, -0.10230848, -0.027809074, -0.05331341, 0.10514945, 0.10771312, 0.047236055, -0.043767553, 0.09046657, -0.04147307, -0.008829285, 0.053360205, -0.00582184, 0.11600917, 0.06318352, -0.019039184, 0.11007222, -0.14664853, 0.1777973, 0.1358536, -0.16173185, 0.13216367, -0.13330391, 0.024454918, 0.033352416, 0.115868896, -0.08203198, 0.058667686, -0.031676263, 0.1695976, 0.024046943, 0.009321904, -0.058405813, -0.11510675, -0.013192989, 0.044167694, 0.043366715, -0.091102354, 0.13533573, -0.019915815, 0.08269584, -0.12465108, 0.10127153, -0.16001865, -0.09199466, 0.15059537, -0.173942, -0.008919652, -0.028814944, 0.17316431, 0.0048896866, 0.07439032, 0.18208204, 0.047940597, 0.006917554, 0.1394469, 0.00533784, -0.053163063, -0.032813873, 0.108156025, 0.09953742, -0.035312463, 0.15395162, 0.011233788, 0.05628956, 0.087146565, -0.067567796, 0.036759805, -0.15845786, 0.009497044, -0.008183815, -0.13307007, 0.13772844, -0.10062514, -0.070910476, 0.07944111, 0.099383, -0.067706175, 0.031428363, 0.07120354, -0.10668426, -0.1119826, 0.09708608, 0.080600396, 0.06560332, -0.13562627, 0.012322777, -0.1619951, -0.021559495, -0.07799681, 0.13642259, -0.15401833, -0.07514331, 0.15529974, 0.16246702, -0.14532988, -0.110668935, 0.12742038, 0.15674135, 0.13133971, -0.061380003, 0.10661111, 0.02711744, -0.116326384, 0.064555295, -0.11347897, 0.1425976, 0.12630926, -0.13240005, 0.1741741, 0.03965068, 0.10124565, -0.05143831, 0.16256474, -0.11430427, -0.13586996, 0.1800417, -0.025741072, -0.0055345697, -0.109915145, -0.1603004, 0.14608528, 0.0306145, -0.12559369, -0.0474665, -0.07146976, -0.09972087, -0.10773392, 0.119514, -0.01821422, -0.179318, -0.07169089, -0.115869224, -0.109684415, -0.16405813, 0.17950211, -0.009203353, 0.07199342, -0.16477898, -0.058040734, 0.13293196, 0.0018364917, -0.017324572, 0.13883851, -0.0010958445, -0.17982571, 0.11439546, -0.093345344, 0.041523084, -0.18017949, -0.13054496, 0.03728011, -0.13950384, -0.15169896, -0.17473766, 0.1280315, -0.104189545, 0.0022613574, -0.069662824, -0.11997852, 0.15189025, -0.100613415, -0.004564002, 0.023462065, 0.04652007, 0.103902906, 0.13075086, 0.10531118, -0.011828765, -0.08351478, -0.17409435, 0.1338024, -0.083908714, -0.009744441, 0.04754507, -0.15767185, 0.046804685, -0.016426329, 0.056865755, -0.07889571, -0.05487641, 0.08804398, 0.08506977, 0.17157806, -0.15666749, -0.15097418, 0.019420477, -0.16720122, -0.052377645, -0.15058005, -0.13866617, -0.16504166, -0.10169642, -0.17005216, -0.022018226, 0.17362624, 0.10611394, -0.16169539, 0.045128725, 0.017329449, -0.01964946, -0.02068765, 0.020258673, 0.08291088, 0.04961862, -0.097897045, -0.011263628, 0.123354524, 0.12064906, -0.014899763, -0.16221021, 0.1773942, -0.08621321, 0.05778914, -0.16250826, 0.14426102, 0.05353543, 0.083299726, 0.0750719, -0.13033152, -0.10967021, -0.15677099, -0.06822639, -0.03415324, -0.1398522, -0.10298568, 0.029205007, -0.075237356, 0.032021318, 0.11950586, 0.16362403, -0.15298024, 0.10512464, -0.080642685, -0.0808326, -0.015658475, 0.09277476, -0.1276007, -0.16513027, 0.1491841, -0.14837718, -0.007435463, -0.1014636, 0.08240529, 0.04711374, -0.075304806, -0.015653035, -0.09479075, 0.0055864565, -0.054379594, 0.07939066, 0.003169635, -0.12543043, 0.0253699, 0.031685688, 0.013669915, 0.082876965, 0.057156138, 0.13531488, 0.13546745, -0.14952672, 0.11520338, 0.13933155, 0.041703466, -0.018526215, -0.009803815, 0.12546545, -0.09826724, -0.107016675, -0.10809228, -0.11662587, -0.14864607, 0.08101133, -0.15923668, 0.11748093, -0.10506959, 0.010228941, -0.13163258, -0.016663084, -0.15274751, 0.016856527, -0.014170674, 0.01598984, -0.050906364, -0.09049101, -0.046716277, 0.04422036, -0.14832492, -0.17440748, -0.11917138, -0.000290056, -0.12348348, 0.13696626, 0.08934583, -0.06250088, -0.06169548, 0.04857131, -0.07539502, 0.1703372, -0.07475277, 0.10497383, 0.07796837, -0.013073306, 0.0701921, -0.032713298, 0.15196589, 0.0853016, -0.13459685, 0.083969116, -0.121183515, -0.039420694, 0.12541595, -0.17956606, -0.17545906, 0.15488927, 0.05222192, -0.07415618, 0.10315094, 0.036731575, -0.13147093, 0.00046058116, 0.12742831, -0.17643017, 0.18038781, -0.16376233, -0.0771695, 0.1386908, 0.17253076, -0.026632853, 0.04740003, -0.045670968, 0.17611517, 0.12686926, 0.10277598, 0.07785256, 0.038137544, 0.05553039, 0.020669522, -0.13364884, 0.062571675, 0.06104298, -0.00439167, 0.14310722, -0.09035814, 0.15180765, -0.01876508, 0.17560098, 0.06091535, -0.096886255, 0.1314628, 0.15680997, 0.02128437, 0.10932247, -0.1678772, 0.15122133, 0.084536366, -0.1531413, -0.16241401, 0.002914054, -0.17869093, -0.14608559, -0.0091010155, 0.049510494, -0.05071721, 0.047231138, 0.027608948, -0.15496974, -0.038901217, -0.17816712, 0.1773697, 0.07581355, -0.11175964, -0.15547906, 0.08578216, 0.04368304, 0.05970113, 0.025754675, -0.112527475, -0.02952044, 0.058237553, 0.012270151, 0.02512729, -0.14228976, 0.111576885, 0.11448992, -0.10822129, -0.13090841, -0.024652518, 0.04361359, -0.09198001, -0.102511674, -0.015458242, -0.10688924, -0.15894732, -0.16887721, -0.021943334, 0.0056485506, 0.1441486, 0.17507736, -0.13967939, 0.030994749, 0.16776039, -0.021515617, 0.03200036, -0.02702196, -0.022204204, -0.13452725, 0.09651123, -0.0964622, 0.03938315, 0.028333621, -0.17912008, -0.11836191, -0.17125641, -0.17865264, 0.099650204, 0.051867835, 0.12692957, 0.00024295754, 0.14232428, 0.16487902, -0.10085304, -0.05631039, -0.106267646, -0.13087691, -0.0730483, -0.17884986, -0.0913154, 0.10087676, 0.07694602, -0.06678786, 0.09135691, 0.03831101, 0.15193424, -0.16015011, 0.0043606996, -0.052411947, -0.06278767, -0.17509925, 0.13335195, 0.05076705, -0.07464183, 0.085451975, 0.11733875, 0.1426553, -0.064300105, -0.06569957, -0.118380696, 0.01720452, -0.10320389, 0.06342639, 0.0064192982, 0.08220564, -0.07661444, 0.06883514, 0.0035321452, -0.16198051, 0.07733996, 0.010115265, -0.053456187, -0.12267523, -0.13986094, 0.014346661, 0.17652956, -0.108558774, -0.0746239, 0.04439254, 0.048101936, 0.02132509, -0.17251146, -0.16932729, -0.13863698, -0.15248987, -0.17642497, 0.010893935, 0.06386081, -0.15739217, 0.114365816, -0.14172336, -0.07203044, -0.005695976, -0.1589931, -0.065232195, -0.1124545, 0.036810428, -0.09585821, 0.029299509, -0.0084142145, 0.10279237, -0.103375204, -0.17746006, 0.02923563, -0.14875008, 0.0271907, 0.14123832, -0.17084275, -0.16581208, -0.040269926, 0.07659731, -0.07438658, -0.0056795, 0.014643138, 0.017547682, -0.034965362, 0.0060765287, -0.08289623, -0.15962815, -0.11951126, -0.09395634, 0.06481813, 0.02038471, -0.040468372, 0.051936936, -0.13122389, 0.092563994, -0.1298733, 0.10040121, -0.17340322, -0.17807649, -0.17495672, -0.111900635, 0.09422655, -0.122656845, 0.11200375, -0.0021056538, 0.13564013, -0.0074277367, -0.090526335, 0.049979478, 0.10809562, -0.11652784, -0.013726807, 0.16677973, 0.006725895, 0.11269806, 0.13790156, 0.103500806, -0.08487693, 0.07871992, -0.12902296, 0.060563702, -0.05795457, 0.095163226, -0.13184398, -0.0035832047, 0.061457552, -0.17896816, 0.06288718, 0.18001834, -0.019597074, -0.12321354, -0.13211732, 0.013981714, 0.0045196023, 0.17876244, 0.031085093, -0.00971902, -0.08291656, -0.005794874, 0.032216307, 0.023001613, -0.050432853, 0.021326113, 0.083710484, 0.12516376, 0.030914221, -0.08221317, -0.07120639, -0.054950844, 0.09145877, 0.089466445, -0.04782174, 0.05158655, 0.08303774, 0.02717307, -0.039606716, -0.015167293, -0.086390376, 0.051503822, 0.12812519, 0.12281605, 0.09175246, 0.18090774, 0.011352644, -0.0014688016, 0.13061559, -0.036002465, 0.12713832, 0.17832272, -0.023197886, -0.021578822, 0.108794704, -0.065564714, -0.05239645, -0.026250102, 0.046747137, -0.098040104, 0.0005754109, 0.1510531, 0.10157384, 0.1544157, -0.03595343, 0.06467124, 0.034756247, -0.14086331, 0.14908473, -0.15499786, -0.14214002, 0.013817043, -0.12752491, 0.024649754, -0.051105075, -0.033399493, -0.03564596, 0.0171626, 0.17999132, 0.001297667, 0.046598356, 0.08500369, -0.0065457937, 0.08986621, 0.0075253067, -0.11912193, -0.17532544, 0.0920912, 0.10560256, 0.024734637, 0.11769781, -0.1561261, 0.022816833, 0.14703992, -0.019580206, -0.15854232, 0.04572327, -0.11791803, -0.11429003, 0.13361411, -0.02566285, 0.107075766, 0.13367397, 0.05085476, 0.10779053, -0.08258661, -0.029419672, -0.043748487, -0.16305503, 0.122192234, 0.08017762, -0.16401638, 0.08773921, -0.091019645, 0.06386349, 0.024826417, 0.16205275, 0.010121163, -0.02434133, -0.16595073, -0.15487297, -0.01993499, -0.043312978, -0.12021601, -0.13309482, -0.15321432, 0.010052365, -0.17211595, 0.091015734, 0.16285232, -0.113524355, 0.10148685, -0.05876828, -0.09745877, -0.15249965, 0.063356005, 0.0025895012, 0.14646897, 0.10496989, -0.055214938, -0.12601572, 0.045852225, -0.09241243, -0.049062602, 0.14566538, -0.051097434, 0.033549797, -0.07478772, -0.14482649, -0.08658267, -0.123682976, 0.04462031, 0.098160855, -0.13204864, 0.027525526, 0.018898714, -0.12745552, -0.06502456, -0.027353542, -0.10270076, 0.15956374, -0.17320329, 0.13564382, 0.1788329, -0.059377775, -0.13509662, -0.14814706, -0.12986167, 0.16375789, 0.04233516, -0.09330632, 0.089332856, 0.065599516, 0.15007502, -0.105877474, 0.072667226, -0.007002109, 0.0020483695, -0.045932774, 0.090131484, -0.10159001, 0.14906672, -0.0066881557, -0.042632923, -0.01881344, -0.111448996, 0.06162157, 0.06937331, 0.011930123, 0.16359977, -0.12923509, 0.06904088, 0.15657653, 0.070519626, 0.04824134, 0.10631058, 0.17799039, 0.06602194, 0.07770828, -0.04270912, -0.042879667, -0.0044703707, 0.12379275, 0.07938796, 0.041535553, -0.11927918, 0.087086424, 0.039800595, -0.067549616, 0.11780973, 0.13227981, 0.08195613, 0.10986245, -0.091186844, -0.17905647, 0.0020948586, -0.09123973, -0.107423514, 0.07268082, -0.064149454, -0.04471642, 0.10112186, 0.020034214, -0.09991556, -0.10882448, -0.08376, 0.044263348, 0.12257753, 0.120158754, -0.03802056, -0.13956828, 0.16554278, -0.16782801, 0.15590204, 0.13356407, -0.05669971, 0.006911503, -0.060549513, -0.11129915, 0.04098674, 0.0471268, 0.14536382, -0.13056299, -0.11864594, 0.14800252, -0.15934688, -0.13665786, 0.07458659, -0.0023619095, 0.15340143, 0.16594625, 0.017927364, 0.15552591, -0.12500988, -0.006109045, 0.021332905, -0.047191896, -0.12531036, 0.08783815, 0.04043305, -0.13221587, -0.10373319, -0.15846686, -0.001135173, -0.030655723, -0.07853105, 0.01310691, 0.04702359, 0.055640586, 0.044434395, 0.04728272, 0.016194232, -0.009768665, -0.0155290635, 0.16801777, 0.16703056, 0.054656632, -0.013181345, 0.095036015, 0.039603863, 0.09436973, 0.16705015, -0.032118604, -0.042688444, -0.074930646, -0.16468576, -0.11837604, -0.023128826, -0.17941676, -0.04986382, 0.098240994, 0.05860966, 0.16973487, 0.080111586, 0.12957098, -0.13994446, -0.10523276, -0.07433149, -0.022846172, 0.03933577, 0.05263658, 0.16197252, };

static float32_t tensor_onnxMatMul_40[900] = {-0.17683257, 0.16698037, -0.03459915, -0.03481643, -0.12391353, -0.08532983, -0.088641696, 0.018787803, 0.060514797, 0.0030883227, -0.028373972, 0.053210683, -0.007401423, -0.13664085, -0.15658617, 0.114863984, -0.032847345, -0.05225542, -0.107246436, -0.029392336, -0.0930863, 0.07982227, 0.13951463, 0.08874643, 0.12320104, 0.07547772, 0.08939963, -0.0063436013, 0.16122898, 0.06967619, 0.07248804, -0.07574358, -0.035942875, 0.12725541, 0.13369226, 0.16190723, 0.16625763, -0.051111713, 0.016962303, 0.060535345, 0.118352644, -0.15111978, -0.020970438, -0.006324644, 0.025061583, 0.041877978, -0.11921681, -0.059978213, 0.08098219, -0.12409089, 0.0987056, -0.10340816, 0.13227116, 0.07507643, -0.08333879, -0.027051732, 0.1267712, -0.17990418, -0.12995556, 0.15693064, -0.08221239, 0.17173958, 0.01072587, -0.110913284, -0.12672664, -0.030282091, -0.016849931, 0.07105034, 0.11080386, -0.055624872, -0.014845483, -0.015379998, -0.078905836, -0.16734539, -0.0961583, 0.007161752, 0.05809223, 0.05616446, -0.08714634, -0.1779475, 0.009382431, 0.08299367, -0.057027247, 0.08175309, -0.08679846, 0.16120055, -0.07706719, 0.09748178, -0.1661635, 0.15693149, -0.059017833, -0.012073377, 0.07886733, -0.052605107, -0.11522843, 0.13862044, 0.066152945, -0.03487526, 0.08502171, 0.12797956, -0.06369814, -0.18191014, -0.05090928, -0.10596348, -0.15390313, -0.13496503, -0.0378972, 0.15851249, -0.008763862, 0.016291171, 0.115378566, -0.12731756, -0.07029535, -0.11554996, 0.11483351, -0.15088491, -0.0068557425, 0.0002974342, 0.17696661, 0.14729641, -0.04044108, -0.16879396, 0.11130742, -0.12391, 0.13291863, -0.04184509, -0.00026237153, -0.16129684, -0.14014477, 0.13282113, 0.004362702, -0.080148526, -0.1785029, 0.15833347, 0.08339183, 0.14353703, 0.11045532, -0.05033905, 0.04121283, -0.17130816, 0.020676376, -0.07929459, 0.134531, -0.10586339, 0.054873712, 0.14952506, 0.052897666, -0.092871875, 0.08731746, 0.100218125, -0.17648938, -0.09082035, -0.12475101, 0.023069432, 0.12414127, -0.103605606, -0.14315929, 0.17283307, 0.021716222, 0.17785524, -0.04064741, -0.15083659, 0.11629703, 0.12535405, 0.11203793, 0.047960315, -0.04586722, -0.027908733, -0.16433206, -0.0629437, 0.06952016, 0.0933122, -0.12957518, -0.15798424, 0.09169772, -0.13975514, 0.08173666, 0.04649182, -0.11260443, 0.13666798, -0.15216087, 0.004359089, -0.0419772, 0.12752868, -0.11674194, 0.16571428, -0.17532054, -0.09798781, 0.17504598, -0.10706762, 0.16137728, 0.008968318, -0.07808836, -0.02500874, 0.17706186, -0.047576323, -0.0019771124, -0.012992124, -0.1613791, -0.0017423602, 0.120307535, 0.046332896, 0.098612644, 0.02870895, -0.17984442, -0.081158504, 0.0401539, -0.034273118, -0.14067373, 0.175444, -0.0063105407, 0.06572923, -0.16779171, 0.110016175, -0.008939414, 0.096491404, -0.07456969, -0.15090585, -0.014485715, -0.08924673, 0.10499734, 0.04436329, 0.13672587, 0.09732377, -0.110822506, 0.1433238, -0.040347908, 0.020442931, 0.10730107, -0.16603068, 0.03196919, 0.03968707, -0.070810966, 0.16027685, -0.06959509, -0.024713982, 0.16932003, 0.04917582, -0.0030887362, -0.17354223, -0.11879416, -0.029363476, -0.059921954, -0.12357694, -0.08632782, -0.15218225, 0.05643484, -0.021543715, -0.14160614, -0.043994818, -0.07080753, -0.015632315, -0.17257054, -0.013091675, 0.0790088, -0.11391353, 0.06720415, -0.08649918, -0.13067669, -0.14182302, -0.052311048, 0.06484385, 0.13755539, -0.106768385, 0.01430224, 0.0066964696, -0.046774868, 0.12881845, 0.0049670376, -0.09826089, 0.04070987, 0.13129023, 0.120716296, 0.13329193, 0.17068516, 0.11425991, -0.15673743, 0.11140401, 0.00970348, -0.0065251826, 0.086764224, -0.09091277, 0.05272037, -0.06021471, -0.13405666, -0.03346017, -0.13320976, -0.0027126232, 0.026782528, -0.0024085944, -0.10533747, 0.13357903, 0.041744538, 0.15670316, -0.09616409, -0.07471233, -0.14852773, -0.050806966, 0.15277927, -0.014042937, -0.12144882, -0.057176076, -0.1159785, -0.07736935, -0.10995099, -0.046558656, 0.075367615, 0.16884036, -0.11316282, -0.11405182, -0.16418998, 0.17672192, 0.0150277605, 0.04889965, 0.15612052, 0.0714387, 0.17513157, -0.0493623, 0.1403433, -0.16675861, -0.015032462, -0.0665118, -0.12296564, 0.15511163, 0.02849705, 0.06262644, 0.17624259, 0.038184687, -0.02449601, -0.015479049, 0.17743431, -0.006518762, -0.08765579, -0.13387427, -0.13407926, -0.05638045, -0.058427732, 0.1659779, 0.09717764, 0.15736102, -0.18008603, 0.13431302, 0.056941234, -0.046034046, -0.092220575, 0.11390288, -0.08320981, -0.115118414, -0.02997051, -0.046985503, -0.12209993, -0.08280589, -0.0045256093, -0.15420346, -0.0978289, 0.011212285, 0.055295333, -0.020649824, 0.09032142, 0.16944148, -0.07366175, -0.106101125, -0.102624826, 0.12155367, -0.06538235, -0.057596195, 0.056263704, 0.14411226, -0.029611547, 0.056178756, -0.004428866, -0.11260261, 0.02684399, 0.1053877, 0.16242889, 0.0634812, 0.15575314, -0.06450707, 0.05257346, 0.11577446, -0.053791862, 0.05118299, 0.09797834, 0.007328904, -0.024295885, -0.08745268, -0.005769518, 0.12287736, -0.023210531, 0.15852919, 0.033383492, -0.15223935, 0.023390763, -0.023383494, 0.0026172511, 0.1674066, -0.022604214, -0.08336078, -0.17195994, 0.033907454, -0.14498541, -0.120243765, 0.1694161, -0.16576621, 0.007982144, 0.12720472, 0.13967171, 0.08157747, -0.13341475, -0.05541972, -0.14130196, -0.03289155, -0.1481636, 0.1718707, 0.019708704, 0.100695446, -0.16876224, -0.02264609, -0.093354024, 0.063963756, 0.17132764, -0.01424193, 0.07998394, -0.17407611, 0.11727236, 0.043727938, 0.011009375, 0.17895675, 0.076709114, -0.18056686, 0.17832309, -0.1133365, 0.0035530827, -0.01072711, -0.16715516, -0.16335653, 0.003990354, 0.13673143, 0.13650386, 0.12984587, 0.12812033, 0.14425261, 0.07171106, 0.00087001565, 0.11360046, -0.07486098, -0.0804879, -0.0021781514, -0.032123197, -0.07192925, 0.0077430177, -0.05051458, 0.07871444, 0.043467615, 0.027141577, -0.01756011, -0.12982386, 0.07885706, 0.00635962, -0.14727923, 0.05564979, 0.15936479, 0.140203, 0.0278765, -0.030870821, -0.14292394, 0.04060562, -0.07514496, 0.017544046, -0.1614596, -0.026895616, -0.062552065, -0.062305845, 0.037109148, 0.08582656, -0.076417714, 0.14049025, 0.045685094, -0.098017626, -0.01311431, 0.16891392, 0.1144922, -0.1362066, -0.025843257, 0.1657189, 0.044188563, -0.115447186, 0.133312, -0.16872743, -0.18253523, 0.03571365, -0.14677028, 0.0050171395, 0.14473164, 0.037201844, -0.07973991, 0.050416682, 0.17809206, 0.17980325, -0.12243944, -0.03310421, 0.0059817224, -0.09534622, -0.062287673, -0.11330749, 0.085245885, 0.059254196, 0.03381622, 0.11056725, 0.015797334, -0.11189776, -0.024867749, 0.13349408, -0.10922318, 0.15865812, 0.14361118, -0.1505552, 0.1492409, 0.03379517, 0.022573592, 0.036593262, -0.060325533, -0.011117348, 0.029376969, -0.06036273, -0.12873422, -0.11127943, -0.110715166, -0.14132456, 0.093186505, -0.14436124, 0.085203424, 0.13741419, -0.117110565, 0.0084440755, 0.016979627, 0.13099626, 0.13562629, -0.15398742, -0.15955737, 0.015276442, -0.07995765, -0.15730801, 0.16175738, 0.06685603, -0.05944792, -0.120335326, 0.11659914, 0.021977613, 0.018722117, -0.14229493, 0.10411344, -0.15789245, -0.064840935, 0.120235234, 0.173339, 0.06382068, 0.120006554, 0.013532407, -0.017510615, 0.14585294, -0.014192351, -0.10472541, -0.051130626, 0.06230256, 0.16290294, 0.003285379, -0.011318888, 0.17738387, -0.09011616, 0.13694176, 0.09220843, -0.11783134, -0.13134257, 0.12826389, -0.11110048, -0.00863075, 0.17312378, -0.14526345, 0.13518655, -0.089046694, -0.09956027, -0.07937719, 0.15530801, 0.094704516, 0.04599487, -0.09338097, 0.058312554, -0.16517699, 0.14205496, -0.15122373, 0.1391492, -0.11405974, -0.088617496, -0.12679838, 0.17108984, -0.07264413, -0.07636754, -0.09318603, -0.009862296, -0.029491646, 0.05461987, -0.10054982, -0.11997865, -0.07314276, 0.006836546, -0.019506555, 0.08787744, -0.13925955, 0.02296407, 0.14724699, 0.03452365, 0.06574967, -0.031367946, 0.16640629, -0.094257385, -0.14922397, -0.03164329, 0.13251112, 0.14504963, -0.03143585, 0.16356783, 0.010038502, -0.028414018, 0.08702076, -0.007066728, -0.043151572, 0.10968278, -0.18221949, -0.080124386, 0.078743406, -0.12638266, 0.15885772, 0.09686423, 0.15742321, -0.01655796, -0.022404395, -0.07939987, 0.074980296, 0.1747757, -0.17966531, -0.118018754, -0.14756335, 0.02891395, -0.018482467, 0.11032172, -0.11732096, 0.06934807, -0.16273808, -0.1336193, 0.06378818, 0.112582475, -0.11520789, -0.1401823, -0.15073949, -0.036681693, -0.14880611, 0.035236657, -0.17445509, 0.18165407, 0.0557296, 0.1261219, -0.13646655, 0.10655322, 0.021290137, 0.04134235, -0.007468262, 0.17647044, -0.06544773, -0.072913684, -0.026374333, -0.049554046, -0.14304863, 0.031934824, 0.12408329, -0.111346334, -0.16454542, 0.112703875, -0.12995893, -0.113033175, -0.015614511, -0.036719736, -0.17284021, 0.034063615, 0.13665819, 0.057176836, 0.024880437, 0.055808347, 0.010305117, -0.12779614, -0.058604024, -0.03574092, 0.16975446, 0.055993106, 0.008376758, -0.05102426, 0.11015962, 0.12635076, 0.11804117, -0.008690624, -0.081791505, 0.12642191, -0.11996757, -0.0866425, 0.08059295, 0.025921261, -0.073469944, -0.1506067, 0.12884961, -0.05894662, -0.09831949, -0.016906062, 0.10143411, -0.14407137, 0.079651505, 0.11229695, 0.07670935, -0.15926036, 0.11682782, 0.0056478544, 0.0734203, 0.13722278, -0.11719157, 0.08799242, -0.040808946, -0.13756594, -0.04912448, 0.06048896, -0.07321556, 0.17137581, 0.112619, -0.06791937, -0.12260861, -0.05328303, 0.072871394, -0.058461946, -0.087184735, -0.0810309, 0.002190318, -0.14338653, 0.06668254, -0.10533673, 0.08306223, -0.17134522, 0.01071268, 0.116781205, 0.07024855, 0.088320866, -0.037653174, -0.11660952, 0.16447802, 0.05943819, -0.17143801, -0.17767921, -0.038242318, -0.14191326, 0.12376479, 0.13594268, 0.012514283, 0.006840355, 0.16355325, -0.04873914, 0.057095807, 0.06981267, -0.10585149, 0.09031729, -0.15357539, -0.13047104, 0.12228443, -0.15103106, -0.016030453, 0.17520419, -0.18184316, 0.05286602, 0.09659845, 0.0011169997, -0.15945081, -0.10279335, -0.04342661, -0.019426897, 0.15500668, 0.099277504, -0.09692025, 0.02988478, 0.06492223, -0.0816491, 0.16297069, 0.07455334, 0.015056534, -0.123712726, -0.02197683, 0.17251942, -0.07122606, -0.15009044, 0.1371271, -0.12086854, -0.019843774, -0.15490845, -0.15411437, -0.13109456, -0.061554097, -0.1814697, 0.155312, 0.06701576, 0.034240842, -0.020263853, -0.124605946, -0.06579427, 0.1320089, -0.07899021, 0.17832431, 0.08061613, 0.1781809, 0.018333446, 0.06215038, -0.11692885, 0.16839994, -0.076489076, 0.021463752, 0.0808148, -0.1371169, -0.030621596, 0.125716, 0.028184924, 0.036672812, 0.07192886, -0.12330523, -0.16039716, -0.1399243, -0.021133998, 0.1620132, 0.15315615, -0.15758967, 0.120207176, -0.13629244, 0.15175593, 0.15420924, 0.17318042, 0.18107966, -0.0069851982, -0.10285899, 0.16677095, 0.13707837, -0.029283468, 0.02412105, -0.0928055, 0.13531022, -0.093760416, -0.015996065, -0.112014726, 0.17266004, -0.13360187, 0.026069455, -0.15064758, 0.08936267, -0.019304644, -0.013797477, -0.11891332, 0.12955609, 0.12913099, -0.124149196, 0.011271484, -0.14834625, 0.16722406, -0.091221385, -0.120197974, 0.045231782, -0.12608641, -0.007277082, -0.092918016, -0.09709992, -0.13667111, -0.10353726, 0.099338904, -0.1537452, 0.13076644, -0.12597768, -0.15843265, 0.13863146, 0.06956149, -0.08326762, 0.013715599, -0.02792325, 0.14499423, -0.17786749, -0.10823842, -0.06491069, 0.12671706, 0.14964496, -0.05000775, -0.10576917, -0.13602948, -0.05319314, 0.019893747, 0.0049868, 0.015319841, -0.14687538, -0.036487095, 0.14773539, 0.035445206, };

// CONSTANT DECLARATION Constant

static float32_t tensor_Constant_output_0[1] = {
    1.0, 
};
void run_inference(float32_t* tensor_onnxGemm_0, float32_t* tensor_onnxMatMul_1, float32_t* tensor_37) {






// MATMUL OPERATOR W_hrMatMul

#define CONNECTED_OUTPUT

#ifdef CONNECTED_OUTPUT
float32_t tensor_W_hrMatMul_output_0[30 * 30];
#undef CONNECTED_OUTPUT
#endif

for(int32_t i=0; i<30; i++) {
    for(int32_t j=0; j<30; j++) {
        float32_t temp = 0.0f;
        for(int32_t k=0; k<30; k++) {
            int32_t index1 = i*30+k;
            int32_t index2 = k*30+j;
            temp += tensor_onnxMatMul_1[index1] * tensor_onnxMatMul_38[index2];
        }
        tensor_W_hrMatMul_output_0[i*30 + j] = temp;
    }
}

#ifdef COMPILER_DEBUG
printf("----------------- DEBUG OUTPUT W_hrMatMul -----------------\n");

for(int i=0; i<30; i++) {
    for(int j=0; j<30; j++) {
        printf("%f, ", tensor_W_hrMatMul_output_0[i*30+j]);
    }
    printf("\n");
}

printf("\n");
printf("------------------------------------------------------\n\n");
#endif
// GEMM OPERATOR W_irGemm

#define CONNECTED_OUTPUT

#ifdef CONNECTED_OUTPUT
float32_t tensor_W_irGemm_output_0[30];
#undef CONNECTED_OUTPUT
#endif

for(int32_t i=0; i<30; i++) {
    float32_t temp = 0.0f;
    for(int32_t j=0; j<30; j++) {
        temp += tensor_W_irweight[i * 30 + j] * tensor_onnxGemm_0[j];
    }
    tensor_W_irGemm_output_0[i] = temp + tensor_W_irbias[i];
}

#ifdef COMPILER_DEBUG
printf("----------------- DEBUG OUTPUT W_irGemm -----------------\n");
for(int i=0; i<30; i++) {
    printf("%f ", tensor_W_irGemm_output_0[i]);
}
printf("\n");
printf("------------------------------------------------------\n\n");
#endif

// ELEMENT WISE ADDITION W_hrAdd

#define CONNECTED_OUTPUT

#ifdef CONNECTED_OUTPUT
float32_t tensor_W_hrAdd_output_0[900];
#undef CONNECTED_OUTPUT
#endif

for(int i0=0; i0<1; i0++) {
for(int i1=0; i1<30; i1++) {
for(int i2=0; i2<30; i2++) {

tensor_W_hrAdd_output_0[i1*30 + i2*1] = tensor_W_hrbias[i2*1] + tensor_W_hrMatMul_output_0[i1*30 + i2*1];
}
}
}


#ifdef COMPILER_DEBUG
printf("----------------- DEBUG OUTPUT W_hrAdd -----------------\n");
for(int i=0; i<900; i++) {
    printf("%f ", tensor_W_hrAdd_output_0[i]);
}
printf("\n");
printf("------------------------------------------------------\n\n");
#endif
// ELEMENT WISE ADDITION Add

#define CONNECTED_OUTPUT

#ifdef CONNECTED_OUTPUT
float32_t tensor_Add_output_0[900];
#undef CONNECTED_OUTPUT
#endif

for(int i0=0; i0<1; i0++) {
for(int i1=0; i1<30; i1++) {
for(int i2=0; i2<30; i2++) {

tensor_Add_output_0[i1*30 + i2*1] = tensor_W_irGemm_output_0[i2*1] + tensor_W_hrAdd_output_0[i1*30 + i2*1];
}
}
}


#ifdef COMPILER_DEBUG
printf("----------------- DEBUG OUTPUT Add -----------------\n");
for(int i=0; i<900; i++) {
    printf("%f ", tensor_Add_output_0[i]);
}
printf("\n");
printf("------------------------------------------------------\n\n");
#endif




// MATMUL OPERATOR W_hzMatMul

#define CONNECTED_OUTPUT

#ifdef CONNECTED_OUTPUT
float32_t tensor_W_hzMatMul_output_0[30 * 30];
#undef CONNECTED_OUTPUT
#endif

for(int32_t i=0; i<30; i++) {
    for(int32_t j=0; j<30; j++) {
        float32_t temp = 0.0f;
        for(int32_t k=0; k<30; k++) {
            int32_t index1 = i*30+k;
            int32_t index2 = k*30+j;
            temp += tensor_onnxMatMul_1[index1] * tensor_onnxMatMul_39[index2];
        }
        tensor_W_hzMatMul_output_0[i*30 + j] = temp;
    }
}

#ifdef COMPILER_DEBUG
printf("----------------- DEBUG OUTPUT W_hzMatMul -----------------\n");

for(int i=0; i<30; i++) {
    for(int j=0; j<30; j++) {
        printf("%f, ", tensor_W_hzMatMul_output_0[i*30+j]);
    }
    printf("\n");
}

printf("\n");
printf("------------------------------------------------------\n\n");
#endif
// GEMM OPERATOR W_izGemm

#define CONNECTED_OUTPUT

#ifdef CONNECTED_OUTPUT
float32_t tensor_W_izGemm_output_0[30];
#undef CONNECTED_OUTPUT
#endif

for(int32_t i=0; i<30; i++) {
    float32_t temp = 0.0f;
    for(int32_t j=0; j<30; j++) {
        temp += tensor_W_izweight[i * 30 + j] * tensor_onnxGemm_0[j];
    }
    tensor_W_izGemm_output_0[i] = temp + tensor_W_izbias[i];
}

#ifdef COMPILER_DEBUG
printf("----------------- DEBUG OUTPUT W_izGemm -----------------\n");
for(int i=0; i<30; i++) {
    printf("%f ", tensor_W_izGemm_output_0[i]);
}
printf("\n");
printf("------------------------------------------------------\n\n");
#endif

// ELEMENT WISE ADDITION W_hzAdd

#define CONNECTED_OUTPUT

#ifdef CONNECTED_OUTPUT
float32_t tensor_W_hzAdd_output_0[900];
#undef CONNECTED_OUTPUT
#endif

for(int i0=0; i0<1; i0++) {
for(int i1=0; i1<30; i1++) {
for(int i2=0; i2<30; i2++) {

tensor_W_hzAdd_output_0[i1*30 + i2*1] = tensor_W_hzbias[i2*1] + tensor_W_hzMatMul_output_0[i1*30 + i2*1];
}
}
}


#ifdef COMPILER_DEBUG
printf("----------------- DEBUG OUTPUT W_hzAdd -----------------\n");
for(int i=0; i<900; i++) {
    printf("%f ", tensor_W_hzAdd_output_0[i]);
}
printf("\n");
printf("------------------------------------------------------\n\n");
#endif
// ELEMENT WISE ADDITION Add_1

#define CONNECTED_OUTPUT

#ifdef CONNECTED_OUTPUT
float32_t tensor_Add_1_output_0[900];
#undef CONNECTED_OUTPUT
#endif

for(int i0=0; i0<1; i0++) {
for(int i1=0; i1<30; i1++) {
for(int i2=0; i2<30; i2++) {

tensor_Add_1_output_0[i1*30 + i2*1] = tensor_W_izGemm_output_0[i2*1] + tensor_W_hzAdd_output_0[i1*30 + i2*1];
}
}
}


#ifdef COMPILER_DEBUG
printf("----------------- DEBUG OUTPUT Add_1 -----------------\n");
for(int i=0; i<900; i++) {
    printf("%f ", tensor_Add_1_output_0[i]);
}
printf("\n");
printf("------------------------------------------------------\n\n");
#endif




// MATMUL OPERATOR W_hnMatMul

#define CONNECTED_OUTPUT

#ifdef CONNECTED_OUTPUT
float32_t tensor_W_hnMatMul_output_0[30 * 30];
#undef CONNECTED_OUTPUT
#endif

for(int32_t i=0; i<30; i++) {
    for(int32_t j=0; j<30; j++) {
        float32_t temp = 0.0f;
        for(int32_t k=0; k<30; k++) {
            int32_t index1 = i*30+k;
            int32_t index2 = k*30+j;
            temp += tensor_onnxMatMul_1[index1] * tensor_onnxMatMul_40[index2];
        }
        tensor_W_hnMatMul_output_0[i*30 + j] = temp;
    }
}

#ifdef COMPILER_DEBUG
printf("----------------- DEBUG OUTPUT W_hnMatMul -----------------\n");

for(int i=0; i<30; i++) {
    for(int j=0; j<30; j++) {
        printf("%f, ", tensor_W_hnMatMul_output_0[i*30+j]);
    }
    printf("\n");
}

printf("\n");
printf("------------------------------------------------------\n\n");
#endif
// SIGMOID OPERATOR Sigmoid

#define CONNECTED_OUTPUT

#ifdef CONNECTED_OUTPUT
float32_t tensor_Sigmoid_output_0[900];
#undef CONNECTED_OUTPUT
#endif

for(int i0=0; i0<1; i0++) {
for(int i1=0; i1<30; i1++) {
for(int i2=0; i2<30; i2++) {

float32_t ex = exp(tensor_Add_output_0[i1*30 + i2*1]);
tensor_Sigmoid_output_0[i1*30 + i2*1] = ex / (1.0f + ex);
}
}
}


#ifdef COMPILER_DEBUG
printf("----------------- DEBUG OUTPUT Sigmoid -----------------\n");
for(int i=0; i<900; i++) {
    printf("%f ", tensor_Sigmoid_output_0[i]);
}
printf("\n");
printf("------------------------------------------------------\n\n");
#endif
// ELEMENT WISE ADDITION W_hnAdd

#define CONNECTED_OUTPUT

#ifdef CONNECTED_OUTPUT
float32_t tensor_W_hnAdd_output_0[900];
#undef CONNECTED_OUTPUT
#endif

for(int i0=0; i0<1; i0++) {
for(int i1=0; i1<30; i1++) {
for(int i2=0; i2<30; i2++) {

tensor_W_hnAdd_output_0[i1*30 + i2*1] = tensor_W_hnbias[i2*1] + tensor_W_hnMatMul_output_0[i1*30 + i2*1];
}
}
}


#ifdef COMPILER_DEBUG
printf("----------------- DEBUG OUTPUT W_hnAdd -----------------\n");
for(int i=0; i<900; i++) {
    printf("%f ", tensor_W_hnAdd_output_0[i]);
}
printf("\n");
printf("------------------------------------------------------\n\n");
#endif
// GEMM OPERATOR W_inGemm

#define CONNECTED_OUTPUT

#ifdef CONNECTED_OUTPUT
float32_t tensor_W_inGemm_output_0[30];
#undef CONNECTED_OUTPUT
#endif

for(int32_t i=0; i<30; i++) {
    float32_t temp = 0.0f;
    for(int32_t j=0; j<30; j++) {
        temp += tensor_W_inweight[i * 30 + j] * tensor_onnxGemm_0[j];
    }
    tensor_W_inGemm_output_0[i] = temp + tensor_W_inbias[i];
}

#ifdef COMPILER_DEBUG
printf("----------------- DEBUG OUTPUT W_inGemm -----------------\n");
for(int i=0; i<30; i++) {
    printf("%f ", tensor_W_inGemm_output_0[i]);
}
printf("\n");
printf("------------------------------------------------------\n\n");
#endif

// ELEMENT WISE MULTIPLICATION Mul

#define CONNECTED_OUTPUT

#ifdef CONNECTED_OUTPUT
float32_t tensor_Mul_output_0[900];
#undef CONNECTED_OUTPUT
#endif

for(int i0=0; i0<1; i0++) {
for(int i1=0; i1<30; i1++) {
for(int i2=0; i2<30; i2++) {

tensor_Mul_output_0[i1*30 + i2*1] = tensor_Sigmoid_output_0[i1*30 + i2*1] * tensor_W_hnAdd_output_0[i1*30 + i2*1];
}
}
}


#ifdef COMPILER_DEBUG
printf("----------------- DEBUG OUTPUT Mul -----------------\n");
for(int i=0; i<900; i++) {
    printf("%f ", tensor_Mul_output_0[i]);
}
printf("\n");
printf("------------------------------------------------------\n\n");
#endif
// ELEMENT WISE ADDITION Add_2

#define CONNECTED_OUTPUT

#ifdef CONNECTED_OUTPUT
float32_t tensor_Add_2_output_0[900];
#undef CONNECTED_OUTPUT
#endif

for(int i0=0; i0<1; i0++) {
for(int i1=0; i1<30; i1++) {
for(int i2=0; i2<30; i2++) {

tensor_Add_2_output_0[i1*30 + i2*1] = tensor_W_inGemm_output_0[i2*1] + tensor_Mul_output_0[i1*30 + i2*1];
}
}
}


#ifdef COMPILER_DEBUG
printf("----------------- DEBUG OUTPUT Add_2 -----------------\n");
for(int i=0; i<900; i++) {
    printf("%f ", tensor_Add_2_output_0[i]);
}
printf("\n");
printf("------------------------------------------------------\n\n");
#endif

// SIGMOID OPERATOR Sigmoid_1

#define CONNECTED_OUTPUT

#ifdef CONNECTED_OUTPUT
float32_t tensor_Sigmoid_1_output_0[900];
#undef CONNECTED_OUTPUT
#endif

for(int i0=0; i0<1; i0++) {
for(int i1=0; i1<30; i1++) {
for(int i2=0; i2<30; i2++) {

float32_t ex = exp(tensor_Add_1_output_0[i1*30 + i2*1]);
tensor_Sigmoid_1_output_0[i1*30 + i2*1] = ex / (1.0f + ex);
}
}
}


#ifdef COMPILER_DEBUG
printf("----------------- DEBUG OUTPUT Sigmoid_1 -----------------\n");
for(int i=0; i<900; i++) {
    printf("%f ", tensor_Sigmoid_1_output_0[i]);
}
printf("\n");
printf("------------------------------------------------------\n\n");
#endif
// ELEMENT WISE SUBTRACTION Sub

#define CONNECTED_OUTPUT

#ifdef CONNECTED_OUTPUT
float32_t tensor_Sub_output_0[900];
#undef CONNECTED_OUTPUT
#endif

for(int i0=0; i0<1; i0++) {
for(int i1=0; i1<30; i1++) {
for(int i2=0; i2<30; i2++) {

tensor_Sub_output_0[i1*30 + i2*1] = tensor_Constant_output_0[0] - tensor_Sigmoid_1_output_0[i1*30 + i2*1];
}
}
}


#ifdef COMPILER_DEBUG
printf("----------------- DEBUG OUTPUT Sub -----------------\n");
for(int i=0; i<900; i++) {
    printf("%f ", tensor_Sub_output_0[i]);
}
printf("\n");
printf("------------------------------------------------------\n\n");
#endif
// TANH OPERATOR /Tanh

#define CONNECTED_OUTPUT

#ifdef CONNECTED_OUTPUT
float32_t tensor_Tanh_output_0[900];
#undef CONNECTED_OUTPUT
#endif

for(int i0=0; i0<1; i0++) {
for(int i1=0; i1<30; i1++) {
for(int i2=0; i2<30; i2++) {

float32_t ex = exp(tensor_Add_2_output_0[i1*30 + i2*1]);
float32_t emx = exp(-tensor_Add_2_output_0[i1*30 + i2*1]);
tensor_Tanh_output_0[i1*30 + i2*1] = (ex - emx) / (ex + emx);
}
}
}


#ifdef COMPILER_DEBUG
printf("----------------- DEBUG OUTPUT /Tanh -----------------\n");
for(int i=0; i<900; i++) {
    printf("%f ", tensor_Tanh_output_0[i]);
}
printf("\n");
printf("------------------------------------------------------\n\n");
#endif
// ELEMENT WISE MULTIPLICATION Mul_1

#define CONNECTED_OUTPUT

#ifdef CONNECTED_OUTPUT
float32_t tensor_Mul_1_output_0[900];
#undef CONNECTED_OUTPUT
#endif

for(int i0=0; i0<1; i0++) {
for(int i1=0; i1<30; i1++) {
for(int i2=0; i2<30; i2++) {

tensor_Mul_1_output_0[i1*30 + i2*1] = tensor_Sub_output_0[i1*30 + i2*1] * tensor_Tanh_output_0[i1*30 + i2*1];
}
}
}


#ifdef COMPILER_DEBUG
printf("----------------- DEBUG OUTPUT Mul_1 -----------------\n");
for(int i=0; i<900; i++) {
    printf("%f ", tensor_Mul_1_output_0[i]);
}
printf("\n");
printf("------------------------------------------------------\n\n");
#endif
// ELEMENT WISE MULTIPLICATION Mul_2

#define CONNECTED_OUTPUT

#ifdef CONNECTED_OUTPUT
float32_t tensor_Mul_2_output_0[900];
#undef CONNECTED_OUTPUT
#endif

for(int i0=0; i0<1; i0++) {
for(int i1=0; i1<30; i1++) {
for(int i2=0; i2<30; i2++) {

tensor_Mul_2_output_0[i1*30 + i2*1] = tensor_Sigmoid_1_output_0[i1*30 + i2*1] * tensor_onnxMatMul_1[i1*30 + i2*1];
}
}
}


#ifdef COMPILER_DEBUG
printf("----------------- DEBUG OUTPUT Mul_2 -----------------\n");
for(int i=0; i<900; i++) {
    printf("%f ", tensor_Mul_2_output_0[i]);
}
printf("\n");
printf("------------------------------------------------------\n\n");
#endif
// ELEMENT WISE ADDITION Add_3



#ifdef CONNECTED_OUTPUT
float32_t tensor_37[900];
#undef CONNECTED_OUTPUT
#endif

for(int i0=0; i0<1; i0++) {
for(int i1=0; i1<30; i1++) {
for(int i2=0; i2<30; i2++) {

tensor_37[i1*30 + i2*1] = tensor_Mul_1_output_0[i1*30 + i2*1] + tensor_Mul_2_output_0[i1*30 + i2*1];
}
}
}


#ifdef COMPILER_DEBUG
printf("----------------- DEBUG OUTPUT Add_3 -----------------\n");
for(int i=0; i<900; i++) {
    printf("%f ", tensor_37[i]);
}
printf("\n");
printf("------------------------------------------------------\n\n");
#endif
}