// *****************************************************************************
// 	THIS CODE WAS AUTOMATICALLY GENERATED ON 2024-02-06 21:41:37
// *****************************************************************************

#include "dummy.h"

static float32_t tensor_W_irweight[8100] = {0.014149464, -0.0730137, -0.052794196, 0.07971053, -0.09707352, 0.040105704, 0.02073503, -0.091892645, -0.05271095, 0.07483362, -0.0012680991, 0.07683829, 0.084040046, 0.054097243, -0.09314359, -0.10304404, -0.058638006, 0.016447917, -0.0381511, -0.08345222, -0.032036398, 0.07116729, -0.033220585, -0.055024985, -0.09834558, -0.03468173, 0.087305084, 0.07482187, -0.038230505, 0.039282586, 0.047487464, -0.0065431558, 0.019497, -0.072529554, -0.028087031, 0.09961872, -0.09561221, 0.052364185, -0.007880982, -0.050879415, 0.041833926, 0.10052204, -0.10160639, 0.08954462, -0.028555935, 0.050523877, -0.054540537, -0.013170088, 0.10311494, 0.013262597, -0.045780063, 0.07085248, -0.012682361, 0.08281422, -0.023263825, -0.0023478374, 0.05330821, -0.028364105, -0.08036489, 0.08330769, -0.073262125, 0.062179115, -0.080641836, -0.008166187, -0.07442803, 0.00280836, 0.09086524, -0.033644866, 0.06323229, 0.08960796, 0.09379405, 0.09065589, 0.030671997, 0.023173051, 0.09708582, -0.08496447, -0.06634745, 0.048269894, 0.03095656, 0.008727864, 0.06206077, -0.09083958, 0.014702708, -0.075812764, -0.028748102, 0.091930315, 0.07295364, -0.072811134, -0.068520635, 0.06370089, -0.06742819, -0.0015721654, 0.059976876, 0.08413763, 0.08311493, -0.08294425, -0.018091708, 0.100550406, 0.0351488, 0.024575906, 0.02569706, 0.08761266, -0.06102981, 0.07831183, 0.08051146, 0.05485898, 0.049022067, -0.02722189, 0.052810773, -0.03468343, -0.07320013, 0.07224924, 0.09959751, 0.07886495, 0.06075751, 0.09904153, 0.018328208, -0.019648781, -0.00046855217, -0.08989092, -0.026322031, -0.061951585, -0.034772985, 0.027236253, -0.043919213, 0.089007445, 0.077163294, -0.05849507, 0.034305174, -0.10449254, 0.010881938, 0.062087797, 0.09824294, -0.06644382, 0.07913443, -0.1013264, 0.056423742, -0.0794732, -0.06031199, -0.016657652, 0.028969146, -0.09621464, -0.066445105, -0.056579445, 0.08107453, -0.034430478, -0.10459015, 0.098753825, 0.088663295, -0.059946492, -0.04566922, 0.033413433, 0.059692074, -0.012033741, 0.07234841, 0.073321775, -0.09578844, 0.03888248, -0.023597045, -0.011368887, -0.06626198, -0.080812804, -0.057554424, 0.023247352, 0.074619874, 0.048739526, 0.09957024, 0.03298852, 0.030514471, 0.057466876, 0.08667179, -0.069060504, -0.0056150234, 0.09288607, -0.03739763, 0.029548466, -0.03212814, 0.09382451, 0.0037035197, 0.013724628, -0.053165164, 0.08464724, 0.051956814, 0.05277806, 0.061125662, -0.029598515, -0.030348705, 0.06883595, -0.021741396, 0.045787703, 0.061916187, 0.036975723, 0.042964894, -0.0073483074, -0.019081248, 0.10476853, 0.0345275, -0.100705616, -0.06598473, 0.08071546, -0.058434993, 0.029964983, -0.06894297, -0.0626764, 0.090529054, 0.021105543, 0.051003564, 0.021296492, 0.09062895, -0.031331748, -0.021290662, 0.04177234, 0.0068325833, 0.08306688, -0.019282024, -0.094448455, 0.0112532815, -0.012283762, 0.095424876, 0.0638124, -0.064069316, -0.044046327, -0.08587745, 0.051600236, -0.033305794, 0.047706407, 0.09281996, 0.07348546, 0.03764734, -0.017581312, 0.047721073, -0.035794355, 0.08872086, -0.090366885, 0.07187326, -0.054357592, -0.080492154, 0.012893113, -0.10010933, -0.07730617, 0.023528159, 0.0028108605, 0.008273172, -0.033191506, -0.10097575, -0.05521758, -0.014484542, 0.05131801, -0.070125215, 0.06711446, 0.090316825, 0.015360086, 0.050871912, 0.023094628, 0.056081276, -0.084391184, 0.064045705, -0.007953763, 0.008583798, 0.009761147, -0.05342187, -0.0689327, 0.02010801, -0.05159149, 0.091651835, -0.009616063, -0.095725365, 0.04240084, 0.0049963733, -0.079329945, 0.024482554, -0.044337, -0.0044768043, -0.061801463, 0.09292661, 0.09955135, -0.035866506, 0.039804403, -0.062264282, -0.019161934, 0.030417942, 0.09543602, -0.04587585, 0.058525365, -0.09023533, -0.046511754, 0.046841696, -0.01821048, 0.056818195, 0.09473185, -0.07691992, -0.060006708, 0.00961218, -0.047750678, -0.04365243, -0.09921194, 0.0139718335, 0.051260848, 0.033958875, 0.005517237, -0.082835056, 0.09631151, 0.042291872, 0.07385663, -0.035147745, -0.04488885, -0.030885829, -0.0032125127, 0.013974812, 0.08702617, -0.00019597563, -0.07911664, -0.003744698, 0.012077369, 0.07798229, 0.004665027, 0.053858757, 0.030667573, 0.008552597, 0.091809995, 0.033935927, -0.06871435, -0.10461726, -0.04743941, -0.062463388, 0.08057065, 0.06088827, -0.06779199, -0.09806855, 0.0638842, -0.0029322207, -0.06862505, -0.03987378, -0.04255677, 0.08369108, -0.094840184, 0.036692806, 0.007852596, 0.06510892, -0.06635486, -0.057945896, 0.014616483, 0.08538439, -0.03493561, 0.002169014, 0.007648604, 0.035290014, 0.09142133, 0.015141845, 0.059039935, 0.050145447, -0.06303391, -0.07672324, 0.005724823, -0.053694032, -0.0153154535, 0.06420997, 0.013490741, -0.019789657, -0.06392311, 0.05663516, -0.033632565, -0.03822652, 0.02861738, 0.049457483, 0.05558769, -0.052410528, -0.036595862, -0.010474682, 0.060027126, -0.0957515, -0.03972113, -0.034657154, 0.010711772, -0.049071476, 0.000270277, -0.08864558, 0.08274876, -0.023577455, -0.06608552, 0.06962145, 0.042387385, 0.07462259, 0.084074266, -0.052420452, -0.06423387, 0.092876546, -0.08116682, 0.03360698, -0.0673048, 0.0017569701, 0.048657198, 0.088414036, -0.029574314, 0.0024396302, -0.04091998, 0.102266245, 0.058630895, 0.003153441, 0.09585109, -0.0594562, -0.019467043, 0.034745578, -0.076360635, -0.083563544, -0.0731325, 0.070393726, 0.07272479, 0.04009818, -0.101353295, -0.0034896128, -0.002401292, 0.049917858, 0.06635486, -0.034277026, 0.04452423, -0.05418676, 0.07501928, -0.028295986, 0.0853043, -0.054877464, 0.059134744, 0.02128948, 0.050284687, 0.029115828, 0.055462778, 0.003516001, -0.06683704, 0.0070635295, 0.014294598, 0.01934719, 0.07489941, -0.051097833, 0.103595376, 0.08012352, 0.043901607, 0.09071162, 0.0782766, -0.07985501, 0.009815193, 0.037197083, -0.010702424, 0.03260555, -0.030432304, 0.09909251, -0.01993978, 0.04482586, -0.065707326, 0.10284018, 0.044265702, 0.04452609, 0.0354475, 0.0022863406, 0.04200761, 0.10247682, 0.08448397, -0.079211354, -0.010309253, 0.09535501, 0.08048458, 0.016970327, 0.009021275, -0.060867324, -0.06684546, -0.08129627, 0.097178996, -0.014729964, 0.073925324, 0.030648598, -0.10021888, 0.06673462, -0.09331066, 0.09640649, -0.08095743, -0.035593692, 0.1038599, 0.067107104, 0.023169218, 0.034791354, -0.008092804, 0.0005690657, 0.05739593, 0.064774394, 0.057375308, 0.10282157, 0.07868023, 0.09401397, 0.048895746, -0.052713312, -0.035616647, -0.0041899784, 0.027307123, 0.07317293, -0.10018135, 0.07674797, 0.09500012, 0.0828727, -0.063951, 0.011103334, 0.00058724836, -0.035505027, -0.010665128, 0.010929688, -0.06025508, 0.084660895, 0.10514504, -0.0875859, 0.026855096, -0.0463124, 0.075055175, -0.06737577, -0.09507968, -0.070736915, 0.08184212, -0.07502468, 0.07238324, -0.0025577233, 0.04937415, -0.0861549, 0.0736728, -0.05463928, -0.0795573, -0.06264686, 0.07700419, -0.015433194, 0.057424027, 0.06827636, 0.09898803, 0.08021633, -0.02222881, -0.046413668, 0.008066943, -0.06344731, -0.092596814, 0.06451941, -0.06399078, 0.09093311, 0.06723731, -0.01795508, -0.07122917, 0.08476807, 0.024276426, -0.071066804, 0.039931897, -0.02218944, 0.0040661427, 0.014213185, -0.025598481, -0.028626064, -0.0594152, -0.04908687, 0.024990588, 0.09645654, 0.024369538, 0.0059068133, -0.0046297046, 0.0019783159, 0.095609725, 0.06589934, 0.09662482, 0.028490102, -0.04047833, 0.041605603, 4.2384316e-05, 0.00939953, 0.030237371, 0.026648464, -0.09030662, -0.09364392, 0.010040986, 0.060778648, -0.066055045, -0.07629497, 0.061069593, -0.08751053, -0.011007294, -0.07508045, 0.06208967, -0.050376557, -0.10337397, -0.09916983, -0.050232176, 0.026147718, -0.024334831, 0.10520784, 0.10080504, 0.0825242, 0.018416759, -0.0165879, 0.078717746, 0.020703211, 0.0062760706, -0.0667782, 0.09056833, -0.032641716, 0.013363211, 0.09257103, -0.033924706, 0.0688149, -0.08070443, 0.0053344048, 0.08049008, -0.018862505, 0.0446429, 0.038279172, -0.05317802, -0.01976822, 0.030301582, -0.0001903713, 0.006692073, 0.034071613, -0.023643438, 0.033264663, 0.03256994, 0.09008438, -0.07025748, -0.04991033, -0.09534081, 0.0861849, 0.05900376, -0.0049925786, 0.06866347, -0.06904198, 0.029486291, -0.03210042, -0.017338604, -0.055561934, 0.08632215, 0.022164699, -0.06102785, -0.04831204, -0.040939946, 0.099194534, -0.030571872, -0.002096346, 0.01643128, -0.074417174, 0.057909567, -0.057713255, -0.09439783, 0.073965296, -0.01258054, -0.083981164, 0.096128196, -0.010747484, 0.046176966, 0.071459986, -0.025637072, -0.063388884, 0.08873724, -0.05078693, -0.02987476, -0.007209933, 0.09723597, 0.04009804, -0.048740044, -0.009056472, -0.005198142, 0.07186753, -0.04665346, -0.06482225, -0.034647528, -0.08835662, -0.028729832, 0.059365276, -0.100269645, 0.07147053, 0.08126737, -0.016059095, 0.10357552, 0.035986423, 0.04179542, -0.011828831, 0.041298535, 0.03373809, -0.034557052, 0.095639, 0.065696344, 0.0954719, 0.010661245, 0.0103852, -0.059178725, 3.6566369e-06, -0.039043773, -0.027006049, -0.060563195, 0.08008065, 0.063127086, 0.100523025, 0.0044049406, -0.079275474, 0.044859093, -0.046342522, 0.08937086, 0.10528517, 0.05036197, 0.05889538, 0.058103118, 0.050643127, -0.009562357, 0.058811966, -0.08978301, -0.06595871, 0.017981896, 0.07085116, 0.07024528, -0.05069335, 0.06264265, -0.009661401, 0.042960495, 0.02663302, 0.0082778465, 0.06706884, -0.10435784, -0.012909424, 0.0667218, 0.03134385, 0.027680164, -0.06068209, -0.0007965186, -0.008709481, -0.04729752, 0.0114793265, 0.009183663, -0.022427134, -0.008080137, 0.07165198, 0.013019437, -0.03386257, -0.072648935, -0.05465912, 0.09240873, -0.09502148, 0.012635955, -0.07249858, 0.031318642, 0.06768952, -0.04855325, -0.10524947, 0.033512875, 0.011272155, -0.037568174, -0.060906805, 0.018952575, -0.051607236, -0.09760377, 0.004983041, -0.05512732, -0.046861663, 0.013739103, -0.09854737, -0.08050252, -0.06312727, -0.06374737, 0.087816596, 0.09142126, -0.06325425, 0.079888746, -0.017112559, -0.012930773, -0.06136014, 0.08118601, 0.01306505, -0.04751252, 0.031461176, -0.029785393, -0.034789145, 0.10513261, -0.080201216, 0.056261554, 0.07294904, -0.05308704, -0.027758624, 0.006603861, 0.07429727, 0.00787514, 0.05449457, 0.055608198, -0.08283008, 0.047612317, -0.043371495, 0.016121408, 0.08598852, 0.10052508, -0.038131725, -0.040432766, 0.042184297, -0.055770837, 0.079889186, -0.020122686, -0.031920392, 0.027267944, 0.0045637595, 0.040663913, -0.09561139, -0.007097407, 0.08724282, 0.023747092, 0.03764823, -0.0508122, -0.025880042, -0.05468003, 0.027742779, -0.089884624, -0.050840713, -0.0298726, 0.06846497, 0.019827554, 0.08521462, 0.02207533, -0.06479359, -0.056381572, -0.03649207, -0.030201258, 0.016326582, -0.03349459, 0.09263517, -0.017404022, -0.01871375, 0.039725162, -0.076327644, -0.08272107, -0.08677339, -0.015139683, -0.06414328, -0.049004503, -0.056844532, -0.011174318, 0.04348225, 0.040104397, 0.07059112, 0.041396484, 0.027011992, 0.09026463, 0.031962514, 0.036229093, 0.05507771, 0.013136625, -0.02799584, -0.042831056, -0.00022252709, 0.06992557, -0.031097284, -0.101880014, -0.06269486, -0.09927734, 0.02581171, 0.07459442, -0.090059124, 0.006325178, 0.06959726, 0.06276441, -0.05450848, 0.07350045, -0.094883636, 0.07523936, 0.040509645, 0.05076176, 0.102966174, 0.037855353, 0.012566353, 0.032310333, -0.0849755, -0.03567449, -0.07995434, 0.093504444, 0.019670194, -0.05228962, 0.038260147, 0.07700313, 0.051805586, 0.0978171, 0.07711331, -0.04544276, 0.032247644, 0.08599382, 0.0546366, -0.002468456, -0.023897165, -0.09237321, 0.071657956, 0.08935114, -0.0066802986, 0.03593162, 0.04511814, 0.012353389, 0.0562222, -0.005305064, 0.067637734, 0.08470464, -0.046180297, 0.05332966, 0.024076855, -0.09508832, 0.09252653, 0.100475624, 0.023208022, 0.027906649, 0.012007955, 0.05535139, 0.021434564, -0.025459342, 0.042016618, -0.056709, -0.054356586, 0.061104827, 0.003636494, -0.089559354, 0.027420228, 0.009740288, 0.08592628, -0.022380013, 0.001350631, 0.022875795, 0.041001532, -0.09953362, -0.01358051, -0.053677104, -0.029150521, 0.050472245, 0.016201641, 0.09517203, 0.10275707, -0.07248681, 0.0057069547, 0.03288593, -0.039418597, 0.07804578, -0.099878475, 0.0557781, -0.01086701, -0.051066454, -0.10212767, -0.08736829, -0.10164747, -0.06501548, -0.054604057, -0.0040746117, -0.0433051, 0.10293514, 0.035652447, 0.017267808, 0.08019034, -0.0011208786, 0.07795598, 0.025127279, 0.055225432, 0.0987047, 0.07514363, -0.070304774, -0.028286437, -0.031266242, 0.07603146, 0.074294396, 0.08228466, 0.01081177, -0.028637197, 0.036588185, 0.05063315, -0.026654508, 0.0067108083, -0.05224285, -0.02945705, -0.093110494, -0.021272428, -0.10192938, 0.0634819, -0.03935495, 0.015007692, 0.058369588, 0.059001043, -0.066463776, 0.054584943, -0.09660227, 0.071735285, -0.08647661, 0.06378456, -0.08981041, -0.025538644, 0.08588572, 0.009561402, -0.007469102, 0.035414528, -0.017881194, -0.04028938, -0.056977954, 0.03686918, -0.090036176, 0.06574929, -0.076641865, 0.08717935, 0.068181574, 0.00045014333, 0.0046634814, 0.01865307, -0.020283101, 0.061484564, 0.0469836, 0.07515328, -0.039823152, 0.06725717, -0.06928945, -0.05949552, -0.03297192, -0.1003897, -0.052907992, 0.06924699, 0.013479771, -0.054300554, 0.07583076, -0.07192454, -0.022676703, 0.0639183, -0.05663883, 0.022731101, -0.0963725, -0.07217029, -0.08843104, 0.040518366, -0.027126176, -0.008324529, -0.07240912, 0.0089592, 0.098972455, 0.037019555, 0.09827793, 0.065664314, 0.07873117, 0.07255671, 0.04945672, -0.0041584508, -0.032233983, 0.008477102, 0.007523763, -0.06643882, 0.07605067, 0.07043272, 0.03265491, 0.102253415, 0.09898217, -0.05154981, 0.077158384, -0.09017767, -0.039491102, 0.029285314, -0.00828565, -0.022916496, -0.013360773, -0.008214553, -0.04350341, -0.07248509, -0.05987386, -0.030250842, 0.003166836, -0.08067456, -0.037209738, 0.0369161, -0.08498908, -0.029143672, -0.024030613, 0.04539451, 0.059005264, -0.0464437, -0.029467732, -0.051183507, -0.103453726, -0.057456788, 0.092850365, 0.046371095, 0.010696341, 0.049251456, -0.10059496, 0.0025320137, -0.0133563625, 0.013371718, 0.017083783, -0.023438388, 0.07938623, 0.096628904, -0.023867171, -0.021263344, -0.078332655, 0.047166985, 0.07779823, -0.062185045, 0.026996698, -0.06409898, -0.087439954, 0.058365203, 0.020091046, 0.024252437, -0.019368451, -0.032245997, -0.023558632, 0.05823638, 0.05644283, 0.004489144, 0.081470564, 0.08879279, 0.042563543, -0.027074644, 0.09116786, 0.09326761, 0.07148805, 0.048813604, -0.026195895, -0.09929384, -0.0187278, -0.033676684, -0.053631995, 0.02013617, 0.0818836, 0.0075111846, -0.07519879, 0.020512413, 0.03601306, -0.05153052, -0.018037159, 0.0757606, -0.072714046, -0.015145979, 0.05004002, -0.040390633, 0.067341655, -0.034637664, 0.0633954, 0.062177982, 0.007475297, 0.102696836, -0.02787276, 0.098957255, 0.072967075, 0.03787037, -0.06216509, -0.027430419, 0.04189125, -0.025962587, 0.058691535, -0.032885343, -0.044522785, 0.03619103, 0.07608511, -0.0039477227, 0.0795569, 0.07835788, 0.054516234, 0.093644276, -0.10244722, -0.08971251, 0.080036595, 0.08194904, 0.026366677, -0.017534856, 0.03929382, -0.081944175, -0.050557077, -0.043969892, 0.104592584, -0.018361997, -0.05340095, 0.036316473, -0.06490023, -0.012992973, 0.03997007, -0.09389701, 0.09098561, -0.057491366, -0.037465524, -0.0045451494, -0.096734494, 0.03932013, 0.036565777, 0.000562343, 0.040327214, 0.06401399, 0.10144037, -0.086459875, -0.105058685, -0.050922062, -0.099100076, 0.016254028, 0.026258284, 0.036729675, -0.08358993, 0.0715142, 0.079097025, -0.07653415, -0.0050971885, -0.015689926, 0.0114397695, 0.0025773887, 0.0083023, -0.026422758, -0.04226386, -0.054991648, -0.07701163, 0.01746543, -0.003813332, 0.017526839, -0.089621775, -0.046921976, -0.0585747, 0.09735256, -0.07573234, 0.020959377, 0.0136233475, -0.061528444, 0.08278185, -0.09514017, -0.047183372, -0.013824713, -0.06872136, -0.018846696, -0.06403849, -0.09106615, 0.05780595, 0.090698466, 0.004019486, 0.08624319, -0.009233397, 0.09718833, 0.07950836, 0.095106415, -0.0006227592, 0.021659618, -0.08534544, -0.06304566, -0.05829137, -0.09238768, -0.0048544807, -0.09545637, 0.028812088, 0.051535144, -0.032380097, 0.0015369185, 0.053542, -0.048242375, -0.046283472, -0.08353813, -0.097692005, -0.036146536, -0.09488949, -0.009780738, -0.029058514, 0.034828234, 0.102133825, -0.014476148, 0.064774394, -0.079954065, 0.053594172, -0.07473852, -0.10435298, -0.091745585, 0.058122054, -0.09470299, 0.06360524, 0.049008295, 0.07303842, 0.06993141, -0.030931769, 0.101959474, 0.00032767738, -0.073514715, 0.05437516, 0.008877862, 0.012358566, 0.043267287, -0.03268978, 0.076752335, -0.029376352, 0.06569682, -0.09053386, 0.0030885765, -0.034628276, -0.052653123, 0.069756635, -0.05268068, 0.011434015, 0.09432361, -0.07797616, -0.04663324, 0.10135009, 0.09966316, 0.022427512, 0.012323381, -0.09492372, 0.0979508, -0.036496945, -0.052169528, 0.096708536, 0.04603726, -0.06360435, 0.0501907, -0.045030743, 0.10345841, 0.06651166, -0.014279293, -0.036578707, 0.028371407, 0.030788844, -0.057816442, 0.069031864, -0.09044579, 0.071615495, 0.08417307, -0.052022997, -0.0073606973, -0.03786508, 0.0035824487, 0.0785309, 0.07923824, 0.06953031, 0.04531454, -0.00044726575, 0.01656297, -0.005739902, -0.016804986, -0.06697295, -0.050679266, -0.05889137, 0.098811425, -0.08761341, -0.05500033, 0.05139573, -0.029494848, 0.0730605, -0.104369946, -0.08429888, 0.047802046, 0.078185335, -0.001086574, -0.078048706, -0.06421346, -0.05693635, 0.009814816, 0.056560535, 0.026234824, -0.012490682, 0.015470703, -0.027674245, -0.021105694, -0.0063105132, 0.08539099, 0.05657757, 0.05995168, 0.10389356, -0.08552351, 0.031191641, 0.01632735, -0.023875225, 0.09591233, -0.04347936, 0.0344972, 0.06883529, 0.07427522, -0.06839873, -0.06547442, 0.034490455, -0.03963468, 0.030523695, -0.06875924, 0.0837037, -0.031418163, -0.0052724183, -0.09494572, -0.020444069, -0.012779368, -0.06734252, -0.015787046, 0.04062037, 0.070732266, 0.034909938, -0.08453222, -0.0021414699, 0.017683081, 0.046146017, -0.029551545, -0.014111515, 0.035829414, 0.0023640094, -0.021187559, -0.0382156, 0.07873752, -0.08082923, -0.005124104, -0.10433735, 0.06119539, -0.0683485, 0.025683917, -0.05309208, 0.03944672, -0.031704903, 0.018445848, 0.05259415, -0.036833115, -0.06665113, -0.061792903, 0.07211471, 0.09799459, -0.097617425, 0.017814357, 0.043729194, -0.06379609, 0.016623322, 0.045150053, -0.046272743, 0.08441133, 0.054465972, -0.09337476, -0.10366327, 0.035417266, 0.07310448, 0.04455456, 0.08386027, 0.08477441, 0.08823223, -0.045896962, 0.026030542, -0.0516772, -0.06487868, -0.02115137, -0.09523285, 0.101129696, 0.050403938, -0.02378107, -0.057160035, -0.015105981, 0.063151024, -0.07227648, 0.012851998, -0.004657739, 0.104015775, -0.09958715, 0.004294098, 0.038169257, -0.0600102, -0.08261788, -0.014611406, -0.0709677, -0.05392573, -0.021115834, -0.07846739, -0.10207493, 0.09370695, 0.05503569, -0.071376085, -0.088507704, 0.07559879, 0.09721414, 0.044759925, 0.09890442, 0.043212187, -0.0038387526, 0.052316763, -0.066346, 0.035877842, -0.09774581, -0.09802706, 0.0986299, -0.04868822, -0.07443374, -0.084649295, -0.102601126, -0.023447827, -0.09286183, 0.08556615, -0.03806093, 0.08604111, -0.020810675, 0.043588493, 0.004034527, 0.005090994, 0.10424589, -0.008759995, -0.10089545, 0.023033118, -0.10045469, -0.08304591, 0.016490841, 0.0054298923, -0.023581665, -0.07366269, 0.0036688256, 0.071879126, -0.027264249, -0.10404386, 0.0647011, 0.008330045, 0.039101362, 0.0747215, -0.10243128, 0.042467743, 0.08672499, 0.049609557, -0.0053690863, 0.023628384, -0.05368922, 0.10331825, -0.012242295, -0.031392228, 0.037292156, -0.04350145, -0.019122038, 0.071475565, -0.049497683, 0.06965888, -0.0015766765, -0.06814668, -0.079489686, 0.0412866, -0.042348467, -0.0097904885, -0.073969126, -0.09214052, -0.06501171, 0.07612759, 0.07646365, -0.010527495, 0.06887699, 0.007342753, 0.02624318, 0.07797237, -0.06802364, -0.054561008, 0.05814779, -0.06043584, -0.094396494, 0.005505425, 0.038392123, -0.03219474, -0.022139868, -0.032226935, -0.035046954, -0.10045809, -0.03747785, -0.03622183, 0.045683406, 0.0071064667, 0.025136992, 0.059499614, -0.066305846, 0.041766346, -0.012076565, -0.06782088, 0.09658822, 0.019378982, 0.00073865324, -0.03599274, 0.012805555, 0.01510078, -0.0031504629, -0.073389195, 0.0560546, 0.034984995, -0.071936615, -0.09541332, 0.10399747, -0.046951283, 0.07944353, 0.10534009, -0.005012734, -0.056257963, -0.08560569, -0.0598048, -0.026040873, -0.03850817, 0.06541076, -0.029883595, -0.08498602, -0.061060797, 0.05955385, 0.0748403, 0.023388604, -0.022745099, -0.066960864, 0.04429567, -0.08426268, -0.0034558864, 0.0416001, -0.05850046, 0.07775714, 0.060178794, -0.07459784, -0.028716562, -0.08936543, 0.035038598, -0.046089534, 0.018260943, 0.10147525, 0.09887755, -0.010937064, 0.10199377, -0.06597431, -0.079818614, -0.030731998, 0.0863001, 0.09073643, -0.08901266, 0.023993796, 0.035799306, -0.033752806, 0.013971808, 0.08232889, -0.032170173, 0.006817806, 0.080107845, -0.08451493, 0.07290664, 0.097480334, -0.09845783, -0.02787492, 0.03054214, -0.019846102, -0.00082805863, 0.081985846, -0.08692415, 0.019394778, -0.0021397609, -0.007569138, -0.026382824, -0.06774869, 0.07347908, 0.05277678, 0.036564812, 0.08771752, -0.049980447, 0.10391809, 0.08359375, 0.07578677, 0.047109056, 0.020576725, -0.08118578, 0.09938787, -0.013004672, -0.058254186, -0.0020944236, 0.023259956, 0.0942012, 0.048238706, 0.055926967, -0.0017592445, 0.02718878, -0.050507292, 0.016843878, 0.015183047, 0.08085215, 0.08821788, 0.06727994, 0.03953786, -0.007978518, 0.08270751, -0.08973544, -0.037260212, -0.07868089, -0.082262315, 0.09785648, -0.010292428, -0.025257459, -0.044389147, -0.0123627, -0.04876353, -0.034946352, 0.02028393, -0.030998442, -0.099882096, 0.064913034, -0.014176719, 0.04723357, 0.03717028, -0.02992706, -0.06667093, -0.09139825, 0.07721022, -0.07285364, 0.016757727, 0.09520002, 0.10474728, 0.0024509144, -0.08209872, 0.07456517, 0.057130754, 0.07493858, 0.042959955, 0.034345146, 0.0627545, 0.10142449, -0.02756344, -0.07567657, -0.087633945, -0.045291103, 0.091240846, -0.08536255, 0.06969726, -0.040231336, -0.048933215, -0.08592097, -0.102650784, -0.079433315, 0.039393187, 0.04114542, -0.06939568, -0.0041716574, 0.08892521, 0.063541144, 0.016898073, 0.08268327, 0.10230382, 0.0941302, -0.00062606396, -0.040298842, -0.050819565, -0.10109204, 0.0044561587, -0.035374556, 0.094130464, -0.02376824, 0.098475166, -0.010679466, 0.04251739, 0.03369548, -0.099045075, 0.09457428, 0.007684894, 0.053881627, 0.033232294, -0.0992831, -0.036450967, 0.07591962, 0.1031434, 0.10480065, 0.03495154, 0.087594464, -0.04131462, -0.09353554, -0.045755323, 0.07795035, -0.07676961, 0.09112023, 0.0059557064, 0.015107226, -0.09624989, 0.009637576, -0.046376813, -0.024035614, -0.062620185, -0.1053216, -0.07475249, -0.06784853, 0.017265987, -0.01112486, -0.014957078, 0.03541449, 0.07956427, -0.065153316, -0.094100975, -0.0028237908, 0.08686065, -0.018620588, 0.028740438, 0.0065085497, 0.009210516, 0.01667169, -0.04370196, -0.025677646, -0.042481326, -0.10198495, 0.0822009, -0.06069584, -0.080792286, -0.019720947, -0.049533408, 0.0708872, -0.062137935, -0.0014355881, -0.030121464, -0.04056688, 0.081704535, -0.04089696, -0.059521016, -0.027191758, -0.09830006, 0.10051273, 0.04183513, -0.046132408, -0.07790706, 0.04324922, -0.011467628, 0.0070019946, 0.055417098, -0.046116963, 0.026343066, 0.09527816, 0.04835759, 0.08524777, -0.01979447, 0.080047965, 0.07430848, 0.0228434, -0.10109466, -0.08983805, -0.0707496, 0.087149166, -0.08624021, -0.039351556, -0.04270937, -0.08919289, -0.08804915, 0.095527, 0.10086346, -0.042818025, -0.029287387, 0.014841661, 0.019377926, 0.011397586, 0.026698526, -0.026229195, -0.024685642, 0.04449323, 0.078133635, 0.035874624, -0.08038642, 0.0043772333, -0.010630409, -0.0779604, 0.05401898, 0.055852, 0.04523461, -0.102097146, -0.03356045, -0.0060743275, -0.07306482, -0.0416456, -0.040567257, -0.09271404, -0.0014321828, -0.046588283, 0.03898162, 0.0069385376, 0.029816557, -0.035202872, -0.0970674, -0.06624418, 0.053665094, -0.027818099, -0.10414641, -0.05210782, 0.03356178, -0.06678794, 0.04113822, -0.059032697, 0.07082948, 0.08288083, -0.034052864, -0.059668962, -0.060410947, -0.07400818, -0.018886039, 0.0340982, -0.08330872, 0.06230471, 0.053442553, 0.05438241, 0.01745328, -0.046833012, -0.105149284, -0.09777695, 0.021630352, -0.03495559, 0.03490666, -0.07611326, -0.08668343, 0.02369713, -0.033202477, 0.0412231, 0.09751459, 0.03759034, -0.027905317, -0.010496119, 0.014218626, 0.07899092, 0.08760057, 0.03086027, -0.06856256, 0.016162863, -0.056336902, 0.0451374, -0.007632771, 0.07423351, -0.06813841, 0.09953413, -0.055323534, 0.01952477, 0.08190453, -0.009314246, -0.1003072, 0.06492805, -0.0139687555, -0.03013035, -0.017028555, -0.100768015, -0.026506899, -0.0926659, -0.09158723, -0.022219485, 0.099961005, -0.01746915, 0.04453374, 0.048934296, 0.002941419, 0.010430035, -0.077475026, 0.06902097, -0.08676888, -0.0065994253, -0.023262996, 0.096557535, -0.029336808, -0.023183832, -0.08595565, 0.10184912, 0.05257447, -0.00021461066, 0.08495385, 0.015667947, -0.09893113, -0.10331483, 0.06935639, 0.06411569, 0.08096205, 0.031825144, -0.06248925, 0.076368734, 0.0664036, -0.0717284, -0.0284467, 0.07144604, -0.022070078, -0.0380533, -0.06504225, 0.10532087, -0.09283541, -0.046301305, 0.0577941, -0.0964077, 0.06995859, -0.0085504865, -0.064594805, 0.0981282, -0.09526233, 0.069785744, -0.09298134, 0.09321147, 0.044625055, 0.014922019, -0.03317673, -0.02549049, 0.06844102, -0.071848705, -0.029775292, -0.06532759, 0.10041008, 0.08107257, 0.05284298, 0.03739155, -0.10338963, -0.052004136, -0.073420115, 0.0700279, -0.017754165, 0.062403325, 0.015067933, 0.103171825, -0.0245152, 0.04678471, 0.024054062, -0.09806961, -0.0005894348, 0.065739535, -0.09164403, 0.013355244, -0.069952995, -0.043475956, 0.036871668, 0.043239165, -0.019506274, -0.035874374, -0.101586476, 0.04122989, 0.054014068, 0.05413848, 0.031350195, -0.0028055955, -0.08027823, -0.039114453, 0.079927295, 0.02374052, -0.03586941, -0.039294433, -0.048656255, -0.008086986, 0.09140204, 0.072947256, 0.07224596, 0.031589963, -0.010221456, -0.054445576, 0.074243866, -0.045519765, 0.094715476, -0.017864846, -0.102745846, -0.086882725, 0.03562405, -0.065116175, -0.07838768, -0.09471275, -0.0039954726, 0.006505534, 0.07168784, -0.038740873, 0.04729425, -0.016472986, -0.09642521, 0.092051916, 0.0295978, 0.08400112, -0.07208384, 0.06030718, -0.05966032, -0.046604153, 0.073062085, -0.056887455, -0.055681106, -0.086594224, -0.10081813, -0.030200178, -0.0034158393, 0.016099444, 0.02406929, -0.07729848, 0.023965623, -0.054706745, 0.08808901, 0.007366226, 0.09800874, -0.062159535, 0.0071782423, 0.08506692, 0.059946064, -0.030158546, -0.020656254, -0.01424818, 0.0129598, -0.058497507, -0.09226725, 0.0076128417, -0.008623556, 0.051116943, 0.08638099, -0.093937896, -0.038530674, -0.10465, -0.03295605, -0.028537827, 0.0039454233, -0.03995088, -0.0045062206, 0.087121285, 0.087265275, 0.09559972, 0.09527252, -0.07351088, -0.038035583, 0.016646745, 0.031007, 0.017098887, 0.015111762, -0.0116618695, -0.10070824, 0.063948765, 0.07639094, 0.0064240075, -0.02067524, 0.078852884, 0.09766307, -0.020286167, -0.08327038, -0.08895596, -0.034353424, 0.03950441, -0.017570656, 0.08852004, -0.08989874, -0.011926731, 0.049060468, 0.055597756, 0.0039874935, 0.05691769, -0.036743723, -0.05327867, 0.068245284, 0.096688256, -0.07591961, -0.0126374, -0.054583084, -0.0950376, 0.046349157, -0.04597085, -0.08800374, 0.09307411, 0.03771028, -0.039195817, -0.07891727, -0.08087865, 0.059289426, 0.0033408469, -0.08054503, 0.0602611, -0.010592422, 0.03608602, -0.069901064, -0.033687994, -0.08247321, 0.043992043, 0.0008665978, -0.020672653, -0.008457186, -0.0026304037, -0.08227511, 0.045750007, -0.09484817, 0.08267876, -0.011033707, 0.06997702, -0.10145931, 0.059532184, 0.019889265, -0.01514192, 0.044370625, 0.073204726, -0.028928144, 0.0834586, 0.028593443, 0.032013517, 0.08593378, 0.07598739, 0.0823497, -0.06586607, -0.022286298, 0.10084203, -0.024835967, -0.101147175, -0.01741391, 0.091820866, 0.05541339, -0.027435835, -0.10144304, -0.03504091, 0.003175783, 0.073879324, 0.064126655, -0.06011584, -0.0897749, 0.04785373, -0.07290073, 0.08513906, 0.039247148, -0.08940754, -0.09235124, 0.0960904, 0.08363053, 0.00090116623, -0.09631095, -0.092664205, 0.0005644415, 0.021535883, 0.09425633, 0.055996694, 0.09277993, -0.08435482, 0.06831887, -0.10103357, -0.02954442, -0.10444324, -0.009023889, -0.0021236516, 0.060481817, 0.076009534, -0.015748708, 0.040953003, 0.05273373, 0.085583195, 0.102113776, -0.052323584, -0.07995635, -0.042369854, 0.029616598, 0.024393337, -0.08861686, 0.029277511, 0.06713114, -0.06625432, -0.013104696, 0.08158457, 0.0857045, 0.027392972, 0.029250456, 0.0027532466, 0.029391332, -0.08360628, -0.06575921, 0.04272479, -0.09724719, 0.05793699, -0.04582545, 0.032403246, 0.018721165, -0.10184892, 0.10537578, -0.10123436, 0.04562196, -0.068298034, 0.023071105, 0.043258216, 0.10379585, 0.07139282, -0.016680585, -0.08776748, -0.05734196, -0.050128497, 0.10071896, 0.056629658, -0.03379793, -0.08839524, -0.101993, 0.057372358, 0.06819116, 0.0034584622, 0.023510555, 0.01564083, 0.038861983, -0.032919195, 0.07491686, -0.02577777, 0.08248389, -0.014881922, -0.036008637, 0.051767472, 0.045729235, -0.038494524, 0.014556745, 0.07196123, 0.08722016, -0.043247297, -0.056997117, -0.012078274, -0.05368031, -0.012846243, -0.082769886, 0.089764655, -0.030245477, -0.071245775, -0.035983935, 0.04536282, 0.04609574, 0.09747153, 0.010511814, -0.0722268, 0.10167553, -0.09685808, -0.09501269, 0.06906045, 0.09805628, 0.08706475, 0.027358064, -0.09732477, -0.057429656, -0.0939641, -0.08395464, 0.0748914, -0.037628025, -0.029513558, 0.004963338, 0.04194336, 0.10191291, 0.051736463, 0.0028102575, -0.08425801, -0.06923393, -0.010059082, -0.10531059, -0.09783082, 0.05029743, -0.008628193, -0.06340307, 0.0019457078, 0.02146985, -0.013682557, -0.060415696, 0.0032282826, 0.014653602, 0.017508142, 0.07364668, 0.09401253, -0.07137547, 0.017645234, -0.025778813, -0.064130776, 0.053990092, -0.10434662, -0.057169106, -0.07049149, -0.014575694, -0.025021864, -0.09877227, -0.0735605, -0.029716019, 0.044349752, -0.050889894, -0.042341746, 0.020368084, -0.021470428, 0.061927598, -0.02579848, -0.04754069, -0.06304119, -0.08892319, 0.062233284, -0.103568174, -0.09956299, 0.06423854, -0.00063370395, 0.09381562, -0.08342855, 0.0009947183, -0.072249055, 0.026700951, 0.039383274, -0.014084361, -0.03234544, 0.10455755, -0.038100373, 0.0888714, -0.020674136, 0.06505748, -0.09455027, 0.015364648, -0.00030465692, -0.005586248, 0.028914485, -0.085962795, 0.02025053, -0.09811849, -0.07135378, 0.034984857, 0.07129609, 0.0048024836, 0.0251813, -0.037959535, -0.010958538, -0.0056898654, 0.0059073535, 0.009168659, 0.02132709, -0.102334514, -0.056307297, -0.08000698, -0.092225105, 0.07826314, 0.09074343, -0.005644214, 0.060517304, -0.009372828, -0.08655193, 0.03356182, -0.0069862623, -0.028382916, -0.09507038, -0.066650465, -0.025427286, -0.08018594, -0.039388362, 0.100241, 0.04675185, -0.027746724, 0.09185192, -0.06721553, -0.054012273, -0.0065520653, -0.042360026, -0.055679295, 0.010754345, -0.06781577, 0.0578607, -0.0517055, -0.090324156, -0.021946782, 0.0824315, -0.057936974, 0.048968412, -0.08312831, 0.08466834, -0.0420539, -0.020778732, -0.04644727, -0.005257741, 0.06564768, -0.024231, 0.03716229, 0.0154075725, 0.047657177, -0.0017936621, -0.05894074, -0.04425022, -0.030443525, -0.04372922, 0.003498786, -0.077439815, -0.025767792, -0.062116962, -0.0030142374, -0.0673452, -0.028947232, 0.08696891, 0.079452805, -0.00058218435, 0.068980984, 0.035142116, 0.018753082, 0.08646734, 0.041841578, 0.007411136, 0.07705944, 0.031053506, -0.067151375, -0.014089676, -0.04679485, -0.012827545, 0.08833529, 0.04907325, -0.015921073, 0.049502734, 0.09554843, 0.0018019681, 0.024224905, -0.06679927, 0.011363094, -0.09994186, 0.100955665, -0.08283711, 0.06430225, 0.046312753, -0.099618666, 0.08348049, -0.020476287, -0.027835062, 0.082608856, -0.07898003, -0.090124086, 0.08815765, 0.07351871, 0.093838826, 0.07821246, -0.10038876, -0.036017284, -0.080310605, -0.0920215, 0.06714508, 0.0041192956, 0.04698125, -0.01259626, 0.09861919, 0.019718572, 0.013442878, -0.078867085, -0.083347626, 0.056062665, 0.051339395, -0.06623107, -0.08972805, -0.03029217, 0.0130123375, 0.018716376, -0.014570994, -0.082929544, -0.066868894, 0.042426765, -0.0204787, 0.104992725, 0.08143506, 0.04960066, -0.041185193, -0.08617521, -0.050340556, 0.043356318, -0.060466312, 0.0535973, 0.065905, -0.033424854, 0.07623232, -0.013601897, 0.06046944, -0.018956495, -0.08658913, -0.033139434, 0.07497644, -0.007104092, 0.09288785, -0.030097716, -0.038782567, 0.005661756, -0.0364124, 0.06767, 0.073842704, -0.098811164, 0.022384487, 0.07495493, -0.0743719, -0.09014334, 0.075686626, 0.076704346, -0.043213446, -0.09721761, 0.04215831, 0.044259947, -0.014257617, -0.058639638, -0.10307201, 0.033982445, 0.06938364, 0.05315471, -0.072970524, -0.09565157, -0.061304625, -0.033066038, -0.08720252, -0.056141693, 0.026260698, -0.03817627, -0.014227057, -0.017959528, 0.050222475, 0.085130855, -0.09814857, -0.03375718, -0.06481451, 0.038390428, -0.0022770292, -0.047673296, -0.05944053, -0.10352561, 0.0980705, -0.08816612, -0.02488712, 0.09698237, -0.10202097, -0.0677342, 0.061818425, -0.050017957, -0.07783794, 0.0180856, 0.035955008, 0.054144803, 0.052527376, -0.054061417, -0.034403626, 0.036708675, 0.045606066, -0.014160107, -0.036678795, -0.09468258, -0.03743323, 0.033320922, -0.08272682, -0.066835456, -0.063435815, -0.063514814, -0.104357, 0.022794457, 0.04950698, 0.054803487, 0.035329934, 0.056072578, -0.03539705, 0.0057574315, -0.024599869, 0.093449645, 0.09832076, -0.038473763, -0.045717172, -0.03321968, 0.09229706, -0.03150978, -0.064279296, -0.003870921, -0.027873525, 0.095477395, 0.026051225, -0.052237935, 0.044014536, 0.078896426, -0.02720641, 0.04608815, 0.035861667, 0.028337743, -0.06794874, 0.10149794, 0.063664, -0.09551141, -0.07648329, -0.013924072, -0.005216689, -0.06881344, -0.07295079, -0.08553267, -0.06389782, -0.036744364, 0.0865968, 0.05499671, -0.06302299, -0.023796689, -0.09413479, 0.05430734, -0.10294888, -0.065661676, -0.050664186, 0.043159135, -0.006370075, 0.017774498, -0.009246014, -0.070461355, -0.00022438682, -0.07930946, 0.00908036, -0.10534898, 0.0323921, 0.0020019773, 0.040112894, -0.031365864, -0.06696495, 0.10262502, -0.06651566, -0.076813705, 0.08365827, -0.0939029, -0.007909984, -0.071079805, 0.047915604, -0.00068257225, -0.055419438, 0.09526121, -0.015989406, 0.06737601, -0.033481713, -0.04279038, -0.046222255, -0.047661144, 0.005146949, 0.00443158, 0.104735255, 0.013043878, 0.06921589, 0.08965223, 0.055406254, -0.07486649, -0.019419808, -0.009111447, 0.023206023, 0.08434484, 0.0390134, -0.078739844, -0.023537973, 0.012735375, -0.07946287, 0.02708138, 0.04635368, 0.021631597, -0.016521428, -0.103214055, -0.041543566, -0.06813664, -0.00064948655, -0.028617017, -0.06524262, 0.08313129, 0.090647124, -0.04860765, 0.08693284, 0.036372907, 0.026174007, -0.01227567, -0.10343343, -0.008702293, -0.007358046, -0.10454445, -0.051046524, 0.014833317, -0.010247166, -0.093000576, -0.079528056, -0.10493319, 0.019105803, 0.07497664, -0.026495274, -0.08136835, 0.021366559, 0.021599077, 0.019870153, -0.09685612, 0.065025695, -0.104136154, -0.059626617, 0.0412604, 0.0681124, -0.06731631, -0.063677944, -0.06738818, 0.022134189, -0.04531311, 0.042078607, -0.07731925, 0.061792426, -0.02722899, -0.050270814, -0.005117457, 0.083125964, 0.0069391406, -0.022955185, -0.0032141588, -0.09125561, 0.03846733, -0.055725727, 0.0006013974, -0.0869363, 0.09203188, -0.05354441, -0.015799938, 0.040149055, 0.004395089, 0.04949091, -0.104291834, 0.0125352405, -0.09359629, -0.060653064, 0.05206621, 0.0689592, 0.023209529, 0.050071083, 0.0021007191, -0.02742846, 0.07640583, 0.01936727, 0.065134995, -0.043894306, -0.019906908, -0.03367544, -0.08299009, 0.043082837, -0.042097542, -0.027779559, 0.028471468, -0.082758754, 0.030832198, 0.08897162, 0.0023711845, 0.009216346, 0.06819133, 0.09500998, -0.085555, -0.04359142, 0.07924004, 0.04032813, 0.07113314, -0.06394584, -0.05807222, 0.08771201, 0.052978877, -0.09761211, 0.009721867, -0.09082188, -0.07840058, 0.04987366, -0.027045304, 0.019866684, 0.03377094, 0.022588817, 0.07592326, -0.08410493, -0.08685251, -0.027028566, -0.024302436, 0.005820411, -0.0616606, -0.023856854, 0.10442449, -0.009481069, -0.0825454, 0.00021516356, 0.016334813, 0.013531643, -0.10249224, 0.09477807, 0.074288346, 0.047279775, 0.055500787, -0.015961295, 0.00663941, -0.08484762, 0.08720216, -0.08601129, 0.009813358, -0.025305022, -0.03403585, -0.087199844, 0.015493698, 0.07011512, -0.02082108, -0.07380531, -0.039994925, 0.046118837, 0.06646213, -0.026034715, -0.050299995, -0.09222241, 0.039470844, 0.021828929, -0.0058031706, -0.02022467, -0.060590096, -0.09010256, 0.021770159, -0.04134196, 0.039902855, 0.008336868, -0.04546563, -0.0050194943, 0.052061148, 0.10517075, -0.06690742, 0.009368065, -0.07309509, -0.09974088, 0.01773778, -0.06459178, -0.05591321, 0.10121656, -0.057851076, 0.030746147, -0.08451837, -0.06949359, -0.09379323, -0.1039121, 0.07458887, 0.033822294, 0.071656674, -0.07854578, -0.094722465, -0.023990102, 0.022261228, 0.0025696356, -0.001397715, -0.09509116, -0.08725215, -0.080418736, -0.06035612, 0.042241067, -0.014373122, 0.05186301, 0.073066115, -0.055929054, 0.066537924, 0.1016433, 0.005287208, -0.025455307, -0.100917675, -0.031217061, 0.020747092, 0.10300577, 0.010511562, 0.08693537, -0.10147571, -0.03448264, -0.087131225, -0.08848056, 0.00022345695, 0.09654414, -0.055612084, 0.06341673, -0.06230334, -0.013642862, 0.02220276, 0.05144466, 0.086224794, 0.034506023, -0.07149807, 0.05173362, -0.087108836, -0.09088253, -0.022281535, -0.022287114, -0.03965194, -0.09839113, 0.012505585, 0.047390617, -0.053341564, 0.060023695, 0.0057831034, 0.004156729, -0.02241967, 0.008117168, -0.044699535, -0.06679321, -0.017810788, -0.047999844, -0.0020078581, 0.019465234, -0.058317367, -0.027362036, -0.07489151, 0.0013803239, 0.023115186, 0.09421185, -0.046916977, -0.049799763, -0.08377573, -0.07208121, -0.014305832, 0.02030435, -0.077314176, -0.01750892, 0.0648351, -0.08536021, 0.056328885, -0.06142029, -0.06979692, 0.034595605, -0.07861591, -0.02866072, -0.021787424, 0.055177055, -0.052966837, 0.068379775, 0.092574924, 0.10179791, 0.0857532, 0.101287924, -0.017474338, -0.08633361, -0.09860785, -0.09777671, -0.057651028, -0.030966047, -0.08267489, -0.054244187, 0.023691954, -0.04423523, -0.10033718, 0.099030174, 0.10092838, -0.03739244, 0.015728377, -0.083866164, 0.02942042, 0.102017, 0.0535491, -0.007874964, 0.046217967, -0.101513095, -0.045685433, 0.031119714, 0.048673093, 0.026252517, -0.056838248, 0.07605731, -0.084880635, 0.058595598, -0.09312139, 0.054805737, -0.019186689, 0.0076004644, -0.030597406, 0.016261164, -0.030237887, 0.104320675, -0.070677064, 0.029374607, -0.09796924, 0.016221419, -0.07114765, -0.0781608, -0.04618732, -0.07184369, 0.08578125, 0.06848157, 0.050319444, -0.036789224, 0.04367996, -0.07040343, 0.048164543, -0.00012257902, -0.08687109, -0.043229252, -0.054985967, 0.049299017, -0.004493479, -0.03732534, 0.062433306, 0.0099987285, -0.06537932, 0.060848285, 0.09725424, 0.018309133, 0.07443409, 0.0169463, 0.029825868, 0.02484392, -0.0045061326, 0.091636606, 0.01841975, -0.02194653, -0.09181676, 0.07015811, 0.020523472, 0.03867513, -0.07456656, -0.0964799, -0.10460481, -0.07941459, -0.024830248, 0.080663525, -0.06565545, 0.09384266, 0.07143337, -0.09121825, -0.06840686, -0.0054668104, 0.10505381, 0.072028205, 0.067851566, -0.030996231, -0.09382433, 0.01177373, -0.09387254, -0.005115547, -0.032542862, 0.04325247, -0.07548783, -0.015161196, -0.097398385, -0.023685042, -0.07802411, -0.06607157, 0.008986606, -0.05662908, -0.03456674, 0.03043419, -0.07157255, -0.029386945, 0.045929786, 0.043643117, 0.10060609, 0.019611398, 0.035258185, 0.090345986, -0.03626714, 0.02916986, -0.07728894, -0.00067818677, 0.052377503, -0.012351177, -0.03307466, 0.011544895, 0.03438729, 0.09278691, -0.030596966, 0.0988313, 0.07007306, -0.046870004, 0.099228084, -0.05020536, -0.1014551, 0.04779638, -0.011834184, 0.032788236, 0.099338084, 0.07965381, 0.09354883, 0.09976546, 0.10091798, -0.010063995, 0.020581149, 0.016268654, 0.0940845, 0.06355226, 0.040310364, 0.093080595, -0.08627299, 0.06436606, -0.0476905, 0.07351159, -0.017226554, 0.060984246, 0.03560377, -0.033778593, -0.093302056, 0.033890553, -0.103806004, -0.0057126596, -0.093511656, 0.02860802, -0.01127644, -0.07378805, 0.09117825, 0.095686816, -0.05868984, 0.07724573, 0.05438055, -0.021581799, -0.042451806, -0.06252256, 0.006938852, -0.018649086, 0.045191824, 0.035669625, -0.039486777, -0.07974615, 0.04705555, -0.04489208, 0.014222621, 0.07658473, 0.0037372087, -0.03597065, 0.07901997, -0.07372667, 0.0006347595, 0.012815859, -0.09271071, -0.08353685, 0.06129422, -0.02465473, 0.025842974, -0.072600946, -0.00041727128, -0.05316197, -0.0963149, 0.01694811, -0.07704354, -0.0013873356, 0.027071767, -0.069771715, -0.033938717, 0.005809931, -0.0783001, -0.037387855, -0.06122634, -0.08250295, 0.05995203, 0.055942662, 0.03509536, -0.030503616, 0.039943192, 0.103223495, 0.0897685, -0.028581543, -0.072764926, -0.0019290205, 0.07423283, -0.011898596, 0.05519705, 0.09976663, 0.08296356, -0.030329768, -0.050078925, -0.0719544, 0.0898202, 0.015775975, 0.10042353, 0.087095864, -0.0056369132, -0.092259474, -0.06400639, -0.09281443, 0.0056583127, 0.0948051, 0.026292866, 0.098789476, -0.07289714, 0.05655239, 0.08914124, 0.0009120482, 0.09042209, -0.098926514, 0.054496657, -0.091269255, -0.037647188, -0.07495088, -0.056433883, 0.019353775, -0.0011009242, -0.032891624, -0.009993099, -0.09127026, 0.039068427, 0.0039120233, 0.00310069, 0.10320818, 0.0072614653, 0.0014647659, -0.021628907, 0.07909538, -0.06955719, 0.092777364, 0.018971186, 0.08954365, 0.040436875, 0.031351037, -0.080168545, -0.048304074, 0.0722795, -0.078110084, 0.022409342, -0.076030254, 0.07392964, 0.10174337, 0.026262382, -0.022983585, 0.038873985, 0.04923198, 0.0033054363, 0.005775903, -0.06841942, 0.00017982862, 0.034854773, -0.09056771, -0.014506042, -0.056354742, 0.0952723, -0.09017904, 0.104710825, 0.007022854, 0.049348842, 0.04412965, -0.017099954, -0.011371914, -0.09122282, 0.003961696, -0.0069468184, 0.02239337, -0.015875056, 0.07493237, 0.08308931, 0.029261326, 0.08783522, 0.08419762, -0.08592397, 0.041759223, -0.053961895, -0.06657215, -0.009104448, -0.05770001, -0.029035946, -0.072458245, -0.07452454, -0.09175389, -0.08268272, -0.013780495, 0.0067072525, -0.096667744, -0.09734939, -0.06226308, -0.07708448, 0.0141232135, 0.09428984, 0.09037705, 0.0811482, 0.067919955, 0.05773655, 0.09757928, 0.05013003, 0.06356191, -0.02624494, -0.05127084, 0.09043831, 0.018764352, 0.045833256, 0.076142564, -0.08860931, 0.039024875, 0.0095483465, -0.0424817, -0.07560686, 0.079762384, 0.07356685, 0.08054362, -0.015586823, -0.023234434, -0.08197366, 0.03580643, -0.0035284914, -0.038967635, -0.026965851, 0.095704205, 0.017804354, 0.003804561, -0.103952974, 0.015667496, -0.077360064, -0.068674885, 0.059949823, 0.02775723, 0.098897, -0.019621715, -0.06414404, 0.050563537, 0.020434154, -0.001499862, 0.07539751, 0.09146193, -0.005769168, 0.06477518, -0.052282292, -0.09148713, 0.043255188, 0.059471656, 0.00055461505, -0.009836642, 0.094392404, 0.08703499, 0.016447265, 0.10305901, -0.045309763, 0.002866489, -0.027411394, 0.06027492, 0.044098977, -0.03875823, -0.057099316, -0.014856627, 0.021231288, 0.014418157, -0.0071403943, 0.04684759, 0.07432052, 0.07827052, -0.053024866, -0.077219516, 0.06947257, -0.09576578, 0.09834759, 0.09813016, 0.04468869, -0.09559736, 0.08720418, -0.09381801, 0.037500232, -0.04739866, 0.029410066, -0.020932136, -0.07577121, 0.0006086604, 0.039071266, 0.05015295, 0.033927005, -0.0023881358, -0.010741917, 0.046373293, 0.08999684, 0.087095074, 0.09961746, 0.093243524, 0.0607286, 0.028042383, -0.09530942, -0.09085563, -0.091488816, -0.09780868, -0.049032096, 0.039328627, 0.0030067482, -0.08091575, -0.070305355, 0.041738436, 0.012906006, -0.053486872, -0.07921271, 0.026585937, 5.447258e-05, -0.0762358, -0.00076447584, 0.024415642, -0.053785548, -0.028003909, 0.032613833, 0.09721267, -0.01346894, 0.044654638, 0.025375187, -0.05544253, -0.08168169, 0.048529, -0.052941293, -0.09580835, -0.034113795, 0.0512374, -0.009892786, -0.011465931, 0.031844154, -0.10108897, -0.06556368, 0.0037014463, -0.002667837, 0.10047471, -0.02763293, 0.045577466, 0.028230608, 0.078795224, -0.09507667, 0.05052814, -0.064526245, 0.00069864385, 0.02246561, 0.06653567, -0.060972787, -0.08912492, -0.030961737, 0.09383655, 0.036247388, 0.09399398, -0.09147979, 0.02767197, 0.009808696, 0.07919174, 0.09780286, 0.01275783, -0.058374073, 0.045033507, -0.03275448, -0.047959168, -0.009867479, -0.030706037, 0.06866724, -0.09398792, -0.04901742, 0.08541151, 0.012519031, -0.0101869, 0.08869066, 0.08859133, -0.01766226, 0.022133498, -0.09781844, -0.068817556, 0.04000136, -0.04843535, -0.015793266, 0.010752046, 0.06603181, -0.037382264, 0.022557354, -0.022650002, -0.040504944, -0.00046852703, -0.006523855, -0.0006408916, -0.068122394, -0.09048229, -0.062731266, 0.086153544, -0.0846837, 0.07078123, -0.005902805, 0.075862326, 0.08294586, 0.099437505, -0.042450074, -0.0404052, 0.00063100236, -0.09782428, -0.052124392, -0.05723407, -0.0344418, -0.012441626, -0.07866965, 0.10394185, 0.096008636, -0.08553441, 0.0068230834, -0.03105059, -0.01921241, -0.028996754, -0.021330584, -0.041717302, 0.014032338, 0.09957963, -0.062105604, 0.0472557, 0.03200261, -0.031297922, 0.099284954, 0.07870794, 0.020770049, -0.019525524, 0.07698308, 0.08606315, 0.021291038, -0.030041598, -0.00323635, 0.053287417, 0.10088434, 0.021199295, 0.08878629, -0.038965564, 0.09706584, 0.04239304, -0.032322448, 0.085778706, 0.0039846036, -0.03228823, 0.018059175, 0.08856005, 0.067147054, -0.06926707, -0.064296596, -0.08321818, -0.015952865, 0.04954885, 0.06483503, 0.01154477, -0.03404079, 0.02999019, -0.10485723, 0.02889957, -0.050373755, -0.02563143, 0.053914398, 0.06294746, 0.0097029805, 0.014315771, -0.068864375, -0.080636896, 0.10360367, -0.014994473, 0.033610173, 0.057064395, -0.04304422, 0.084368475, -0.031186802, 0.037305124, -0.10432906, 0.043085236, -0.07595448, 0.013701846, -0.07519997, 0.03902162, 0.10271871, 0.032107547, -0.02487766, 0.0084271785, -0.07461071, 0.004306375, -0.02933912, -0.08499229, 0.06561756, -0.05169899, -0.098049186, 0.040429413, -0.062260237, -0.050452355, -0.016035898, -0.09275733, 0.0629798, 0.10372939, 0.05313307, -0.045270357, -0.049236476, -0.0107659185, -0.066949226, 0.029625846, 0.01310839, -0.063394345, 0.011963473, 0.09768423, -0.010492248, 0.07210848, 0.017842779, -0.030211272, 0.005117834, 0.06999977, -0.054687582, 0.09142629, -0.053964496, 0.036229268, -0.044635676, -0.051603366, 0.0075710607, 0.012317099, -0.05151342, -0.02312794, -0.054366224, -0.03795344, -0.007422043, -0.058740657, 0.06799781, -0.046343263, 0.08423446, 0.054111756, 0.008102756, 0.045823567, -0.09681155, 0.0052206847, 0.0019295608, -0.052158736, 0.026450515, -0.05449148, 0.08956852, 0.07530654, -0.07586798, -0.056510434, 0.093374886, -0.03058856, 0.058586925, 0.045567766, -0.039358307, -0.054048236, 0.041018344, -0.010943447, -0.07250019, -0.10075895, 0.03479789, 0.093604326, 0.011487118, -0.084913164, 0.010464076, 0.075657286, -0.002067646, -0.017750345, -0.045624197, -0.0397365, -0.047955386, -0.08830242, -0.04567665, -0.01709503, 0.030625816, 0.028970404, 0.020203108, 0.008491264, 0.08246426, 0.057086084, 0.09576192, 0.07544015, -0.060445704, 0.09486169, -0.016789656, -0.06077887, 0.10413293, 0.0020856904, 0.056142144, 0.053273655, -0.09915984, 0.09550269, -0.019060303, 0.095344596, -0.0774708, 0.042055648, -0.040007226, 0.06653985, -0.017256021, 0.030872496, -0.023554308, -0.077451594, 0.047632232, -0.04183445, 0.055711113, -0.081460424, -0.09871661, -0.083395496, -0.07300067, -0.10226319, 0.10213739, -0.09581522, -0.07308356, 0.019748429, -0.024693444, 0.02404323, -0.074571885, 0.03070449, -0.02762539, -0.0371002, 0.0037057942, 0.09364115, 0.027341517, -0.037236817, -0.09803881, -0.028506752, -0.07801092, 0.067741275, 0.045350477, -0.08382305, 0.023190819, -0.039100457, 0.008234772, 0.013290154, -0.09872796, 0.05250997, 0.061880954, 0.1002989, 0.041283093, 0.08453649, 0.07505898, 0.046317063, 0.0017949187, 0.035179097, -0.036532342, -0.048839223, 0.04998879, 0.020862835, 0.05875787, -0.075101204, -0.06585184, -0.0937619, -0.011546277, 0.05387019, -0.01609972, 0.076891124, 0.008267178, 0.038661886, 0.046727825, -0.08082947, 0.014618318, 0.09778524, 0.05381905, -0.071427815, -0.08814017, -0.09971886, -0.06954034, 0.0056277025, -0.06840562, -0.09128728, 0.056341574, 0.008406043, 0.012416707, 0.0017956098, 0.062439, 0.08999593, -0.07222849, 0.10534448, -0.05206028, -0.06723784, -0.024065409, -0.017356798, -0.051504273, 0.06084572, -0.020614661, 0.011427945, -0.093092814, -0.097231545, 0.08375756, -0.0734382, -0.03604102, -0.0101593565, 0.07953654, 0.047529597, 0.104973756, -0.037448674, -0.053783637, 0.104580484, -0.037728075, 0.01740308, 0.009020848, 0.0007798061, -0.051705815, 0.061444204, 0.10363659, 0.07576489, 0.037261445, -0.0016739983, 0.036626786, -0.023850132, -0.05775011, -0.0447075, -0.08085014, -0.08997963, -0.08969714, -0.05420703, 0.08978863, 0.029815903, 0.043426335, -0.08521221, -0.075377665, -0.056125242, 0.00861378, -0.08214221, -0.06819742, 0.038610116, -0.0669344, -0.05113293, 0.047975756, 0.017263323, -0.076251976, -0.003679984, 0.0898396, -0.012257399, -0.084119566, 0.065505885, -0.029888194, 0.0981652, -0.07907702, 0.036813725, -0.06708465, 0.0677602, 0.10195993, -0.003389401, -0.0021558828, 0.014940679, 0.10129674, -0.021454005, 0.06981715, -0.011781219, -0.00869219, 0.033196922, -0.04835244, 0.035492413, 0.080999486, 0.06578633, 0.060882036, -0.053209834, 0.012060996, 0.0382058, 0.05656027, 0.05568788, -0.1044887, -0.07717071, 0.08728081, -0.09748377, -0.038672466, -0.022418376, -0.034769315, -0.037416153, -0.099531986, -0.015186202, -0.0058553815, 0.09871393, -0.046309397, 0.027707985, -0.08696758, 0.02374904, -0.03466629, -0.075762525, -0.063496724, 0.044057965, -0.034096017, 0.016507428, -0.039158825, 0.08311493, -0.064796396, 0.02603929, -0.093357764, 0.0013818946, -0.07679182, -0.0019814952, -0.031614892, 0.026016658, 0.08059341, 0.037322614, 0.045809645, 0.07433111, 0.03504008, 0.014837891, 0.011347851, -0.030979354, 0.060323603, -0.06140054, -0.0891333, 0.022237856, -0.045799855, -0.096049234, 0.06573388, 0.0013532949, -0.009828449, -0.05908684, 0.063175224, 0.10290569, 0.07904138, 0.035197042, -0.07880213, 0.09057146, 0.08279688, -0.09061925, -0.034765583, -0.058086656, 0.057017878, -0.030680025, -0.09105633, 0.0378195, -0.05017866, 0.077182256, -0.103375874, -0.027149536, -0.08156582, 0.05607772, 0.09455701, -0.0029503028, 0.0010068819, -0.07515016, -0.039883416, -0.024066074, 0.08802646, -0.088416636, -0.019456325, 0.004047935, -0.043305036, 0.081087284, -0.07513752, -0.08045815, 0.039472077, 0.09617944, 0.02044476, 0.064868614, -0.03305058, -0.0011795984, 0.043337468, 0.020684792, 0.06675891, -0.067062706, 0.038727343, 0.015433496, 0.025994731, -0.06269417, 0.07647439, -0.053664114, 0.049572688, -0.09198555, 0.036297966, 0.08122137, -0.013282941, -0.041244388, 0.052475315, 0.008893368, 0.0019244214, -0.033790402, -0.047642924, -0.09729734, -0.027499493, -0.097783715, 0.015884418, 0.09320627, 0.044560492, -0.06913876, 0.04286301, 0.00029250584, 0.055956636, 0.02633021, -0.095263444, -0.016374232, 0.0338734, 0.08144469, -0.060484596, -0.021395197, -0.078832366, -0.048793685, -0.05935277, -0.012726466, -0.017262531, -0.018658374, 0.038217586, -0.01566982, 0.0888418, 0.01505029, -0.09159496, 0.08747437, 0.047330078, -0.0919725, -0.08782884, 0.046643183, 0.10318539, -0.022750476, 0.10002357, -0.06168935, 0.081250384, -0.080345914, 0.04216297, -0.018995035, -0.10254053, 0.04818946, 0.05869254, -0.039465655, 0.021927997, -0.041792233, -0.096563876, -0.062395934, -0.050226234, 0.04122256, -0.022174349, -0.06417294, 0.029347602, -0.07240307, -0.09062108, 0.038980115, 0.049656462, -0.036220584, -0.03638854, -0.037411142, 0.052939508, 0.0017340878, 0.015978787, 0.03086953, 0.00683531, 0.08031332, 0.07473211, 0.03932287, 0.07693663, 0.0824039, -0.07126589, 0.043565385, 0.08900842, -0.0043447507, 0.08911791, 0.07361192, 0.049726203, 0.06232391, 0.018211571, 0.028622583, 0.042863276, -0.065472886, 0.09529016, 0.08822354, 0.07360001, 0.025709726, 0.027957868, 0.086505264, 0.018286502, -0.014940352, 0.08226648, 0.020893948, 0.061091233, -0.09679705, 0.104962505, -0.06235184, -0.0016563435, -0.078230195, -0.092363745, -0.026034815, 0.07496622, -0.0723993, -0.084173605, -0.040196504, -0.09321494, -0.06678023, 0.075812824, 0.0060414304, -0.07009094, -0.0015267779, 0.083555765, 0.050739393, -0.06866875, 0.0358054, 0.08160347, 0.011053234, 0.01611603, -0.038930517, 0.08938017, -0.022100072, -0.06438224, 0.08437308, 0.022422247, -0.094695196, -0.0743794, 0.05387523, 0.0912778, -0.029290667, -0.036670364, -0.069212206, -0.097257696, -0.009650795, 0.07574005, -0.04265203, 0.10425171, 0.09018626, -0.035853088, -0.047303084, -0.07586323, -0.05899549, -0.014498314, -0.077726066, 0.045558754, -0.08302664, -0.0758885, 0.08811304, -0.08012282, 0.008773893, -0.072184764, -0.103054285, -0.0639179, -0.05704836, -0.071278006, -0.041917097, -0.00075831864, 0.05451832, 0.09621687, 0.05615516, -0.0800541, -0.002936091, 0.08095794, -0.015363655, -0.0379104, 0.07683917, -0.033445638, 0.07204612, -0.0378951, 0.02584815, -0.04734519, 0.015094823, 0.020281682, -0.002474588, -0.100901805, 0.016879678, 0.05809083, -0.07884946, 0.032814194, -0.07569991, -0.09774204, 0.08193356, -0.093050726, 0.03395205, 0.011513933, 0.08908849, 0.047826048, 0.07021434, 0.0979209, -0.058261823, -0.08628815, -0.033740293, -0.044342853, -0.09344663, -0.076518975, -0.06633773, 0.03202264, -0.07766903, 0.040607404, -0.03948953, 0.070469655, 0.073381804, 0.0316785, -0.08516512, -0.025693819, 0.0854701, 0.06345123, 0.0073118415, -0.01509353, -0.017724046, 0.044924058, 0.013292441, -0.059985142, -0.036551178, 0.0080795465, 0.022643982, -0.066943966, 0.03199287, -0.046017908, -0.10505547, 0.018067706, -0.0034659514, -0.072441, 0.0008363395, 0.09867633, 0.097910084, -0.086818315, -0.07328088, -0.1027201, -0.0816311, -0.012752703, 0.030486412, 0.02740927, 0.095710136, 0.03059556, 0.08954165, 0.014422366, 0.018764302, 0.09009687, -0.02406561, 0.030045807, -0.07661745, 0.08929229, -0.066176936, -0.07346548, -0.08781042, 0.00057894236, 0.06869505, -0.0059841303, -0.052515678, 0.043648157, -0.075623974, 0.0077419546, -0.032535475, 0.0842942, 0.09675697, -0.062255826, 0.04400114, -0.011915196, -0.008705736, -0.032107107, -0.075582474, -0.086083256, -0.026900155, -0.03892936, -0.018843882, 0.08184672, -0.037024945, 0.09428225, 0.083261676, -0.104348406, 0.05367541, -0.006413553, -0.074681856, 0.069322586, 0.0013968102, 0.04325906, 0.010009384, -0.05183862, 0.050271396, 0.0032486643, 0.09702505, -0.019035207, 0.03331181, -0.04193195, -0.041957095, 0.037186038, 0.09316603, 0.022108115, 0.06250463, -0.023230262, 0.10531258, 0.10490721, 0.064634465, -0.057709735, -0.049143076, -0.019547854, -0.05120003, -0.068392195, 0.0660981, 0.057411775, -0.06599772, -0.043457482, -0.09392931, 0.06801135, 0.065729804, -0.03664052, 0.0038725168, -0.0058013867, -0.021493323, -0.04150003, 0.0046034167, -0.08376364, -0.022991765, 0.011173891, -0.09037583, 0.016390115, 0.012599929, 0.0506834, -0.037421532, -0.04593945, -0.055610914, -0.080150254, 0.02682368, -0.057331644, 0.05669054, -0.0810688, 0.088762514, -0.0834909, -0.047853667, 0.02724687, 0.06282948, 0.03763339, 0.061695557, 0.039752204, 0.03582807, 0.0324096, -0.08746062, 0.07934637, 0.078539394, -0.05197962, -0.10292701, -0.05846436, -0.095585994, -0.038133897, -0.043797754, -0.07037655, 0.04981444, 0.03327944, 0.032192215, 0.056803077, 0.0066176206, -0.08653333, 0.0074489717, 0.07957792, -0.10232738, -0.05956243, -0.0061574373, 0.05832523, -0.0077950326, 0.09861059, -0.034229916, -0.04435032, -0.09830392, -0.013452328, -0.10370632, 0.0898853, -0.02274109, -0.0056578103, 0.096146055, -0.08998714, 0.0795707, 0.049331713, -0.08163677, 0.09212012, -0.10522635, -0.073588446, 0.03437112, 0.093621515, 0.047160424, -0.075268656, -0.07526971, 0.025281988, -0.103047386, -0.09280116, -0.020618884, 0.08554338, 0.030210393, 0.043982342, -0.027875636, 0.06338555, -0.025972312, -0.021846734, 0.10345058, 0.025360512, -0.022650253, -0.016511349, -0.07353003, 0.03380336, 0.09696123, 0.012364974, 0.042422302, 0.101345, 0.07070549, -0.02101546, -0.09017763, 0.044503294, 0.050654273, -0.009390218, 0.09474584, 0.069529355, 0.06393949, 0.0861544, -0.07926189, 0.02940004, -0.029626474, -0.07096979, 0.08134686, -0.07329348, -0.0037503398, -0.024725588, 0.064683534, -0.069934525, -0.020606128, 0.081798956, -0.05166436, 0.025534347, 0.032977927, -0.020733068, 0.06215666, -0.007709912, 0.026635647, 0.06695631, -0.08789328, -0.051506884, 0.032132804, 0.038350254, 0.020766482, -0.023626775, 0.097571366, -0.07465616, -0.101627916, -0.100264356, 0.041202106, -0.07227499, 0.004670958, -0.09743877, 8.401469e-05, -0.038394574, 0.079708904, -0.007083936, -0.09452874, 0.06486001, -0.0044030305, 0.07721837, -0.0620926, -0.017677315, 0.049073376, -0.024813198, 0.009249821, 0.023729764, 0.023955647, 0.10124895, -0.06346653, 0.06411031, -0.081279576, -0.06892316, -0.015382026, -0.039873287, -0.09256862, 0.06248677, -0.017067133, 0.045622136, 0.03601928, 0.09931828, 0.10426076, 0.102339655, 0.06943995, -0.024634385, 0.05939302, -0.013046692, 0.019080633, -0.004034439, 0.07464144, -0.08367221, 0.07643933, 0.07095313, -0.014997628, -0.037598886, 0.016604273, -0.04305652, -0.052701123, -0.037853505, 0.039702594, -0.019692171, 0.052580655, -0.007995658, -0.059327465, 0.022124702, 0.018259034, 0.08634713, 0.088887915, -0.01935037, -0.101979196, -0.061788958, 0.08161168, -0.012184442, 0.015378395, -0.023957934, 0.010984826, 0.039529063, 0.029392123, 0.09819923, 0.098470755, 0.07681889, -0.047957346, 0.03342987, 0.017994097, -0.030514082, -0.0018678001, -0.018670902, 0.0069274423, -0.008326037, 0.0018865105, 0.04551195, -0.08605595, 0.06425712, -0.008664948, -0.090575464, -0.089981355, -0.035310384, 0.026124459, -0.002252438, 0.004605264, -0.08692248, 0.077086546, 0.020937288, -0.00839775, -0.0634118, 0.04169069, -0.062245637, 0.0047662063, 0.013734479, -0.034038365, -0.05600122, 0.048853673, -0.0730155, 0.03039325, -0.07122987, -0.06393166, -0.084631465, -0.10075555, -0.029610578, 0.02061813, -0.02827563, 0.09166075, 0.010260548, 0.004493705, 0.06558982, 0.0025661674, 0.02285324, 0.08856323, 0.005009304, 0.04069974, -0.04824319, -0.043704376, 0.026218213, -0.085466474, -0.083099134, -0.00825308, -0.060565356, 0.10156122, -0.013816534, -0.069955334, -0.09560574, -0.06612349, -0.050202522, 0.060922988, 0.07885905, 0.10407674, -0.045308497, -0.08128929, -0.10207756, -0.027027497, 0.085638516, 0.038090408, -0.06347332, 0.02134619, -0.09740765, 0.039419565, 0.0812304, 0.008024974, -0.004410545, -0.075189956, -0.09493925, 0.096095435, -0.015360803, -0.053760227, -0.04986444, 0.0069267885, -0.02496087, -0.060628474, 0.040624104, -0.007178079, 0.067236505, -0.039647933, -0.050197307, -0.10180437, 0.023963325, -0.030744426, 0.087277174, 0.046870094, -0.03186338, -0.049294345, 0.040338032, 0.040512737, -0.08516938, 0.062338043, 0.050758306, -0.096062765, 0.041693967, -0.012674004, 0.025959596, -0.040674217, -0.03238727, -0.06301348, 0.09507535, 0.010405105, -0.10109298, 0.09716187, 0.08473795, -0.050732333, -0.05838531, 0.007088284, -0.09634281, -0.056453284, -0.07122306, 0.00050890085, -0.057932716, -0.00014711995, -0.019514365, 0.039175436, 0.036773857, -0.073831834, -0.05748868, -0.04349556, 0.08122367, -0.06463126, 0.06784332, 0.016225, 0.06003013, -0.046394918, 0.04883425, 0.060989752, -0.048754834, 0.07456914, -0.06688463, 0.010123644, 0.0569262, 0.085065275, -0.09456515, 0.042187486, -0.09212782, 0.09680836, -0.06426693, 0.06519118, 0.08186195, -0.10212555, 0.07843944, -0.006460574, -0.05779791, 0.0062941024, 0.04388007, 0.08099656, 0.011214127, -0.041335303, 0.063476555, 0.031717733, 0.060539544, -0.054675482, -0.040047225, 0.027615864, -0.02185019, 0.0612636, -0.103248924, 0.040611967, -0.014782765, 0.06482706, -0.0880831, 0.030594403, 0.09687155, -0.022833712, -0.014936746, -0.024149247, 0.053475074, -0.018414559, -0.06775909, -0.014855546, -0.014491265, 0.02530438, 0.07035682, -0.010960323, -0.05713465, -0.08816564, 0.08730188, -0.085336745, -0.03992124, -0.06439065, 0.08617767, 0.039064042, 0.040550094, -0.04794037, 0.016266996, -0.08252057, 0.08028982, -0.022774966, 0.04594582, -0.017089978, -0.015810631, -0.052932683, -0.04629247, 0.10533648, 0.091644906, -0.029264806, -0.01942937, 0.09150293, -0.050783902, 0.015571129, 0.050471492, -0.09411027, 0.08079171, -0.06690658, 0.027207742, -0.04858849, -0.03900546, 0.05341849, 0.019692058, 0.034760382, -0.055815786, 0.00053027517, 0.04414219, -0.051474467, 0.03086243, 0.011091698, 0.09363052, -0.041896287, 0.038618032, 0.078730375, 0.036393076, -0.015209675, 0.044301715, 0.009645103, -0.096603885, -0.03117361, 0.037321042, -0.010486167, -0.05276238, 0.09473147, 0.041859344, 0.09286939, -0.0214437, 0.031006409, 0.041124336, 0.022544537, 0.021008724, -0.022564454, -0.07373563, -0.055170007, 0.029619375, 0.0012542013, 0.056225076, 0.05910408, 0.06865435, -0.037352145, -0.0946356, -0.09208774, 0.09030836, -0.07584646, -0.10512498, 0.028386611, 0.09215215, 0.061549947, 0.080887675, 0.060230665, -0.10110751, 0.001900157, -0.0027283914, 0.00993213, -0.08034564, 0.040733993, 0.022215063, -0.083240904, 0.0058421623, 0.06906439, -0.06937448, 0.067654885, -0.08697426, 0.049499255, 0.0678582, -0.077282995, -0.06986371, -0.036949966, 0.008843206, -0.010874022, 0.047320276, -0.055042677, -0.02601535, 0.046713136, 0.006833073, 0.020976014, -0.049678165, 0.104092695, -0.05518947, -0.024966827, -0.021749211, 0.07832127, 0.01538665, 0.040939115, 0.063327536, -0.08954154, -0.0764187, -0.10227106, 0.019877214, 0.049204938, 0.02304067, 0.021155478, -0.054166455, -0.03228711, 0.10222244, -0.06702809, 0.027789498, 0.003547566, -0.081413865, 0.020082576, 0.0033234307, -0.02693666, 0.09566228, 0.07548313, -0.009242546, 0.08179641, -0.048589405, -0.07859309, -0.007262546, 0.09573336, -0.031207776, -0.08916929, -0.035651293, 0.093984656, 0.07727577, 0.0075202445, -0.07645007, -0.10241411, 0.067502245, -0.09514255, 0.07823833, 0.03164636, -0.020383729, -0.026585585, 0.024729384, -0.075509235, 0.10333094, -0.0654559, 0.098464385, -0.0070972056, -0.044439763, 0.078463584, 0.036425192, 0.07658998, 0.07878626, 0.079485774, 0.0056779403, -0.060800247, -0.020128718, 0.104340084, -0.0723696, 0.052214652, -0.040332656, -0.08807146, 0.034325883, -0.030876618, 0.00061033166, -0.023181997, -0.08963508, 0.028594712, -0.025254557, 0.07127967, 0.07605747, -0.030644717, 0.039549995, 0.0007595375, -0.089577265, -0.06580229, -0.013142091, -0.036198318, 0.061677348, 0.0033598212, 0.031479523, -0.0725613, -0.0075277463, -0.005551089, -0.04609034, 0.076006025, 0.09730614, -0.1050067, 0.026183443, -0.06054182, -0.009305789, -0.068989344, -0.0661006, -0.074473344, -0.07146678, -0.06477957, 0.02259088, -0.051459875, 0.011282447, 0.09490767, 0.008347047, 0.079683594, -0.0480412, -0.09340879, -0.06563598, 0.053824186, -0.051006354, 0.07501251, -0.01713358, -0.08145836, 0.061368708, 0.013671889, 0.09177275, 0.090754196, 0.058037046, 0.10352956, 0.009957047, -0.058948543, -0.08166725, 0.063662715, -0.06096037, 0.043119755, 0.06645583, 0.015618577, 0.076266915, -0.032731652, 0.057658706, 0.042217884, 0.082289815, -0.07959638, -0.039781507, -0.10224884, 0.03389999, 0.09032691, -0.078599535, -0.060033396, 0.009242809, -0.026634416, -0.09876228, -0.049586825, -0.047410358, -0.09683382, 0.047889728, -0.0659873, -0.040483207, -0.06162162, -0.037349243, 0.034409367, -0.0747428, -0.014452035, 0.09234809, -0.020915737, 0.045583207, -0.049983148, -0.012998314, 0.043290935, 0.07130006, -0.012015432, -0.08779218, 0.0860063, 0.010139816, 0.06977933, 0.0449941, 0.061996885, -0.0050183386, -0.09277708, -0.02957003, 0.08832267, 0.03910792, -0.08609347, 0.0066632344, 0.10101579, -0.012232343, 0.07702678, -0.025214924, 0.07613475, -0.01374467, -0.08524292, -0.10392073, 0.06688297, 0.008343767, 0.10526331, 0.078310184, -0.10127485, 0.04313341, 0.08369537, 0.044083282, 0.089460954, 0.024384076, -0.0022885771, -0.10119499, -0.097117536, -0.08425732, -0.010451523, -0.0015436034, -0.008472956, -0.03996934, -0.09834275, -0.10343469, -0.09963314, 0.06611762, 0.09260212, -0.029327836, 0.102417186, 0.008594479, -0.054232262, -0.036973286, -0.07341102, 0.005320771, -0.03850176, 0.058697455, 0.09552246, 0.07660104, -0.07267142, 0.012888364, 0.08881828, -0.08188346, 0.061008222, -0.08655765, 0.010101981, -0.07208747, -0.035451975, 0.08200206, 0.004834677, 0.07178295, 0.09118284, 0.07630396, 0.046295736, -0.08293736, 0.054287072, -0.0690962, 0.09044612, -0.02590912, 0.026817925, -0.01966312, 0.086183414, 0.040636368, -0.047769476, -0.08070444, -0.098956324, -0.068547554, -0.030882522, -0.07097839, -0.099483095, -0.06086153, -0.01757449, -0.026866682, -0.026697986, 0.0696428, -0.099644184, -0.045772284, 0.003244794, -0.014942652, -0.022276396, -0.04342231, -0.028807564, 0.06959127, 0.027890565, -0.031616326, 0.1052956, -0.004017576, 0.03104329, 0.021583168, 0.040310502, -0.06908458, -0.0026700739, -0.08395995, 0.033613842, -0.05495626, 0.04705045, -0.04930961, 0.0439283, 0.08951447, 0.048963334, 0.1045603, -0.03357289, 0.06860019, 0.028837822, 0.08368848, -0.018418217, 0.004803602, -0.10516597, 0.019966343, -0.019405898, -0.005166087, -0.024052905, 0.06915094, 0.041815303, 0.017393641, -0.06441361, -0.03234602, 0.044205625, 0.03792337, 0.06843053, -0.048923917, 0.041336585, 0.08679646, 0.004769926, -0.054336093, -0.092599355, -0.043030687, -0.07284522, 0.069394715, -0.09801947, 0.050237995, -0.0053544347, -0.08443855, 0.09756327, 0.0791121, -0.06876012, 0.069773495, 0.07349147, -0.065138035, -0.056161936, 0.05628591, -0.10508063, -0.04677536, -0.00084871677, -0.03155881, 0.064671054, -0.030740468, -0.060568735, -0.015232796, -0.09303269, 0.05558959, -7.631187e-05, -0.025977917, 0.053403914, -0.09091747, 0.051439594, 0.0015941303, -0.044785734, -0.075664856, -0.05381362, 0.055515062, -0.033172343, 0.04579571, -0.0109763695, 0.097444825, 0.0067898845, 0.008003537, 0.0050606094, -0.050669942, 0.0031808342, -0.08401164, 0.039316613, 0.043688733, 0.083000004, 0.07924544, -0.07223346, 0.08092445, 0.032273866, -0.01417119, -0.082483806, -0.0530098, -0.070298836, 0.07846841, 0.0059006307, -0.08102788, 0.02020875, -0.06441719, -0.049247574, 0.016875228, 0.04964558, 0.082046375, 0.0007541719, 0.060896914, -0.071667016, -0.04959326, -0.07096502, -0.0591046, 0.007698276, 0.08834825, -0.045981657, -0.023803387, 0.07662098, 0.07376876, -0.0459512, -0.03796603, -0.08081529, -0.009872706, 0.03444253, -0.00656257, -0.020519728, 0.06649162, 0.015534927, -0.0039580395, -0.0790472, -0.012070722, 0.0407928, -0.093115844, -4.4796943e-05, 0.035263877, 0.0917695, -0.07928034, 0.044609047, 0.018301656, -0.0951437, -0.06813607, -0.012228849, -0.027041446, 0.015368518, -0.0028398372, 0.09943361, 0.001895671, 0.06293966, 0.04671664, 0.03323839, 0.01802629, 0.021887636, 0.09993638, 0.011355567, -0.07517158, 0.0029742909, -0.08667298, -0.06442688, 0.104039386, -0.063869156, -0.073286265, 0.035608795, -0.06525795, 0.092765674, -0.09844247, 0.024158558, -0.09281341, -0.06517567, 0.039815336, -0.0567929, 0.0104386555, -0.09800703, -0.053051583, 0.013662364, 0.032374933, -0.036974292, 0.019597074, 0.081105575, 0.074320264, -0.0074954396, 0.016595993, -0.09218169, 0.10161369, 0.057734177, 0.01153351, 0.03850578, 0.069160916, -0.07716417, -0.03316072, 0.056578413, -0.048870903, 0.062555574, 0.0507838, 0.08736212, 0.08202089, 0.05719259, -0.040050592, 0.09190965, 0.10060876, 0.027564922, -0.06519777, 0.04353632, 0.0043970244, -0.091928855, -0.08714045, 0.06571033, 0.062031377, -0.06285924, 0.028946428, 0.09983907, -0.08973853, 0.071460664, -0.037448548, -0.097298436, 0.07357327, -0.040619392, -0.074041694, -0.054024763, 0.04936656, -0.0223703, -0.022138787, -0.047379546, 0.04859742, -0.082658105, 0.08703365, 0.08828902, -0.09944342, 0.104848005, 0.04558683, -0.072374396, 0.05052991, -0.059676517, 0.099415176, 0.0910352, -0.015846407, -0.030730326, -0.046850316, 0.07538206, 0.0009344027, 0.09303972, 0.08075219, -0.052390195, -0.034991074, 0.024238829, -0.055600297, 0.06052898, -0.046336047, -0.012767242, -0.03888092, 0.07549944, -0.00454951, 0.06995299, 0.0067176567, 0.010278618, 0.02685644, 0.09634473, -0.04185785, -0.09420531, -0.0959257, -0.04937401, -0.0038178808, -0.014451117, -0.080942966, 0.09871123, -0.028316557, 0.04681989, 0.08678319, -0.00785937, 0.02685551, 0.09199396, -0.07830936, -0.09309558, -0.020786699, 0.05355357, 0.0958775, -0.0011617048, -0.010221733, 0.06474322, 0.053304996, 0.07182687, -0.018824894, -0.030238692, -0.07541607, 0.016281886, -0.10248218, 0.01442062, 0.078310184, -0.024132397, 0.028645402, 0.09726306, 0.07018763, -0.098230764, 0.037118282, -0.089013025, -0.01654392, -0.0698416, 0.051183004, 0.04112896, 0.039946206, 0.07011462, 0.012786367, -0.08377295, -0.06532684, -0.097154446, -0.052103143, 0.09017871, -0.069551155, -0.0027151848, 0.08409892, 0.090155475, 0.034165114, -0.06103618, 0.018196419, 0.078058206, -0.010159595, 0.04203911, 0.06136327, -0.096066564, -0.089991756, 0.09740224, 0.09874738, 0.024034007, 0.08604124, -0.052769456, -0.06419794, -0.09250231, 0.059689395, 0.05858538, 0.098400116, -0.020259729, -0.06475389, 0.084345505, 0.011734148, 0.027561015, 0.06754277, 0.09418876, 0.026681134, -0.07163866, -0.0046696886, 0.04479918, 0.020948295, 0.05471045, -0.065551214, 0.10073803, -0.071481, 0.055933814, 0.09117426, -0.07956059, 0.027735416, 0.07881869, -0.05380569, 0.04832937, -0.10511973, -0.069942206, -0.10198465, -0.020336065, -0.10342646, 0.09808895, 0.100877754, -0.04171744, -0.07401759, 0.088209465, 0.02435118, 0.026874598, 0.08078598, -0.0952313, -0.020694744, -0.05494817, -0.10262046, -0.08162836, -0.041415572, 0.0009926952, 0.013559036, 0.090266496, -0.04882319, 0.008996458, 0.07114751, 0.04322753, -0.009889306, -0.061725024, -0.035904557, 0.05982282, 0.06898792, -0.056509126, -0.048363082, 0.09330174, -0.04921974, 0.057793975, -0.056868948, 0.061165735, 0.014362805, 0.02968772, 0.022993749, -0.046438184, -0.03189174, -0.02495871, -0.07209693, -0.082475394, 0.0994937, 0.07604166, 0.08725255, 0.018286904, -0.022995422, 0.08898871, 0.099242166, -0.036863424, 0.027340474, 0.019048767, 0.06220531, -0.040823787, -0.031000528, 0.04596987, 0.075357005, -0.07016247, -0.10398802, 0.09162539, 0.08532109, 0.041230354, 0.08650016, -0.10098214, -0.013743929, 0.033147126, 0.022036, 0.047379736, -0.0905602, 0.07584727, 0.039479993, -0.019426355, -0.10067159, 0.04219323, -0.013114083, 0.07799942, -0.062272176, 0.05752571, -0.070872135, 0.08229388, -0.06568368, -0.0036848346, 0.009620335, -0.060681112, 0.10029598, -0.068386264, -0.09888921, 0.0015856861, -0.07437052, -0.05308972, 0.08430551, -0.034705844, -0.06638197, -0.05943577, -0.08373664, 0.0948717, -0.052547947, 0.029742897, 0.010551383, -0.08541656, -0.0015686847, 0.008742655, -0.070161864, 0.062988624, -0.047879163, 0.06830916, -0.079101965, 0.057246387, 0.10035385, -0.10298287, -0.017995529, 0.009013434, -0.08202192, 0.010831688, -0.037949998, 0.092007786, -0.07168387, -0.028423002, 0.027157214, 0.045860812, -0.0057487986, 0.06533416, -0.09707679, 0.10332949, 0.0773958, 0.06985637, 0.048958346, -0.099842936, -0.005492545, 0.04004941, 0.057991423, -0.029455429, -0.031529434, -0.0017551858, -0.07736299, -0.054232072, 0.052573517, 0.029542623, -0.0474735, 0.009571844, -0.09990685, -0.04673241, 0.09015524, 0.053252924, -0.058179203, 0.035886776, -0.015559556, 0.093332075, 0.005075337, -0.030087827, 0.0038918555, -0.034110326, -0.098534994, 0.09903496, 0.096037045, 0.09078809, -0.0033329304, 0.059976522, -0.09540823, -0.10332839, -0.09632224, -0.08145249, -0.050532963, -0.087666616, -0.07077123, -0.0640777, -0.07387876, 0.06329975, 0.059906885, -0.095588095, -0.01770619, -0.09522634, 0.057903435, 0.04551509, -0.029123127, -0.03280526, 0.023462955, 0.013867613, 0.08377829, 0.06832161, 0.048720013, 0.078967184, -0.061586548, 0.053800438, 0.05570542, 0.015676957, 0.07591771, -0.08030706, 0.02898263, 0.008625881, 0.0668013, -0.052681822, 0.101285525, -0.033064052, -0.033126164, -0.07851724, 0.04395388, -0.045182146, -0.054843247, 0.06220108, 0.095456265, 0.050224863, 0.011149702, 0.037078235, -0.019384498, 0.07046706, 0.07443239, -0.0522591, -0.04606248, 0.020502185, -0.0777177, -0.029096626, -0.09746044, 0.0338423, 0.005441239, 0.029384483, -0.091888085, -0.034982644, 0.08131334, 0.06679652, -0.091857485, -0.06053633, -0.06465114, -0.06623787, -0.06580566, 0.0053069615, 0.047591053, 0.029025279, 0.09289563, -0.07260756, -0.028418038, 0.07106234, -0.0058045657, -0.07044307, -0.016243886, 0.022170555, 0.008044727, 0.09008193, -0.027021227, 0.097971044, 0.08314059, -0.09945316, -0.062524445, -0.075271234, 0.017573997, -0.05334028, -0.008150907, 0.072694756, 0.040070396, -0.041587748, -0.012033288, 0.058947373, 0.09098572, 0.032364015, -0.059983876, 0.07378298, 0.071211, 0.07197738, -0.051035028, 0.07542882, 0.04650135, 0.09607351, -0.025344566, -0.057523184, -0.05561766, -0.060504865, -0.053413514, 0.0149719305, 0.07509432, 0.043713246, 0.075043805, -0.014414312, 0.01591562, -0.040447947, 0.04209725, 0.018235886, 0.031775746, -0.039886482, 0.0076360507, 0.06501573, 0.0262758, 0.105017655, 0.10044509, -0.08009207, -0.10030923, 0.04801864, 0.03566925, -0.07816221, 0.011543839, 0.02194599, 0.033709392, 0.091538176, -0.0012110505, -0.0048006363, 0.09875108, -0.09934689, 0.0241759, -0.001979849, 0.0810736, -0.004625495, -0.085760765, -0.00901121, 0.037657455, -0.039298493, 0.028649349, 0.041818306, 0.05263959, 0.025446473, -0.09812551, -0.037847623, -0.09399011, 0.07661416, -0.018684912, -0.040101822, -0.05511866, 0.08157749, 0.014123277, -0.058280196, 0.10415062, 0.042810574, 0.0071752514, -0.099019356, -0.020518847, 0.087166324, 0.037993502, -0.033678934, 0.0395412, 0.002287773, -0.06416322, 0.07040455, 0.067086756, 0.058716204, -0.102687314, 0.103250094, 0.06294885, 0.045719597, 0.017197741, -0.009283196, -0.029645134, 0.013493694, -0.006137747, 0.032960486, 0.0036824846, 0.025800314, 0.07326047, 0.021683656, 0.08956256, 0.0053080292, 0.095867544, 0.048057746, -0.016083071, -0.07964949, 0.0560696, 0.04896306, -0.100669034, 0.09745904, -0.104562715, 0.01648545, 0.056799345, -0.049856823, 0.024115533, -0.067888804, -0.098855436, 0.0054466925, -0.09369097, -0.02164014, -0.036895342, -0.09859472, 0.037046608, -0.0616922, 0.0990103, 0.1053609, 0.037558928, -0.01826102, -0.017581964, 0.025741316, 0.035922613, 0.08885811, -0.00067393953, -0.053636994, 0.016601596, 0.006565963, -0.02182482, -0.07782173, -0.07548289, -0.03898583, -0.06746178, -0.08048873, -0.022731652, -0.038502138, 0.068992585, -0.094169185, 0.022518964, -0.056514632, -0.040631983, -0.00065940095, -0.010721461, 0.05664225, -0.045809645, 0.090882026, 0.023264177, 0.036385648, 0.003620347, -0.07117525, -0.092398204, 0.0901285, -0.051967673, 0.085762024, 0.054942027, 0.02240052, 0.07722889, -0.0012326762, -0.01116042, 0.009912301, 0.051490273, 0.04674245, 0.09538892, -0.07870851, 0.038319305, 0.0722879, -0.09964823, -0.056326106, 0.011031935, 0.081867576, 0.089458704, 0.01268892, 0.08599554, -0.06333226, 0.06960877, 0.08040115, 0.012287393, -0.050694585, 0.046050016, -0.024907075, -0.07912279, 0.050850864, 0.0067916564, 0.100633815, -0.02455159, 0.067144334, -0.018720184, -0.0024789486, 0.037314296, -0.04175441, 0.009312097, -0.0023225802, -0.07407508, 0.030766089, 0.06472814, -0.07448915, -0.070352904, -0.061083127, 0.04771258, -0.02988357, -0.10265102, 0.023469288, 0.05298718, 0.07275109, 0.018679522, 0.00077123626, -0.08673713, -0.047724314, 0.0152829075, -0.0030777322, 0.046663687, 0.04347827, 0.043571003, -0.08261629, -0.053499576, -0.029206803, -0.07982588, 0.05223208, -0.010392338, 0.0429134, -0.06646768, -0.08843213, 0.092265554, 0.05940527, 0.06335664, 0.044558108, 0.047063343, 0.059789017, -0.013467984, 0.09607469, -0.024986831, 0.087804526, -0.06632087, 0.064481616, -0.044687293, -0.05343138, 0.01337829, 0.006304042, 0.024898883, -0.09653633, -0.009979905, 0.015712807, 0.024731105, 0.06291713, 0.054933682, 0.058280736, -0.10468776, 0.050185356, -0.014779486, -0.017871179, 0.09194882, -0.026403004, 0.007987314, 0.039530355, -0.0753165, 0.09143568, -0.034446564, -0.09532602, 0.043474637, 0.04415271, 0.0620833, 0.008517363, 0.011879886, -0.009163432, -0.020842742, -0.020375874, -0.10197358, -0.038779955, 0.072306864, 0.103678785, -0.06184035, 0.062344052, -0.09997512, 0.06817286, 0.03156702, -0.035112247, -0.04389715, -0.10133419, -0.084601335, -0.08015514, 0.049004175, -0.023445979, 0.05585523, 0.09323532, -0.017764207, 0.037167013, -0.0825955, -0.096831694, 0.077783115, -0.08820336, -0.02578404, 0.07229141, 0.0623654, 5.8782636e-05, -0.04795546, 0.058081243, -0.0033807054, 0.00781172, -0.07384121, -0.098876104, -0.06930478, 0.03599837, 0.068578616, 0.020489644, -0.038415346, 0.06581744, 0.011509686, 0.035002172, 0.06425062, 0.06862988, 0.027105067, -0.061174028, 0.0009178284, -0.013319193, 0.009136403, 0.037753556, -0.052345134, 0.039092842, -0.07890744, -0.012111586, -0.097690046, -0.03131143, -0.07407625, -0.023506282, 0.04787103, 0.08304764, -0.03256964, -0.011566684, -0.076996356, 0.099078864, -0.039497722, -0.04865819, 0.10173043, -0.05316803, 0.057981532, -0.080291115, 0.08274741, -0.016493393, 0.016573286, 0.08123585, -0.09823792, -0.10210955, -0.0933677, 0.07922756, 0.068819515, 0.07619573, 0.09381146, -0.02166521, 0.026829826, 0.09408165, 0.050781425, 0.0045503266, 0.03535914, 0.009320554, -0.07467084, -0.009321974, 0.06202752, -0.009465324, -0.017753953, -0.05550174, -0.06283859, -0.068934016, 0.035371907, -0.10385806, -0.02332938, 0.045025177, -0.058540683, 0.0014232108, 0.09244335, 0.029365094, 0.034731418, 0.08716455, 0.05457009, 0.09074206, -0.030036457, 0.104037695, -0.051584605, 0.0067795557, -0.04261599, -0.0137004005, -0.06900222, -0.044008065, -0.075592086, 0.07209556, -0.057236306, 0.057260998, 0.05938866, 0.07812201, -0.03195598, -0.06821276, 0.089451455, -0.09990302, 0.08218749, -0.05511468, -0.016853428, 0.033704996, -0.08698482, -0.07439364, -0.033186946, -0.030196922, -0.037492782, 0.06779101, -0.05513666, 0.03536815, -0.055002265, -0.07298238, 0.09822577, 0.060261477, -0.09276017, 0.01206689, -0.0070139575, 0.055005446, -0.028708069, -0.03957583, -0.0960643, 0.089719154, -0.062428355, 0.06506185, 0.054500602, 0.04618091, -0.0746305, 0.08904491, 0.0972563, -0.006133751, -0.057843484, 0.07309219, -0.011002984, 0.017881947, 0.08808879, -0.056803744, -0.020866266, -0.066818126, -0.10106695, 0.07860175, -0.03388315, -0.049067218, -0.057228517, -0.06896938, 0.08927164, -0.028056847, -0.031516552, 0.08309754, -0.08688209, 0.012325129, 0.035220087, -0.05950825, 0.057336457, -0.0553364, 0.08001665, 0.04417451, -0.09369783, 0.051414564, -0.055073436, 0.099028036, -0.0040002353, 0.039810974, -0.012643872, -0.03242585, 0.057703905, 0.053978294, 0.044010002, -0.050708782, 0.0762564, 0.04327219, -0.09730686, -0.05686847, -0.08486225, 0.056537487, 0.09147654, -0.05900142, -0.009076226, -0.0347045, 0.019698491, 0.013268817, -0.016320866, -0.053148415, 0.062839806, 0.09627399, -0.099146344, -0.0180929, -0.07865613, -0.08213862, 0.08079885, -0.033148345, -0.07673347, -0.10234701, 0.099340945, -0.03627506, 0.08810531, -0.09780751, 0.038303323, -0.06801994, -0.0221814, 0.0021218546, 0.07969318, 0.022446133, -0.08688769, -0.036971577, 0.047255572, 0.046260238, -0.013040233, -0.09954592, -0.099825814, 0.045184057, -0.044716712, 0.07969715, -0.04369764, 0.04801687, 0.0679666, -0.040116712, -0.041523926, -0.009302497, -0.06379096, -0.10295474, -0.086468704, -0.011643964, 0.04215484, 0.09622602, 0.07309361, -0.0056079617, -0.017580105, 0.058197815, -0.028428229, 0.084564455, -0.09133402, -0.048750736, -0.02284903, -0.09292874, -0.00832429, -0.056192584, 0.024992045, -0.0018776517, -0.10319789, -0.04585208, -0.06267746, 0.041502364, -0.08549623, -0.06876865, 0.0752702, -0.060120337, 0.056247696, 0.093774565, -0.062948175, -0.0046038064, 0.021353276, 0.051205683, -0.034294453, -0.06919277, 0.05002865, 0.062105805, -0.04791148, 0.012469207, -0.030138265, -0.010986799, 0.05165966, -0.07598051, 0.095713034, -0.07322129, -0.09254439, 0.016877012, 0.08031411, 0.09107565, 0.089706466, -0.024017809, -0.054954592, -0.045476913, 0.024738895, -0.09755164, -0.06521258, 0.09753312, 0.096403025, 0.09542171, 0.030191708, 0.044008255, 0.06668232, 0.049530692, 0.06430575, -0.09135198, -0.04903, 0.0887282, 0.10448727, -0.047376595, 0.051919833, -0.07955571, -0.08169523, 0.10271479, -0.03412718, -0.085480586, -0.07580854, 0.0071589537, 0.08350365, 0.09223425, -0.09528529, -0.048041184, -0.10359603, -0.09661611, -0.06709846, 0.05310666, 0.011320785, -0.038642574, -0.037700795, -0.06211499, 0.08244383, -0.048582908, 0.09556392, 0.022285318, 0.033958696, -0.05280274, 0.0023853336, -0.07028515, 0.049416356, 0.10390291, 0.06438708, -0.0034585628, -0.018535355, 0.073766306, -0.06403329, -0.04370175, 0.05899814, -0.05886488, 0.03621718, 0.100519866, -0.10461935, -0.07442962, 0.08694472, -0.031157587, -0.03898088, 0.054188646, 0.08912037, -0.035259806, -0.003513362, -0.00597928, -0.011720351, -0.07743754, -0.057498455, 0.009741582, 0.03658073, 0.10373149, -0.01503638, 0.07487242, 0.055048544, -0.07912211, 0.067608565, 0.051645637, -0.0805384, -0.06739075, 0.06850253, -0.032521665, 0.04579131, -0.07081341, -0.05162157, -0.075644046, -0.014818037, -0.09553886, 0.093547456, 0.016693402, -0.06010246, -0.10087982, 0.10167631, -0.03779912, 0.07296424, 0.085690506, 0.083548576, 0.027448602, -0.0034102222, 0.015399292, 0.0033511634, -0.09506147, -0.10090159, 0.008296193, -0.06451841, -0.005756489, -0.032631677, -0.08147967, 0.09756509, -0.01354118, 0.0034240196, 0.041539043, -0.09140693, 0.03727533, 0.08925885, -0.0070131533, 0.08614302, -0.05828698, 0.0016379849, -0.0882429, -0.07095007, 0.030993126, 0.056902736, -0.050622594, 0.027775614, -0.047504753, -0.03925044, -0.08635229, 0.04122779, 0.012296516, 0.10473679, 0.026349261, 0.10286635, -0.05151303, 0.07864842, 0.07446165, 0.07806426, 0.07229703, -0.03911962, -0.0931268, 0.010087379, 0.10160198, 0.0067787766, 0.08051867, -0.06678292, 0.07856335, -0.0034282794, 0.09625824, 0.043475956, -0.10458547, -0.03890491, 4.4030432e-05, -0.0072962474, 0.012087321, 0.058722623, 0.011440826, 0.013297102, 0.022012703, 0.08220468, 0.0100595085, 0.018442681, 0.089977056, 0.04017894, -0.05018297, -0.0631892, 0.036339745, 0.08350194, -0.09503775, -0.100998275, -0.008714244, -0.025986072, -0.07865176, 0.07266962, 0.08042502, 0.04276662, 0.046783578, -0.08752741, -0.025470989, -0.0031115466, 0.06998588, 0.028283294, 0.054910712, -0.083417274, 0.03303065, 0.021823827, 0.04476118, 0.060513005, 0.05880704, 0.010061682, -0.0052349595, 0.090196766, -0.06398638, 0.06994326, -0.044273455, -0.092497826, -0.06838755, -0.09015262, -0.02119476, -0.03983989, 0.10504598, -0.014402601, 0.0036351117, -0.02195127, 0.0975872, -0.090730235, 0.05954582, -0.0428828, 0.012417311, -0.08027144, -0.08845679, -0.097214505, 0.09752755, 0.05707137, -0.0028184126, 0.08899855, -0.030958107, 0.05743943, 0.087677985, -0.00982478, 0.08442808, -0.06576234, -0.024880763, -0.04856338, 0.02896245, 0.08011381, 0.05097548, -0.023618056, -0.014673719, -0.06452899, 0.08769455, 0.024708072, 0.073443286, -0.008250767, 0.08276417, -0.01827283, -0.10194995, 0.060750388, 0.035197392, -0.038940758, 0.05896796, -0.01438585, 0.095424704, 0.095920675, -0.08290866, 0.04475833, 0.047641218, -0.09521448, 0.10534459, -0.08477317, 0.07770131, 0.024138892, 0.030551653, 0.0064183027, -0.10046898, -0.0021221437, 0.053924084, 0.04785359, 0.017128127, -0.0050112763, 0.051562704, 0.09154368, 0.03679832, 0.09776293, 0.090657614, 0.057027224, 0.084112756, -0.07486651, -0.023669474, 0.040131528, -0.0812334, 0.026995229, -0.041912436, -0.06902698, -0.039269127, 0.003932066, 0.075131565, 0.01928925, 0.03857296, -0.06992891, 0.09415957, 0.09047123, 0.003943375, -0.07222371, 0.06210706, 0.02176875, -0.09191988, -0.0065664276, -0.052793983, 0.09332567, -0.031196805, -0.03228437, -0.021498688, 0.0304146, -0.019431783, -0.020470118, -0.03505956, 0.008586475, 0.09474135, 0.08726279, -0.086451665, -0.026188934, -0.016043564, 0.0138627505, -0.0528613, -0.06615197, 0.081094004, 0.052729797, -0.04403635, -0.0059825345, -0.10107211, 0.035924546, 0.09427988, 0.00869444, 0.07894659, -0.0010341497, 0.030218259, 0.006896417, -0.047696166, 0.09704218, 0.10022878, -0.09453892, -0.082326174, -0.02877698, 0.103077956, -0.06397368, 0.043086607, 0.059290245, 0.1019188, 0.09562005, -0.10007733, 0.032421026, -0.0011092678, -0.045556307, 0.10078644, 0.053340845, -0.013447238, 0.0024845025, 0.013891275, 0.09585019, 0.095090166, 0.027966537, -0.059419308, -0.00989986, -0.089362726, 0.034020383, -0.034230456, 0.046870824, 0.013503809, -0.056390055, -0.0007815276, -0.016232427, -0.10268188, 0.063980706, -0.051355142, -0.023443114, 0.07787844, 0.016121836, 0.07156199, -0.013859998, 0.04604765, 0.054024626, -0.026085317, -0.07481449, -0.0005732752, 0.029829336, -0.029647699, 0.10209245, -0.016685184, 0.043669708, 0.029017689, -0.05444754, 0.078996174, -0.09772352, -0.044085823, -0.043020763, 0.058853384, -0.07020449, -0.06460541, -0.08869008, -0.08103966, 0.09837618, 0.08026972, -0.018093392, 0.07142995, 0.019972878, 0.08286859, -0.027302764, 0.06414891, 0.07891603, 0.07272743, 0.09593687, -0.09296578, -0.089977056, 0.024862405, -0.07859764, 0.094339624, 0.0427128, -0.07897608, -0.006744397, -0.032153815, 0.06107065, -0.04739523, 0.030487254, 0.085836425, 0.023880742, -0.07243185, -0.0015073009, 0.038376845, -0.07209565, -0.012303767, 0.10253617, -0.08347987, 0.029223152, 0.085049376, 0.1001864, -0.041004684, 0.10485497, 0.045802005, -0.00758384, -0.073327266, -0.05289138, 0.01626325, 0.015412159, 0.0026778898, 0.024673792, -0.074272364, 0.045968037, 0.059966233, 0.100245155, -0.08363789, 0.07192125, 0.028596496, -0.0016867777, 0.0606364, -0.03323967, -0.059891768, -0.035330236, -0.017912684, 0.046362977, 0.042099968, 0.048256185, -0.028025508, -0.0010258061, 0.066551745, 0.08804646, 0.0037428632, 0.054172687, 0.014868652, -0.063235946, -0.09533394, 0.05900518, 0.08732785, 0.006822317, 0.09334565, 0.08020229, 0.09965412, 0.04349704, 0.09726991, -0.017195731, 0.022873005, -0.0010628247, -0.01055044, -0.0071611023, -0.058569383, -0.09860693, 0.10217164, -0.09265024, -0.0520333, 0.0643911, -0.018900063, -0.09578714, 0.08783552, -0.095578134, -0.05457664, -0.00046351328, -0.07012624, 0.030134358, 0.056798, -0.08340407, -0.021339053, -0.04751213, 0.09927166, 0.09133496, 0.033339657, 0.059513614, 0.008057695, 0.0053437664, 0.017891247, -0.009376396, -0.09322993, 0.049778968, 0.026185391, 0.01090066, -0.079295, 0.08752898, 0.06661759, -0.06268682, -0.055959675, -0.080558665, 0.006330116, -0.06502894, -0.06353339, -0.09633666, -0.07503224, -0.0029273578, -0.07472296, 0.06427571, 0.087714165, -0.037528668, -0.06354948, 0.012252549, -0.049859162, -0.088080555, 0.104284585, -0.034188587, 0.0047316127, -0.07671193, 0.0770376, -0.016038336, -0.06582589, 0.084739484, 0.06708603, 0.01640479, 0.047776826, -0.09643242, -0.018490117, 0.053913884, 0.010052962, -0.08799662, 0.10225295, -0.059463263, 0.06339759, 0.093249805, 0.01946551, 0.05910333, -0.089754716, 0.04680103, -0.09023057, 0.044855814, -0.0534536, 0.04009633, 0.057320926, 0.091365896, 0.02971637, 0.026407013, -0.025886966, 0.046090487, -0.056504942, -0.061744526, -0.07989145, -0.09504216, 0.09516478, 0.02813238, 0.044593204, -0.050128836, -0.010451209, -0.0038791138, -0.07421949, 0.06411781, -0.059092797, -0.0110530965, -0.059642766, -0.09297835, 0.08507587, 0.10388071, 0.0067126807, 0.08981081, -0.0989975, 0.056271408, -0.05982287, 0.088419355, 0.07291144, -0.053419005, 0.047628816, 0.050401162, -0.050969522, 0.061324753, 0.03854495, -0.09384732, -0.081511036, -0.023285903, -0.081215486, 0.104606204, 0.025181336, -0.10261702, -0.10251454, 0.06146357, -0.0076529137, -0.032160636, 0.032585397, -0.039529312, -0.07418703, 0.035543114, -0.06873781, 0.010294941, 0.05480462, -0.065448865, -0.055851635, 0.04281095, -0.07014303, 0.056972753, 0.041476052, -0.04340438, 0.053461626, 0.1011182, -0.036835365, 0.06312353, 0.081428215, 0.08905978, 0.0063534756, 0.06671877, 0.049692743, -0.09629443, 0.089187816, -0.03959967, -0.02480934, 0.06883589, 0.09354041, -0.09884709, 0.057747684, -0.018199798, 0.0815744, 0.09848013, -0.038285278, 0.06322425, -0.01374276, -0.04956673, 0.04632479, 0.09795482, -0.0007055173, 0.05302782, -0.054244652, -0.037877027, -0.015392129, -0.061548714, -0.06782922, -0.05554302, -0.09984157, -0.089665376, -0.0789792, -0.039650634, -0.032124925, -0.07491631, -0.06512915, 0.034640014, 0.10287785, 0.08560759, 0.019116206, -0.05694982, -0.09214254, -0.005258005, -0.036864202, 0.020988656, -0.022618072, 0.059708547, 0.050151642, -0.056643102, -0.042082373, -0.017536124, -0.07649101, 0.082328364, -0.04258224, -0.027216185, -0.07315342, 0.018588243, 0.0771537, -0.09487639, -0.033050444, 0.005302149, 0.08389816, 0.088641316, -0.10437963, -0.059179414, 0.0066706357, -0.039606053, -0.10357855, -0.08879369, -0.05888692, 0.06079884, -0.0053615347, 0.07943913, -0.029352982, -0.027870385, -0.04803224, 0.026265208, -0.0496731, -0.046238374, -0.031008432, 0.017864306, -0.09529673, 0.06389236, -0.030681748, -0.00020644291, 0.052823726, -0.024019418, 0.012481334, -0.080823034, -0.052502822, 0.09327145, -0.056331247, 0.011102039, 0.007171959, 0.003010543, 0.008321199, 0.08563429, 0.0802149, -0.016181963, -0.101942964, -0.073698096, 0.0160816, -0.08700107, 0.10333476, -0.061596375, 0.070764355, -0.04856436, 0.035151765, 0.018671304, -0.03755581, -0.08027669, 0.04261853, -0.016067075, 0.07968568, 0.0053758216, -0.06090277, 0.00691039, 0.07207754, -0.03748582, 0.016576089, 0.0053602904, -0.003060178, -0.04767322, -0.01706364, 0.012826075, 0.040806662, 0.029541392, -0.01204823, 0.010400041, -0.104455054, 0.078298174, -0.02952963, -0.08589906, 0.01905344, -0.08458111, -0.04662897, -0.040300425, -0.011275485, 0.08654154, 0.033949636, -0.036850546, 0.09048165, 0.07168272, -0.09286066, -0.021554003, -0.0039172005, -0.056265213, -0.07083632, -0.042626962, -0.07030416, 0.10193699, 0.08013222, 0.09582162, -0.0038264128, -0.094629645, 0.08760411, 0.051004656, 0.032650236, -0.103199944, 0.025395883, -0.082419224, -0.094490536, -0.072587684, 0.045085277, -0.09651852, 0.03046348, 0.10461559, 0.07248052, 0.0022288773, -0.02360589, 0.05589946, -0.030877735, 0.04764162, 0.031198854, 0.10216135, 0.021518655, 0.003583655, 0.0382129, 0.051828016, -0.023385853, -0.102595314, -0.06923067, -0.0027884308, 0.060000475, 0.036663037, -0.078582, -0.0943461, 0.07001806, -0.029536253, -0.068963535, -0.084372774, 0.029392248, -0.09492388, -0.0727091, 0.0023267898, 0.09038028, 0.023079108, 0.040570285, -0.031281725, 0.08538263, -0.059993714, -0.0029434043, 0.026219394, 0.09603316, 0.019589508, 0.014792705, 0.00826596, 0.028065216, 0.07587068, 0.00870634, 0.08474, -0.0446832, -0.06653631, 0.094926335, 0.036135778, -0.09480828, 0.038876686, -0.06545661, 0.03987075, -0.0219261, 0.079996124, 0.09837464, -0.08457229, 0.0035513735, -0.032013856, 0.032348484, -0.0060679563, -0.0283559, 0.026941711, -0.054320373, 0.08746037, -0.08094656, 0.030327305, 0.0038446584, 0.09812997, -0.055182107, -0.045820236, -0.003208655, 0.05539182, -0.02852609, 0.09651491, -0.013656483, -0.017936997, -0.06486858, -0.03791093, 0.07667333, 0.058031354, -0.004006732, 0.10325974, -0.058691222, -0.082043834, -0.0512452, -0.054994866, -0.049707055, 0.10157366, 0.016108228, 0.09427412, -0.055395912, -0.07348106, 0.056803893, -0.059538417, -0.103165254, -0.032067046, 0.0054575745, -0.010222687, 0.055485394, -0.042195316, 0.104618505, -0.005802819, 0.028951593, -0.04661188, 0.03919407, -0.011970988, 0.031285103, -0.10211105, -0.016171873, 0.00063922035, 0.10526887, -0.09659784, 0.07267616, -0.09188231, -0.016088499, -0.06661919, -0.037995372, -0.02151892, 0.07575934, 0.010960172, -0.061406344, -0.052815948, 0.05358173, -0.07148023, -0.036924984, -0.048023757, -0.10104764, -0.073492885, 0.0064740567, -0.100132555, 0.09441939, 0.01910941, -0.08916233, 0.014825753, -0.020641992, -0.098319426, -0.012067216, 0.024130914, -0.037643593, 0.01756245, 0.027758285, -0.026679678, -0.024958318, -0.079989664, -0.0829451, -0.004226381, -0.030915998, 0.09664272, 0.08202379, 0.031242922, 0.03597422, 0.07558413, -0.069985785, 0.07041422, 0.03151149, 0.07525521, 0.07118735, -0.037240222, -0.080534086, -0.022528691, 0.08194291, -0.028590402, -0.046636708, -0.09933523, -0.022168932, -0.045706037, -0.094946906, 0.084880084, -0.0021963194, 0.0545934, 0.037292633, 0.045811806, -0.054664798, 0.0068128174, -0.042424187, 0.028756082, 0.017597219, 0.0473085, 0.030489907, 0.021009088, 0.071541935, 0.037297383, 0.08296153, 0.081752226, -0.032968353, -0.09718659, 0.07922922, -0.09391119, 0.030793054, -0.10099178, 0.053736806, -0.006813973, -0.041701935, 0.0840375, -0.014858135, 0.059682056, 0.03015562, 0.018225823, -0.018863397, -0.083147705, -0.022590138, 0.028922804, -0.07052214, -0.10032182, 0.0063209934, -0.021780098, 0.019407544, 0.057825517, -0.0524004, 0.035772953, 0.07393603, -0.029942302, -0.018302988, 0.051534317, -0.08292633, 0.10393222, -0.023565266, -0.057621673, 0.10267782, -0.069769666, 0.097608104, -0.023404073, 0.045065388, 0.046056386, 0.0046652406, 0.04489198, 0.004527394, 0.029134952, -0.082542725, 0.09849019, -0.09646603, -0.0011483725, -0.100324094, -0.04241391, 0.08875838, -0.008247388, -0.026832968, 0.033371575, -0.075227186, -0.06675358, -0.046590693, 0.065183684, 0.104425065, -0.07858793, 0.06136929, -0.007338242, 0.016178168, -0.081364304, -0.0894078, -0.10140465, -0.017244611, 0.010060615, -0.088076524, -0.06294599, 0.023404574, 0.07671054, 0.08939836, 0.05515694, 0.06942067, -0.03089485, -0.0024403464, -0.0028474145, 0.072937645, 0.014751426, 0.007787342, -0.04021293, -0.060310308, 0.07736481, -0.03410613, 0.0017567313, -0.08630163, 0.094483174, 0.00035166543, -0.10535327, 0.07409412, 0.030361634, -0.025527773, 0.005844625, -0.021766992, -0.0032181547, 0.016552577, 0.056992143, -0.00057631615, -0.05246495, 0.09372909, 0.08310012, -0.095340185, 0.054989398, -0.025171258, 0.0983118, -0.10468861, -0.039891746, -0.014100156, -0.060976066, 0.0999237, -0.08827561, 0.09494977, -0.020701516, 0.09730777, 0.0015925596, 0.09804885, 0.08816848, 0.034924038, 0.056187518, 0.009426622, 0.018078238, 0.020541554, -0.039791536, -0.0026554975, 0.07804437, -0.020013088, -0.05228155, -0.10314493, -0.089874044, 0.07470504, 0.04969538, 0.08680208, -0.030628908, -0.032679226, 0.023378877, -0.10279195, -0.082736276, -0.057649747, 0.10272063, -0.06874628, 0.017936004, -0.002294634, 0.049318936, -0.065875635, -0.026633259, -0.046712093, 0.060151275, -0.051024158, 0.053177126, 0.0847309, -0.09027333, 0.09010538, -2.5885472e-06, -0.08027301, 0.08909316, -0.0865102, -0.008630141, 0.02946528, 0.021749638, -0.042717688, -0.0033603362, -0.08002448, -0.10365285, 0.06513237, -0.024092663, 0.07674218, -0.102623224, 0.04292497, 0.039129447, -0.03482934, -0.058652155, 0.06625712, -0.015926236, -0.034674153, -0.033650834, 0.01011314, 0.081721336, -0.005972243, -0.08809252, 0.07257012, 0.049344856, 0.09289765, 0.03173526, -0.098079436, 0.097313516, 0.034317374, 0.08101007, -0.07686922, 0.013579618, 0.10037135, -0.020364214, 0.004818191, -0.0647653, -0.08319361, 0.039981555, 0.071571276, -0.053813092, -0.07163269, -0.011011881, -0.018004602, -0.09274886, 0.0210711, 0.023412265, -0.0004507716, -0.0116099985, -0.041136373, -0.10218939, -0.08570626, -0.06363153, -0.0053669126, -0.009194268, -0.0045432015, 0.07776297, -0.060690258, 0.012433772, 0.060831938, -0.004828256, 0.050007775, 0.08315483, -0.060321566, 0.074132524, -0.095869064, 0.035070945, 0.021268446, -0.053415813, 0.03795442, 0.05588877, -0.06690456, -0.030121453, -0.012802476, 0.00061774545, 0.09334648, -0.0019761547, -0.013168077, 0.056759086, 0.041111995, 0.06357817, 0.040554214, -0.04291718, 0.04219014, 0.023249714, -0.085995585, 0.042887226, -0.06053987, 0.05696256, 0.049416106, 0.028850438, 0.022976246, 0.027372416, -0.051771104, 0.045924194, -0.06480007, 0.010359981, -0.05479419, -0.09118065, 0.0323921, -0.073623165, -0.020464174, 0.050962046, -0.08545167, 0.0074125435, -0.005319841, -0.08129362, -0.009655394, 0.019524405, 0.023628572, 0.03477179, 0.025528893, -0.059095725, 0.06459861, -0.039593235, -0.09989844, 0.051965836, 0.04499993, 0.10029276, -0.00024099876, -0.03553742, -0.0039111315, 0.06277051, 0.0430739, -0.019507818, -0.02758273, -0.08774344, 0.048315935, -0.027951257, -0.05922023, 0.03329304, 0.06927387, -0.023954792, 0.07945136, 0.027334403, -0.082762614, -0.052041344, 0.06287155, -0.065020524, 3.5938083e-05, -0.104542054, -0.004262294, 0.04997783, -0.10004898, -0.009801257, -0.077240475, 0.013777718, 0.067447774, 0.024871076, 0.04643876, 0.044098727, 0.024934368, 0.07613303, 0.039012823, -0.07289604, -0.10063793, -0.0073048924, 0.045399524, -0.032294776, 0.02162853, 0.08711049, 0.012871889, -0.053771563, 0.038259253, 0.037147436, -0.103961304, 0.05247832, 0.033836734, 0.00913928, -0.0929215, -0.08917951, 0.026375197, -0.082047746, -0.04065228, -0.07270621, -0.102080904, 0.016039606, -0.021464484, 0.0063298396, 0.09329334, 0.022179388, 0.030874103, 0.029562162, 0.075559326, -0.083772734, -0.10245791, -0.04494355, 0.08268569, 0.025886603, -0.014325497, 0.05561908, -0.07931334, 0.036139876, 0.058894347, -0.08054453, -0.09942898, -0.095264085, 0.03060791, -0.09801499, 0.04957329, 0.096956894, 0.08915513, -0.010694595, -0.10518041, 0.09103405, 0.08713297, 0.07985251, 0.10152631, -0.0113390675, 0.09256253, 0.043812543, 0.030968962, 0.01942672, -0.09211446, -0.05540368, 0.081612214, 0.100444, 0.088719904, -0.035501976, 0.0476646, 0.03204257, -0.054893345, 0.07589741, -0.03888646, -0.03202934, -0.04770436, 0.05008796, 0.0033821252, 0.07972122, 0.039796576, 0.09621766, 0.0035420624, -0.054034326, -0.07657238, -0.016546207, 0.057313174, -0.033216827, -0.0340573, -0.0010152257, 0.033783443, 0.01516778, 0.01617294, 0.046033654, -0.03339579, 0.068227276, 0.0723862, 0.0719603, -0.08148863, 0.059040587, -0.00026883194, -0.030587982, -0.07141858, -0.07847709, 0.05758511, -0.10258533, -0.012327968, -0.083172545, -0.016665243, 0.03533343, -0.061791472, 0.025241274, -0.092927195, -0.030171955, 0.01880009, 0.01695149, 0.014795972, -0.07497978, 0.027693622, -0.031386625, 0.03806192, -0.077866964, 0.06004997, -0.02386633, 0.0050401147, 0.015095402, -0.07487648, 0.06793183, 0.010114107, 0.020112835, 0.056295548, -0.098682605, -0.0701014, 0.104533635, -0.10328778, -0.09161132, -0.015354294, 0.042124357, -0.06360609, -0.0736629, 0.013908112, -0.0021019632, -0.05475124, -0.101331025, -0.04104149, -0.03593224, -0.062013634, 0.055014353, -0.10020453, -0.087399274, -0.039617237, 0.053877767, 0.092812724, 0.07523439, 0.061710007, -0.04832214, 0.07394359, -0.07284571, -0.064768046, 0.07654389, 0.009409079, 0.09657116, -0.048385285, 0.06979817, 0.023702761, 0.028678928, 0.07978959, -0.008752481, -0.0025713698, 0.047835447, 0.04403712, -0.049098432, 0.003947924, 0.014451996, 0.0019163793, -0.010836387, 0.060585823, -0.03074709, -0.030672072, -0.033049703, -0.055032562, 0.09056379, 0.073502935, 0.08387233, 