// *****************************************************************************
// 	THIS CODE WAS AUTOMATICALLY GENERATED ON 2024-02-06 21:39:53
// *****************************************************************************

#include "dummy.h"

static float32_t tensor_W_irweight[3600] = {-0.11446911, 0.054115433, -0.02855838, -0.09384261, -0.08565231, -0.09106167, -0.12206568, 0.041021008, 0.071202174, -0.05303477, -0.044463888, -0.074797764, 0.04821267, -0.105359055, 0.097752176, -0.08997157, -0.03694953, -0.08885435, 0.10262446, 0.105591044, 0.071209915, -0.054833893, -0.12860814, 0.1106807, -0.013964937, -0.0700067, 0.10998119, -0.055281874, 0.017774018, -0.11414306, -0.07582684, 0.08122843, -0.067793705, 0.120283626, -0.029305173, -0.081374064, 0.04420243, 0.028238764, 0.048615005, -0.12191634, 0.07250252, 0.10706947, 0.031918507, 0.029866595, 0.011240487, -0.12608553, 0.095801376, 0.03695653, 0.030439945, 0.034836225, -0.11145999, 0.0921459, -0.01755002, -0.037712082, -0.015828695, -0.047239475, 0.12527488, 0.086489834, 0.051143974, 0.0013568772, 0.11385047, -0.103123985, 0.105106324, -0.017629722, -0.046973187, 0.07451784, -0.03452792, -0.04118837, -0.11222844, 0.10471399, 0.016818047, -0.057023898, 0.102076955, -0.106808566, 0.10961278, 0.05377638, -0.054547504, -0.10920721, 0.11569114, -0.08935044, 0.06771506, -0.099248916, -0.07616789, 0.04449211, 0.051252566, 0.002892892, -0.11963104, -0.055211235, 0.072693035, 0.00083531503, 0.07252201, -0.04425489, -0.0413148, -0.10173351, -0.10186845, 0.037526555, 0.03081915, -0.09208563, 0.04919942, -0.03000298, 0.023389392, -0.06633134, -0.09461046, 0.09526245, 0.0017017176, -0.107387036, 0.07157227, -0.094488606, 0.013477125, 0.04402729, -0.011951375, 0.12428451, 0.112859905, -0.08954449, -0.08582062, -0.041754533, -0.1221412, -0.092575766, -0.0027420716, 0.011861406, -0.05876806, -0.11278112, 0.0008634939, -0.09424561, -0.007832928, -0.06140242, -0.09793919, -0.033807445, 0.023992766, -0.10809936, 0.010747519, -0.007847625, 0.06930425, 0.033142295, -0.10722448, -0.06349312, 0.099070795, 0.12659311, -0.03700081, 0.02667377, -0.031082548, -0.0019190839, 0.07319123, -0.09377178, 0.08769427, -0.052770853, 0.040601093, 0.035602316, -0.02743009, 0.111122124, 0.024053587, -0.12436672, -0.028759588, 0.126261, -0.12724458, -0.04364265, 0.124306366, 0.030545272, -0.08787844, -0.057244573, -0.0126308985, 0.08840165, 0.049334098, -0.061059363, 0.040639814, 0.07780194, 0.07032228, 0.010713861, -0.058176722, -0.052640438, -0.12814072, 0.05427661, 0.011275761, -0.11261845, 0.0362745, 0.10988089, 0.07310091, -0.054662526, -0.030449687, 0.085133724, 0.032147817, -0.023759779, 0.11368898, -0.051023442, 0.06679216, 0.045755096, -0.054967523, 0.12777244, -0.021576481, -0.07644651, 0.022636166, 0.118304156, -0.079550765, -0.07374862, -0.08796836, 0.067258395, 0.04705258, 0.05302554, 0.023901658, -0.08879901, -0.117491074, -0.037240565, -0.052107625, -0.026083708, -0.112987466, -0.0323969, 0.058224507, -0.07591002, 0.06105487, -0.04810705, -0.10353837, 0.04769902, 0.026128262, 0.03292136, 0.10412508, -0.006748066, -0.081330925, -0.02279071, -0.039562818, 0.11591052, 0.05309347, -0.10843858, 0.024747161, 0.04776376, 0.09593526, -0.12719114, -0.036351696, -0.007443841, -0.047012385, 0.052767266, -0.069682516, 0.083108775, 0.11648269, -0.07031938, -0.057712827, 0.12293275, 0.11756515, -0.119847775, 0.08201416, 0.12288799, -0.024063112, 0.098608084, -0.10945444, 0.034871746, -0.0030529774, -0.002582325, 0.047281645, -0.05761427, -0.0899255, -0.07092309, -0.07535186, 0.11347162, 0.01952072, -0.11966056, 0.00394268, 0.038622897, -0.021258743, 0.11315003, 0.03368542, -0.0040921466, -0.042543277, 0.006715393, -0.038097333, -0.05309301, -0.034712646, -0.11663294, 0.11078589, 0.029444143, -0.120284446, -0.028163984, -0.037876196, 0.11894993, -0.021381076, 0.09170489, 0.013257774, -0.025256857, 0.0150103085, -0.029156137, -0.05667318, -0.0038421538, 0.04802922, -0.01728679, -0.038017415, -0.062382124, -0.079461224, -0.1015945, -0.07391436, -0.11577996, -0.08619343, -0.020690473, -0.083170734, -0.027597208, -0.0039481283, 0.088333905, -0.10286419, -0.09365135, 0.04362703, -0.10606924, 0.04312274, 0.10383632, 0.07893437, -0.05378101, -0.08972646, 0.05450238, -0.058685325, -0.005113802, -0.031210637, 0.03830479, -0.017270986, 0.034008082, 0.12001974, -0.08633894, 0.0431712, 0.003800632, -0.076503865, -0.08339153, 0.06647776, 0.10426331, -0.07810781, 0.031423956, -0.055584762, -0.099523254, 0.11485523, 0.019821916, 0.042026717, 0.040550817, -0.033665843, 0.03298638, -0.07705112, 0.1095424, 0.079014525, 0.02999684, 0.107641876, 0.07991264, -0.06540449, -0.042637974, -0.101316296, 0.06918796, 0.1265134, 0.083624, 0.06496391, -0.12250704, -0.08062071, -0.077431984, 0.11170179, -0.014816181, 0.1260548, 0.12159872, -0.06359355, -0.010947433, -0.03765603, 0.06105501, 0.032799516, 0.044644717, 0.030744525, -0.12594487, 0.02818593, 0.08502698, -0.039656326, -0.017306937, 0.103707634, -0.029922845, 0.04835204, -0.12121277, 0.118761234, 0.08637002, 0.057874326, 0.052778378, -0.10669913, 0.07045721, -0.036767896, 0.012916242, 0.06729241, 0.123875484, 0.07477503, -0.01896961, -0.089867905, 0.019957177, 0.07167783, 0.0037113708, -0.06364006, 0.022974681, -0.10482826, -0.12815571, 0.09366892, 0.03432408, 0.11624718, 0.121179305, 0.11624124, -0.106649205, 0.05713161, 0.004114231, -0.06591161, 0.042834546, -0.08701264, -0.012908085, 0.029036758, -0.033017915, 0.018310662, 0.096800454, -0.009931303, -0.11291557, -0.036218155, 0.05424078, -0.07983977, 0.043322958, 0.04289971, 0.041337237, -0.062880136, 0.10803435, 0.12125793, -0.12177152, -0.023174241, -0.106768936, 0.012093946, -0.021213958, 0.020471152, 0.07920683, -0.12025785, 0.084273174, 0.070240736, 0.114300236, 0.0007303101, -0.116189376, 0.015370139, 0.004609569, 0.11049628, -0.05778448, -0.020655092, 0.021031557, -0.045069937, -0.036098007, 0.109812416, 0.089009136, -0.095884465, -0.035247844, 0.113242924, 0.12254914, -0.07596745, -0.08947242, 0.016810691, 0.081942916, -0.10857794, 0.10125663, -0.009987599, 0.09797225, 0.11919861, 0.03760549, -0.089776814, -0.10584955, -0.025129553, -0.08420599, -0.008745114, 0.11161797, -0.09987301, 0.00959128, -0.046130393, -0.025475254, -0.027071552, -0.014546566, 0.08684736, -0.09015664, -0.052677434, 0.044094346, -0.09485126, 0.05782285, -0.03681967, 0.010416699, -0.07891606, 0.019929137, 0.10508987, -0.082939, 0.04053883, -0.05903817, 0.10093517, -0.060668956, 0.098193094, 0.07132664, -0.124078676, -0.12821913, 0.02867856, 0.03477094, -0.043422487, 0.0047589582, -0.054701693, 0.08706714, -0.11899688, 0.12633738, -0.09583292, -0.109132156, 0.019234054, 0.08546463, 0.11934266, 0.0016783559, -0.040192895, -0.06752896, 0.11522392, 0.054165017, -0.010424871, 0.058189325, 0.07946372, 0.08504482, -0.11855865, -0.08720845, -0.10148888, 0.024821617, -0.031602878, 0.071742505, -0.07616013, -0.088456675, -0.12346731, 0.12175938, 0.10435915, 0.049720597, 0.119047195, -0.083065316, -0.08332445, -0.012069493, 0.09747602, 0.09153098, -0.09903343, 0.05727534, 0.087100334, -0.014708436, 0.03805084, -0.09955545, 0.1278324, 0.028255185, -0.116201684, -0.11315692, -0.08915516, -0.11923439, -0.07708934, 0.048893902, 0.093927056, -0.07748743, -0.11186886, -0.10733102, 0.053229716, -0.1257554, 0.110050544, -0.11416475, 0.0035406512, 0.05608375, -0.03332411, -0.019310188, -0.10532686, 0.09071038, -0.049338516, -0.046252694, 0.042435735, 0.019471165, -0.12890576, 0.11667021, -0.110096164, 0.01594658, -0.010981214, 0.065541044, 0.060248088, -0.12242944, -0.077284716, 0.066427544, -0.11263533, -0.10302661, 0.016172519, 0.080688335, -0.07075191, 0.06822626, -0.092294134, 0.030302327, -0.078255415, -0.0772412, 0.049149513, -0.120473705, 0.018530322, 0.09421189, -0.07341836, 0.0014520634, -0.09811385, -0.11586052, -0.110982634, 0.039449055, -0.03592258, 0.09680093, 0.08926849, 0.08913438, -0.09420072, 0.115649715, -0.04442104, 0.10112932, -0.06982462, 0.09080459, 0.07955095, -0.1205666, -0.02327312, 0.03025619, 0.066479504, -0.075332545, -0.06753094, 0.025642928, 0.06664233, -0.0425067, 0.09223121, 0.0034524058, 0.026659688, 0.035183482, -0.036755, 0.10508449, -0.08355134, -0.07901532, 0.035183497, -0.062928736, -0.026028365, -0.029057981, -0.10348265, 0.12734951, -0.020724421, 0.08194342, -0.114469066, 0.012114507, 0.12081973, -0.106566526, 0.0024009093, -0.03242522, 0.11207599, 0.04211387, -0.12410914, 0.09802984, 0.1053834, 0.02030685, 0.10732885, 0.04691087, 0.07197163, -0.06358641, 0.000710134, -0.05150425, -0.02266265, -0.06685366, -0.051168308, 0.11298396, -0.096641675, 0.11595263, -0.1015627, 0.0662656, 0.11504338, 0.029788645, 0.09860325, -0.04332682, -0.12610401, 0.042819697, -0.06118265, -0.07834408, -0.12661608, -0.023766458, 0.1253041, -0.07691659, -0.11371875, -0.016878698, -0.013528774, -0.0019636068, -0.09461322, -0.030999197, -0.10919141, 0.059403062, -0.11963798, 0.019287426, 0.04591321, -0.030461075, -0.03969437, 0.086900376, -0.118270144, 0.048903536, 0.016197342, -0.09419795, -0.099667594, -0.013440158, -0.022477034, -0.053662617, 0.12897721, 0.116587706, 0.114642404, -0.06991841, 0.0024715487, 0.11239913, 0.09495081, -0.11401562, 0.09987925, 0.026850477, 0.12098881, -0.10283323, 0.07609528, -0.021112446, 0.09513595, 0.062101904, -0.09599404, -0.06188951, -0.02318052, 0.055371784, 0.020356605, 0.061565492, -0.064791895, -0.12651375, 0.057463434, -0.081175596, -0.07764433, -0.115798794, 0.08002285, -0.10048978, -0.074889965, 0.027291795, -0.08423376, 0.049112838, 0.02693135, 0.01749837, 0.00984575, 0.015005753, 0.10100034, 0.07450071, -0.11146629, -0.06500969, 0.07719938, -0.06114952, -0.0309692, 0.03364408, -0.09268177, -0.054872043, 0.033922285, 0.07316495, 0.056556433, -0.07843268, -0.025091877, -0.02172073, 0.023644939, -0.04260276, -0.002179003, -0.09753929, 0.05543585, 0.05249514, 0.04470412, 0.08017922, 0.12861426, 0.12864646, -0.09706343, -0.076694824, 0.018850984, -0.11649729, -0.042653132, 0.102213465, -0.090025656, -0.026778113, -0.09541693, 0.054189935, 0.063426495, 0.009077258, -0.064818196, 0.03960848, 0.09365626, 0.043045927, 0.017273633, -0.08546441, 0.056342315, -0.021202786, 0.056661192, -0.04281391, 0.03558814, 0.075807154, -0.115308166, -0.08660994, 0.029897776, -0.10416818, 0.040359598, -0.12568356, -0.023941625, 0.04995874, -0.11486683, 0.034767415, 0.087800816, 0.009881609, -0.125304, 0.03878834, -0.08801745, -0.030620482, 0.046612646, -0.08156742, 0.040700898, 0.119547635, 0.048854165, -0.114318535, -0.031965002, -0.021339124, 0.015639214, 0.05172868, 0.015910322, 0.02461807, -0.027746858, 0.06623796, -0.1049528, 0.11346108, 0.12021941, 0.072424896, 0.069072366, 0.050652348, 0.026661659, -0.12712005, 0.08103458, -0.023623994, -0.01888084, -0.06203719, -0.11358838, 0.07032546, -0.10836911, -0.049601898, 0.124758184, 0.013435403, -0.06775504, -0.05007898, -0.07640554, -0.10355886, 0.05211292, -0.06064104, 0.04837214, 0.08328096, -0.09423079, 0.07768213, 0.028338475, -0.020477185, -0.10722934, 0.086449176, 0.07632756, -0.031055862, 0.014105015, 0.028905421, -0.038464583, 0.006214946, -0.059222464, -0.056886237, 0.10717541, -0.071943395, -0.113774754, 0.031806193, 0.04787782, 0.109681696, -0.07919086, -0.085292116, -0.1186093, -0.034583263, -0.115606464, 0.05488037, -0.117140606, -0.0048237033, 0.097480975, -0.087585635, -0.0009818111, 0.037065, 0.048918433, 0.10922805, 0.09012978, 0.04015853, -0.11131736, -0.029310083, -0.020430814, -0.108412035, 0.12385255, 0.08370358, -0.008805935, 0.018178264, -0.120999545, -0.00055364997, 0.11540906, -0.113479406, -0.06522458, -0.053047698, 0.087165385, -0.010948973, 0.03878103, 0.055725258, -0.097262606, 0.11444992, -0.11180413, -0.05231411, -0.06911872, 0.123124056, 0.1030558, -0.119041376, -0.11710333, -0.08520786, 0.0142787825, -0.09562801, 0.1153744, -0.081919804, 0.104068525, 0.12285781, 0.0063193045, 0.108159855, 0.0647619, 0.123932056, -0.0152871255, -0.049573254, -0.030566864, 0.10581235, -0.116341576, -0.124308385, -0.12520137, -0.040908046, -0.08355776, 0.049730618, 0.021977695, 0.015752822, -0.049017884, -0.02576283, -0.07674306, -0.00030310315, 0.09373256, -0.033226416, 0.051575523, 0.1062212, 0.03476009, -0.012545424, -0.06864427, 0.10665894, -0.043384966, -0.09479892, 0.044362374, 0.08007718, 0.06815626, 0.006745357, -0.04316541, 0.03705555, 0.116768785, 0.089778356, -0.01459232, 0.08030565, -0.0047723628, 0.042398028, -0.07639414, -0.10274814, -0.041929606, -0.093153566, 0.04801711, 0.08251874, -0.015598555, 0.015979638, 0.09187088, -0.1197088, 0.10746751, 0.081713565, -0.12210512, 0.04788205, 0.027528446, -0.07178697, 0.12633577, -0.013635933, -0.002016717, 0.03268183, -0.120107956, 0.0023087857, -0.062741674, 0.07640665, -0.07052543, 0.020210955, -0.047544904, 0.10806473, 0.008328988, -0.049303565, -0.104184486, 0.034668785, -0.09495336, -0.05160755, 0.09396598, -0.114919975, -0.0054879445, -0.0052772113, 0.090791605, 0.081696145, -0.052451465, 0.055448547, -0.10080084, 0.10600977, -0.06240501, 0.095374584, 0.091153696, -0.06197323, 0.07081022, -0.01559914, -0.09605347, 0.02833064, 0.069640055, 0.086154364, 0.03837046, -0.004717898, 0.08004636, 0.026526751, 0.009922084, -0.026535276, -0.031430896, 0.027739348, 0.12513214, -0.047313962, 0.009639142, -0.09036805, 0.062371474, -0.06041727, 0.12050044, -0.056151386, -0.087986946, -0.114405505, 0.07657583, -0.07449532, -0.04093684, -0.08023389, 0.06957846, -0.010029382, -0.0025945907, 0.095819764, 0.04636967, 0.07236642, -0.10702181, -0.117155485, -0.1035917, 0.07121622, -0.12713619, 0.0067351074, -0.0067310445, -0.08211989, 0.057787437, 0.014746188, -0.027857127, -0.064234585, -0.05788927, -0.082416296, 0.12651913, -0.07220884, 0.020756494, -0.12477263, -0.03474758, 0.022177055, 0.079306886, 0.0730605, -0.025913112, 0.013681625, 0.049014356, -0.012345725, -0.11279789, 0.008225368, -0.08390518, -0.11771115, -0.097473435, 0.11009361, 0.04303474, 0.106246725, -0.1279119, -0.040986225, 0.11778513, 0.08350186, 0.026053205, 0.05075081, -0.042601284, 0.10415006, 0.060313895, 0.010493294, -0.030954443, 0.11757138, -0.028158369, 0.09998674, 0.06496557, -0.06745788, -0.008184124, 0.11383169, -0.077173695, 0.093370266, -0.037491634, 0.022434559, -0.032987673, -0.024059974, 0.11933371, -0.08556792, 0.03869232, 0.014106016, -0.09589901, 0.10197772, -0.0661418, -0.07602824, -0.114623055, -0.118820034, -0.07426338, -0.053305604, -0.038392067, -0.06819209, 0.066197544, -0.10336715, -0.09413285, -0.106265426, 0.06754229, 0.02733535, 0.0160265, -0.06735934, 0.06441899, 0.11834709, -0.024388116, -0.05504173, 0.06528837, -0.051700164, -0.09344497, 0.044950515, -0.027535433, -0.052026182, -0.06266387, -0.036610413, 0.089774445, 0.11830394, -0.045089837, 0.0010959883, -0.083663166, 0.122742265, 0.051466223, -0.07889129, 0.117265865, 0.12607299, -0.016783973, -0.11039163, -0.083263226, 0.04899418, -0.07399623, -0.00827717, 0.03811308, 0.114766814, -0.07806081, -0.005127006, -0.10534204, 0.06275431, 0.052482676, 0.033027485, 0.08981754, 0.022399345, -0.029296923, -0.07880247, 0.08688976, 0.0589494, 0.061099887, 0.1270879, 0.03100449, 0.11147341, 0.09219548, -0.10689954, -0.1091149, 0.062086962, 0.0691174, -0.05578877, -0.10317937, -0.045395896, -0.07904984, 0.0026618598, 0.024160162, 0.04837748, -0.082478456, -0.0961125, 0.11204901, -0.029217713, 0.004106444, -0.08064511, -0.03064466, 0.005375306, -0.074251086, -0.1277193, 0.107554264, 0.08874573, 0.077326134, -0.026005296, -0.027877718, -0.05535887, -0.09182959, -0.11148508, 0.026044125, -0.068286225, 0.010400786, 0.02893871, -0.11750704, 0.11023401, -0.111468196, 0.11934392, -0.1079309, 0.020527786, -0.0072436035, 0.03748662, 0.03296428, -0.0069770208, 0.11592987, -0.06613751, -0.083271354, 0.06450138, 0.111234546, 0.091280416, -0.11409035, -0.0944079, 0.02321467, -0.04378062, 0.034332223, 0.008021653, 0.07981326, 0.005909642, 0.06420144, -0.05898663, -0.0068660136, 0.048417877, -0.12664151, 0.07384973, 0.0033543261, -0.0037063383, -0.12868632, -0.010539141, 0.031642355, 0.07539758, 0.088624224, -0.09577104, 0.024878621, 0.032771662, -0.054608583, 0.07385846, -0.04915242, 0.09355406, 0.005747802, 0.10046099, -0.0051740534, 0.05867249, 0.09302115, -0.07445585, 0.06413455, -0.050018854, -0.09267338, -0.03417086, 0.053204108, -0.12490004, -0.10029219, 0.03651044, -0.109689824, -0.03780999, 0.0971993, 0.032180782, 0.07141643, -0.06383148, 0.0829128, -0.06806866, -0.06991787, 0.027158335, 0.013124236, -0.12759699, -0.01731266, -0.10746147, -0.06394091, 0.0448878, 0.046123635, -0.056666162, 0.07472792, 0.09016984, 0.1078181, 0.003629112, -0.00776732, -0.026338795, -0.12533103, -0.025175922, 0.0356435, -0.09004957, -0.069263466, 0.07050118, -0.092258565, 0.09662856, 0.0023961847, -0.12782419, -0.115129076, 0.01996124, -0.015777508, -0.06766535, -0.11162596, 0.051311925, -0.022708867, 0.025523964, 0.097667396, 0.066876024, -0.06700085, -0.107061885, 0.1216022, 0.058636278, 0.08444477, 0.035665154, 0.046653293, 0.118589066, -0.06744739, 0.080672085, -0.087093346, 0.019788735, -0.032747928, 0.02307687, 0.049792793, -0.07362857, -0.07510591, -0.027224712, 0.085002914, 0.09410246, 0.09603227, -0.00045444697, -0.0843372, 0.12362907, 0.014985007, 0.087957196, -0.110713325, -0.049491074, 0.119649105, -0.0090507725, 0.040506095, 0.014889282, 0.09770231, -0.02644397, 0.12402221, 0.051266186, 0.045545593, -0.008900306, -0.06251767, 0.10852589, 0.079613045, 0.11098515, 0.12536186, 0.077210985, 0.09979261, 0.06774658, 0.09770902, -0.024076086, 0.12137278, -0.013512214, -0.100835055, 0.08345985, 0.024685493, -0.045129374, -0.097990654, -0.11422824, -0.08192945, -0.09697785, 0.12863658, 0.06575118, -0.014330877, -0.026694316, 0.013001841, -0.106772244, -0.06390801, -0.051942248, 0.030942453, 0.0073887454, -0.013866596, 0.10844249, -0.12149492, -0.1136534, -0.09392292, -0.092838995, -0.10438974, 0.098380186, 0.018192407, -0.106642835, -0.0060507823, 0.12593895, -0.04592734, 0.023642754, -0.08488918, -0.10618086, 0.049062435, -0.10397494, 0.06840736, -0.021815255, -0.06296721, -0.05297803, 0.030456765, 0.06353714, 0.0605316, -0.06463424, 0.07026162, -0.08514681, -0.00895591, 0.09014751, 0.06838296, -0.10612942, -0.09992205, -0.10549193, 0.00086626405, -0.01726266, -0.0030676748, 0.05751396, 0.050052464, 0.0466012, 0.08701218, 0.068331674, -0.10303353, 0.096035264, -0.12820086, 0.0035728314, -0.1010501, 0.0919928, 0.07585731, -0.088139534, -0.07446645, 0.069657765, -0.007647741, -0.1049007, -0.017682249, -0.11610447, -0.022173824, 0.068352275, -0.090766795, -0.027470471, 0.08095049, 0.07385672, 0.06838841, 0.022544011, 0.09326297, 0.082724385, -0.11840051, 0.05111795, -0.029791446, 0.075911, 0.10862518, -0.051902924, -0.00440593, 0.0858635, 0.08250675, -0.06699774, 0.014813334, -0.016288482, 0.020062273, 0.0068812496, -0.0997408, -0.10095699, -0.048046783, -0.009762969, -0.028765328, -0.03690211, 0.11214155, 0.033495415, -0.060135636, 0.109595284, 0.074855216, -0.04152356, 0.06795516, -0.10623725, 0.12718295, 0.008172736, -0.012553564, 0.039456304, 0.0021027464, 0.040722597, 0.11589706, -0.02433696, -0.067556866, -0.0053793998, -0.027592637, -0.077066384, -0.099574655, 0.08386171, 0.08054287, 0.09544188, -0.06127267, -0.010149331, 0.02133383, 0.097445704, 0.060784146, 0.003696304, -0.087215155, 0.06373905, 0.02896321, -0.07518979, -0.015597262, -0.02089068, 0.110873654, -0.0062262267, 0.027530616, -0.033945844, 0.05949163, -0.04353514, -0.09585667, -0.111716636, -0.022355346, -0.051420283, 0.043326374, -0.08836347, -0.12182295, -0.09591795, 0.023758223, -0.07897483, 0.103781335, -0.10380865, -0.07367903, -0.102686055, -0.037215773, 0.0054840203, 0.019200118, 0.0970136, 0.047097337, 0.09311304, 0.10137861, 0.02505291, -0.055511676, 0.05054688, 0.12851736, -0.10110188, 0.12639534, -0.017820435, 0.1208695, -0.1056096, 0.09158286, 0.004708618, 0.06716807, -0.06332027, 0.0068843123, 0.069036186, 0.095757976, 0.12757786, 0.03315396, -0.031629793, -0.060011808, 0.005617096, -0.02690034, -0.013760837, -0.0551034, -0.04856805, -0.11656307, 0.12084492, 0.028383136, -0.0015690416, -0.00952655, -0.01736768, -0.107645094, -0.07558081, 0.108598545, 0.08597354, -0.053932723, -0.1254067, 0.011618031, 0.02113724, 0.0043344907, 0.06687356, 0.032141045, 0.057520546, -0.011979462, -0.11003369, 0.050604083, 0.1109322, 0.08034011, 0.09610974, 0.014139966, -0.01566707, -0.041681677, -0.101063795, 0.10035698, -0.121963814, -0.032515682, 0.055266086, -0.06516275, 0.039211314, 0.039234597, 0.024540044, 0.023600185, -0.0318863, 0.04047467, -0.046840172, 0.11478285, 0.12652315, -0.057840023, -0.108856335, -0.069798, -0.07848699, -0.08383392, -0.00048681183, -0.07985773, 0.12618105, 0.035486232, 0.003523553, 0.010194854, 0.021557828, 0.004567601, -0.09591635, 0.10642097, 0.12634015, -0.06295427, -0.06305035, 0.04714306, -0.11624562, 0.12770559, -0.008755534, 0.09025013, 0.102447756, 0.02456516, 0.12425242, -0.015980253, 0.00879407, -0.085321225, -0.10637385, 0.0051991385, -0.09944266, 0.09346846, 0.11406003, 0.051114995, 0.006695125, 0.10064651, -0.03211938, 0.08201387, 0.040958818, -0.114906564, -0.06767548, 0.09202033, 0.026014283, 0.040347993, -0.11180437, -0.04444674, 0.07716649, 0.09169085, 0.054489497, 0.12232243, 0.03590394, -0.006984392, 0.022191552, 0.05091996, -0.0017277726, -0.09066361, -0.116920374, -0.08920625, 0.05849657, -0.09778161, 0.09213859, -0.080819905, -0.016465142, 0.0238457, -0.022140888, 0.124295734, 0.047303405, 0.071137115, -0.0028476461, -0.0147018805, -0.09402523, 0.11969084, -0.06863299, 0.028436324, -0.07807917, -0.09921223, -0.054569248, 0.08903936, -0.049143724, 0.06758154, -0.03293036, 0.058742546, 0.08751628, 0.03399312, 0.11329999, 0.0009363648, 0.11927738, -0.049464848, 0.08886273, 0.095784046, -0.09749065, 0.03833143, -0.108137354, -0.10281233, 0.049353488, -0.021031512, -0.036013227, -0.10650857, 0.068284534, 0.056886375, 0.002907451, 0.102424026, -0.03268894, 0.11216971, 0.11694306, -0.08461146, -0.033866927, -0.076252855, 0.07369828, 0.082668684, -0.00498365, -0.0818497, 0.09419535, 0.12103365, 0.00062733656, 0.12083043, -0.020723406, -0.049380574, -0.058139756, 0.08683283, -0.117590606, -0.015056308, 0.03754876, -0.023706438, -0.059802998, -0.12678641, 0.01835914, 0.041344546, 0.042019315, 0.088792466, 0.0029345988, 0.077092454, 0.12773283, -0.03224128, 0.04307649, 0.06815624, 0.12294541, -0.08661427, 0.06623901, -0.043968163, 0.09792468, 0.0110934675, 0.071332335, 0.007753854, 0.116294794, 0.039636534, -0.0033158823, 0.028358774, -0.06696082, -0.11705193, -0.0006134857, 0.093263246, -0.010287978, -0.12262909, -0.120188534, -0.06990679, -0.084999114, -0.023158636, 0.06996958, 0.08462485, -0.09837263, -0.0017170921, 0.06523725, -0.07542833, 0.062682286, -0.096798666, -0.06928595, 0.07953394, 0.10003892, -0.11420552, -0.102183126, 0.09781741, 0.09925513, 0.087509595, -0.031523265, 0.020639978, -0.11620145, -0.11884811, -0.08390466, -0.026237298, 0.002773236, 0.09148649, 0.02745939, 0.060896754, -0.12356536, 0.00637006, 0.079243705, 0.09275435, -0.0802773, -0.12381968, 0.07171268, 0.10780077, 0.09515357, 0.10843883, 0.11236384, -0.049260564, -0.028202968, -0.04203375, -0.074407674, -0.08204472, -0.047724087, 0.104786135, 0.047183197, 0.090382375, 0.0013795618, -0.087631084, 0.11182078, 0.0055596, -0.10577018, -0.106067516, -0.01840888, -0.10746781, -0.068337485, -0.042954817, 0.016215565, -0.034109686, -0.049540445, -0.003561135, 0.08901104, 0.030045794, 0.09172965, -0.12696236, 0.08436733, -0.11331931, 0.1202912, -0.08815383, 0.09367331, -0.060575925, 0.034106407, 0.047315378, 0.025948169, 0.09328384, 0.036158428, 0.10103348, -0.1264185, -0.089067265, -0.08044142, -0.12358686, -0.113889635, -0.12832189, 0.02388362, -0.12561764, -0.041972175, 0.032015774, 0.116854124, 0.09337997, 0.03629335, 0.027802307, 0.050993156, -0.10218133, -0.10629311, -0.0065799006, 0.114015065, -0.011085665, -0.039842684, 0.025335314, 0.024140723, -0.11072953, -0.0014118344, 0.020960795, -0.07054818, 0.108319126, -0.083975874, -0.04727135, 0.01077559, -0.021123696, 0.07733434, 0.007982024, -0.04462979, 0.047110695, -0.090649, 0.090016805, -0.02191038, -0.050309997, -0.017888272, -0.03801406, 0.12719499, 0.06871602, 0.052838538, 0.05115887, -0.007561327, -0.041481256, 0.1234769, -0.024839591, 0.011784703, -0.11127117, 0.07585821, -0.108475626, -0.12860999, 0.072625205, -0.077306494, -0.0046233274, 0.0669327, -0.11833247, -0.03772938, 0.0837981, -0.121520355, 0.12798168, -0.0986858, 0.07144988, 0.022151785, -0.10860762, -0.046909764, -0.07425712, 0.09137676, -0.11462441, -0.08141643, 0.05648984, 0.11564388, 0.039352886, -0.10830769, -0.015905844, 0.070049144, 0.109875545, 0.053614587, -0.09779584, 0.040458307, -0.09704958, 0.007996553, -0.059299733, 0.047607124, 0.07711237, -0.0031393452, -0.10346492, -0.05601154, -0.07099556, -0.065314844, -0.043661583, -0.07101486, -0.044804525, 0.003857913, -0.11211694, 0.101993985, 0.001014376, 0.031074222, -0.027952513, 0.057673488, 0.11603919, 0.029752556, -0.11810358, -0.018553345, -0.07465816, -0.06147078, -0.052178096, -0.010176802, 0.102997825, -0.0672216, -0.076504484, -0.0307587, -0.07411738, 0.04187559, 0.09263476, -0.0977334, 0.008772663, -0.09561104, 0.03201613, -0.0843148, -0.0330191, 0.08856711, 0.08574915, -0.06739989, 0.081642725, -0.11144048, 0.053565323, -0.040819783, 0.090726726, 0.012598534, 0.11034254, -0.083817296, 0.048321214, 0.092607915, -0.07773603, 0.02245932, -0.09994289, -0.07323202, -0.09927322, -0.007840822, 0.032269675, -0.12065714, -0.04451535, -0.08281231, 0.08441562, -0.052612968, -0.061842233, 0.056558188, 0.087888665, 0.02726925, 0.057306256, -0.12037051, -0.1027416, 0.112861335, 0.014196816, 0.057466373, 0.013702909, 0.11204539, -0.08510712, 0.063722625, 0.06795003, -0.08129154, -0.012037235, 0.09400181, -0.096495286, -0.12084197, -0.10479526, -0.0074398397, -0.009030905, -0.092669785, 0.07971556, 0.04265324, 0.012686533, 0.029398343, -0.012582267, -0.007366384, -0.08233485, 0.032205082, -0.038893607, -0.003112013, -0.0778541, 0.037599318, 0.023013324, -0.104573496, -0.03542099, 0.0492429, -0.10227927, 0.06190847, 0.037005424, -0.11430421, 0.06337524, -0.012484265, 0.064241506, 0.030678118, 0.08415598, 0.0021319257, 0.058920283, -0.08144287, -0.03163481, -0.0018628186, 0.04122649, 0.1276648, -0.024089705, -0.10568706, -0.00036849463, 0.06229063, -0.099028505, 0.087442525, 0.0198888, 0.060534418, 0.08467882, 0.12770951, 0.0795598, -0.10747502, -0.05563061, 0.002421424, -0.023796914, -0.08598471, -0.052095313, -0.123939656, -0.12725122, 0.09350926, 0.11650356, 0.004415687, 0.059564594, -0.00080556644, 0.058852166, -0.01270577, 0.09752799, 0.007357658, -0.08231992, -0.084995925, -0.011212723, -0.034225557, 0.10232245, 0.12694862, -0.012039743, 0.11917487, 0.0555166, 0.10761101, 0.05504869, -0.10740184, -0.11713274, 0.11601096, 0.059746224, -0.028329518, 0.09485884, -0.0059304335, -0.10050862, 0.008400259, -0.028678775, 0.008728924, -0.030087577, -0.10376291, 0.03434201, 0.06512081, 0.007460462, 0.079125956, 0.071178205, 0.015291958, -0.059150454, 0.090695634, 0.10466599, 0.045491714, -0.083722755, 0.081831016, -0.015906353, -0.077271156, -0.11016932, 0.08138833, -0.017734928, -0.026822513, 0.06824387, -0.0293362, -0.04276985, -0.094460316, 0.037088577, -0.11525616, 0.10474633, -0.034468576, 0.10244169, 0.11799182, -0.037472554, -0.09038119, -0.02957205, 0.01251152, 0.006446748, 0.0830826, 0.07806925, 0.018655349, 0.1192012, 0.06461838, 0.021351697, 0.061448283, 0.10439576, 0.0424894, 0.07304792, 0.04958706, -0.12374273, -0.020696305, 0.060923595, 0.06922167, 0.037590824, -0.07806344, -0.04076994, 0.041696083, -0.030867659, 0.06180405, 0.0451409, -0.018022519, -0.100509994, 0.07296252, 0.049543336, 0.019488156, 0.11263365, -0.117033616, -0.104674056, -0.054850005, 0.0023029223, -0.09524706, -0.01669656, -0.08272, 0.11191333, 0.006432174, 0.0060837013, 0.016474668, -0.09640118, -0.05675253, -0.052830964, 0.06188123, -0.094614, 0.12440709, -0.09414469, -0.113893256, 0.05432752, -0.036478523, 0.091573596, -0.07876778, 0.083229266, -0.11338276, -0.019963717, 0.08408554, 0.05027991, 0.06191481, 0.015363044, 0.040680323, 0.059678372, 0.083444536, 0.052565165, -0.069224745, 0.12708285, 0.04689673, -0.10072379, -0.11561964, 0.030508691, 0.06031565, 0.10858449, -0.06076448, -0.079467796, -0.09368816, 0.034765277, -0.09904671, -0.12003025, -0.107470065, -0.00814291, 0.08425777, -0.11916339, -0.07345471, -0.023505399, 0.097646385, -0.027540203, -0.09919896, -0.067025766, -0.107370205, 0.09086922, -0.02129771, 0.06529728, -0.049018204, -0.08097602, -0.10620604, -0.012391033, -0.03700244, 0.02345312, -0.12680903, -0.06621649, -0.032056388, -0.021708142, 0.08579415, -0.04345725, -0.024482993, 0.05286676, 0.08647922, 0.050092988, -0.051586587, 0.06369998, -0.024553603, -0.08381774, -0.10989859, -0.009422961, 0.004526448, -0.05756553, 0.08887072, 0.0024243789, 0.053558026, -0.10417507, 0.044650536, 0.095464446, 0.07305945, 0.063630335, -0.078742996, 0.11793831, 0.09590424, -0.10318727, -0.053947683, -0.08870015, 0.094176695, -0.08955505, 0.087681144, -0.03819069, -0.048415508, -0.12599911, 0.011781317, -0.0013212959, -0.102336645, -0.12804104, -0.005031928, -0.025989398, 0.105521, 0.11206157, -0.09367068, -0.100379206, -0.0049362183, 0.10525005, 0.055826876, 0.023923496, -0.113817535, -0.09459323, -0.066336885, 0.009243377, 0.12721509, 0.11053249, -0.11383212, 0.03637998, 0.053579617, -0.058524564, 0.112891294, 0.1246071, 0.033247963, 0.12582503, 0.0821087, 0.11280956, -0.1052478, -0.06498801, -0.11556356, 0.1047991, 0.014113742, -0.11928713, -0.06448073, -0.08063318, -0.019516027, 0.07575343, -0.12796985, 0.107347906, -0.03998615, 0.058273185, -0.033216596, -0.0075190202, -0.0468822, 0.045253847, 0.07139065, -0.09494473, 0.06304339, -0.027023027, -0.032320585, 0.069576174, 0.045463074, 0.11221265, 0.09520217, 0.038209528, 0.0021168743, 0.081891194, 0.095089346, -0.106506355, 0.09384178, 0.06414843, -0.033070777, -0.06424156, -0.1253503, -0.015884176, 0.016862169, -0.056238692, 0.020671466, 0.082817815, -0.12777475, 0.08550859, -0.005668683, 0.037245475, 0.026552422, 0.03239444, 0.04052119, 0.093427084, 0.012610307, 0.087257124, 0.009223785, 0.11639186, 0.049250223, 0.028935863, 0.06490946, 0.10828433, 0.10500943, 0.02776945, 0.08900032, -0.103173465, -0.06838901, -0.116939195, 0.038456935, 0.06636391, -0.030238213, 0.06673241, -0.008385839, 0.117287174, 0.02631154, -0.091840655, -0.08664038, -0.07386114, -0.04033582, 0.08232046, 0.08223552, -0.097227626, -0.014540287, -0.037586577, 0.07071152, -0.037484773, -0.016702807, 0.06868519, 0.0642408, -0.087260894, -0.077348016, 0.123792745, 0.114094734, -0.044055715, -0.07806038, -0.124788575, -0.033032734, -0.03133194, -0.09845209, -0.11918382, 0.079968736, 0.012183808, 0.015194464, -0.06252771, -0.06775766, 0.0350332, 0.10954075, 0.00058898504, -0.08993883, -0.016063852, -0.041898474, 0.009054681, -0.008052386, -0.0912057, 0.050131507, 0.004893034, 0.09767118, -0.05719328, -0.012936295, 0.06232364, -0.12431919, -0.05579254, 0.06701134, 0.039878294, 0.0702667, -0.090080716, 0.008958295, -0.08965291, -0.10088332, -0.10783159, -0.059728388, 0.06136898, 0.05177551, 0.034380563, -0.044079557, 0.10598359, 0.12859726, 0.008419189, -0.025019823, -0.040957846, -0.025688173, 0.015563805, -0.012510011, -0.0075772093, -0.012517844, 0.110725485, -0.08533733, 0.06558336, -0.094528675, 0.08616612, -0.09159611, 0.0622856, -0.047696557, 0.1147997, -0.08085432, -0.06366117, -0.07926274, -0.055549674, -0.11452548, -0.050756365, 0.014428664, 0.07712001, -0.063411444, -0.10014968, -0.07399749, 0.07497528, -0.04248492, 0.07211862, 0.12789887, -0.00040156743, -0.032797776, 0.08853185, -0.038968325, -0.08681931, -0.04466323, 0.027969534, 0.053223036, -0.024335343, 0.06815721, -0.069332115, 0.110057145, 0.109401666, 0.028125018, -0.04561106, -0.09645066, -0.022639459, 0.0066008004, 0.116577394, 0.011074015, 0.06696668, 0.050059374, -0.07005552, -0.08734108, 0.06873062, -0.06259016, -0.077326134, -0.063036256, -0.024376435, -0.07017733, -0.11271759, -0.0052092345, 0.008535951, 0.104357995, 0.07597473, 0.05375314, 0.11945641, -0.00866064, -0.11316787, -0.050771385, -0.0780359, 0.061477922, -0.035169017, -0.059118614, 0.008071039, -0.124449275, -0.09652466, 0.101789765, 0.08175021, 0.035575584, -0.112207815, -0.0047157127, -0.05936405, -0.09683529, 0.014924787, -0.12499698, -0.08924382, 0.08880899, 0.02634458, -0.04571485, -0.06307205, 0.12823817, -0.020989683, -0.09446807, -0.034885626, 0.09517941, 0.042846028, -0.0035817574, -0.029048609, 0.017990507, -0.07762299, 0.028560413, 0.098690234, -0.074268244, -0.032863416, -0.06420025, -0.0745948, -0.088066004, 0.075471796, -0.09383316, 0.111966506, 0.030988516, 0.07174777, 0.12432765, 0.118959025, -0.06287768, -0.0041159852, -0.11805119, -0.04172611, 7.019312e-05, 0.12679645, -0.0809457, -0.09295571, -0.0088176625, -0.07540611, -0.08666749, -0.10210818, 0.028752262, -0.05354927, -0.01060167, -0.11109962, -0.11922228, -0.05318644, 0.03715035, 0.024986226, -0.044924844, 0.11773876, 0.106361106, 0.102833286, 0.100022085, -0.09777172, 0.054600134, 0.070945896, 0.10608085, -0.07264957, -0.09949175, -0.09026708, -0.12244049, -0.02605673, 0.0030791864, 0.05704572, 0.06568869, 0.09164482, -0.06921788, -0.073088154, -0.088669285, -0.10650582, -0.10996038, 0.11695211, -0.05395287, -0.03866057, -0.04180946, -0.029903961, 0.07406114, -0.100072905, 0.12698443, 0.028371887, 0.09988704, -0.032716043, 0.09885124, 0.008637801, -0.069017686, -0.05174076, -0.06210726, 0.032037057, 0.009216875, 0.08605524, 0.09579452, -0.0982764, -0.089953244, -0.10083442, -0.07254483, 0.08526531, 0.07446384, -0.120362885, -0.028544007, 0.07603464, 0.06638157, 0.0018362865, -0.011501391, -0.02957722, 0.044209737, -0.048421077, -0.03825214, -0.027697241, 0.07992814, -0.109129004, -0.11656923, -0.08830856, -0.047492333, 0.010902926, 0.03956756, 0.123214625, -0.1004288, 0.06782965, 0.029736705, -0.065474145, 0.062009305, 0.011548823, -0.015555632, 0.056599602, 0.06613879, -0.07249707, -0.004522216, 0.094866626, 0.08542383, -0.03987905, -0.054225255, 0.055230536, -0.014260776, 0.11574073, 0.043083232, -0.02101078, 0.086463995, 0.07087255, 0.0029974664, -0.0016784943, -0.018271018, 0.04745575, -0.09138148, -0.11033703, -0.11127339, 0.008814431, -0.12709633, 0.0020885877, -0.013680379, -0.08177877, -0.09594995, -0.07298713, 0.033644773, 0.01955955, -0.08577003, 0.02596793, -0.003296137, 0.0015326908, -0.109911285, -0.011750291, 0.10618508, 0.061213817, 0.043477103, -0.03258235, -0.021677809, -0.11722079, -0.00896068, -0.11349453, -0.09379765, 0.11697561, 0.07826208, -0.042253904, -0.017513283, -0.047148015, 0.046826165, 0.04515326, 0.04649961, 0.12580685, -0.019931352, -0.11633376, 0.04280906, 0.006674564, 0.12289838, -0.0037729302, 0.026414158, -0.11148519, -0.12364533, -0.09794282, 0.08708853, 0.088003024, 0.09240254, 0.008101095, -0.07000838, -0.07251711, -0.07060333, -0.04462779, 0.123482116, 0.0035159965, 0.110175006, -0.010853986, 0.080300316, 0.039510015, 0.0118077565, 0.08955503, 0.10364592, 0.07672323, -0.12167139, -0.027548945, 0.079666, 0.011338321, -0.083018795, 0.07721252, -0.033920314, 0.010164443, 0.066090815, -0.07701681, -0.052147623, 0.12189473, -0.111246675, -0.03438915, 0.016864324, -0.12324722, 0.0684681, -0.12462492, 0.119630575, 0.027629433, 0.0746248, 0.11225384, 0.05217936, -0.07535906, -0.07200364, -0.02377212, -0.09975461, -0.020650398, -0.07408783, -0.045311052, -0.005095011, 0.0783203, -0.12848039, -0.040689446, 0.12616925, -0.057497937, -0.07535581, 0.119651616, 0.09089546, -0.122971036, 0.1227583, -0.1268072, -0.061430674, -0.11097267, -0.10405317, 0.110663846, 0.045265034, 0.039630886, 0.12774828, 0.0109346295, -0.03675954, 0.04141654, 0.12036573, 0.023912923, -0.031001057, 0.09950465, -0.015167777, 0.06857775, -0.10367042, -0.053305466, -0.071271606, -0.09924079, 0.10393671, -0.040282447, 0.12646091, -0.10128078, 0.06064715, -0.016833883, 0.052341983, 0.038783107, 0.11376115, 0.10665311, 0.035670523, 0.0568953, 0.06921557, -0.098655686, -0.08921208, -0.003065782, -0.07795164, 0.029122727, -0.040958278, -0.07619108, -0.08592378, 0.0791607, 0.10979696, 0.039774645, 0.11172862, -0.08429601, 0.07415288, 0.00032344853, 0.06842973, -0.049491845, -0.08028774, 0.09299266, 0.00061491696, 0.01850048, 0.07679523, -0.07657303, 0.10691982, -0.1051532, 0.098216824, 0.12335898, 0.0127570955, 0.017490538, 0.06345649, -0.107106775, -0.08993473, 0.04732909, 0.09201036, -0.07865586, 0.0021541794, 0.111501575, -0.05805256, 0.01622666, 0.007992782, 0.051262815, -0.07153057, -0.036522444, -0.09776275, 0.04489437, -0.04606474, -0.10200453, 0.04911753, -0.03239321, 0.11691955, 0.078517586, -0.007683276, 0.06189548, 0.020719036, 0.12545271, 0.013335785, 0.04642246, 0.012834814, 0.05975366, 0.028233146, 0.10110211, -0.09657853, -0.0009313785, 0.050010882, 0.1033468, -0.040331956, -0.0046108617, 0.012192195, 0.07711734, 0.12415202, -0.07870934, 0.0053930352, 0.07534213, 0.0158678, 0.1224714, 0.082157485, 0.09253712, 0.00945234, 0.018950835, 0.059461668, 0.07727862, 0.12698686, -0.04138296, -0.09550743, -0.022811871, 0.0032570777, -0.05785552, 0.047112357, -0.09680773, 0.021948516, -0.07406976, 0.12850472, -0.12593155, 0.0178373, -0.108771555, 0.0019432151, -0.0146618355, 0.0750914, 0.0872406, -0.041266814, 0.040915094, -0.087919734, 0.0161123, -0.106352136, -0.12638445, -0.024430037, 0.07518949, 0.1280217, 0.094996065, 0.038139086, 0.12746161, 0.027711708, -0.013502626, -0.06404084, 0.04428912, 0.11195062, 0.11817123, -0.001816372, 0.015461293, 0.02266673, -0.08664067, 0.080654606, 0.06829072, 0.09256493, -0.019230267, 0.0013884418, 0.0762192, 0.10322794, -0.021811407, 0.116578706, -0.0301755, -0.023172054, -0.023839483, 3.0671978e-05, 0.053604614, -0.008661932, 0.05498902, 0.081108004, -0.047478806, 0.04487438, 0.09458582, 0.084867686, -0.08477773, 0.09354913, 0.027015794, 0.08053495, -0.108891994, -0.07526107, -0.09835544, -0.070301525, -0.06362537, -0.11339165, -0.11397236, -0.031018373, 0.09919359, -0.091798104, 0.046910856, -0.020416286, 0.03997331, 0.11538855, 0.013742061, -0.11987881, -0.052446388, -0.027526613, -0.03165228, 0.04509695, 0.05519463, 0.026153747, -0.013407101, -0.027979845, -0.07830685, 0.01860604, -0.092812076, -0.086572014, -0.090528704, -0.041146003, 0.00045929477, -0.07581123, 0.08219804, -0.00679896, -0.10795208, -0.04082951, -0.05437355, 0.100884, 0.060453467, 0.069744706, -0.05466202, 0.08468356, 0.111227065, -0.07279545, 0.10200881, 0.031401254, -0.10135054, -0.08614529, -0.08439942, 0.07272252, -0.11828752, 0.083690055, -0.045357805, 0.10189024, 0.037128143, -0.088362254, -0.0474656, 0.049021807, -0.0660386, -0.041874252, 0.0064603216, 0.0035335256, -0.010698534, -0.05995379, -0.053786643, -0.072936006, -0.074587196, -0.09338526, 0.055164512, -0.09821164, 0.024464449, -0.007160221, 0.014171269, -0.08489303, 0.03928888, 0.022159202, 0.0060056285, 0.122445844, 0.11031464, 0.05244214, -0.07843759, 0.078242354, 0.08033335, 0.015562573, -0.08237077, -0.08574867, 0.119909704, 0.12212981, -0.03068215, 0.056015033, 0.057048738, -0.07028889, -0.027053561, -0.07956762, -0.1286583, -0.04122823, 0.010566981, 0.07604976, -0.0053090067, 0.11201792, -0.08737646, 0.11207493, 0.10254826, 0.1062806, -0.06415277, -0.120592244, -0.041953016, -0.006900102, -0.06716137, 0.11588453, 0.0013981989, 0.11416645, -0.04560012, 0.096501075, -0.036513165, 0.10834798, -0.028281333, 0.06368373, -0.1128854, 0.120007165, 0.10704021, -0.041407153, -0.027998837, 0.023707714, 0.047322936, 0.029482465, 0.038448222, -0.017675107, -0.05618843, 0.11454628, -0.059631493, 0.023500906, -0.073755145, -0.08199566, 0.05710531, 0.056352872, -0.110776514, 0.054930557, -0.094533525, -0.07833154, 0.038070496, -0.06636723, 0.12902212, -0.09071138, -0.03477636, -0.06320343, -0.11842036, 0.11666481, -0.08588183, 0.08580176, 0.10453867, -0.07495785, 0.026279852, -0.09000522, 0.048032716, 0.0043367837, -0.0022256805, -0.08597392, -0.023465125, 0.07456388, -0.03150001, 0.06272278, 0.09760834, 0.08743576, -0.06466132, 0.11344612, -0.009330683, -0.09730846, 0.009575797, -0.037044514, -0.072958335, 0.009338732, 0.018889306, 0.054567184, 0.08782015, 0.088930294, 0.10762171, -0.11965477, -0.032214765, 0.113255315, -0.05026666, 0.098230064, -0.037442837, -0.043533538, 0.086292736, 0.010695701, 0.11929519, -0.035317235, 0.06992527, 0.017795779, -0.1271483, -0.10373235, 0.070117034, 0.104325026, 0.11012505, -0.06145168, -0.0050600297, 0.03447501, -0.11888609, 0.018165627, -0.12150626, -0.09743976, 0.11644946, -0.061885383, 0.11009273, 0.12625276, -0.031816658, -0.09070133, -0.07675957, 0.0024047415, 0.026983414, -0.053421166, -0.1194905, 0.02216008, 0.009574104, -0.080312334, 0.11812965, -0.07813847, 0.06777479, 0.03505859, -0.10457719, 0.12880929, -0.06733321, 0.11673065, 0.014807347, -0.021849375, -0.082547046, -0.037520368, -0.029001594, 0.0028211756, -0.0076630386, -0.11127491, 0.12077207, 0.093144484, 0.110508166, 0.08234972, -0.11812131, 0.026246779, 0.004747554, -0.0578819, 0.00050357135, -0.10707458, 0.028304756, 0.07572206, -0.08183578, -0.031220872, -0.063572034, -0.06444755, 0.049470775, 0.032066513, -0.10699164, -0.09357754, 0.009684896, -0.06535995, -0.057850763, -0.06885505, 0.09755846, 0.0071127745, -0.06861354, -0.09561066, -0.1009997, -0.010170123, 0.05156818, 0.030379124, 0.1254202, -0.028767267, 0.118130185, -0.07638019, -0.12222655, -0.05321739, -0.048963986, 0.10248308, -0.122691646, -0.098020405, 0.10017351, 0.04777007, -0.100423545, -0.014727982, 0.002109872, -0.10027351, 0.008008679, -0.09817868, 0.09825736, 0.1262229, 0.04762958, 0.0024911554, 0.12635554, 0.08673124, 0.032267105, 0.035994574, -0.053841937, -0.04532416, -0.027915055, -0.120737135, 0.11907294, 0.11178823, 0.024891594, -0.11880317, 0.08508262, -0.05009034, -0.016713811, 0.119344786, -0.044425644, 0.057444904, 0.124285296, -0.0030725687, 0.024145663, -0.014537809, -0.055876292, -0.05744686, -0.030765593, -0.083079286, -0.12785351, 0.11785977, -0.046195507, -0.080962196, 0.027808463, 0.117915206, -0.08447792, -0.10103757, 0.059413575, 0.06013514, 0.017424576, -0.12669566, 0.12506518, -0.100633524, 0.107577674, -0.101997524, -0.039943334, 0.07639806, 0.078923784, -0.09950432, -0.07394723, -0.122976065, 0.036786195, -0.11283, 0.010825762, -0.004491067, 0.12907372, -0.100718305, 0.026238052, 0.057874694, 0.02683875, 0.024908861, -0.00023949689, -0.052144423, -0.04135809, -0.12363274, 0.09791112, -0.026854662, 0.066871405, 0.014052844, -0.060647395, 0.05860088, 0.018136434, -0.11826128, -0.035429396, -0.03644545, -0.03126204, -0.049586892, -0.097412735, -0.12391816, -0.063865475, 0.033068717, 0.05190833, 0.05120024, 0.049476698, 0.11958773, -0.023605896, -0.11956801, -0.09563318, -0.06902246, -0.1122273, 0.094032496, 0.096183196, 0.006047104, 0.014052767, 0.119946666, 0.024996277, 0.025098788, 0.059874177, -0.09639113, -0.101349786, -0.042205118, 0.098896824, 0.08453532, -0.024771646, -0.0106343115, -0.049173474, 0.030489177, -0.08006311, -0.08494163, -0.1262768, 0.12498969, -0.00697385, 0.09799961, 0.10840727, -0.027177064, 0.069586694, -0.12315414, -0.024058819, -0.021524372, -0.12533298, -0.033608437, -0.0871285, 0.0761362, 0.1185659, -0.11521764, 0.10576621, -0.036791645, -0.080999754, -0.100264534, -0.10928045, 0.07454849, -0.0778356, -0.026806738, 0.07519076, -0.09994135, -0.01874004, 0.11705794, -0.11667957, 0.0490219, -0.04226403, 0.07407609, 0.071713805, -0.11466296, 0.066067286, -0.08295797, 0.07696113, -0.07673036, -0.123994075, 0.08711348, 0.010775529, 0.010235484, 0.0017946415, -0.03187591, 0.070927665, 0.06496948, 0.04365609, 0.08800058, 0.12456772, -0.040386822, -0.06345954, -0.04240977, 0.033793576, -0.06825675, 0.007483362, -0.011659783, 0.05011147, -0.08127155, -0.053494744, 0.041006077, 0.08999058, 0.11058044, -0.0031840529, -0.008365493, -0.07823964, -0.121573515, 0.0923447, 0.0012304188, -0.073313184, -0.06707481, 0.10717583, 0.124183476, 0.036118615, 0.074125245, -0.11029214, 0.032162607, 0.12582025, -0.06644726, 0.10214676, 0.08180804, -0.05155402, -0.055391144, -0.011728576, -0.09519738, -0.012085082, -0.080229275, -0.074730895, -0.03368017, -0.08306692, 0.10223418, 0.082106285, 0.10462085, 0.053584743, -0.052024905, 0.10453736, -0.050047632, 0.11373069, 0.065085396, -0.10582757, -0.07866041, 0.09940068, -0.10988689, -0.089341864, 0.096896976, -0.10856689, -0.0071190535, -0.11636925, -0.039850563, -0.0430844, 0.10644906, -0.022665637, -0.09561788, -0.007396902, 0.024100402, 0.006335233, 0.018835133, -0.08091267, 0.07824724, 0.057919588, 0.007889855, -0.12691043, -0.042422853, 0.08107353, -0.08036934, 0.034241423, -0.08436747, -0.04653947, 0.04974093, 0.09336548, 0.06969313, 0.03357375, 0.0409859, 0.12581962, -0.011793413, 0.05132462, 0.0062326286, -0.072458304, 0.10421701, -0.10223195, -0.12129157, 0.000308782, 0.02533393, 0.06080965, -0.06872625, -0.07698414, 0.04362554, 0.03162995, 0.11851418, 0.010970964, 0.033599466, 0.007076393, 0.06681597, -0.08652262, -0.06865467, 0.07687189, 0.11769527, -0.046716407, -0.0977686, -0.076733254, 0.07578473, -0.075065084, -0.113461584, -0.08626684, 0.036060486, -0.011312557, 0.110803865, -0.08208623, 0.07671657, -0.053869873, -0.016595494, -0.07747609, -0.032906953, 0.07040193, -0.10177916, -0.05249379, 0.040333435, 0.011076909, 0.120300986, 0.014367243, 0.0365565, -0.04088302, 0.108023375, 0.008352089, -0.082237184, -0.10087321, 0.07286401, -0.07228614, -0.09224181, 0.027770897, -0.056913015, -0.10888906, 0.01881428, 0.046286628, 0.038969092, -0.08768852, -0.09402717, 0.00416097, -0.026264077, -0.012818655, -0.06877984, -0.05011901, -0.011943157, 0.05595343, -0.097479485, 0.086562045, -0.03625337, -0.12003407, 0.057412308, -0.04651429, 0.11187907, -0.120387815, 0.10245327, 0.0189617, -0.061074, 0.10002093, -0.1278651, -0.001402031, -0.06415944, -0.07439952, -0.020400867, -0.09840069, 0.092542015, -0.044746827, 0.093178205, 0.07480803, 0.06562041, -0.07330556, 0.037058413, 0.11363209, -0.006299036, 0.040144492, -0.0030286922, -0.07455276, 0.004896051, -0.039294202, -0.12769502, 0.08553924, -0.10738273, -0.057811335, 0.112772964, -0.11225108, -0.0008055203, 0.1071605, 0.007864153, 0.10374015, 0.117524415, -0.026496757, 0.07025111, 0.026119443, 0.08834856, -0.0048027267, -0.024369001, -0.020239089, -0.12217444, 0.07023726, -0.060689207, 0.09910373, 0.08574478, 0.0733702, 0.10417449, -0.07505604, 0.0010236561, -0.041164488, 0.081965744, -0.09430314, -0.06315596, -0.02328103, 0.0062731043, 0.12596136, 0.10206672, -0.044180144, 0.10772999, 0.09861655, -0.06237892, 0.012217742, 0.05600937, -0.093599714, 0.046873722, -0.007600756, 0.09434548, -0.046747554, -0.008200252, 0.10293083, 0.096059725, -0.016801596, -0.07289281, -0.006619299, -0.08692092, 0.022546396, 0.009361155, -0.0045521646, 0.046994038, 0.12572065, 0.09526497, -0.04098247, -0.09496455, 0.033724446, -0.10478586, 0.07726023, 0.06458795, -0.09788805, -0.10685988, 0.08946331, -0.12338287, -0.11173818, 0.04784053, -0.0111559965, 0.05085377, };

static float32_t tensor_W_irbias[60] = {-0.09278882, -0.077545434, 0.04570017, 0.083904, -0.05643205, 0.11324912, 0.004186563, -0.07981918, -0.110856004, 0.1027681, 0.10698227, 0.06845479, -0.02353567, -0.09182149, 0.064227104, 0.09944689, -0.0149194, -0.111835726, 0.03380635, -0.013570065, 0.0033465389, 0.08757942, -0.07717459, -0.1106033, 0.044269096, 0.110772036, 0.09395354, 0.12219667, -0.101690486, 0.023447242, 0.02405945, -0.08071892, -0.09244415, 0.10272333, -0.06671914, -0.1111014, 0.016737266, -0.06351396, -0.030962646, -0.040698327, -0.081594095, -0.06984146, 0.045939602, -0.022293387, 0.11304926, 0.061782148, 0.10962856, 0.12555102, 0.08643349, 0.10595998, -0.02889542, 0.11602333, -0.01732408, 0.037449744, 0.012369271, -0.034266815, 0.023781508, -0.0395271, -0.11983397, -0.09269138, };

static float32_t tensor_W_hrbias[60] = {-0.0010873085, -0.05052641, -0.047390144, 0.05326796, -0.1027315, 0.12119668, -0.06357496, -0.11718307, 0.033453323, -0.11487503, 0.0145605095, 0.009159994, -0.031604234, -0.0735342, 0.091493875, 0.053620785, -0.08908538, 0.043448262, -0.008795163, 0.07002566, 0.04247641, 0.127909, 0.004818609, -0.007137075, 0.005675639, -0.06848194, 0.11073847, 0.05141613, 0.038457688, -0.119472355, -0.082645975, -0.02014247, -0.10376468, 0.07547381, -0.03674049, -0.12587798, 0.084238455, 0.11563038, 0.04488494, 0.012408315, -0.015658883, -0.065100096, 0.026295256, -0.118013345, -0.09895745, -0.038121637, -0.02553349, -0.104954734, -0.12239598, -0.006797944, -0.014026712, -0.023725182, -0.04564389, 0.06039086, 0.12629493, -0.06334309, 0.021603076, -0.033737436, -0.08641236, -0.062731534, };

static float32_t tensor_W_izweight[3600] = {-0.10782488, -0.021197122, -0.037162524, -0.09550623, 0.09120036, -0.09318367, -0.0072708437, -0.029647043, -0.10636508, 0.07269531, -0.04934849, -0.045548886, -0.09410578, 0.036709663, 0.029804066, 0.06502868, 0.11807475, -0.0035116104, 0.09416891, -0.042657517, 0.076442614, -0.09521136, 0.08462911, 0.009198561, -0.06857128, 0.07737092, 0.05616681, -0.10369221, 0.05041716, -0.06384233, 0.06541794, -0.08796956, 0.09784721, -0.12357248, -0.05249508, -0.10893656, 0.084361956, -0.10311754, 0.11537092, 0.0718146, 0.05599641, 0.032451045, -0.05984983, 0.06212377, 0.11657315, -0.09877212, -0.01171411, -0.08888345, -0.05365066, -0.120248355, 0.033430837, 0.024547601, 0.012544685, 0.12156556, -0.070337184, -0.04494245, -0.062639594, 0.1159139, 0.097222134, -0.087907195, 0.1282488, -0.060656752, -0.0794979, -0.106999904, -0.1082483, 0.12782598, 0.0756919, -0.123126656, 0.07782147, 0.0054930234, 0.054725256, -0.016594894, -0.015842807, 0.03264608, 0.06388254, -0.0063103014, 0.06409155, 0.10501097, -0.011190532, 0.099092275, -0.12541176, 0.11720252, -0.10281256, -0.00264884, -0.09304967, -0.11603597, 0.1132826, 0.017347272, -0.032631338, 0.069693364, -0.094680995, 0.018091772, -0.059502695, 0.04164819, -0.04268157, 0.088361576, -0.10776575, 0.07284376, 0.062403683, 0.053963795, -0.10493216, -0.10643339, -0.002742133, 0.12657778, 0.087217666, -0.08781121, -0.029212542, -0.021390373, -0.08549451, -0.0024476638, 0.12559901, 0.10151195, -0.0056065232, 0.06691782, 0.11455777, 0.050802045, 0.006589196, 0.10353753, -0.07764458, -0.07456208, 0.05410986, 0.079799525, -0.0024169302, -0.08839642, -0.070626125, -0.017696131, -0.05458627, -0.039973482, -0.10062409, 0.026716447, -0.052276544, -0.038601108, -0.08117824, -0.01869564, -0.01682511, -0.049427837, 0.10080477, -0.017539015, -0.105806656, 0.0074221105, -0.043904003, -0.08612149, -0.038053412, -0.09149165, 0.084445275, 0.022140935, -0.003939156, 0.07372366, -0.0810326, -0.046090763, -0.044281024, 0.03760929, -0.059462007, -0.061028708, 0.09050685, -0.09764074, 0.040025175, -0.088315286, 0.07848362, 0.012123911, -0.04731609, 0.112598844, 0.03750164, -0.0005336739, 0.10104682, 0.039013878, -0.102108486, 0.060500838, 0.016636647, -0.05390119, 0.044002622, 0.11875257, 0.019649811, 0.10055225, -0.07755485, 0.004857853, -0.018330362, -0.04074396, 0.12621355, 0.00414064, -0.10503641, -0.044791706, 0.12465972, 0.00291333, -0.04769534, 0.055932943, -0.10428304, -0.003599979, 0.10168982, -0.11592987, 0.098437995, -0.11629638, -0.06719696, 0.048863336, 0.104233846, -0.10490273, 0.03043505, -0.04565951, 0.099537045, -0.032803625, 0.07984827, 0.0146031855, -0.070677795, -0.0016657516, -0.031533316, -0.038835723, 0.045302358, 0.11252859, -0.0380367, -0.06681514, 0.047673672, -0.005381185, 0.025944706, 0.11297497, 0.049170103, 0.0072070067, -0.08877717, -0.07244367, -0.06983943, 0.07457361, -0.07882535, -0.063546054, 0.12350631, -0.049802873, 0.057384007, -0.0067711044, 0.039467122, -0.082573675, 0.081957616, -0.08120762, 0.108061425, 0.09500356, 0.12308315, -0.127692, 0.033699837, 0.031963833, -0.10736163, -0.077770665, -0.047940083, -0.021040253, -0.08817271, -0.08281948, 0.017513068, -0.018512761, 0.0822899, -0.0832111, 0.07389879, 0.12066381, 0.050976086, 0.053812638, -0.066680126, 0.0886203, -0.018898185, 0.015947504, 0.031961247, -0.109585695, 0.12060711, -0.05755799, -0.051432487, 0.0351929, -0.12061248, 0.035475288, 0.03571891, -0.11314948, -0.11321849, -0.070783, -0.07659359, 0.04286328, -0.113279045, -0.09642212, -0.07363631, 0.103565, -0.059072442, 0.106739216, -0.03413309, 0.06589994, -0.06159524, 0.017615164, -0.12414741, 0.064311914, -0.11539938, -0.004971492, -0.11047306, 0.060091972, 0.036521275, 0.08978038, 0.025668535, -0.064721905, -0.08410969, 0.10236807, 0.03143896, 0.016630506, 0.09594267, -0.094965056, 0.121902145, -0.08615781, -0.09600789, -0.061346907, 0.07643428, -0.05404541, 0.07270237, 0.05023265, -0.12462777, 0.09637024, -0.11666123, -0.09571028, 0.09651665, -0.12023439, -0.08982443, -0.024766998, -0.050516285, 0.08456893, 0.104653895, -0.008373727, -0.039897285, -0.12823208, -0.07800533, -0.11891087, 0.062096655, 0.04506506, 0.05875615, -0.07531177, -0.10959565, 0.059996158, 0.017036859, 0.008946183, 0.022087209, 0.08914814, -0.054092407, 0.10664269, 0.04659943, 0.106858216, -0.11068668, -0.08914817, -0.0380449, 0.08924156, -0.11917353, -0.102813944, 0.07725671, 0.0440529, -0.09613789, 0.11534582, 0.011261663, -0.07098682, -0.11030105, 0.049518146, -0.10075249, 0.081308104, -0.011971259, -0.09819412, 0.028222235, -0.104366966, -0.042855877, -0.017188912, -0.029843371, -0.10293935, -0.04458796, 0.09682383, 0.10026192, -0.05015487, 0.12427823, -0.08284426, -0.026132617, -0.116912924, -0.015899103, 0.025266845, 0.049987104, 0.06870327, -0.0030924217, -0.07083232, 0.0783729, 0.06453636, 0.017874284, -0.046307806, 0.04736258, -0.09326579, 0.112873614, -0.050272986, -0.059912022, 0.06817269, 0.121644, 0.103783846, -0.047774106, 0.116137035, -0.06447029, 0.08832287, 0.077309124, 0.08494403, 0.12608586, 0.02949967, 0.058257487, 0.10127365, 0.08906519, 0.08758081, -0.022116896, 0.043425255, -0.014545258, -0.119149625, -0.10250944, -0.061561614, -0.0055386233, 0.09590444, -0.064716965, -0.053464364, 0.060219448, -0.006977113, 0.08985506, -0.06858699, 0.030893268, 0.07194796, -0.122978024, -0.09051496, 0.080506936, -0.1269695, 0.088843405, 0.117521904, 0.0055586766, -0.12645483, -0.014882449, -0.038098875, -0.10257879, 0.028211124, -0.010043741, -0.085300475, -0.06644841, -0.1039973, 0.09900768, -0.11336444, 0.059219953, -0.018340396, 0.11321479, 0.02916217, 0.05189146, -0.08523521, 0.08895327, 0.0046491055, -0.064112835, 0.117219046, 0.092555776, -0.10387609, -0.053222712, 0.116128966, -0.020292275, 0.11273745, 0.123187244, 0.05758834, -0.06540189, 0.0013748064, 0.11307633, 0.050297856, -0.12413538, -0.01901487, -0.04242039, 0.11724555, -0.054159556, -0.01729204, -0.040809397, 0.01541557, 0.020030016, 0.07618584, 0.093104206, 0.10029761, -0.083803825, 0.076144464, 0.04837971, 0.056367185, 0.0069546746, -0.06591161, 0.07333534, 0.06315538, 0.06774027, 0.06798012, -0.0595197, -0.0013317148, -0.052209046, 0.07473429, 0.0348962, -0.025886903, -0.096325554, 0.009247809, 0.07710963, 0.06134123, 0.07439755, -0.06065515, -0.038243, 0.07764413, 0.11454689, -0.03427822, 0.022043271, 0.062782, -0.05247146, -0.10113288, -0.081453785, 0.08742047, -0.059641052, 0.09226637, -0.09181728, -0.089804515, 0.063937746, -0.017068317, -0.10879085, 0.10665702, -0.047971986, -0.05594921, -0.05125206, -0.120945595, -0.033492245, 0.1025905, 0.11574124, -0.095983155, 0.04357549, -0.10656296, -0.01269272, -0.05603695, 0.0029124527, 0.12642917, -0.114753604, 0.021376213, -0.10284388, 0.06672555, 0.06425504, 0.09584745, 0.023126531, -0.028262096, 0.07207955, -0.05866264, -0.058474902, -0.023732092, -0.04398066, -0.005923693, 0.09953401, 0.11463604, -0.09948973, 0.046820197, -0.1270287, 0.10296838, -0.056278076, -0.11109588, -0.006906643, 0.119015984, 0.033281665, -0.11818559, 0.03525132, -0.0520475, -0.05382558, 0.12552087, 0.09800605, 0.02102731, -0.068482935, 0.0694366, 0.11474188, 0.053110413, -0.06212873, 0.06269843, 0.106241204, -0.077377595, 0.07507961, -0.08850177, -0.058307197, 0.011450866, -0.06517832, -0.07975191, -0.1220339, -0.0637456, -0.060626093, 0.08321584, 0.013793802, -0.004051548, 0.030662559, 0.1156121, -0.04491735, 0.041121993, 0.12680973, -0.0366901, 0.12212392, -0.004536452, 0.018257275, 0.07393384, 0.10265343, 0.11956215, -0.0047921385, 0.094945036, -0.07073236, 0.03488875, 0.09297227, -0.040125195, 0.039237276, -0.012781827, 0.09293292, 0.04394762, 0.01311337, -0.024797516, -0.022773905, 0.110055596, -0.096894346, 0.12476574, 0.0054749246, -0.10771075, 0.013180208, 0.068157285, -0.09869648, 0.01510651, 0.077143624, -0.10490618, 0.11727657, 0.051110733, 0.11742087, -0.05737651, -0.10220564, -0.030292895, -0.022235475, -0.024741035, 0.019076154, -0.112879895, -0.06910255, -0.023808703, -0.015149448, -0.074722156, 0.11472674, 0.1271919, 0.048560128, -0.08634932, 0.121698804, -0.03206873, -0.0074367616, -0.07978485, -0.062440373, 0.05639487, 0.061114676, 0.096913196, 0.024894256, -0.00877377, -0.07766003, 0.055566296, 0.12132309, 0.12829593, 0.011979677, -0.10597668, -0.12725483, -0.021596411, 0.018500373, -0.05875581, -0.026326422, 0.0815852, -0.07454125, -0.10810548, -0.086514995, -0.06201889, 0.08577361, -0.07158278, -0.06004328, 0.110550374, -0.11263684, 0.09006148, -0.011241087, -0.042818435, 0.03359725, -0.075860724, -0.099901, 0.10763305, -0.055670977, 0.099850185, -0.051070195, 0.027086202, -0.11335116, 0.09553727, -0.060365558, -0.094229564, -0.07617925, 0.0051790243, -0.075899, 0.10525379, 0.09112078, 0.11871421, -0.022350483, 0.06308763, 0.024787959, -0.07651498, 0.025581675, 0.07874078, 0.10193786, 0.030414382, 0.05572946, -0.123470254, -0.11330919, -0.0041146926, 0.06800142, 0.06253302, -0.01381641, 0.108376205, -0.10659423, 0.07323014, 0.12699819, -0.107900195, -0.0812159, -0.034784146, -0.023406211, -0.026527781, -0.0630773, 0.08123763, 0.06018293, 0.044173032, -0.054218654, -0.015057247, 0.08813386, -0.1251499, -0.017704764, 0.0069786366, -0.027912468, 0.10101752, -0.1200511, 0.04208149, 0.07111114, 0.045984358, -0.101644225, 0.057559557, 0.07984157, -0.09441076, -0.0019770882, -0.051525645, -0.029533727, 0.017243715, -0.090963975, 0.11485304, -0.11567814, 0.038404025, -0.060051467, 0.058078226, 0.0821928, 0.01954025, -0.0561219, -0.1247093, 0.09829311, 0.07946815, 0.084056266, -0.09902641, 0.042132754, 0.07408195, 0.094319604, -0.094972275, -0.0697845, -0.10160161, -0.10994816, -0.0059817894, 0.0044962224, -0.014170515, -0.09805823, 0.10110119, 0.06594726, 0.07807728, -0.07723867, 0.023699405, -0.093004994, 0.039501168, 0.0813863, -0.031795282, 0.041868217, 0.05198617, -0.07291785, -0.0026341735, 0.07527128, -0.12295132, -0.067018054, -0.07526423, -0.033624075, -0.061512303, 0.057420712, 0.028169094, 0.038259175, 0.0017903631, -0.12142237, -0.05182262, 0.11330565, 0.11276128, 0.065582335, 0.050825913, -0.020171989, -0.11408637, -0.042349227, 0.11382704, -0.008956556, -0.06688225, -0.024958016, 0.1156023, -0.04282879, 0.021046147, 0.054915812, -0.013213897, 0.006613512, 0.044417854, 0.082887545, -0.06222713, -0.053628143, -0.1201614, 0.07893518, -0.1001115, 0.045801587, -0.0845688, 0.12508962, 0.028657937, -0.008990598, 0.08577842, -0.042529535, -0.09482527, 0.030429233, -0.064536884, 0.113830574, 0.024195004, 0.05421539, 0.08062542, 0.114765674, 0.004580574, 0.09742823, -0.01946327, -0.06849845, 0.04343732, -0.042815063, 0.034448616, 0.0041140155, -0.012424813, 0.052307833, -0.1036872, 0.100107625, -0.023242649, -0.08954741, 0.035542097, -0.04250999, 0.018056514, -0.028760172, 0.013939637, 0.045095455, 0.028007101, 0.03792748, -0.1021194, -0.03598791, 0.013407579, 0.101649515, -0.08399325, 0.004721607, 0.00863677, -0.0056273458, -0.075106345, -0.09596751, -0.0051862574, 0.01774056, 0.032171026, -0.047585517, 0.10953522, 0.12791504, -0.03347547, -0.06157414, -0.11758197, -0.0015512664, 0.05036183, -0.04828208, -0.007164392, -0.05622783, -0.04399099, 0.037543394, 0.022042902, -0.021279166, 0.06350829, 0.0156050185, -0.021013552, 0.03562343, -0.115105785, -0.117169365, -0.10143186, 0.09248427, 0.021018907, 0.08405027, -0.07151385, -0.08868623, 0.04271743, 0.10606482, -0.09020781, 0.08420429, -0.09245482, 0.049816478, -0.06725279, -0.06173595, 0.07898996, -0.06770675, -0.0637243, 0.12336614, 0.03282794, 0.08604916, -0.035910115, -0.008279726, 0.037818164, 0.0050269417, 0.08673721, -0.06457807, 0.06530657, 0.06059151, 0.096497566, -0.06697127, -0.018714368, 0.07071011, -0.059315324, 0.027583618, -0.023439007, -0.12606362, -0.042378575, 0.009565393, 0.0763677, -0.010871192, -0.025634108, 0.11509508, 0.0762259, 0.12132847, -0.07869143, 0.025912926, 0.065390944, 0.01459232, -0.114835374, -0.044949867, -0.050265554, 0.0226711, -0.110678, -0.11604251, -0.12794773, 0.036149472, -0.09836701, 0.08674912, -0.017383993, 0.0031735261, -0.036450837, -0.12523174, -0.11327138, -0.07332003, -0.11351534, -0.0998405, -0.0123617, -0.09374069, 0.055170853, -0.032037303, 0.02676914, 0.01765136, 0.019090328, -0.041528333, -0.12304703, -0.07789864, 0.018894615, 0.019936739, 0.057084396, 0.031318426, -0.004332059, -0.07574712, -0.039523236, -0.043688945, -0.06527517, -0.08746449, -0.009836086, 0.012460209, 0.040053, 0.019782333, -0.033952463, -0.05244745, -0.12235223, -0.08371123, 0.08377736, 0.06243094, 0.03528587, -0.030664928, -0.092130296, -0.068084866, -0.10994186, 0.08371406, -0.02532348, -0.09111042, 0.052585572, 0.12899183, 0.06153068, 0.017127398, 0.12536055, 0.051526397, 0.014501366, -0.08774437, -0.06556864, 0.07736356, 0.07241206, 0.06509309, -0.087546736, -0.02672134, 0.10061361, 0.07223264, 0.0029606845, 0.082749486, -0.056456722, 0.081974775, -0.12201788, 0.107451536, 0.034105852, -0.094575584, -0.056798175, -0.066791974, 0.012804958, 0.04748442, 0.09470606, -0.11201192, 0.0948508, -0.021391096, 0.12815715, -0.08609613, -0.0625337, 0.1173002, -0.0069006714, 0.118204184, 0.016181353, 0.09272234, 0.115007475, -0.05093515, -0.08717556, -0.027321713, -0.024343453, -0.10219301, -0.013087023, 0.07457224, -0.043158505, -0.079227164, -0.04192151, 2.8702076e-05, 0.09376963, 0.085893445, -0.114968635, 0.046640456, 0.12166608, 0.07803636, -0.08738553, -0.08334082, 0.09238703, -0.020321116, 0.06917613, 0.08401211, 0.07685063, -0.07454874, 0.0957717, 0.12202982, -0.06116711, 0.1024982, -0.03384675, 0.116145805, 0.034721892, -0.009133001, 0.07892552, 0.06377909, 0.052693903, 0.11368059, 0.045385614, 0.10987976, -0.03977503, -0.038228456, 0.015326478, 0.0457454, 0.061050963, 0.12159891, -0.028308066, -0.02016634, 0.04100063, -0.063281335, -0.12556696, -0.028855281, 0.046647552, -0.07982086, 0.0008214488, 0.014988885, 0.02489675, -0.084688574, -0.022796128, -0.07799059, -0.024421219, -0.024709333, -0.07597222, 0.07196495, -0.062989034, 0.085672975, -0.016277354, 0.09284681, 0.117294334, 0.11242546, 0.034178294, 0.055967323, 0.05098187, 0.06515665, 0.102547266, 0.12077107, -0.11978432, -0.041522056, -0.05995579, -0.047089133, 0.108606406, 0.09021799, 0.048271045, -0.030385094, 0.090604804, -0.030320596, 0.094796136, -0.08751623, -0.049041983, -0.069079585, 0.006799976, 0.095738135, -0.0037868887, -0.012030464, 0.08028588, -0.078848235, 0.11231264, -0.067664705, -0.11538316, 0.073399164, 0.047777645, 0.047862057, 0.058122244, -0.12211904, -0.016152974, -0.04861496, 0.10774605, 0.11821609, 0.010687653, 0.10377189, -0.06384387, 0.01395458, -0.08974605, -0.09099383, 0.045052517, -0.020762159, 0.045208648, 0.0063402806, -0.0034677186, -0.10819536, 0.0789171, 0.05852421, 0.05508387, -0.028162215, -0.085108705, 0.12585394, -0.11723362, 0.092963934, -0.11170971, -0.06850402, 0.04380049, 0.09457554, 0.11208291, -0.019713802, 0.08314754, -0.10955216, -0.043157857, 0.09118971, -0.087682225, 0.0057158377, -0.10934234, -0.062010456, 0.0875182, -0.04112021, -0.012102442, 0.020241011, 0.050932795, -0.12093904, -0.08600127, -0.02212182, 0.12707984, 0.058941137, -0.08172178, -0.10964736, -0.0024453092, -0.057582352, 0.030238753, 0.0032641108, -0.033954218, -0.08932245, 0.102829255, 0.036914118, -0.0016224599, -0.006798344, -0.017511928, -0.09776432, 0.076740116, -0.07285289, 0.11467226, 0.11037092, -0.0592226, 0.0027650641, 0.01716461, -0.10407286, 0.126895, 0.06560819, -0.08709344, -0.091142416, 0.02995364, -0.12092847, -0.027244933, 0.10675285, -0.04858055, -0.12738453, -0.122370616, -0.01652724, 0.040189248, 0.040445104, -0.041808937, 0.026702933, -0.10535107, 0.08799382, 0.10642393, -0.016757334, 0.080087654, 0.12017708, -0.048946135, -0.0076530045, -0.05611588, -0.07887061, -0.057125196, -0.11244947, 0.04010034, 0.08453476, 0.037703093, 0.057281002, 0.086589284, 0.01928681, 0.011433537, -0.0804664, 0.08890265, 0.0011307233, -0.058308166, 0.025309537, -0.113340005, 0.055445008, 0.049201205, 0.10649635, -0.015432159, 0.09915214, 0.040477607, 0.09551705, -0.043196317, 0.114512466, -0.09384248, 0.039633505, -0.060075738, -0.12675405, -0.039251033, -0.08280198, -0.08103721, -0.013488067, 0.048931297, 0.051738933, -0.12576626, 0.059390843, -0.10615479, 0.044033416, 0.006338434, 0.12746133, -0.07556852, -0.096194476, -0.11781474, 0.038344987, 0.12730195, -0.014980344, -0.11641984, -0.021873351, -0.07985487, -0.018376531, 0.03254223, -0.060288165, -0.10105698, 0.12019177, 0.10154495, 0.05694367, -0.02326141, 0.058200285, 0.1056998, -0.08002751, 0.07932455, 0.10011369, -0.049341667, 0.023097692, -0.004491867, -0.0987605, 0.05226083, 0.1287185, -0.036489047, -0.042084, -0.045111336, 0.10626927, -0.035475057, -0.076808296, 0.100401044, 0.029995592, 0.102284856, 0.022426002, -0.09049851, 0.0813326, -0.054463673, -0.08659638, 0.042959098, 0.051117413, 0.11941664, 0.123418555, -0.050689343, 0.11010084, -0.0018649731, 0.10861669, -0.08958395, -0.06138092, -0.060248613, -0.12027347, 0.10332062, -0.018448109, -0.12011731, 0.11115, 0.08085496, -0.036793508, 0.030707097, -0.011832381, -0.04170453, -0.047044396, 0.11348124, 0.029371118, -0.03351253, 0.042205255, 0.08412592, -0.112177745, 0.021049501, -0.09976684, -0.09080641, 0.015182921, 0.028286241, -0.019910453, 0.0020595316, -0.08748456, 0.10136731, 0.0030615805, -0.123305134, 0.05276154, 0.05526881, -0.11784135, 0.04477085, 0.12281855, -0.029345663, -0.025065407, -0.06925308, -0.11677177, 0.12870699, 0.03553848, 0.088249296, 0.013731473, 0.042691328, -0.08771443, 0.009971178, -0.06583964, 0.12596717, -0.121948, 0.04047251, 0.11412336, -0.05899708, 0.096746296, 0.010417376, -0.04390705, 0.0633425, -0.05213736, 0.063376136, -0.07059524, 0.10322068, -0.021819642, 0.07637983, -0.09921124, 0.040828496, -0.0044338475, 0.06410634, 0.106657065, 0.036571246, 0.0038464474, 0.03574781, -0.044910684, 0.08489003, 0.01820515, 0.10158126, -0.07650779, 0.123271935, 0.076512806, 0.0937614, -0.019327609, -0.015907353, -0.069142826, 0.014713807, 0.01389182, 0.06505569, -0.0008686341, 0.12864847, -0.029510612, 0.044428136, -0.11049705, 0.10466728, 0.06864607, -0.025233572, 0.07923184, -0.03465741, 0.06791102, -0.015842546, 0.0022685414, -0.10592861, 0.10121192, -0.044242427, -0.09728489, -0.041282296, -0.11175186, -0.11305114, 0.05864705, -0.022045473, 0.11354461, 0.08991911, -0.09301595, 0.10541729, -0.07085567, -0.10234258, 0.024574425, -0.03638298, 0.05109944, 0.018871823, -0.044988386, 0.04507426, -0.028298061, -0.017499356, -0.09572095, 0.038957182, -0.020946959, -0.08854826, -0.11404521, 0.093199395, 0.06842038, 0.027048867, -0.088965185, -0.06972239, -0.036666755, -0.04217146, 0.0042581875, 0.064110376, 0.08003921, 0.11495398, -0.055613633, -0.105989024, -0.11935085, -0.088466756, -0.039180472, -0.047366273, -0.02981921, 0.07292483, -0.081067756, 0.08551929, 0.11131405, -0.02856509, 0.103003256, -0.09630062, -0.09337133, 0.0784151, -0.038326904, -0.052807987, -0.016865201, -0.024305934, 0.042313877, 0.11220833, 0.029525125, 0.024686094, 0.094764836, 0.049255703, -0.04712696, 0.0748222, 0.007013064, -0.028520552, 0.04259822, 0.03420938, -0.039979007, -0.122104496, 0.033507112, -0.030145813, 0.07429184, -0.066497274, 0.11014452, -0.054134022, -0.042034168, 0.029505687, -0.0354675, -0.08172703, 0.054969907, -0.09568503, 0.11362161, 0.096139655, 0.12641376, -0.04760843, 0.020233208, -0.00478232, 0.078169264, 0.10923185, -0.09371917, 0.11758177, 0.121371135, -0.009153592, 0.0963283, -0.036194887, -0.038756944, -0.11669099, 0.00299702, -0.021440605, -0.11928284, -0.12638693, -0.10801076, -0.028383937, 0.01380419, 0.027127894, -0.059921194, -0.10656842, -0.07136399, 0.059872624, 0.047009367, -0.060558625, -0.07326613, -0.07429268, -0.06840389, 0.12838256, 0.04074739, -0.0010084355, -0.02081613, -0.015930407, 0.10034566, 0.09096961, 0.06964178, -0.118836015, -0.121263005, -0.091331005, 0.12776162, -0.029898314, -0.08063589, 0.03551284, -0.009313755, -0.115728155, 0.09728164, -0.100059055, 0.04747605, -0.09584034, -0.009403323, -0.013653924, -0.043891907, 0.01741148, -0.09183138, -0.05039743, 0.07149901, 0.08133305, 0.04556246, 0.008234525, -0.010051051, 0.09828902, -0.12489598, 0.097349934, 0.023765903, 0.091141924, 0.0066352272, -0.04964168, -0.084590144, 0.05945699, -0.017112393, -0.10601359, 0.09134233, 0.09054803, 0.098619945, 0.12107674, -0.026712844, -0.049254686, -0.05258702, -0.10291998, 0.05458738, -0.110112585, 0.009841318, -0.119839735, 0.09177391, -0.10686758, 0.05609312, 0.027464224, 0.09166115, 0.121077806, -0.12577249, 0.077857405, 0.04486005, 0.013259312, 0.04397078, 0.09057981, 0.042171367, 0.053347185, 0.088905506, -0.01920926, 0.1249779, 0.112943456, 0.010257845, 0.038927216, 0.08268754, -0.1067158, 0.011230976, 0.015937332, -0.10385256, -0.082354225, -0.031602755, 0.0028517244, 0.09282438, 0.10072035, 0.0028025692, -0.10891419, -0.019043928, -0.01825169, -0.045139484, -0.036282487, -0.011691625, 0.07068366, 0.033949, 0.05183552, 0.10764911, 0.07587297, 0.066866785, -0.017591048, -0.11905695, -0.004509781, 0.021630146, 0.1035345, 0.028241688, 0.0850202, -0.086163245, -0.11432418, 0.06784703, 0.064916894, -0.11786347, 0.008620334, 0.112624064, 0.046098504, -0.09960134, -0.0026591665, -0.1105792, 0.052369114, -0.025140772, -0.05780038, -0.1203211, -0.08577982, -0.10306311, 0.062368024, -0.12492859, -0.015397548, 0.09605161, 0.09590601, 0.026001172, -0.12800248, -0.11674312, 0.082077056, 0.08599308, 0.07531235, -0.122116424, -0.023265764, -0.096158326, 0.030335125, 0.077482864, -0.070765175, 0.056061324, 0.11829467, 0.10282992, -0.016981471, -0.11933895, 0.12088078, 0.12276481, -0.085435905, -0.023252899, 0.028914763, 0.038431756, -0.06981356, -0.06884177, 0.009181725, 0.0808643, 0.061007593, -0.024817908, -0.05674314, -0.009279804, -0.099949725, 0.0044573937, -0.11887897, 0.11112573, -0.0636733, 0.060594436, -0.06299589, -0.07382845, -0.037962656, -0.0014324106, 0.0254265, -0.07888788, -0.0035409126, 0.08315273, 0.03331903, -0.01393465, -0.11268713, 0.060655583, 0.041089598, -0.017825883, -0.090848684, -0.00048147154, 0.10703072, -0.06407404, -0.012230593, -0.0877323, 0.09640521, -0.02310511, -0.04926364, -0.08328246, 0.068266325, 0.032632444, 0.046609063, -0.038314424, 0.084277146, -0.025116595, -0.014809348, -0.06333066, -0.03120382, 0.014457474, -0.008891365, 0.015734032, -0.047017757, 0.10017786, -0.09724146, -0.001987184, 0.01647236, 0.020424983, 0.08369262, 0.03333205, -0.029206833, -0.0010556054, -0.014995996, -0.12683992, 0.048150785, -0.115011714, -0.08645715, -0.0057692863, -0.040720366, -0.031699926, -0.10933958, 0.0013518909, -0.116406366, -0.114839055, -0.08481239, -0.072770394, 0.007643263, -0.11688147, 0.0926065, 0.0772731, 0.071733534, -0.008186016, 0.011408591, 0.1027625, -0.0037077235, -0.104715824, 0.07709159, -0.1055958, -0.0036903482, -0.04890689, 0.01483054, 0.005574836, 0.06597587, 0.12387505, 0.006402348, 0.12197034, -0.0662093, -0.0864633, -0.06897463, -0.052082047, -0.114888236, 0.039269395, 0.1095675, 0.010576922, -0.085372575, 0.049177106, -0.06788535, -0.042128492, 0.032683477, -0.05063837, -0.026438551, -0.014807147, 0.03974311, -0.0343992, 0.03738571, -0.08896368, 0.030378493, 0.047413412, -0.06531817, 0.093478754, -0.104884125, 0.08168934, -0.06879478, -0.11572746, 0.12298941, -0.1029077, -0.03562406, 0.1124921, 0.090419665, -0.10373969, 0.108735375, 0.109848924, -0.07696409, 0.10246938, 0.11317818, -0.019873578, -0.01590689, -0.016670028, -0.05360715, 0.08182489, -0.016802473, 0.0008149851, -0.082433425, -0.075221695, 0.11370114, 0.0085656075, -0.006052398, -0.111443065, -0.09824993, -0.08571677, 0.027888076, -0.03875236, 0.035022058, -0.09448342, 0.074001566, -0.03974117, -0.06655559, -0.08916022, 0.021775996, -0.047950625, -0.122433916, -0.07250517, -0.07817602, -0.08607295, -0.044955716, 0.10736238, 0.032824233, -0.06602187, -0.1176385, 0.043501973, 0.11989717, 0.06706958, 0.10596902, 0.03040815, 0.053422675, 0.06020161, -0.10567682, 0.015692417, -0.08574503, 0.017046355, 0.09442197, -0.07498729, 0.0479931, -0.024888424, -0.12842195, 0.05580113, -0.07071604, 0.0052504637, 0.08685548, 0.016128888, 0.055775568, -0.016454816, -0.02929463, 0.052850693, -0.029712943, 0.07000889, 0.002852186, 0.10867772, -0.073981024, -0.076183714, -0.019118214, -0.043896217, 0.038556337, -0.12869287, -0.08326803, 0.034141004, -0.061561134, 0.06287814, 0.08398272, -0.08074411, 0.018136064, 0.061732225, 0.095167786, -0.07998796, -0.09985066, -0.09971046, -0.06514503, 0.05553116, 0.08717393, -0.07302507, 0.009974594, -0.09821772, -0.08235233, 0.11193723, 0.050855923, 0.038990963, 0.032958064, 0.04668084, 0.07641143, -0.07813899, -0.11751539, -0.10639778, 0.08991054, 0.115994014, -0.08208897, 0.08087698, 0.0006834018, 0.0136727765, -0.02331318, 0.00512182, -0.039150015, -0.00214256, -0.1276601, 0.107869215, 0.09129698, 0.06454234, -0.017428486, 0.1179577, 0.10324937, -0.01896093, 0.12090702, 0.06779135, -0.099442594, 0.08104473, -0.09580459, 0.022031143, -0.1051777, 0.05434451, -0.09666539, -0.023737801, -0.08178376, 0.10202752, 0.06685371, 0.11995345, 0.0037295155, 0.06360355, 0.120903805, 0.05376936, 0.12345021, 0.10324705, 0.07289955, 0.11663828, -0.10974889, -0.004501101, -0.027009761, -0.045413226, -0.093937665, -0.073973946, 0.051217817, -0.08055677, 0.06508632, -0.12821943, -0.078300446, 0.058502432, 0.07583116, -0.12271615, -0.085374795, 0.05573132, 0.09107202, 0.025603052, 0.11250033, 0.034183633, 0.015014402, -0.04853027, -0.028289367, 0.118941754, 0.046568986, 0.027734455, 0.0008639556, -0.054620575, 0.04761017, 0.07710677, 0.10557451, 0.0028435986, -0.10736648, -0.120050654, -0.11767942, -0.021764252, 0.021646582, 0.08413405, 0.11771232, 0.007762657, -0.10760565, -0.11774172, 0.055420585, -0.01892521, 0.013761468, -0.00802136, -0.09164467, 0.0335046, 0.08528606, 0.10554906, -0.11961047, -0.07173908, -0.10961855, 0.07261408, -0.10532041, -0.10667893, -0.07905458, 0.013310684, 0.07300186, 0.03956554, -0.045961596, -0.08050975, -0.0987993, 0.035126522, -0.0020975447, 0.10624733, -0.12663676, 0.08202359, 0.1209327, -0.104817115, -0.1231141, -0.041420143, 0.03573082, 0.029801758, 0.038999088, -0.051523227, -0.024837714, 0.050195098, 0.108681984, 0.1202378, -0.07840342, 0.094113044, -0.021773964, -0.04586844, -0.052979305, 0.08274439, 0.045244046, 0.05681463, -0.047214713, -0.028216772, 0.0810516, 0.018414205, 0.091962114, -0.0914582, -0.10913796, -0.027730145, 0.012391186, 0.019932322, 0.084611535, -0.12079642, -0.009181602, -0.015865553, 0.06546545, -0.08416497, -0.0631019, -0.03514898, 0.11019702, 0.120611556, -0.10775932, -0.009788823, 0.12522902, 0.028368717, 0.10625962, 0.09778794, 0.076992616, -0.035231423, 0.07606377, -0.08082357, -0.03214825, 0.12288474, 0.06291509, 0.02091881, 0.07338422, 0.02947457, -0.06106132, -0.12561889, 0.08385983, -0.041296255, -0.042312045, 0.041407093, 0.105933055, 0.04422719, -0.0069930567, 0.015316767, 0.084214926, 0.09400383, -0.044104826, -0.002649086, 0.0712188, 0.08553785, 0.060131356, -0.010584633, -0.11864506, -0.0638766, 0.115607515, -0.056997567, -0.01800819, -0.082378544, 0.116823465, -0.05619057, -0.07302553, 0.037004333, 0.095108844, 0.06589864, -0.046215374, 0.031079639, 0.0072408332, 0.0058236127, 0.12301188, -0.11968339, 0.116589844, 0.016029855, -0.106455795, -0.061704632, 0.026910298, 0.05265055, -0.015244111, 0.102443665, -0.05601902, 0.09339619, -0.112789, 0.09218937, -0.05585852, -0.022816503, -0.098342635, -0.118817605, -0.092309475, 0.06917574, 0.040422525, -0.12662366, 0.08738725, 0.06760958, 0.0013222193, -0.08502026, 0.07184741, 0.047815565, 0.10778251, -0.012283765, 0.095714726, -0.053611, -0.08781907, -0.08375349, -0.040229153, -0.0075137573, 0.057475854, 0.039343465, -0.004801265, 0.059505805, 0.09442064, 0.09509733, 0.12791039, -0.09792205, 0.053159878, -0.06804505, 0.03588284, -0.043325145, -0.08033294, 0.017493524, -0.06874769, 0.0024658854, 0.0143864965, -0.0415436, -0.05034064, 0.025159854, -0.09802973, 0.0760192, 0.03838271, 0.055388864, 0.11340292, -0.09498686, 0.011475783, -0.01776103, -0.10738461, 0.050265152, 0.08045487, 0.114063494, -0.019903542, 0.089576304, -0.04221058, -0.014558693, 0.069663614, 0.0742445, -0.120716594, -0.05456877, -0.12118244, 0.012690335, -0.074447304, 0.12698969, -0.10550832, 0.12760618, -0.08448174, -0.05901567, 0.10768809, -0.011337397, 0.10552325, 0.01962154, 0.07150989, -0.04920496, 0.12202428, 0.05450687, -0.017249377, -0.101857804, 0.0021517323, 0.010511947, -0.12436583, 0.0969931, -0.02781208, 0.031391636, -0.021376768, 0.11305117, 0.08393412, -0.0008564607, -0.11537436, 0.0885088, -0.122480944, -0.054533176, -0.047196507, 0.120547995, -0.10350505, 0.03230041, 0.059196994, 0.043291427, -0.073287465, 0.050135, 0.12574922, -0.06737442, 0.10799479, 0.09715582, 0.09640707, 0.12222421, 0.06923093, -0.039795835, 0.11096018, 0.124688715, -0.08365463, -0.034925148, 0.092692666, -0.006443208, 0.11363427, 0.06525615, 0.0015095753, 0.0057986197, -0.018844228, -0.038870383, -0.08783504, 0.06542482, -0.08684616, 0.016833175, -0.123019315, -0.08421717, 0.040319905, 0.016265258, 0.019057363, 0.045835845, 0.099040985, 0.0062776594, 0.07602943, -0.001384348, 0.11166491, 0.055652663, 0.036594808, 0.08747103, -0.062329367, 0.118486494, -0.07218447, -0.115929544, -0.11434875, -0.118127614, 0.095608585, 0.12069823, 0.10101429, -0.012598995, 0.12894976, 0.11172204, 0.0019672387, 0.043715063, 0.030828075, 0.091326155, -0.07086406, 0.1092308, 0.04209171, -0.06996958, 0.063189164, 0.021199953, 0.016233832, 0.016910601, 0.04440019, -0.07026502, -0.10947033, 0.10578177, -0.012987913, 0.008950816, -0.0061783027, -0.069551036, 0.023977514, -0.08011404, 0.029631162, 0.07726253, 0.028467335, -0.11669995, -0.046267577, -0.047536656, -0.07527372, 0.068388924, -0.07020174, 0.09396882, -0.12431083, -0.026411759, -0.09722286, -0.10666265, -0.055902224, -0.06169081, 0.03940478, -0.07132033, 0.058085185, -0.013808376, 0.02217213, -0.119393386, 0.070572495, 0.05219618, -0.06626075, -0.05121043, 0.096119635, -0.054273933, -0.012424706, 0.017167026, 0.09372279, -0.11068413, 0.10826394, 0.060636066, 0.025765445, -0.052531432, -0.07650454, 0.03944199, -0.083827265, -0.07319674, 0.12579896, 0.015785234, 0.04281206, -0.02990013, -0.028186193, -0.03360279, -0.1007063, -0.101805985, 0.09091174, 0.07623964, -0.011267019, -0.12715743, -0.011485339, 0.050489537, -0.03181872, 0.11777985, 0.029525602, 0.10141801, -0.09805974, -0.02134731, -0.047669716, 0.09437623, 0.011251167, 0.08549151, 0.0042061084, 0.053261712, -0.051733114, -0.009458804, -0.07543155, -0.0049991165, 0.09555506, -0.07545819, -0.037902914, 0.07700496, 0.021691505, -0.04427545, -0.08309185, -0.107649654, 0.0544688, 0.06953123, -0.12097074, 0.065408185, 0.031643692, 0.08993496, 0.12847412, 0.11832445, 0.03239895, 0.09234943, -0.016191063, 0.10422938, 0.09859675, 0.0037796095, 0.094340414, -0.11191113, 0.0606859, 0.011978169, 0.019679928, 0.06458759, -0.018811787, -0.02103716, 0.072911456, 0.07657283, 0.081044674, 0.0630365, 0.060017057, 0.08839105, 0.06900268, 0.09292595, -0.064683564, -0.05165521, 0.03502935, 0.06837724, 0.09412197, -0.09177782, -0.04904106, 0.1170279, -0.054164357, 0.002712523, 0.02365442, -0.049046353, 0.12381061, 0.07472775, 0.046203833, -0.07407021, -0.11090811, 0.061976783, 0.08254091, -0.09178673, -0.034589466, -0.06658618, -0.031176949, 0.054227147, -0.012869688, -0.055564865, -0.12800154, -0.027641023, -0.06508592, -0.060576692, -0.117083386, -0.051139772, 0.0015503276, 0.08781093, -0.12200708, -0.00519563, -0.083135694, -0.103778906, -0.122112036, 0.11450522, 0.013010566, 0.016215427, 0.11958528, 0.10165395, 0.0676903, 0.09747248, -0.09238216, -0.028857714, 0.04359045, 0.115075454, 0.076596804, 0.12435541, 0.106200606, 0.11074558, 0.020003224, -0.027365344, 0.06452885, 0.016594678, 0.030075712, -0.022590227, -0.016978055, -0.0084103085, 0.093471535, 0.10399841, -0.12421012, -0.106817365, 0.043469686, 0.12767407, -0.031415414, 0.11795028, -0.088057585, 0.10483018, -0.121920876, -0.065252826, 0.044899125, -0.120380245, -0.009427039, -0.124778725, -0.07186812, -0.09400213, 0.037376706, 0.03068729, -0.10985398, 0.055308193, -0.121900685, 0.059407495, -0.032013632, 0.011242411, -0.00084939675, 0.0488081, 0.04120453, -0.017046787, -0.09707128, -0.11750957, -0.049938563, 0.04991848, -0.054778982, -0.09786067, -0.12620647, -0.034878515, 0.04690384, 0.07626488, -0.059929427, 0.029717714, -0.10405329, -0.079033315, 0.02120477, -0.11936504, 0.056754023, 0.013932126, -0.06748631, -0.05903052, 0.07185329, -0.004896836, 0.0803104, 0.046828136, -0.044706784, 0.035334177, 0.113006584, 0.06888998, 0.10182232, 0.012654999, 0.030424539, -0.11856772, -0.09354368, 0.0035680297, -0.06997317, 0.06252628, -0.07973609, -0.08645441, -0.11129776, 0.06801543, -0.10488479, 0.06667783, -0.00066167134, 0.0040368354, -0.005534468, 0.062756605, 0.05942456, -0.01616147, 0.059639297, 0.11019462, -0.113808006, -0.076515935, -0.12087892, -0.104341604, 0.08085155, 0.09830462, -0.074105695, 0.09865631, 0.013518693, 0.07988095, -0.006513109, 0.049158406, 0.09587489, 0.050304275, -0.051314726, 0.10926134, 0.0740932, -0.12644199, 0.104983374, 0.08711831, -0.009042, 0.041149266, -0.059850182, 0.06126168, -0.07209516, 0.030306207, 0.06426467, -0.08814843, 0.11768859, 4.202969e-05, -0.12888958, -0.09997464, -0.10429406, 0.09022646, -0.06056209, -0.10949663, -0.10523875, 0.04546061, 0.09000223, 0.045910746, -0.015391792, 0.061578326, -0.08982895, -0.07129611, 0.07354463, -0.11024296, -0.07158444, 0.12767431, -0.11505763, -0.05265212, 0.086017475, -0.05920678, -0.07696825, 0.050556514, 0.06357196, 0.046781905, -0.12374198, 0.015764058, 0.108475536, 0.11621279, 0.081253685, 0.04549887, -0.11207699, 0.11979391, -0.117416285, -0.08548151, -0.10772181, 0.06561882, -0.0140246805, 0.019758863, 0.12495525, -0.050145403, -0.060482938, 0.026709089, -0.009074411, -0.04843328, 0.05349231, -0.078781255, 0.1019297, -0.06737951, 0.06989146, -0.026156425, 0.1034776, -0.02442976, -0.017660087, 0.11116759, 0.011967827, -0.109766126, 0.020264266, -0.04864802, -0.07973657, 0.09970016, -0.09717693, 0.109317206, 0.042745702, -0.11190641, 0.07983898, -0.10319526, 0.0066225, 0.08673438, 0.07826325, -0.103234366, -0.07345451, -0.10442492, -0.08009695, 0.12048173, 0.12734099, 0.12590007, 0.06850188, 0.112015136, -0.102451466, -0.036556657, 0.081370875, 0.07060333, 0.018180495, 0.0077474676, 0.024425482, -0.05311494, 0.041868743, -0.020690842, -0.0626958, -0.026684944, 0.11023886, -0.123846166, -0.11551595, -0.09145888, 0.11052043, -0.10075158, -0.079170085, -0.04417285, 0.11409363, 0.03819794, -0.016502354, 0.015959447, 0.07001214, 0.10634422, -0.11717085, 0.071775444, -0.104225904, 0.024364939, -0.09233609, 0.026249627, 0.09695252, 0.108166456, 0.060437784, 0.04945203, -0.07919777, 0.12216916, -0.08745445, -0.004507457, 0.11249099, 0.007810366, 0.028236825, -0.022630949, -0.004232225, 0.038474433, 0.09594638, -0.08920031, -0.08630314, 0.00376799, 0.10143909, -0.038211174, -0.080546, -0.050093032, -0.0361389, -0.07199013, 0.124749824, -0.09916358, 0.017250948, 0.07256395, 0.0879496, 0.10514962, -0.0010232405, 0.08507748, -0.017594358, 0.10146095, 0.055265978, 0.06268364, 0.03784371, 0.036271084, -0.11336912, 0.049332127, 0.02720986, -0.11725543, 0.0793324, -0.055203356, -0.01301329, 0.04397455, -0.022695508, -0.09384243, 0.040021375, 0.12556727, 0.11847886, 0.0649989, -0.02253096, 0.008683063, 0.023669502, 0.06094731, -0.07364967, 0.013643628, 0.07345714, -0.06830926, -0.05969473, -0.09546235, -0.10840037, 0.03130716, -0.045287136, -0.09407643, -0.06559748, -0.08319145, 0.089573115, 0.08252115, 0.12692024, -0.0065625566, 0.09014419, -0.10218193, -0.04918654, -0.12834941, -0.06928769, -0.003588175, -0.04636327, 0.064323075, 0.036921825, 0.12713422, 0.07675252, 0.03454611, 0.056109097, -0.051717386, 0.07882744, 0.098295115, -0.009596051, -0.013132762, -0.031570684, -0.10442026, -0.11349098, -0.040057093, 0.045645643, 0.10935043, -0.083979964, -0.07209475, 0.12404839, 0.044383768, 0.045178883, 0.118536405, -0.075164735, -0.089761935, 0.032785974, -0.029259343, -0.11033786, 0.10562663, -0.09582309, 0.12563471, 0.10987359, 0.05941273, -0.039065618, -0.088505074, -0.0054758326, 0.02522143, -0.048591353, -0.036292505, 0.059865575, 0.029406376, 0.078901745, 0.0031380064, 0.003048222, 0.067084186, 0.11486435, 0.058370065, 0.104209386, 0.045928955, -0.10462822, -0.012119955, 0.03299132, -0.014582686, 0.090392485, -0.034432717, 0.024796331, -0.10231168, -0.06458857, 0.060981847, -0.090569764, -0.097107075, 0.0045561506, -0.02851349, 0.1020152, -0.044112395, -0.11714848, -0.09768951, 0.08949446, 0.008572964, 0.06691163, 0.021607123, 0.010697225, 0.08864457, 0.025911218, 0.045776825, 0.0840109, -0.08592581, -0.057448458, -0.050990183, 0.06269843, 0.10400569, -0.11251103, -0.11836337, 0.009614503, -0.09814174, 0.105178595, -0.056374215, -0.04650606, -0.019398017, -0.06121191, -0.09328189, -0.021091517, 0.027852986, -0.09441319, -0.106372215, -0.0639584, -0.06411685, 0.11753603, 0.015925819, -0.11167894, 0.078574866, 0.046377845, 0.007963126, -0.045171402, 0.11053102, 0.0823662, -0.0148875285, -0.0695007, 0.039749358, -0.11251444, 0.076666765, -0.075439505, 0.049433853, 0.035751507, -0.011985495, 0.04811256, -0.0053548994, -0.05859474, 0.009800197, 0.05048735, -0.0924729, 0.10595618, -0.028620817, 0.12443031, -0.046331108, -0.0122953225, 0.10385199, -0.025326004, 0.02458937, -0.08620734, -0.06635663, -0.06739096, 0.023598924, -0.09148703, 0.08168786, -0.12306036, -0.12813358, 0.10609029, -0.09233233, 0.072289556, 0.058777064, 0.1264393, -0.011326224, 0.05383098, 0.10474191, -0.014014739, -0.09938065, -0.067074046, -0.048848316, 0.03402792, -0.0328891, -0.10328412, -0.027228544, 0.0033441996, -0.040126562, -0.067538865, 0.057938904, -0.08361682, 0.013793233, -0.022720562, -0.123492934, 0.11781116, -0.11602281, 0.0024481255, -0.02093951, 0.1042177, -0.06955324, 0.012400789, -0.08201591, 0.061326962, -0.0027062288, 0.043569982, -0.006367259, 0.0018929058, -0.09054049, -0.122973114, -0.08254488, -0.0045361747, 0.016523054, -0.023175318, 0.104093365, 0.0080733625, -0.09160056, 0.039713822, -0.10084794, -0.022781184, 0.013726102, 0.04100451, 0.038564123, -0.0004189272, 0.0900401, 0.053325854, 0.08211455, -0.024672598, -0.02133717, -0.07220554, -0.09490367, -0.008200483, -0.019113658, 0.098516345, 0.083901845, -0.027393615, -0.09781304, -0.12324842, 0.108916774, 0.037452932, 0.016069947, -0.0038486791, 0.05411802, -0.086970046, 0.062178947, 0.078823745, -0.091182895, 0.120883614, 0.062467366, 0.1179711, -0.12416626, 0.039759792, 0.03506301, -0.09168352, -0.1280361, 0.07237789, -0.030749172, -0.0061341184, 0.06833309, 0.0178546, -0.07723034, 0.08010318, -0.017355537, -0.06504486, -0.05265966, 0.09496817, -0.11537305, 0.038510628, -0.0063573634, -0.092918634, -0.0011187192, 0.046993118, 0.112493485, 0.0747463, -0.114418246, 0.016915157, 0.06495852, 0.09773109, 0.05972485, 0.027970888, 0.06662361, 0.013421137, -0.0016764167, -0.10376848, 0.02249932, -0.09388689, 0.027077708, 0.11709585, -0.069656216, 0.0415456, -0.10235162, -0.03338396, 0.04934587, 0.06665634, -0.039228335, -0.06470934, -0.11583237, 0.07930277, -0.09150562, 0.077699475, 0.07784254, -0.0020781995, -0.055851314, 0.008686664, 0.06119284, 0.0025611792, -0.097992904, -0.034896754, 0.034576643, -0.007587244, 0.084974885, -0.030021848, -0.033893675, -0.019319914, 0.08836398, -0.010010868, 0.0006450195, 0.11073726, 0.106235445, 0.10690491, -0.011464455, 0.0120885605, -0.1178133, -0.09964564, 0.08122054, -0.06302722, 0.11433568, 0.07104803, 0.007930592, -0.12008462, 0.084038585, -0.087713405, 0.12289355, -0.05235405, 0.08163221, -0.04100554, 0.120752774, -0.10166933, 0.052470997, -0.059364803, -0.032433823, -0.080465324, 0.07972578, 0.050476395, 0.12706038, -0.051907834, 0.041802887, -0.018070642, 0.07677384, -0.08139235, -0.063834265, 0.06066825, 0.113728106, 0.06210843, 0.046894867, 0.04372331, -0.06751915, 0.024902921, -0.08193045, -0.054399792, -0.09982265, -0.11824663, 0.037771545, 0.007864369, 0.038277965, -0.006289494, 0.11950227, -0.0077346787, 0.12183373, -0.08159868, -0.005878385, 0.05723423, -0.07444732, -0.105918676, -0.11047807, 0.0056146337, -0.08789862, 0.029124327, -0.039870784, -0.111861795, -0.005278827, -0.07564394, 0.02260617, 0.080572374, 0.044108197, -0.09653896, -0.041344546, 0.04476057, -0.0041244654, -0.041035764, 0.032300778, -0.025369357, -0.019940216, 0.12688483, 0.00010605148, -0.101696424, 0.016367648, 0.1038648, -0.028770283, 0.1062541, 0.008328235, 0.12766236, -0.0272819, -0.040058617, 0.0051746224, 0.047104537, -0.040229477, 0.013456164, 0.12289819, -0.055973448, 0.059296843, 0.040435575, -0.04781509, 0.034724433, -0.10856407, 0.0012965797, 0.096178606, -0.046737675, 0.12222001, 0.0041145696, -0.090316765, 0.013777535, 0.05148832, 0.10336413, 0.024908662, -0.017616596, -0.07231795, 0.1167869, 0.056302592, -0.05319207, -0.085224, -0.068768345, 0.11805365, -0.038923107, 0.08000852, 0.030449608, -0.06355619, 0.010433212, 0.034587942, -0.03161859, -0.01607384, 0.12483547, -0.08908715, -0.12372069, 0.022185473, -0.018943924, 0.025401767, 0.09353003, -0.028331196, 0.10054394, -0.03872473, -0.07813515, -0.040029347, 0.095427014, -0.015365521, -0.057267968, -0.058457095, 0.03446116, 0.04966055, -0.12783514, -0.09157406, 0.082133785, -0.07727424, 0.013733705, -0.09988344, -0.042046092, 0.044321854, 0.11519416, 0.041293345, -0.11370151, 0.025137294, 0.00043890323, 0.07170898, -0.03832018, -0.12348261, -0.026306676, 0.025959788, 0.032485086, -0.1113171, -0.077690765, -0.042824667, -0.0020806927, -0.02825657, -0.11211397, -0.02656341, -0.07665151, 0.07252887, 0.006612943, -0.09370764, 0.098491, -0.06170329, -0.021826798, 0.09296673, -0.012120525, -0.015196987, -0.08636139, -0.032275677, -0.0046554613, 0.120890066, 0.091017425, -0.048849408, 0.10789629, -0.12616035, 0.035956312, 0.030901948, 0.098871544, -0.030574497, 0.11019446, -0.053730533, -0.0014655757, -0.08128471, 0.12428912, -0.027369821, -0.122165084, -0.0880509, 0.008565299, -0.123720504, 0.108903706, -0.0061486, 0.1206761, 0.024658438, -0.107247084, 0.04492837, -0.028780425, 0.060239285, -0.122199945, 0.043138836, 0.06430253, 0.023219995, 0.07317483, 0.053620957, 0.07455565, -0.067245565, 0.0039798007, 0.023461876, 0.102785535, -0.060193654, 0.08054181, -0.085902266, 0.095756, -0.0821743, -0.03442873, -0.10688891, -0.091128275, -0.056639183, 0.04572821, -0.12089924, 0.107268706, -0.071523495, 0.047438484, 0.06320397, 0.10932419, -0.008396812, -0.097637154, -0.07265439, -0.028495422, -0.08841144, -0.05383135, 0.08593234, -0.119580895, 0.08006873, 0.11182618, 0.041765645, 0.055971432, -0.11979394, -0.062248908, 0.11963712, 0.020112613, 0.10332795, 0.041639093, -0.047854487, 0.036380537, 0.084942125, 0.109917685, -0.054450393, -0.070577376, 0.05031734, -0.054433927, -0.0042300243, -0.124317035, 0.1130274, 0.12102157, -0.11816818, 0.044283085, 0.056557816, -0.12754093, -0.1150301, 0.09891157, 0.01569805, -0.058057927, 0.044478953, 0.029736381, -0.03767713, -0.054527864, 0.00962049, -0.11533613, 0.11187423, -0.037379276, -0.08398467, -0.036780488, 0.05198129, -0.073761426, -0.035485215, 0.09548026, -0.12828895, 0.036950175, 0.0043435246, -0.0790909, -0.024863876, 0.018851861, 0.009909465, -0.02114969, 0.046749804, 0.023471942, 0.092946835, 0.07640596, 0.10201573, -0.033050492, 0.060027167, -0.0531574, 0.02747118, -0.08806719, 0.052485522, 0.059073858, -0.021255696, 0.049679168, 0.0047990023, 0.11469177, -0.07606582, -0.05563786, -0.003317175, -0.016559098, -0.082417615, 0.002704905, -0.06984748, 0.02579147, -0.025208348, -0.046390634, -0.030562833, 0.05665008, 0.06839632, -0.122028865, -0.060423426, -0.011683976, -0.028850064, 0.024722967, -0.02870343, 0.06859681, -0.12531911, -0.07975773, -0.09897901, -0.103947096, -0.006665684, 0.024531133, 0.045496114, -0.039126515, -0.06449878, -0.12782806, 0.049534075, 0.11761027, -0.063549675, -0.11626771, -0.06966548, -0.04163806, -0.12203565, 0.06917797, 0.07445188, -0.018937169, 0.09762307, -0.014973758, 0.12109064, -0.08440568, -0.059235975, 0.12140641, 0.03363865, 0.04604584, 0.107225165, -0.117252074, -0.11337674, 0.045044545, 0.055373568, 0.08834408, 0.071242966, -0.09921287, 0.014564649, 0.119554795, -0.0008030733, 0.03101317, -0.013287491, 0.025183216, -0.087629855, -0.035137344, -0.085191965, 0.10243172, 0.034999896, 0.049614564, -0.0023996013, 0.0044666585, -0.102896385, 0.00451843, 0.08099578, 0.0761491, 0.08487182, 0.078436695, 0.07049016, -0.044425335, -0.05647074, 0.04387861, -0.04433172, -0.049946953, -0.11423948, -0.022437513, -0.11868887, 0.02487816, -0.055393238, -0.053557873, 0.08209842, 0.013427539, 0.02589903, 0.04183796, -0.041828588, 0.057830233, 0.109658584, -0.0042965547, 0.07072022, 0.12589, -0.09772117, 0.024262812, -0.10704734, 0.08262909, 0.06089403, 0.038445882, 0.11180332, 0.09175338, 0.10823009, 0.07120928, 0.045386214, 0.096706115, -0.01805833, 0.10584522, 0.08489972, -0.10715444, 0.08110165, 0.0030988546, -0.103480615, 0.08950411, 0.07804947, 0.025383562, 0.059292424, -0.09000583, -0.08411312, 0.073763765, -0.05430522, -0.05249982, -0.11398075, -0.005238998, 0.049787037, -0.069779254, -0.105165884, -0.09134936, -0.049514543, -0.041074287, 0.057549078, -0.06302983, -0.08008484, -0.048680704, -0.1254399, 0.029868057, -0.05332438, -0.12870389, 0.10450774, -0.033433195, 0.046435744, 0.050406832, 0.04192162, 0.013523864, 0.083961695, -0.02297765, -0.02770917, 0.10116201, 0.09124568, 0.084100574, 0.09699584, 0.039234076, 0.048224613, 0.07936059, 0.04511697, -0.04429806, 0.10324784, -0.003952407, -0.037125804, -0.028028047, -0.09678759, -0.05799146, 0.06737434, -0.045988422, -0.09465172, -0.037022617, 0.109871976, 0.04862798, -0.048400532, 0.10909405, -0.11655279, -0.06234625, 0.10818035, 0.037740383, 0.031152494, 0.030899454, 0.01804882, -0.064496025, 0.003846586, -0.03865514, 0.1284717, 0.09693239, 0.040056434, -0.03383207, 0.12640308, -0.0033253625, 0.01733644, 0.060311895, 0.070024386, 0.026446523, 0.08402241, 0.08652949, -0.013327535, -0.028903266, -0.03568396, 0.030322365, -0.10529613, -0.08643, 0.022900471, -0.0109175155, 0.010726681, -0.032813784, 0.10993194, -0.09270755, -0.01279554, 0.017504435, -0.06859121, 0.069043234, -0.022948563, 0.09825241, 0.08672559, 0.12563813, -0.11602164, 0.0025034675, -0.0039180256, -0.022001117, 0.11451173, -0.008639571, -0.0093146, -0.106283896, -0.024946906, 0.008369525, 0.060162228, 0.021827875, 0.1200394, -0.07175388, -0.035416808, 0.10727422, -0.03643534, -0.07699711, 0.07026907, 0.0085669, -0.124338195, -0.038563278, 0.007934808, -0.054717883, -0.08702051, 0.11571549, -0.12614128, -0.03582359, 0.072616756, -0.015305794, -0.0063326014, 0.103812605, -0.0012128897, -0.004486804, -0.1017339, 0.10470303, };

static float32_t tensor_W_izbias[60] = {0.042222787, -0.06744989, 0.12588795, 0.06555431, -0.028227238, -0.119427845, 0.0926523, 0.06484932, -0.008484595, 0.078741334, 0.07042689, -0.04383712, -0.027050098, 0.04119525, -0.038124435, 0.09293631, 0.101048745, -0.09172569, 0.014136057, -0.05756673, -0.031058293, -0.020144086, -0.105849996, 0.050302736, -0.10843406, 0.031625792, -0.0033141586, -0.06468574, 0.11311537, -0.048366737, -0.06385473, -0.09623697, 0.09244786, 0.0010342904, 0.12287378, 0.10984644, -0.013284151, -0.06778318, -0.12569809, -0.10806667, -0.10886673, 0.09786063, -0.04680785, 0.004654815, 0.013900454, -0.03371521, 0.012375427, 0.08079542, 0.0507847, -0.07805219, -0.022432743, -0.10918987, 0.02178212, -0.06568, -0.06617223, 0.041581675, 0.056580316, 0.08084044, 0.02188705, 0.09314161, };

static float32_t tensor_W_hzbias[60] = {0.02695268, 0.011658783, -0.12426115, -0.017579397, 0.061529107, 0.0035628125, 0.10575036, -0.096064635, 0.098599814, 0.112946145, 0.056920342, -0.035421547, -0.06512644, -0.050538275, 0.029173099, 0.087647736, -0.074736685, 0.11425522, 0.004729548, -0.022412628, 0.08213702, 0.07926199, 0.062702924, 0.002996035, 0.115555584, -0.074122, 0.04732717, 0.11969838, 0.054137778, -0.07968812, -0.028380305, 0.09180458, 0.10077856, 0.106727384, 0.062306035, 0.061433047, 0.07370962, -0.12203124, 0.061408177, 0.054964446, -0.037841894, -0.013978249, 0.054446947, 0.041435488, -0.09104165, -0.036155812, 0.05979732, 0.06324569, -0.07737592, 0.08977538, -0.03734748, 0.07110515, -0.09655391, 0.12274192, 0.039329506, -0.015716596, 0.12518285, 0.047033176, -0.09131756, 0.08000609, };

