// *****************************************************************************
// 	THIS CODE WAS AUTOMATICALLY GENERATED ON 2024-02-06 21:38:13
// *****************************************************************************

#include "dummy.h"

static float32_t tensor_W_irweight[400] = {-0.19118427, -0.14509635, -0.0035947491, 0.09359028, 0.22086789, 0.07435941, 0.03783375, 0.20872729, -0.0029197123, 0.15264578, -0.21148273, -0.13965353, -0.15777062, 0.13546982, -0.22179621, 0.09608947, -0.07836125, 0.0044919904, 0.08065604, -0.17839232, -0.02660936, 0.054947495, 0.15473601, 0.066712946, -0.070063345, -0.20084614, -0.1683521, -0.19583422, -0.024728991, 0.18286335, 0.18453813, -0.20492214, -0.024562845, 0.016948715, 0.13431448, 0.113084376, -0.071186386, -0.093686536, 0.03913576, -0.056531847, 0.14592749, 0.123242505, 0.20251702, 0.06869125, -0.037274614, 0.029313399, -0.17426306, -0.17079282, -0.090747334, -0.19933434, 0.082630664, -0.07424972, -0.0119685475, -0.13971178, -0.16733128, -0.032527845, 0.05879742, -0.21190059, -0.003903559, -0.17176585, -0.055373725, 0.13236208, 0.10493617, -0.029211812, -0.08658767, 0.012323205, 0.0019953353, -0.11246577, -0.13311541, 0.10493047, 0.08552998, -0.06007014, -0.13199767, -0.11834433, 0.22341996, 0.21397795, 0.026752954, 0.12231021, 0.07465455, 0.21529639, -0.19057806, -0.21630944, 0.1927204, -0.06758492, 0.19561999, -0.21093498, -0.020933362, -0.09130685, -0.062907055, 0.03930615, 0.19051637, -0.025303481, 0.0076541393, 0.03621805, -0.13288835, 0.16591011, -0.019150876, 0.0590092, -0.009646729, -0.16247538, 0.15363963, -0.12111631, 0.033854462, 0.042023037, 0.21728617, -0.1379087, 0.020768201, -0.046084557, 0.11150461, -0.16882667, 0.031054702, -0.11843594, 0.12823501, -0.20157361, -0.098469906, -0.048509747, -0.022132322, -0.011448462, 0.085716575, -0.034131926, -0.17576736, -0.06726571, -0.15526213, 0.058721, 0.22042863, -0.007585313, 0.20272818, 0.06962333, -0.19941567, -0.027409706, 0.0030109293, 0.0227875, 0.08308094, 0.108243115, -0.118894, 0.20507677, -0.16949335, -0.054672778, 0.04648048, 0.15851352, -0.10184191, 0.04167043, 0.16468371, 0.056373857, -0.07573129, -0.16694945, 0.021689408, -0.08930906, -0.20768218, 0.035108652, 0.07645143, 0.098921694, -0.041189954, -0.20793544, -0.13512576, -0.15521756, -0.10990856, -0.16878462, -0.024438227, -0.10365503, 0.13042907, -0.068769835, 0.10100108, -0.09302277, 0.109251514, -0.20779291, -0.007074371, -0.007842997, -0.0287883, -0.04616442, 0.073108494, 0.16104758, 0.005544263, -0.10511634, 0.03171505, -0.12206721, -0.038293835, -0.0794542, 0.14595564, -0.14419954, -0.14838473, 0.1459967, -0.03893102, -0.10114545, -0.17152874, 0.013503027, -0.06922344, -0.16298856, -0.009105026, -0.1865379, -0.12069264, -0.12477637, -0.18108326, -0.1601542, 0.19333339, -0.0018266828, -0.01845406, 0.005208637, -0.029167322, -0.2040782, -0.20739648, -0.10990856, 0.117145345, 0.20103692, 0.08348304, -0.070429355, 0.10568963, 0.18284802, 0.17891335, -0.14114465, 0.14990512, -0.09607987, 0.17263742, 0.13463052, -0.136397, -0.048102256, -0.16557254, 0.13832484, -0.059203286, -0.1709019, 0.03775032, -0.06434877, 0.13315651, -0.21472685, -0.027788568, -0.14137347, -0.0010748769, -0.18099047, -0.051501993, 0.19932307, -0.020192778, 0.08484298, 0.06245385, 0.11297525, 0.18438184, -0.20489185, 0.032650355, 0.012085487, 0.015831802, -0.16030398, 0.040242948, 0.014230017, 0.15322542, -0.20923212, 0.07555139, -0.157338, -0.00509295, -0.18729846, 0.06792505, -0.0723362, 0.047155675, -0.1926757, -0.19617276, -0.009534214, 0.022798803, -0.19161332, -0.21118563, -0.20559517, 0.16533428, 0.021107933, -0.027501509, 0.08543336, 0.12996502, -0.084242016, -0.030094845, -0.19413657, 0.030111505, -0.120196365, 0.12842073, -0.08232486, -0.08588904, 0.035796326, -0.16988134, 0.06531263, -0.19046979, 0.032885037, 0.038898338, -0.1569165, -0.06892854, -0.1110429, -0.090331264, -0.04602061, 0.1039921, 0.123453565, -0.09824802, -0.20507482, 0.07628139, 0.011849049, 0.21351862, -0.04525212, -0.17919749, -0.18463795, 0.009779423, -0.041779827, 0.17095545, 0.16533709, 0.20097268, 0.04309511, 0.19208899, 0.19662564, 0.09641875, -0.15221792, 0.16301244, -0.18442571, -0.057531606, -0.19875175, 0.11192532, 0.09196581, 0.18999304, 0.17868729, 0.080495544, 0.035439294, -0.07640534, 0.13637125, 0.10415019, -0.047466405, -0.16095595, -0.1579041, -0.11353273, 0.14880833, 0.16811766, 0.18507914, -0.2001765, -0.047865234, -0.19637677, -0.038355995, 0.044358768, 0.18847263, -0.08127419, 0.2203108, 0.093744084, 0.19157755, 0.107267745, 0.20592238, 0.17517321, -0.042290848, -0.13288395, 0.07823416, -0.18630734, -0.14451909, -0.13456598, 0.07515307, -0.20554201, -0.107608676, -0.014611118, -0.21799594, -0.21738929, 0.2048238, 0.050431274, 0.043010186, 0.048968233, -0.18026505, 0.016860643, -0.085864946, -0.10835515, -0.0029577506, -0.21660839, 0.12486066, -0.11009632, -0.15659781, -0.08959761, 0.12024258, 0.18776684, 0.14371139, -0.17539072, 0.13787681, -0.052140135, -0.1412278, 0.051438525, -0.21810488, -0.03686987, -0.10638589, 0.20468439, 0.045508202, 0.19511051, 0.029503375, 0.09428024, -0.09467606, -0.02196191, -0.012542638, 0.15308976, -0.1460319, 0.12730515, -0.07689994, 0.1395878, -0.10207785, 0.1349438, 0.02212811, -0.0006109557, -0.12880026, -0.034697566, -0.112633996, 0.03825481, -0.19506687, 0.016337547, -0.09816682, -0.15492497, -0.10500934, 0.03302413, 0.1743544, };

static float32_t tensor_W_irbias[20] = {0.21902531, -0.2112195, 0.19299221, 0.039355807, -0.21609998, -0.05638364, -0.1851892, 0.009756472, -0.19377635, 0.17083293, 0.018718194, 0.094130784, -0.1696451, 0.14252509, -0.098008275, -0.10149954, 0.13485122, -0.16849244, -0.18722314, -0.09749848, };

static float32_t tensor_W_hrbias[20] = {0.0558434, -0.07001851, -0.13245255, 0.16053413, -0.066556714, -0.094708234, -0.20618403, 0.11641534, -0.06778215, 0.20349905, 0.21970731, -0.13583949, -0.057206884, -0.0517536, -0.054297913, 0.026175905, -0.040980093, 0.118864544, 0.17719127, -0.07789336, };

static float32_t tensor_W_izweight[400] = {0.1594548, 0.08333177, -0.18071382, -0.025382463, -0.009465948, 0.20614497, 0.090277895, 0.07404346, -0.07576144, 0.12510957, 0.116815075, 0.01997881, -0.077792995, -0.050029807, -0.0373826, -0.08157671, -0.16528322, -0.20552883, -0.19792908, 0.1719864, -0.048145093, 0.07424119, 0.10853439, 0.08209621, -0.08774302, 0.19043958, -0.03388125, -0.068797156, 0.18179807, -0.11420297, 0.21010159, -0.17526525, -0.20365222, -0.1881796, -0.056705136, -0.065732144, 0.04003719, 0.20570758, 0.03879851, -0.037071683, 0.076717645, -0.023832096, -0.13067667, 0.10524578, 0.10581185, -0.11184383, 0.18835793, 0.048526008, 0.17299141, -0.21932097, -0.036682237, -0.21028465, -0.16949017, 0.14493108, -0.037429914, 0.20498161, -0.009773105, -0.011730749, 0.04120867, 0.07197069, -0.023839613, 0.086367145, 0.21186775, -0.13985154, -0.07417589, -0.080217525, -0.16846831, -0.012556419, 0.037251823, 0.22093968, 0.159605, 0.1820323, -0.17158219, 0.16876638, -0.06627513, -0.07551695, 0.17035244, -0.0034460619, -0.06893832, 0.13137971, -0.21174847, 0.10929256, 0.13885933, -0.014038066, -0.052443054, -0.13570653, 0.1156252, -0.12780894, 0.050292715, -0.14814252, -0.019350875, 0.059282213, 0.04410748, 0.03935037, 0.05024588, -0.0034628818, 0.08829522, -0.05792129, 0.07595067, 0.20885856, -0.21466416, 0.1394844, 0.17984898, 0.039540216, 0.020414716, 0.17648663, 0.12103744, -0.14278059, 0.13030419, 0.0037388783, 0.06881909, 0.18053152, 0.20872691, -0.16454457, 0.09847403, -0.030306147, -0.091138996, 0.15072365, -0.15320958, -0.04387288, 0.10423157, 0.14128385, -0.17648993, 0.18157531, 0.04601536, -0.02218862, -0.13878484, -0.091629334, 0.056243457, -0.022049475, 0.025267975, 0.22021772, -0.12951383, -0.14033501, 0.015180943, 0.19024569, -0.10519023, 0.09132782, 0.019862058, -0.023474745, 0.11895696, 0.07698247, -0.06588624, -0.11993769, 0.19454692, 0.102614515, -0.1368871, -0.009679782, 0.0771042, -0.1851074, 0.14626911, -0.18579802, -0.067720436, -0.12344895, 0.094252974, 0.05309943, 0.049229912, 0.21510078, 0.08002477, 0.17901951, -0.16791783, -0.17877774, 0.12385412, -0.1578623, 0.118595935, 0.18411946, 0.12558562, 0.0663468, -0.0092794895, -0.08692156, -0.16347332, -0.06889527, 0.16753829, -0.13592519, 0.12983264, 0.042400617, -0.080644526, 0.16676638, -0.056391638, 0.17263435, 0.122081764, 0.009467627, -0.11599236, -0.11581995, -0.17702158, 0.18597461, -0.036976095, -0.1828919, 0.1908004, 0.14328164, -0.013026898, -0.1451378, -0.046584252, -0.07616906, 0.17308772, -0.09552263, 0.08021398, 0.018041799, 0.2217976, -0.12149512, -0.18962692, 0.011909638, 0.0941894, 0.054400697, 0.1306364, -0.18175234, 0.22359991, -0.009371612, 0.108758695, 0.18718901, 0.107360266, -0.19027828, -0.04616194, -0.15821686, 0.21373573, -0.10886041, 0.095993616, 0.18654759, 0.13676867, 0.047973216, -0.06869114, -0.20889273, 0.14443962, -0.20847309, -0.17972925, 0.04534016, -0.0851914, 0.22210436, -0.04830679, 0.15519488, -0.1376571, 0.020674799, 0.21081823, 0.029075546, 0.016853767, -0.03494853, -0.15037525, -0.024485782, -0.1655751, 0.21142103, 0.21587232, 0.003719979, 0.2074281, 0.01575666, 0.009055738, -0.1514541, -0.02352947, 0.039518464, 0.015361777, -0.07710738, -0.009764122, -0.22143087, 0.122707434, -0.023341173, -0.17493732, 0.08187907, 0.21023439, 0.11964485, -0.021922514, 0.21837503, 0.069680266, 0.056766395, 0.06333782, -0.08488051, 0.08160841, -0.029707987, -0.122733586, 0.20918441, -0.0761428, 0.10715592, 0.21468791, -0.04064047, 0.016295243, 0.1844262, 0.19530773, 0.107206546, 0.18004091, -0.11177768, 0.12229059, 0.21109399, -0.16021593, -0.17875774, 0.15753601, -0.087581456, -0.12800708, 0.15981638, -0.13397002, 0.029130591, 0.046641268, 0.21006629, -0.17382905, 0.113645144, 0.21584547, 0.03418164, 0.016925072, 0.19452637, 0.13260129, -0.09417106, 0.07414643, 0.05826369, 0.12418503, 0.21845509, -0.08616914, -0.1770463, 0.09265276, 0.05915485, -0.13118325, -0.18324165, 0.0809653, 0.11984626, 0.11436954, 0.09969696, 0.1840312, 0.085613206, 0.13451888, -0.12146959, -0.14019476, 0.12572794, -0.06364778, -0.1760565, 0.13160598, 0.16480303, 0.016151115, -0.14945038, -0.12416091, 0.22176316, 0.036487915, -0.17146339, 0.041064806, -0.21644792, -0.16605176, 0.16332377, -0.023041613, 0.10945607, -0.21370623, 0.027547624, -0.044863846, 0.0049287225, -0.1869929, 0.21291573, -0.002305025, -0.06521765, -0.12557045, -0.14367814, -0.062357757, -0.09013102, -0.12235393, 0.105820134, 0.17306747, -0.06158812, 0.15462814, 0.035304308, -0.005341757, -0.17933239, 0.13735572, -0.20584795, 0.0979153, 0.15186591, -0.21267122, -0.09118284, 0.095618054, 0.14670035, 0.16953826, -0.006965801, 0.06779894, -0.13120955, -0.16826637, -0.016713424, -0.00043651878, 0.22304398, -0.02397332, 0.14589441, 0.042165298, 0.12873223, -0.22137454, 0.048009787, -0.20216972, 0.20401405, -0.2085711, 0.12723576, -0.21746771, 0.07367827, 0.026257286, 0.020442838, -0.0012449955, -0.067578815, -0.2152474, -0.028156873, -0.0052823145, -0.051702604, -0.17130549, -0.074156664, -0.0435307, 0.15833524, -0.08560278, -0.14318895, 0.16951773, -0.1979382, 0.10893932, 0.08130399, };

static float32_t tensor_W_izbias[20] = {0.17089996, 0.13809901, 0.025702043, -0.13309689, 0.04539393, 0.16362272, 0.04756698, -0.032766256, -0.19826475, -0.113885395, 0.16884762, -0.018512918, 0.09605503, 0.10719903, -0.13650997, -0.11323536, -0.0003088898, 0.15344325, -0.111672595, 0.19294848, };

static float32_t tensor_W_hzbias[20] = {0.17252658, 0.089979194, 0.14655057, 0.067971595, -0.031188222, 0.20204705, 0.062189266, 0.21337721, -0.13029943, -0.115245916, 0.20973848, -0.19986491, 0.108582765, -0.11170685, -0.20704566, 0.060590304, -0.01594925, 0.014449475, 0.20102929, 0.020689674, };

static float32_t tensor_W_inweight[400] = {0.16759951, 0.11016235, -0.009873678, -0.19717462, -0.024648676, -0.19061661, 0.17107303, 0.1866299, -0.08346657, -0.19341338, -0.20562465, -0.18142903, -0.10720465, 0.12400662, -0.020277305, 0.05443282, 0.21262898, 0.088046364, 0.16221806, 0.15639783, 0.15504453, 0.05602285, 0.1616475, 0.02341565, -0.15921018, 0.22178628, 0.19299752, -0.15450819, -0.073109195, -0.07635208, 0.18932787, 0.032052357, 0.07292697, 0.09130895, 0.12731807, 0.08104108, 0.15910096, 0.048390727, -0.20761423, 0.19344193, -0.005722885, 0.12721646, 0.013034788, -0.05140118, 0.028003948, -0.03203791, 0.123490535, 0.10753849, 0.0350772, 0.021022074, 0.22007261, 0.08308912, 0.025960311, 0.009195176, 0.0041171005, -0.017966922, -0.19283782, 0.22099027, -0.11438709, 0.124749765, 0.0057911775, -0.18719932, 0.1075858, 0.08364306, 0.08013675, -0.033483222, 0.19789752, -0.12269859, -0.15856683, -0.088049, 0.06937373, 0.041890983, -0.1553929, -0.1647173, 0.17639136, 0.14917831, -0.14924768, -0.11284138, -0.10711207, -0.11860265, -0.04320155, 0.14779231, -0.08163024, -0.08559807, 0.17877562, 0.09771205, 0.007844436, 0.08116061, -0.022877118, -0.0038173, -0.15981588, 0.14704101, -0.1456695, -0.06861094, 0.06569826, -0.18680687, 0.1499455, 0.015974812, 0.22151801, -0.14357616, 0.16280125, 0.21533518, -0.2056814, -0.19477704, 0.20294647, -0.02549034, -0.21739699, 0.052252386, 0.19954255, 0.131497, 0.13521427, -0.04078068, -0.19454737, -0.16547684, -0.14347388, -0.062444787, 0.14292994, 0.06994419, 0.14137179, 0.09447209, -0.20459607, 0.09212953, 0.20010851, 0.14441822, 0.09887934, 0.06226763, 0.15920895, -0.056949787, 0.039880104, 0.16393024, 0.028077653, -0.008431535, -0.03155229, 0.13294868, -0.107500665, -0.0061624423, -0.10982539, 0.16744259, 0.16419986, -0.16026282, 0.003939038, -0.015076664, 0.10700513, 0.15575118, 0.012730296, -0.0073557785, -0.094098106, -0.069417976, 0.046771616, -0.20586075, 0.1236666, -0.038769804, -0.1606898, 0.031747732, 0.109264575, 0.105675764, -0.003720379, 0.0105401315, 0.15915121, 0.17162383, 0.106301494, 0.031512093, 0.013932002, 0.003902013, -0.2214359, -0.13154049, -0.1347507, -0.16653612, 0.19502239, 0.030411279, 0.11699745, -0.07920502, -0.13165021, 0.075823255, -0.21322498, 0.08854033, 0.22342618, 0.15914209, 0.075582094, 0.011082475, -0.14039844, 0.07309485, 0.20367365, -0.029004268, 0.045259316, -0.1520721, -0.111628, 0.21496616, 0.22252387, 0.22071616, 0.02839238, 0.097847536, -0.19629103, 0.08680158, -0.10932719, -0.014068721, -0.026450597, 0.1783985, 0.07277626, -0.17262296, 0.13080974, -0.18447964, 0.07261038, 0.18858725, -0.012947995, -0.16563696, 0.17039266, -0.15855362, 0.19053745, -0.14248417, -0.12649675, 0.14428702, 0.21119314, 0.16797554, -0.08490311, -0.16799024, -0.0600446, -0.110524096, 0.09221339, 0.14950891, 0.15363622, 0.15482035, 0.079242475, 0.05882389, -0.21942247, 0.014894897, -0.12165839, -0.09165583, 0.14405163, 0.18526298, -0.1524507, 0.16833626, -0.13466388, -0.018409492, -0.012697643, 0.049101483, 0.1821767, 0.13232633, 0.1261017, -0.121430375, -0.06085508, 0.055459555, 0.033799898, -0.024942586, 0.10426156, 0.050272536, 0.09624279, -0.10728643, 0.104843564, 0.21877451, -0.14215347, 0.12164797, -0.13304374, 0.20911461, -0.1046892, -0.18101293, -0.1291478, 0.1606252, 0.030727793, -0.0136321485, 0.15670665, -0.16428468, 0.041098926, -0.13252161, -0.20804323, -0.13665514, -0.061115135, -0.21420994, 0.16266376, -0.013321926, 0.00095177937, 0.20186715, 0.011711423, -0.07173374, 0.036454596, 0.11366431, -0.15638706, 0.1252896, -0.18784326, -0.122512236, 0.1542475, 0.09430834, 0.03736655, 0.014520487, 0.19982135, -0.06875059, -0.19615455, 0.1348521, 0.054082, 0.12959711, 0.1144872, 0.023136988, 0.20696057, -0.19686592, -0.053745866, -0.18416075, -0.1683843, 0.1270872, -0.012301668, 0.083448626, 0.05733822, -0.21161857, 0.10928107, -0.15578923, -0.21339269, -0.19185261, 0.008542104, 0.14026365, -0.2037116, -0.12097839, 0.08645844, 0.20708239, -0.15840572, -0.20120794, 0.059795476, -0.13689964, -0.08699345, 0.16269553, 0.05485508, -0.07127467, -0.15066074, -0.15689449, -0.18331538, 0.18066327, 0.12994401, -0.15254721, 0.14562377, 0.21743873, -0.09738082, 0.084039085, -0.025236068, 0.20919749, -0.005662989, -0.093667425, 0.08164791, -0.14559473, 0.105253085, -0.2220118, -0.1707253, 0.01425478, -0.18949416, -0.010247129, -0.07259372, -0.21759997, -0.20100275, -0.20036383, 0.119029015, 0.07175757, -0.03452995, 0.09193121, 0.04531601, 0.14040154, 0.118291736, 0.04255685, -0.1555062, 0.16406341, 0.054226983, 0.077788465, -0.08841326, 0.038611278, -0.10919759, -0.099592336, 0.050038256, -0.20127991, -0.22291024, -0.07463109, 0.19327801, 0.15249398, 0.00791838, -0.20462857, -0.08943826, -0.1655647, 0.09052313, -0.15714756, 0.07193808, -0.042850703, -0.06477516, 0.16979975, -0.16419993, -0.12284421, 0.051900234, 0.13507265, 0.20751265, 0.118452206, -0.058313586, -0.10358815, 0.16305655, 0.15365747, 0.15035763, -0.015466481, -0.19428532, -0.0002848994, 0.052818, -0.16691461, -0.08299415, 0.14383088, -0.09298903, -0.09733158, 0.18050766, 0.20693858, };

static float32_t tensor_W_inbias[20] = {-0.20284656, -0.004962602, -0.034844305, -0.04755485, 0.10826332, -0.121264204, 0.03082386, 0.21857667, -0.004915581, -0.19013155, 0.08326998, -0.16552347, 0.109212324, -0.0923162, -0.016681783, 0.015028097, -0.08591386, 0.20173562, 0.14583741, -0.14641091, };

static float32_t tensor_W_hnbias[20] = {-0.17751738, -0.14169808, 0.111454524, 0.11444829, 0.018591978, 0.12327806, 0.07064516, -0.19197702, 0.22303209, -0.1696158, -0.12784013, -0.1601369, 0.19455937, 0.14942142, -0.19424091, 0.0074248174, 0.116138384, 0.014467655, -0.008213782, 0.19990513, };

static float32_t tensor_onnxMatMul_38[400] = {0.099228345, 0.15906768, 0.041080054, -0.1823525, 0.019279331, 0.039995234, 0.14536251, 0.17727812, -0.008413329, -0.1338627, 0.08859031, 0.021358073, -0.016469708, -0.11990717, -0.16328095, -0.12393718, -0.030315451, -0.098923884, 0.109518655, 0.13737646, -0.17152384, 0.07731111, 0.0064711724, -0.057061315, -0.05714715, -0.040349837, 0.032119848, 0.1421958, -0.18256249, -0.12918866, 0.17105672, 0.0812369, -0.20729825, 0.06638534, 0.17565237, 0.21332802, 0.17145701, -0.17253257, 0.04745289, -0.19942129, 0.07843909, -0.031936456, 0.18628703, 0.19355316, -0.091787405, -0.21656494, -0.110258974, -0.040789448, 0.21026546, 0.102725804, -0.21927921, -0.120562404, 0.13338727, 0.1505988, -0.13991213, -0.07489283, -0.19720304, 0.22239709, 0.17674638, -0.1036759, 0.06392609, 0.17557745, 0.044326488, -0.05610663, 0.013981849, 0.03876018, -0.13744803, -0.13902357, 0.029018369, -0.18303224, 0.19423835, -0.19111452, 0.20220399, 0.03387352, 0.10088491, -0.038876373, -0.092583776, 0.013399761, -0.1673149, 0.15508033, 0.1587691, 0.08151972, -0.1107052, 0.18167949, 0.08465756, -0.0029551382, 0.21210004, -0.0024330004, 0.0023439694, 0.00067986146, -0.0718711, 0.2017694, -0.07329522, -0.1978545, 0.10226132, -0.1675531, -0.08837405, -0.2219172, 0.038878586, -0.20786805, -0.13119793, 0.11484506, 0.20164187, 0.04909855, 0.206988, -0.09639071, -0.1599682, -0.011164522, -0.15511122, 0.13619733, -0.17057022, 0.104728065, 0.13178176, -0.045930807, 0.18954517, -0.16828497, -0.041136857, -0.0030405442, 0.06272676, -0.19795391, 0.18091592, -0.15326181, 0.20359443, 0.008463469, 0.013264002, 0.13106398, -0.13338828, -0.20670144, -0.08255632, 0.16695915, -0.07477807, 0.09680465, -0.1920565, -0.08814971, 0.1449841, 0.21977033, 0.21207741, -0.12235097, 0.17043827, 0.15405738, 0.008847662, -0.016939733, 0.04016839, -0.17330094, -0.13717309, 0.04345358, 0.053886957, -0.11426217, -0.17717105, -0.20420967, -0.21081752, -0.109823816, -0.09852975, -0.012666401, -0.08007235, -0.05606542, 0.17906202, -0.08641366, -0.15611573, 0.066168845, 0.107963175, -0.07787534, -0.017426046, 0.21920477, -0.1856291, -0.16064493, 0.15701705, -0.18081199, 0.20674738, -0.023514437, 0.053212054, 0.0025885915, 0.19278781, 0.19503315, 0.01662735, 0.13267452, 0.07217884, -0.14416665, 0.18094999, 0.0144410515, -0.049993422, -0.13976006, -0.05038188, 0.092206195, 0.10529541, 0.007633774, -0.11238903, -0.026709212, -0.019067042, -0.18778741, 0.07523173, 0.21616329, 0.15931448, 0.18976705, 0.18965925, 0.06574803, 0.053912066, 0.060091704, -0.1836516, -0.015927712, -0.22214808, -0.08948531, 0.21959795, -0.17218578, -0.15742385, -0.10911213, 0.000519259, -0.121018216, 0.10890736, -0.22059123, -0.22311091, 0.20144048, -0.159914, -0.12047286, -0.11915147, -0.053481787, 0.02563319, 0.058332995, 0.008985767, 0.0012011729, 0.20687746, 0.048777215, 0.04711988, -0.061496794, -0.20334108, 0.00046978547, 0.061495677, 0.19892351, 0.077221975, 0.17480764, -0.1605953, -0.02179563, -0.14703616, 0.13953297, 0.16866682, -0.06356631, 0.16881528, -0.13135387, -0.09482981, 0.20084022, -0.079741016, 0.049751837, 0.08379897, 0.10957287, -0.034971163, 0.20160306, 0.050949812, -0.1592338, 0.18857539, -0.20217632, 0.19035146, 0.18800287, -0.15413764, 0.014136267, -0.18470371, 0.0033526327, 0.14541534, 0.20233706, 0.007259364, 0.19565685, 0.18745738, -0.06522936, 0.07725292, -0.19220607, 0.21273606, -0.19913653, -0.120490566, -0.10851506, 0.06761963, -0.07911319, -0.026487434, -0.12092897, -0.17886178, 0.020584116, 0.005713049, 0.14408968, 0.15756561, -0.035105, 0.00936111, 0.040810745, 0.11076832, 0.01870572, 0.14328913, 0.14434417, 0.072963275, -0.05020339, 0.084794626, 0.15436243, 0.033375293, -0.08561115, -0.044183265, -0.16073199, 0.0145792095, 0.15040588, 0.104831144, -0.040976092, -0.11540612, -0.046341307, -0.10789534, 0.025512252, -0.15908258, -0.12467422, 0.13809046, 0.17826268, 0.18588084, -0.21127012, -0.1609474, -0.0069329874, -0.12746157, -0.068062276, -0.19785774, 0.084926575, 0.019218529, 0.21609311, 0.0012067708, 0.1094892, 0.033072643, -0.00474349, -0.0553866, 0.20884123, -0.22034284, 0.13981816, 0.058587264, -0.09444637, -0.18219104, -0.20411393, -0.076614454, 0.11663146, 0.13867521, -0.07939657, 0.00055996276, 0.022919288, 0.10685991, 0.046049666, -0.083538406, -0.19788359, 0.040288236, -0.112843916, 0.16585597, 0.17722343, 0.14090842, 0.13105127, 0.029548263, 0.016675225, 0.11604698, -0.16695356, -0.0625612, 0.09366172, -0.048707455, -0.2156801, -0.13099657, 0.19545072, -0.007912063, -0.16824394, 0.15948859, -0.10984911, 0.063429646, -0.09252537, -0.19967306, 0.0028716517, 0.034229726, 0.14442107, 0.17832986, -0.19098456, 0.012795256, 0.17614557, -0.08175851, 0.04656202, 0.19173293, 0.096870966, -0.013772013, 0.10497416, -0.19213924, -0.065727025, -0.0625415, 0.08255595, 0.075466834, 0.14981444, 0.05952673, -0.024419302, 0.14361084, -0.100183375, 0.025988301, -0.18503459, 0.11322432, -0.028503241, -0.00460901, -0.026128644, 0.098934755, 0.18992075, -0.0046088235, 0.08165268, -0.00909351, -0.16643736, -0.09950509, 0.04317652, 0.123497814, -0.13044865, 0.022619035, 0.12145802, };

static float32_t tensor_onnxMatMul_39[400] = {-0.028810292, 0.041369483, 0.0942683, -0.18854386, 0.070632875, -0.04342114, 0.089600064, 0.03437921, 0.024471441, 0.13065018, -0.103755735, -0.19277558, -0.03262282, -0.053902257, -0.08827155, -0.10026143, -0.18854871, -0.2162877, 0.025518222, -0.095656976, -0.05834619, 0.20383844, -0.1254076, 0.08064319, 0.062869765, -0.08148901, 0.043476854, 0.19610448, 0.09063864, -0.06709261, -0.09349456, -0.14554964, 0.19426136, -0.096093066, 0.18886983, -0.026233297, 0.083692774, -0.0030337202, 0.03241336, 0.06444617, -0.111813396, -0.09188581, -0.119406834, -0.101581566, -0.10958823, -0.18654306, 0.14371216, 0.13284442, -0.1646102, -0.020956393, -0.10528331, 0.19825898, -0.16051336, 0.065502316, -0.10808627, 0.06131636, -0.21548907, 0.17347641, 0.22105454, 0.0646043, -0.16002984, 0.11355606, 0.036434095, 0.14305156, 0.026729312, -0.14964099, -0.039993607, -0.0062103164, 0.084664196, 0.11173646, 0.06571937, 0.15867317, -0.15614134, 0.105775245, 0.16696012, 0.032990515, -0.09176285, -0.058872804, -0.07055096, 0.042190515, 0.11977674, -0.10742464, 0.15065877, -0.0052202856, -0.017387953, 0.109353736, -0.19235839, 0.19260469, -0.012439372, 0.16364482, 0.15323707, 0.03449586, 0.18515295, 0.16695648, 0.14386281, 0.22297639, -0.21129958, 0.050587982, 0.17834398, -0.15173958, -0.020938534, 0.08951986, -0.0614788, 0.108647965, 0.16988042, 0.11564413, 0.004386166, -0.002697268, -0.10572279, 0.1710061, -0.19755319, 0.056237698, 0.19048668, -0.14797352, -0.029238228, 0.017742692, 0.11353425, 0.19478346, 0.09721784, 0.0152274575, 0.033900175, 0.04907083, -0.14114988, -0.033420317, 0.024576358, -0.012720753, -0.06691652, 0.071069874, 0.021250382, -0.04367976, -0.18997017, 0.10832881, 0.0932529, 0.13658229, -0.19109479, -0.15176836, 0.106700025, -0.13312759, 0.08208126, -0.22177012, -0.11604941, -0.14877062, 0.008855285, -0.13538003, -0.05436197, 0.0035583638, 0.17665407, -0.016299242, -0.18958019, -0.04058649, -0.18398555, 0.009554712, -0.058057636, 0.09581997, -0.038090076, -0.037631646, -0.14878818, -0.04776013, 0.009459844, -0.043170124, -0.16851687, -0.16349995, -0.081812, -0.014810744, 0.0637202, 0.22092722, 0.19044024, -0.022481596, 0.036105216, 0.1741402, -0.21908785, -0.09234438, -0.034471177, 0.09430847, -0.06248088, -0.195978, -0.19544786, 0.12185796, -0.09615024, 0.05250532, -0.12449885, 0.14185888, 0.100584604, -0.13406324, 0.1054964, -0.15566725, 0.21693672, 0.0704229, -0.15977901, 0.07156298, 0.10573297, 0.20645842, -0.151062, -0.07868851, -0.024595125, -0.0060264436, -0.0016858059, 0.13229112, 0.032162607, 0.043554608, 0.01326083, 0.022960845, -0.012753326, 0.08724733, -0.0050503537, -0.11742262, 0.12435731, -0.0069635888, -0.15706937, 0.13814841, -0.16382715, 0.07113958, -0.02201181, -0.11878951, 0.20344518, 0.0005056378, -0.21813874, -0.0070524067, -0.1617678, -0.06136626, -0.050851986, -0.06285169, 0.053143173, 0.18007304, 0.05323711, 0.09689325, -0.08857509, -0.05595, -0.2134975, -0.15165709, -0.05713166, -0.1864757, -0.15048692, -0.0184897, -0.12572578, -0.07442491, 0.19847615, -0.18026708, 0.04867395, 0.19055663, 0.03175429, 0.20155087, 0.12174811, -0.11692657, -0.18922085, -0.10592759, 0.022191392, 0.029331844, 0.009035453, -0.0005638812, -0.20166141, 0.06818495, -0.05767198, -0.11606999, -0.1286127, -0.1964701, 0.041182704, -0.16192415, -0.08237117, -0.07077042, 0.20996974, -0.11985199, 0.012875491, 0.18974133, 0.11702872, 0.100430876, 0.017357193, 0.11263797, 0.008469067, -0.10416541, 0.116844, 0.0845142, 0.076671235, -0.15829945, 0.16253564, 0.21873634, 0.11815515, 0.06924967, 0.14707828, -0.05749501, -0.016807226, -0.023143305, 0.11786481, 0.14924832, -0.16525951, -0.026739227, -0.13946152, 0.19366442, 0.104869954, -0.20132393, 0.20875557, -0.052804805, 0.10827268, 0.03895405, -0.06395397, 0.18138859, 0.22061773, 0.17418027, -0.09804634, 0.22332619, 0.18038523, 0.019184621, 0.19424683, -0.09406057, -0.19353525, 0.14223574, 0.102622405, 0.14373884, 0.113332175, -0.1315782, 0.056794062, -0.040713187, 0.21656331, -0.016650008, 0.12763219, -0.08773961, 0.21385661, 0.013202454, -0.18282206, 0.023976758, 0.19151677, -0.11400721, -0.10625058, 0.216215, 0.10026572, -0.02008778, 0.19680181, -0.11084178, -0.09165351, 0.14133143, 0.035431538, -0.028440254, 0.015473226, -0.18734175, 0.17200157, 0.21992373, 0.14005348, -0.14908491, 0.20041855, -0.07788656, -0.21654037, 0.14838178, 0.043380573, -0.081489176, -0.18366338, 0.070150055, -0.104851805, -0.18900408, 0.13653882, 0.20503968, -0.19482955, -0.19673583, -0.016684342, 0.030304335, -0.060221996, -0.03634312, 0.08475536, 0.06663813, 0.049065366, -0.04878801, -0.0021266963, -0.001969959, -0.21094842, 0.07564442, 0.051981427, 0.17207514, -0.17363094, 0.029404428, 0.13546559, -0.0026852996, 0.09936869, -0.09299268, 0.08137064, 0.13618335, -0.015594377, 0.1313391, 0.15212493, 0.19083582, 0.023020634, -0.09838988, 0.1415746, -0.08209219, 0.12635867, 0.010872052, -0.08415427, -0.12002414, 0.070884936, -0.19941722, 0.1351552, -0.11669667, 0.038524754, -0.21017331, 0.18066628, 0.22254224, -0.21897566, -0.09117423, 0.11848512, 0.0967612, 0.04194264, -0.104352616, };

static float32_t tensor_onnxMatMul_40[400] = {-0.058336217, -0.21925434, -0.12662041, 0.13704799, -0.16086836, 0.13921246, 0.17961498, -0.12107292, -0.048844386, 0.13461792, 0.065571696, 0.11316568, -0.13460788, -0.011518087, 0.07477839, 0.1796318, -0.0012046116, -0.03991484, -0.06784106, -0.056333553, 0.16434033, -0.14786135, -0.13010341, -0.17117198, -0.16722633, -0.13174185, 0.031040547, -0.18318573, 0.13896121, -0.21493053, -0.1671202, 0.10673223, 0.11635707, -0.021725206, 0.17913301, -0.014205147, -0.13113785, 0.07178236, 0.016534375, 0.056821812, 0.0006130349, -0.13762118, -0.19776334, -0.09812646, 0.12642203, -0.18435796, 0.17048761, -0.054434445, -0.14697282, -0.090347975, -0.08600787, 0.063964024, 0.124945715, -0.21759498, -0.17068478, 0.139718, -0.2183199, -0.11000681, -0.034012984, -0.122693256, -0.0049552717, 0.21182382, -0.067907594, -0.06615808, -0.12616344, 0.013640999, 0.20566896, 0.08380326, 0.21534637, -0.022693431, -0.1981442, 0.071636476, -0.13802902, -0.14723317, -0.14003624, 0.13878533, 0.19946544, -0.11161513, 0.12744352, 0.010255872, -0.100908265, -0.12788484, 0.09174928, -0.11510219, 0.09531858, 0.065789156, 0.11520566, 0.109244205, 0.049967084, 0.02772182, -0.08801659, 0.039450333, -0.19085525, 0.13989955, 0.06749251, -0.059105486, 0.04598385, 0.2181771, 0.14895676, 0.106753014, 0.1736773, -0.08022397, 0.16424264, 0.0016838333, 0.010664135, 0.17332728, -0.121837065, 0.008728003, -0.0061460757, 0.18884273, 0.070142135, -0.005875917, 0.20559895, -0.06281235, 0.11670621, -0.03673483, -0.07811132, -0.15985116, -0.09146529, 0.1872498, 0.12857242, -0.18456759, -0.06602682, 0.11226721, -0.13028152, 0.14417078, 0.18696977, 0.008441024, 0.029251263, -0.15529771, 0.16772941, 0.21677166, 0.029256195, 0.19115126, 0.053035058, -0.14769861, -0.053361196, 0.06895315, 0.2210668, 0.14894359, -0.19559936, -0.052167725, -0.039932646, 0.06464676, 0.05529786, 0.04386195, 0.051274322, 0.04566342, -0.02854789, -0.20696327, 0.06365852, 0.020640787, -0.026028419, -0.019174732, -0.038012933, 0.1730787, 0.07580001, -0.19724675, -0.16684507, -0.1241479, 0.14162283, -0.17042689, -0.13133393, 0.17547023, 0.08165881, 0.16473325, -0.113749474, 0.22356178, 0.10377951, -0.10824346, 0.047726676, -0.21211742, -0.22001866, -0.03935317, -0.15146479, -0.034122568, 0.09647289, 0.16608062, -0.03426723, 0.007122565, 0.202468, 0.10751434, -0.21141157, -0.1997106, 0.058820292, -0.06381064, -0.040587984, 0.05977919, 0.15854338, -0.07747635, 0.07647147, -0.21039765, -0.15045364, 0.15668574, 0.10625409, 0.11490232, 0.20866981, -0.08399982, 0.13549757, -0.17209211, 0.06567097, -0.09709498, 0.17340018, 0.037525367, 0.16868481, 0.21101364, -0.11472919, -0.16932836, 0.040557623, -0.068883575, 0.20113799, 0.08200033, 0.08150876, 0.19330436, -0.0066482746, -0.1458759, -0.037155837, -0.12037418, -0.07179481, -0.1664737, -0.115267344, 0.09323589, -0.17692669, 0.04448829, -0.011551114, 0.19269606, -0.18170035, 0.2028477, 0.010713716, 0.21466008, -0.21808542, -0.07431879, 0.17474501, -0.019201254, 0.022472054, -0.11954691, 0.044104576, -0.022609305, 0.10707998, 0.11340844, -0.20700896, 0.07080126, 0.096770234, 0.22065105, 0.11747646, -0.04194456, -0.21278189, -0.08360926, -0.11310461, 0.1783361, 0.20744427, -0.082596466, -0.14241299, 0.12027745, -0.20457377, -0.14918299, 0.039386358, -0.16052626, 0.03415205, 0.046731446, 0.15726559, 0.16679679, -0.08851876, -0.21132243, 0.12845472, 0.1571361, 0.040694285, -0.220153, -0.18653283, 0.09742363, -0.0366273, -0.20684396, -0.09948265, 0.20965493, 0.1164154, -0.007030522, 0.044170205, 0.013805999, 0.102866516, 0.13395257, -0.12625165, -0.1121508, -0.12620406, -0.16199075, 0.062556475, 0.0135918185, -0.11753575, -0.03476319, 0.076797985, -0.198782, -0.021052834, -0.022393418, -0.0034950823, -0.14800934, 0.045108415, -0.03208184, -0.122895844, 0.109668516, -0.16400623, -0.11231567, -0.10825343, -0.2222822, 0.06357604, 0.03197921, 0.20507951, 0.21745849, 0.1607181, -0.14681298, 0.035267815, 0.07028632, -0.18566214, -0.2016516, -0.16708593, -0.21272448, 0.013255846, 0.07941248, 0.10470791, 0.11783848, -0.14308201, -0.1402474, 0.111461855, -0.027963858, 0.21444528, -0.10030906, -0.008809864, -0.13205929, 0.17692658, -0.049221385, 0.02871545, 0.07384831, -0.060420077, 0.11822512, 0.1716613, -0.10021662, -0.05972281, 0.036273256, -0.0013628684, -0.1163796, 0.004527123, -0.21755913, 0.010879942, -0.1695829, 0.13086249, -0.1388566, -0.15303232, 0.00089068385, -0.17253815, -0.20348485, 0.20688955, -0.16045375, 0.099250175, 0.02468165, -0.17541751, 0.10259289, -0.13858719, 0.12843336, 0.11228691, -0.1692304, 0.12159042, -0.0022787154, -0.18926021, 0.1262243, -0.21129324, -0.07944938, 0.19525976, -0.12170906, -0.10779404, 0.10808246, -0.13580476, 0.045346107, -0.08251836, 0.10964357, -0.011898042, -0.06515829, 0.03493046, 0.04604801, 0.029833617, 0.19665615, -0.1100196, 0.08761011, -0.14198282, 0.21298388, -0.060974445, -0.12387369, 0.06441427, 0.034676295, -0.17449233, -0.21152984, -0.104137905, 0.03826006, 0.17423427, -0.17933387, 0.17224069, -0.16990161, -0.13377474, -0.1420648, -0.02506539, 0.08914355, -0.107280195, 0.123057246, };

// CONSTANT DECLARATION Constant

static float32_t tensor_Constant_output_0[1] = {
    1.0, 
};
void run_inference(float32_t* tensor_onnxGemm_0, float32_t* tensor_onnxMatMul_1, float32_t* tensor_37) {






// MATMUL OPERATOR W_hrMatMul

#define CONNECTED_OUTPUT

#ifdef CONNECTED_OUTPUT
float32_t tensor_W_hrMatMul_output_0[20 * 20];
#undef CONNECTED_OUTPUT
#endif

for(int32_t i=0; i<20; i++) {
    for(int32_t j=0; j<20; j++) {
        float32_t temp = 0.0f;
        for(int32_t k=0; k<20; k++) {
            int32_t index1 = i*20+k;
            int32_t index2 = k*20+j;
            temp += tensor_onnxMatMul_1[index1] * tensor_onnxMatMul_38[index2];
        }
        tensor_W_hrMatMul_output_0[i*20 + j] = temp;
    }
}

#ifdef COMPILER_DEBUG
printf("----------------- DEBUG OUTPUT W_hrMatMul -----------------\n");

for(int i=0; i<20; i++) {
    for(int j=0; j<20; j++) {
        printf("%f, ", tensor_W_hrMatMul_output_0[i*20+j]);
    }
    printf("\n");
}

printf("\n");
printf("------------------------------------------------------\n\n");
#endif
// GEMM OPERATOR W_irGemm

#define CONNECTED_OUTPUT

#ifdef CONNECTED_OUTPUT
float32_t tensor_W_irGemm_output_0[20];
#undef CONNECTED_OUTPUT
#endif

for(int32_t i=0; i<20; i++) {
    float32_t temp = 0.0f;
    for(int32_t j=0; j<20; j++) {
        temp += tensor_W_irweight[i * 20 + j] * tensor_onnxGemm_0[j];
    }
    tensor_W_irGemm_output_0[i] = temp + tensor_W_irbias[i];
}

#ifdef COMPILER_DEBUG
printf("----------------- DEBUG OUTPUT W_irGemm -----------------\n");
for(int i=0; i<20; i++) {
    printf("%f ", tensor_W_irGemm_output_0[i]);
}
printf("\n");
printf("------------------------------------------------------\n\n");
#endif

// ELEMENT WISE ADDITION W_hrAdd

#define CONNECTED_OUTPUT

#ifdef CONNECTED_OUTPUT
float32_t tensor_W_hrAdd_output_0[400];
#undef CONNECTED_OUTPUT
#endif

for(int i0=0; i0<1; i0++) {
for(int i1=0; i1<20; i1++) {
for(int i2=0; i2<20; i2++) {

tensor_W_hrAdd_output_0[i1*20 + i2*1] = tensor_W_hrbias[i2*1] + tensor_W_hrMatMul_output_0[i1*20 + i2*1];
}
}
}


#ifdef COMPILER_DEBUG
printf("----------------- DEBUG OUTPUT W_hrAdd -----------------\n");
for(int i=0; i<400; i++) {
    printf("%f ", tensor_W_hrAdd_output_0[i]);
}
printf("\n");
printf("------------------------------------------------------\n\n");
#endif
// ELEMENT WISE ADDITION Add

#define CONNECTED_OUTPUT

#ifdef CONNECTED_OUTPUT
float32_t tensor_Add_output_0[400];
#undef CONNECTED_OUTPUT
#endif

for(int i0=0; i0<1; i0++) {
for(int i1=0; i1<20; i1++) {
for(int i2=0; i2<20; i2++) {

tensor_Add_output_0[i1*20 + i2*1] = tensor_W_irGemm_output_0[i2*1] + tensor_W_hrAdd_output_0[i1*20 + i2*1];
}
}
}


#ifdef COMPILER_DEBUG
printf("----------------- DEBUG OUTPUT Add -----------------\n");
for(int i=0; i<400; i++) {
    printf("%f ", tensor_Add_output_0[i]);
}
printf("\n");
printf("------------------------------------------------------\n\n");
#endif




// MATMUL OPERATOR W_hzMatMul

#define CONNECTED_OUTPUT

#ifdef CONNECTED_OUTPUT
float32_t tensor_W_hzMatMul_output_0[20 * 20];
#undef CONNECTED_OUTPUT
#endif

for(int32_t i=0; i<20; i++) {
    for(int32_t j=0; j<20; j++) {
        float32_t temp = 0.0f;
        for(int32_t k=0; k<20; k++) {
            int32_t index1 = i*20+k;
            int32_t index2 = k*20+j;
            temp += tensor_onnxMatMul_1[index1] * tensor_onnxMatMul_39[index2];
        }
        tensor_W_hzMatMul_output_0[i*20 + j] = temp;
    }
}

#ifdef COMPILER_DEBUG
printf("----------------- DEBUG OUTPUT W_hzMatMul -----------------\n");

for(int i=0; i<20; i++) {
    for(int j=0; j<20; j++) {
        printf("%f, ", tensor_W_hzMatMul_output_0[i*20+j]);
    }
    printf("\n");
}

printf("\n");
printf("------------------------------------------------------\n\n");
#endif
// GEMM OPERATOR W_izGemm

#define CONNECTED_OUTPUT

#ifdef CONNECTED_OUTPUT
float32_t tensor_W_izGemm_output_0[20];
#undef CONNECTED_OUTPUT
#endif

for(int32_t i=0; i<20; i++) {
    float32_t temp = 0.0f;
    for(int32_t j=0; j<20; j++) {
        temp += tensor_W_izweight[i * 20 + j] * tensor_onnxGemm_0[j];
    }
    tensor_W_izGemm_output_0[i] = temp + tensor_W_izbias[i];
}

#ifdef COMPILER_DEBUG
printf("----------------- DEBUG OUTPUT W_izGemm -----------------\n");
for(int i=0; i<20; i++) {
    printf("%f ", tensor_W_izGemm_output_0[i]);
}
printf("\n");
printf("------------------------------------------------------\n\n");
#endif

// ELEMENT WISE ADDITION W_hzAdd

#define CONNECTED_OUTPUT

#ifdef CONNECTED_OUTPUT
float32_t tensor_W_hzAdd_output_0[400];
#undef CONNECTED_OUTPUT
#endif

for(int i0=0; i0<1; i0++) {
for(int i1=0; i1<20; i1++) {
for(int i2=0; i2<20; i2++) {

tensor_W_hzAdd_output_0[i1*20 + i2*1] = tensor_W_hzbias[i2*1] + tensor_W_hzMatMul_output_0[i1*20 + i2*1];
}
}
}


#ifdef COMPILER_DEBUG
printf("----------------- DEBUG OUTPUT W_hzAdd -----------------\n");
for(int i=0; i<400; i++) {
    printf("%f ", tensor_W_hzAdd_output_0[i]);
}
printf("\n");
printf("------------------------------------------------------\n\n");
#endif
// ELEMENT WISE ADDITION Add_1

#define CONNECTED_OUTPUT

#ifdef CONNECTED_OUTPUT
float32_t tensor_Add_1_output_0[400];
#undef CONNECTED_OUTPUT
#endif

for(int i0=0; i0<1; i0++) {
for(int i1=0; i1<20; i1++) {
for(int i2=0; i2<20; i2++) {

tensor_Add_1_output_0[i1*20 + i2*1] = tensor_W_izGemm_output_0[i2*1] + tensor_W_hzAdd_output_0[i1*20 + i2*1];
}
}
}


#ifdef COMPILER_DEBUG
printf("----------------- DEBUG OUTPUT Add_1 -----------------\n");
for(int i=0; i<400; i++) {
    printf("%f ", tensor_Add_1_output_0[i]);
}
printf("\n");
printf("------------------------------------------------------\n\n");
#endif




// MATMUL OPERATOR W_hnMatMul

#define CONNECTED_OUTPUT

#ifdef CONNECTED_OUTPUT
float32_t tensor_W_hnMatMul_output_0[20 * 20];
#undef CONNECTED_OUTPUT
#endif

for(int32_t i=0; i<20; i++) {
    for(int32_t j=0; j<20; j++) {
        float32_t temp = 0.0f;
        for(int32_t k=0; k<20; k++) {
            int32_t index1 = i*20+k;
            int32_t index2 = k*20+j;
            temp += tensor_onnxMatMul_1[index1] * tensor_onnxMatMul_40[index2];
        }
        tensor_W_hnMatMul_output_0[i*20 + j] = temp;
    }
}

#ifdef COMPILER_DEBUG
printf("----------------- DEBUG OUTPUT W_hnMatMul -----------------\n");

for(int i=0; i<20; i++) {
    for(int j=0; j<20; j++) {
        printf("%f, ", tensor_W_hnMatMul_output_0[i*20+j]);
    }
    printf("\n");
}

printf("\n");
printf("------------------------------------------------------\n\n");
#endif
// SIGMOID OPERATOR Sigmoid

#define CONNECTED_OUTPUT

#ifdef CONNECTED_OUTPUT
float32_t tensor_Sigmoid_output_0[400];
#undef CONNECTED_OUTPUT
#endif

for(int i0=0; i0<1; i0++) {
for(int i1=0; i1<20; i1++) {
for(int i2=0; i2<20; i2++) {

float32_t ex = exp(tensor_Add_output_0[i1*20 + i2*1]);
tensor_Sigmoid_output_0[i1*20 + i2*1] = ex / (1.0f + ex);
}
}
}


#ifdef COMPILER_DEBUG
printf("----------------- DEBUG OUTPUT Sigmoid -----------------\n");
for(int i=0; i<400; i++) {
    printf("%f ", tensor_Sigmoid_output_0[i]);
}
printf("\n");
printf("------------------------------------------------------\n\n");
#endif
// ELEMENT WISE ADDITION W_hnAdd

#define CONNECTED_OUTPUT

#ifdef CONNECTED_OUTPUT
float32_t tensor_W_hnAdd_output_0[400];
#undef CONNECTED_OUTPUT
#endif

for(int i0=0; i0<1; i0++) {
for(int i1=0; i1<20; i1++) {
for(int i2=0; i2<20; i2++) {

tensor_W_hnAdd_output_0[i1*20 + i2*1] = tensor_W_hnbias[i2*1] + tensor_W_hnMatMul_output_0[i1*20 + i2*1];
}
}
}


#ifdef COMPILER_DEBUG
printf("----------------- DEBUG OUTPUT W_hnAdd -----------------\n");
for(int i=0; i<400; i++) {
    printf("%f ", tensor_W_hnAdd_output_0[i]);
}
printf("\n");
printf("------------------------------------------------------\n\n");
#endif
// GEMM OPERATOR W_inGemm

#define CONNECTED_OUTPUT

#ifdef CONNECTED_OUTPUT
float32_t tensor_W_inGemm_output_0[20];
#undef CONNECTED_OUTPUT
#endif

for(int32_t i=0; i<20; i++) {
    float32_t temp = 0.0f;
    for(int32_t j=0; j<20; j++) {
        temp += tensor_W_inweight[i * 20 + j] * tensor_onnxGemm_0[j];
    }
    tensor_W_inGemm_output_0[i] = temp + tensor_W_inbias[i];
}

#ifdef COMPILER_DEBUG
printf("----------------- DEBUG OUTPUT W_inGemm -----------------\n");
for(int i=0; i<20; i++) {
    printf("%f ", tensor_W_inGemm_output_0[i]);
}
printf("\n");
printf("------------------------------------------------------\n\n");
#endif

// ELEMENT WISE MULTIPLICATION Mul

#define CONNECTED_OUTPUT

#ifdef CONNECTED_OUTPUT
float32_t tensor_Mul_output_0[400];
#undef CONNECTED_OUTPUT
#endif

for(int i0=0; i0<1; i0++) {
for(int i1=0; i1<20; i1++) {
for(int i2=0; i2<20; i2++) {

tensor_Mul_output_0[i1*20 + i2*1] = tensor_Sigmoid_output_0[i1*20 + i2*1] * tensor_W_hnAdd_output_0[i1*20 + i2*1];
}
}
}


#ifdef COMPILER_DEBUG
printf("----------------- DEBUG OUTPUT Mul -----------------\n");
for(int i=0; i<400; i++) {
    printf("%f ", tensor_Mul_output_0[i]);
}
printf("\n");
printf("------------------------------------------------------\n\n");
#endif
// ELEMENT WISE ADDITION Add_2

#define CONNECTED_OUTPUT

#ifdef CONNECTED_OUTPUT
float32_t tensor_Add_2_output_0[400];
#undef CONNECTED_OUTPUT
#endif

for(int i0=0; i0<1; i0++) {
for(int i1=0; i1<20; i1++) {
for(int i2=0; i2<20; i2++) {

tensor_Add_2_output_0[i1*20 + i2*1] = tensor_W_inGemm_output_0[i2*1] + tensor_Mul_output_0[i1*20 + i2*1];
}
}
}


#ifdef COMPILER_DEBUG
printf("----------------- DEBUG OUTPUT Add_2 -----------------\n");
for(int i=0; i<400; i++) {
    printf("%f ", tensor_Add_2_output_0[i]);
}
printf("\n");
printf("------------------------------------------------------\n\n");
#endif

// SIGMOID OPERATOR Sigmoid_1

#define CONNECTED_OUTPUT

#ifdef CONNECTED_OUTPUT
float32_t tensor_Sigmoid_1_output_0[400];
#undef CONNECTED_OUTPUT
#endif

for(int i0=0; i0<1; i0++) {
for(int i1=0; i1<20; i1++) {
for(int i2=0; i2<20; i2++) {

float32_t ex = exp(tensor_Add_1_output_0[i1*20 + i2*1]);
tensor_Sigmoid_1_output_0[i1*20 + i2*1] = ex / (1.0f + ex);
}
}
}


#ifdef COMPILER_DEBUG
printf("----------------- DEBUG OUTPUT Sigmoid_1 -----------------\n");
for(int i=0; i<400; i++) {
    printf("%f ", tensor_Sigmoid_1_output_0[i]);
}
printf("\n");
printf("------------------------------------------------------\n\n");
#endif
// ELEMENT WISE SUBTRACTION Sub

#define CONNECTED_OUTPUT

#ifdef CONNECTED_OUTPUT
float32_t tensor_Sub_output_0[400];
#undef CONNECTED_OUTPUT
#endif

for(int i0=0; i0<1; i0++) {
for(int i1=0; i1<20; i1++) {
for(int i2=0; i2<20; i2++) {

tensor_Sub_output_0[i1*20 + i2*1] = tensor_Constant_output_0[0] - tensor_Sigmoid_1_output_0[i1*20 + i2*1];
}
}
}


#ifdef COMPILER_DEBUG
printf("----------------- DEBUG OUTPUT Sub -----------------\n");
for(int i=0; i<400; i++) {
    printf("%f ", tensor_Sub_output_0[i]);
}
printf("\n");
printf("------------------------------------------------------\n\n");
#endif
// TANH OPERATOR /Tanh

#define CONNECTED_OUTPUT

#ifdef CONNECTED_OUTPUT
float32_t tensor_Tanh_output_0[400];
#undef CONNECTED_OUTPUT
#endif

for(int i0=0; i0<1; i0++) {
for(int i1=0; i1<20; i1++) {
for(int i2=0; i2<20; i2++) {

float32_t ex = exp(tensor_Add_2_output_0[i1*20 + i2*1]);
float32_t emx = exp(-tensor_Add_2_output_0[i1*20 + i2*1]);
tensor_Tanh_output_0[i1*20 + i2*1] = (ex - emx) / (ex + emx);
}
}
}


#ifdef COMPILER_DEBUG
printf("----------------- DEBUG OUTPUT /Tanh -----------------\n");
for(int i=0; i<400; i++) {
    printf("%f ", tensor_Tanh_output_0[i]);
}
printf("\n");
printf("------------------------------------------------------\n\n");
#endif
// ELEMENT WISE MULTIPLICATION Mul_1

#define CONNECTED_OUTPUT

#ifdef CONNECTED_OUTPUT
float32_t tensor_Mul_1_output_0[400];
#undef CONNECTED_OUTPUT
#endif

for(int i0=0; i0<1; i0++) {
for(int i1=0; i1<20; i1++) {
for(int i2=0; i2<20; i2++) {

tensor_Mul_1_output_0[i1*20 + i2*1] = tensor_Sub_output_0[i1*20 + i2*1] * tensor_Tanh_output_0[i1*20 + i2*1];
}
}
}


#ifdef COMPILER_DEBUG
printf("----------------- DEBUG OUTPUT Mul_1 -----------------\n");
for(int i=0; i<400; i++) {
    printf("%f ", tensor_Mul_1_output_0[i]);
}
printf("\n");
printf("------------------------------------------------------\n\n");
#endif
// ELEMENT WISE MULTIPLICATION Mul_2

#define CONNECTED_OUTPUT

#ifdef CONNECTED_OUTPUT
float32_t tensor_Mul_2_output_0[400];
#undef CONNECTED_OUTPUT
#endif

for(int i0=0; i0<1; i0++) {
for(int i1=0; i1<20; i1++) {
for(int i2=0; i2<20; i2++) {

tensor_Mul_2_output_0[i1*20 + i2*1] = tensor_Sigmoid_1_output_0[i1*20 + i2*1] * tensor_onnxMatMul_1[i1*20 + i2*1];
}
}
}


#ifdef COMPILER_DEBUG
printf("----------------- DEBUG OUTPUT Mul_2 -----------------\n");
for(int i=0; i<400; i++) {
    printf("%f ", tensor_Mul_2_output_0[i]);
}
printf("\n");
printf("------------------------------------------------------\n\n");
#endif
// ELEMENT WISE ADDITION Add_3



#ifdef CONNECTED_OUTPUT
float32_t tensor_37[400];
#undef CONNECTED_OUTPUT
#endif

for(int i0=0; i0<1; i0++) {
for(int i1=0; i1<20; i1++) {
for(int i2=0; i2<20; i2++) {

tensor_37[i1*20 + i2*1] = tensor_Mul_1_output_0[i1*20 + i2*1] + tensor_Mul_2_output_0[i1*20 + i2*1];
}
}
}


#ifdef COMPILER_DEBUG
printf("----------------- DEBUG OUTPUT Add_3 -----------------\n");
for(int i=0; i<400; i++) {
    printf("%f ", tensor_37[i]);
}
printf("\n");
printf("------------------------------------------------------\n\n");
#endif
}