// *****************************************************************************
// 	THIS CODE WAS AUTOMATICALLY GENERATED ON 2024-02-06 21:41:58
// *****************************************************************************

#include "dummy.h"

static float32_t tensor_W_irweight[10000] = {-0.07701737, -0.000114214425, -0.063959025, 0.09216068, 0.055702295, -0.09351709, -0.0844224, -0.087376915, -0.051199675, 0.014567494, 0.016609525, -0.06914788, -0.027229214, -0.0026614666, -0.03459822, -0.06645627, 0.08884235, -0.093656026, 0.03881246, 0.05943313, -0.0466738, -0.08218954, -0.014489615, 0.066495836, -0.08637507, -0.019761337, 0.061738063, 0.0977989, -0.06553825, 0.077068724, 0.020787133, -0.045351207, 0.0021442652, 0.009594071, -0.066999175, 0.086882435, 0.08233402, -0.006063235, 0.048418652, 0.09512863, -0.059647333, -0.062848404, 0.09528257, 0.019965649, -0.00069551467, -0.077969566, 0.05450082, 0.0057639005, -0.07360305, -0.0878124, 0.060539495, 0.05170424, 0.013439643, -0.05525751, 0.06492984, -0.016192092, 0.06833477, -0.040127885, -0.08273976, 0.01513387, -0.0032462596, 0.022800267, 0.07106914, 0.050992932, -0.033996392, -0.036644854, 0.08653735, 0.096426904, -0.0070624235, 0.06474375, -0.020458627, -0.015475846, 0.037950516, -0.0020901442, 0.04148462, -0.04558071, 0.06399929, 0.07896954, -0.02720709, -0.061144114, 0.0151209235, -0.03953315, 0.05700449, 0.06463987, 0.051690854, -0.080248, 0.04023831, 0.04149405, -0.07799324, -0.048962522, -0.029116321, -0.033293452, -0.0750665, -0.03531461, -0.088394284, -0.05397389, -0.04899546, 0.039904416, 0.07944609, -0.0425439, 0.08067079, 0.044199694, -0.016176557, -0.040799286, -0.097604506, -0.09831947, 0.050476123, -0.02504958, 0.04319575, 0.018153822, 0.039779343, 0.026365234, -0.008245158, -0.09798272, -0.02705331, 0.029997528, -0.0681475, 0.06565844, 0.049441695, 0.05529604, 0.09721942, 0.07331027, 0.09330809, -0.0666791, -0.060441818, 0.034638513, -0.080515504, 0.042545427, 0.014623619, -0.009316921, -0.0040186285, 0.09941454, 0.003781128, 0.0002124548, 0.08445026, -0.06534944, -0.0016071678, 0.0015908241, 0.0662626, -0.010387981, 0.09765326, 0.018966531, 0.008993697, -0.08552911, -0.075632356, 0.09921026, -0.017361963, -0.0622929, -0.07283773, 0.027377082, -0.09170444, 0.08699477, 0.044296682, -0.044650223, 0.09045817, -0.083793595, -0.037481736, -0.068335354, -0.050932515, 0.01966126, -0.07012079, -0.07446541, -0.029589092, -0.020943249, -0.05044129, 0.03747461, 0.0758902, -0.07540295, -0.06668712, 0.0042984723, 0.013400746, -0.07996742, -0.0096188905, 0.050688386, -0.09082834, 0.07848551, 0.05220995, 0.0681144, 0.06948502, -0.046935894, 0.07601944, -0.055320073, -0.010207879, 0.0085363155, -0.028428484, 0.047726717, -0.021813298, 0.0468266, -0.02598691, -0.09310134, -0.02111578, 0.07005252, 0.013164163, -0.02512802, -0.026961839, -0.09325979, -0.02824744, -0.012165427, -0.0026354908, -0.09487058, -0.03489541, -0.0264745, 0.0882557, 0.061418213, -0.027973915, 0.09995818, 0.06622523, 0.085374035, 0.020378077, -0.03271364, 0.07369337, 0.029249085, -0.036958944, -0.030398656, -0.04013089, -0.07771821, -0.05590446, 0.087225795, 0.047177758, -0.08792152, -0.00019978285, -0.052519705, -0.00422256, -0.07238104, -0.027161812, 0.08694496, -0.00999744, 0.045593895, 0.08942808, 0.041562032, 0.089918785, 0.029240787, 0.082960404, 0.06384655, -0.0072088125, -0.09956076, 0.039804913, 0.015469074, -0.07508278, 0.051333774, -0.09961315, 0.08542794, 0.051070895, -0.078986704, -0.03500682, 0.029160667, -0.0056705116, -0.07502685, -0.043433275, -0.087004006, 0.08105608, -0.076974, 0.009997201, -0.04179144, 0.06873181, 0.011225737, -0.055392742, 0.01278075, 0.08433056, -0.0095188385, 0.039545573, -0.022411143, -0.05237999, -0.032777455, -0.063991725, 0.028905177, 0.058904625, -0.0036716224, -0.004670322, -0.0072207213, -0.097085886, -0.04374757, -0.00786146, -0.016692698, -0.0866612, 0.07984223, 0.029041458, -0.012059844, 0.007125068, -0.094673716, 0.071699, -0.06827825, -0.098132074, 0.097264685, -0.023282528, -0.055805396, -0.03306135, 0.047906127, 0.042384636, -0.042331647, -0.088694714, 0.07391776, -0.04099646, 0.08490431, 0.0555457, 0.019238615, 0.02994815, -0.088712506, 0.07369862, 0.06086273, 0.046634495, 0.0971624, 0.059740283, 0.07200569, -0.03558358, -0.012419141, 0.09184575, 0.0044073346, 0.09322139, 0.081417516, 0.081070445, -0.08611079, -0.06077645, 0.022414494, -0.09348708, -0.091164865, 0.08951878, -0.0045732856, 0.06685089, 0.061676692, -0.0378232, -0.047339797, 0.045883086, -0.077713124, 0.09573304, -0.072365895, 0.055089224, -0.08984049, -0.071728066, 0.088810064, -0.09716108, -0.07332187, 0.020538688, -0.03839921, -0.029792463, -0.022571182, 0.0884017, -0.08751308, 0.026154876, 0.022453154, 0.050807476, -0.050952055, -0.0074169994, 0.02293297, -0.0071930885, -0.037763428, -0.07693391, -0.010067654, -0.05290804, 0.0016399979, 0.03110453, 0.0066813114, -0.09584065, -0.013838935, 0.047137238, -0.08018502, 0.06688428, 0.073912226, 0.073329054, 0.028278077, -0.08199551, 0.078267865, 0.062164117, -0.049601506, -0.03458513, -0.095271826, -0.07545439, -0.07893051, 0.092770815, 0.032370925, 0.08071484, 0.089416504, 0.072048835, -0.09061588, 0.0040433886, 0.089905754, -0.022507131, 0.0049672723, 0.07684856, -0.07201733, -0.059551, -0.0076640607, 0.09984858, -0.08621879, 0.016696334, 0.09449313, 0.05634855, -0.08092884, -0.082855694, -0.07297369, -0.0841338, 0.09602087, -0.039072584, 0.04591931, -0.045954168, 0.09240898, 0.051554073, -0.09176811, -0.037555516, 0.013717032, -0.016431822, 0.058232892, 0.04174297, -0.065804854, 0.06724291, 0.033653628, -0.07971213, -0.021321237, 0.07669609, -0.067498975, -0.029333353, 0.09856369, -0.023826813, -0.0067696455, -0.06700914, -0.024260843, 0.0925978, -0.0004104972, 0.06861693, 0.0038542747, -0.02160095, 0.047332443, -0.07989635, 0.07679458, 0.07843453, 0.06845033, -0.075423576, 0.056727804, 0.0056925775, 0.077159755, -0.0036405087, 0.08549725, 0.095111966, -0.0068781856, -0.010317576, -0.061763633, -0.06942377, 0.01567018, 0.073992886, -0.050884474, 0.029611493, -0.042758595, 0.0941726, 0.01876073, 0.034902822, -0.08942179, 0.03749105, -0.029376043, 0.094558954, 0.014171553, -0.005779469, -0.051480938, 0.05060451, 0.08451338, -0.031483687, -0.032077253, -0.05517757, 0.009347284, 0.06515422, -0.08592542, 0.012097609, -0.035713162, 0.06487627, 0.048170246, -0.06721133, -0.04924586, 0.062605895, 0.061315276, -0.0002346754, 0.0482368, -0.070088446, 0.07222958, 0.02333094, 0.094449155, -0.048083853, -0.06419132, -0.001510644, -0.0048247697, 0.010403121, -0.07281756, 0.00909555, -0.03774048, 0.093276255, 0.06253459, 0.033836316, 0.08523972, -0.084735155, -0.008063233, -0.07228148, -0.023351897, 0.07298448, 0.0127461795, 0.023895813, -0.026224375, 0.041863956, 0.043751705, -0.07799522, 0.03245405, -0.022335386, 0.07027606, -0.09422275, 0.021272004, 0.0040701153, -0.0811885, -0.06728069, 0.036705613, 0.07361151, -0.030118598, 0.08760065, 0.06867858, 0.029319692, 0.020795131, 0.049371112, -0.031820823, -0.0069616674, 0.08635243, -0.02494583, -0.0976874, 0.08723296, 0.07683764, -0.065876685, 0.035245158, 0.05029949, -0.072254084, -0.01928314, -0.047261227, 0.046608593, 0.062051225, 0.075737774, 0.045109797, 0.05600964, 0.095187865, -0.0076627852, -0.015094793, -0.006880486, -0.06639489, 0.06298911, 0.08131893, 0.057271447, 0.06538055, -0.007745266, 0.054182947, 0.06160108, -0.07244185, 0.08863306, -0.01919136, -0.08269837, 0.057893228, -0.060836207, 0.056138087, 0.059270978, 0.079650976, -0.04277804, 0.061444927, -0.019376278, -0.03566991, 0.06883098, 0.04332311, 0.0062163356, -0.0701435, -0.096030295, -0.017450547, -0.09912892, 0.029823232, 0.09610196, -0.036464203, -0.015095639, -0.06266519, -0.03218467, 0.056853842, 0.064576864, -0.046866715, -0.007576931, -0.0856481, 0.06345474, -0.012169051, 0.084655836, -0.051893413, 0.053495776, -0.0282431, 0.023020506, -0.0016380906, 0.011716164, 0.071725965, -0.044484735, -0.024953902, -0.0014756203, 0.014491248, -0.029015958, 0.06321005, 0.017694354, -0.0140544055, 0.0948089, -0.036748316, -0.077648334, -0.09149797, 0.070086084, 0.043861616, 0.069069564, -0.09564086, 0.029245162, 0.053548407, -0.06905275, -0.061002195, 0.009282506, 0.059016444, 0.0036514997, 0.040386427, -0.08473932, -0.06532254, -0.091308944, 0.029906332, -0.0781308, -0.07061589, 0.053062644, 0.028490484, 0.030864764, 0.024109209, 0.05578196, -0.08552889, 0.02510718, 0.025044883, -0.05217086, 0.05606593, -0.06750133, -0.07564427, -0.091198556, -0.026547516, 0.09161242, -0.059590805, 0.020655394, 0.01786275, -0.07448202, -0.049368132, 0.09164282, -0.051252093, -0.029919231, -0.09774669, 0.028234566, 0.036471225, 0.08212922, 0.07691907, 0.09098671, -0.09667368, -0.08175941, -0.04586133, -0.055578124, 0.038238015, -0.01412487, 0.016773224, -0.086645596, 0.022352327, -0.07918681, 0.08131057, 0.060583796, 0.04650153, -0.008602083, -0.016042544, 0.0224733, 0.0389655, 0.09833475, -0.05096847, -0.07755482, 0.05454911, 0.03219955, 0.08476905, -0.09770522, 0.07861407, 0.09170196, 0.036530163, -0.05261567, 0.028224409, -0.062158275, -0.074928276, 0.078825094, -0.015959347, -0.03458797, 0.09135633, -0.02889117, -0.05640755, 0.008452833, 0.002259648, -0.07318256, -0.033485163, -0.082938984, 0.09317005, -0.04248632, -0.054946866, 0.026964737, -0.09465506, 0.06302096, 0.029316617, -0.019266212, -0.054834247, 0.01742593, 0.047387075, 0.035654675, 0.0008622408, -0.019036198, 0.08313129, 0.0011589647, 0.023789061, -0.09935675, 0.07449422, -0.010814893, -0.009792352, -0.049538817, -0.09565561, -0.005485547, 0.09829276, -0.08184173, 0.058243085, 0.017878616, 0.034044027, -0.0633314, -0.061883714, -0.0113459, -0.029173328, 0.028584326, -0.012582326, 0.007292056, -0.044080734, 0.035918713, -0.010077441, 0.06803445, -0.053500403, 0.008798218, -0.080042146, -0.09906968, 0.07469129, 0.08674651, -0.097562484, -0.04779854, -0.09781038, 0.023990894, 0.0028334141, -0.056272484, 0.0710848, 0.0011214018, 0.050389875, -0.0806536, -0.056668043, 0.03260243, -0.026187921, -0.043812383, 0.08067582, -0.07408885, 0.04600319, 0.0007331014, 0.06524308, -0.017291164, -0.048320472, -0.04136181, 0.054291476, 0.07523035, 0.0004120946, 0.038447954, -0.00020301342, -0.065161526, -0.06054307, 0.007831109, -0.041297853, -0.057183255, -0.045966484, 0.06859008, -0.07512181, -0.08122914, -0.0007434249, -0.017813837, -0.07877499, 0.041594457, 0.083137296, 0.033131696, 0.036550965, 0.0144342305, 0.07280403, 0.057797205, -0.08783944, 0.08915372, -0.016035438, 0.068725325, 0.08088209, 0.015396512, 0.03688537, -0.08419795, 0.030575335, -0.09745592, 0.004046512, 0.022840703, -0.07847458, -0.076688625, 0.077621184, 0.097741224, -0.09162217, -0.096281864, 0.058353234, -0.03523015, 0.056174256, 0.095504634, 0.0151360035, 0.04152167, -0.09525993, 0.08022415, 0.0280321, -0.021860171, -0.019408954, 0.03736179, 0.038498905, -0.0771988, -0.09736522, 0.07779055, 0.019059896, -0.033413507, 0.05593709, -0.012140346, 0.084221676, 0.040112663, -0.042477597, -0.006138015, -0.08268106, 0.026796652, 0.0037026405, -0.018104017, -0.011383593, -0.05204599, -0.080524445, 0.004544401, 0.017543888, 0.07896556, 0.0077042817, -0.07021719, -0.0805665, -0.019601239, -0.050743986, -0.07823316, 0.055249464, 0.088707685, 0.058780838, -0.04411887, 0.012054968, -0.019410992, 0.09024906, -0.038756933, -0.036735978, -0.032952476, 0.08379873, -0.018519497, 0.044624187, 0.032554936, -0.004845846, -0.013667203, 0.0063920976, -0.014277852, 0.0019827844, -0.046791494, 0.033701684, 0.059860934, 0.020418858, 0.09373754, -0.07015526, 0.029343355, -0.057472434, -0.0014432907, -0.07353461, 0.09902712, -0.004207277, 0.039496817, 0.013127387, -0.017051613, -0.0020142316, -0.014179671, 0.0694199, 0.010411764, 0.05799469, 0.07279388, 0.03005308, -0.026438534, -0.07040621, 0.08137156, -0.02459234, -0.020051682, -0.014326513, 0.06841407, 0.08832166, 0.055580236, -0.04506868, 0.0020551563, -0.08381746, 0.042013954, 0.099883094, -0.010228383, -0.042871844, 0.046084035, 0.06269363, -0.0749822, 0.0705679, -0.08305886, 0.037802994, 0.054828417, -0.09713053, 0.065052964, 0.0355391, 0.06633975, 0.084248364, 0.029454028, 0.050729226, -0.09444654, 0.0062457086, 0.09671459, -0.08066573, 0.07557143, 0.08274817, -0.09127604, 0.026839508, -0.01781795, -0.017845714, 0.086990274, 0.068644695, 0.026578678, -0.09703244, -0.012046039, -0.056226052, 0.009759056, 0.0119558815, 0.01144687, -0.063706934, 0.041552197, 0.011616433, -0.015933348, -0.009354293, 0.06380098, 0.0024345636, 0.08712081, 0.052302923, 0.05381453, -0.07837331, -0.010523534, 0.07856057, 0.030119408, -0.08522481, 0.058330692, -0.08320737, -0.050332405, -0.09296342, 0.015085208, -0.06981955, -0.017101025, -0.093617454, -0.010259414, -0.05230985, -0.01565212, -0.09068091, 0.06730304, 0.06305035, -0.0702996, 0.07681119, 0.018163025, 0.060362995, 0.041212212, -0.091153525, 0.024969995, -0.07083823, 0.091782115, 0.08707924, 0.03642558, 0.02755847, -0.015062535, -0.09783256, 0.024798393, -0.0042772056, -0.0019837737, 0.008962989, -0.074365616, -0.037791204, -0.077820495, -0.065875605, -0.028958654, -0.074822776, 0.02215376, 0.045400012, 0.0032015683, 0.04125612, -0.035353508, 0.08837471, 0.006533742, 0.036554612, 0.028343404, 0.035587024, -0.025549961, -0.05497068, 0.04978912, -0.066640735, 0.08134758, 0.02045157, -0.090204075, 0.018047286, -0.023333335, -0.017265094, -0.055799343, 0.0023088455, -0.035117853, 0.05811075, -0.046586502, 0.095126584, -0.07891313, 0.031922102, -0.037803996, -0.011932003, -0.07145158, -0.040373575, -0.014587927, 0.04238676, 0.08941614, -0.042006876, -0.048307527, -0.08895707, 0.07090987, 0.026510954, -0.015154409, 0.047451187, -0.04466777, -0.077805094, -0.056308914, -0.03835931, 0.08491055, 0.05726525, -0.044232693, -0.04109303, -0.046370506, -0.02492776, 0.046035755, 0.06424272, -0.05601406, -0.013619102, -0.014788545, 0.08540326, -0.07192794, 0.07281592, 0.022604967, -0.014690864, 0.010582316, -0.07525624, 0.014262688, 0.028392613, 0.09363588, 0.019994749, 0.08565482, -0.024219025, 0.026161527, -0.094662026, 0.058404982, 0.07928526, 0.07274969, -0.016961265, -0.08423803, 0.010062587, -0.06951071, -0.012802899, 0.09229404, -0.00080940727, 0.022767771, -0.061604585, -0.06725522, 0.019175231, -0.053594638, 0.033458233, -0.09126592, 0.05763594, 0.015656019, 0.06859543, -0.026186788, -0.02228477, 0.007621646, -0.043967605, 0.0026397705, -0.07725471, -0.048390068, 0.07746686, -0.07697743, 0.07525289, 0.05220572, -0.073356524, -0.07363838, 0.062275518, -0.0078112367, -0.09636936, -0.095900655, -0.04803517, -0.012039757, -0.00835017, 0.09433408, -0.012310552, 0.070669904, 0.08883991, 0.026708066, -0.016561532, -0.018651819, -0.07913019, 0.088787846, 0.012749255, -0.07447543, -0.041576397, 0.02999264, 0.030479217, -0.058185317, 0.063529745, 0.07925735, -0.013322473, 0.03849976, 0.066861264, -0.095308125, -0.05795108, 0.06258633, -0.0017478347, 0.007841813, -0.027306497, -0.05976632, 0.077322714, 0.041408706, -0.067866564, 0.01347611, -0.058812927, 0.041408896, -0.047562506, -0.06989886, 0.09164812, -0.08294278, 0.097866274, -0.009379888, -0.008087075, -0.058241237, 0.027615977, 0.010769558, -0.05779555, -0.04592513, 0.09495344, -0.060035158, 0.08705049, -0.085693054, 0.012054515, 0.09017205, 0.042044055, 0.026284052, -0.00348022, 0.014977777, -0.05913924, 0.037466563, 0.09059947, 0.004923809, -0.068605565, -0.002117145, -0.035348486, 0.038386345, 0.0706704, 0.008577275, -0.071243145, 0.041397512, 0.017232537, -0.004005754, -0.07779481, 0.041887905, 0.071221046, -0.09855342, 0.057072964, -0.006364894, 0.040432777, -0.07771026, 0.035422303, -0.050638165, -0.042658415, 0.00043057205, 0.03083396, 0.073462725, -0.082507566, 0.07888389, 0.08069383, 0.089757495, 0.08435283, 0.051161673, -0.010438121, -0.037089456, -0.015576017, -0.032108914, -0.049614143, -0.025884807, 0.043947794, 0.01118803, -0.0774196, 0.022920633, 0.050021566, -0.0003694773, -0.04756725, 0.0612425, 0.014019537, 0.07788526, 0.026614761, -0.007904899, 0.027548183, 0.08134099, 0.0827436, -0.078141324, -0.062093962, -0.016920483, -0.035821784, 0.0017055512, -6.7007546e-05, -0.0022713304, 0.05390377, -0.042730033, -0.07413184, -0.0033614398, -0.04905161, -0.057730593, 0.027655518, -0.093409084, -0.05068406, -0.050459303, -0.05881808, -0.05936246, 0.028975666, -0.000790453, 0.0756972, 0.07583612, -0.0033921362, -0.01326375, 0.033138778, 0.008083177, 0.05232153, 0.022068013, -0.024231791, -0.04178412, 0.08810464, 0.067556776, -0.01682899, 0.04270134, 0.04048382, -0.095166504, -0.091056585, -0.07347391, -0.0852976, 0.007862449, 0.05176419, -0.06808934, -0.018864691, 0.072593085, 0.08746578, 0.014294934, 0.073200166, -0.074580275, 0.008757341, -0.060085237, 0.0891354, -0.03594693, 0.05298958, 0.004664719, -0.08974016, -0.01479758, -0.011080647, 0.09274619, -0.031256773, -0.012919855, -0.030007696, 0.0898451, 0.095749, -0.005518663, -0.056931924, -0.0024344444, -0.054537296, 0.019636774, 0.094298474, -0.0378258, 0.015099418, 0.06907963, 0.09533506, -0.04382087, -0.044743266, 0.010195876, 0.07625908, 0.0053079724, -0.007128704, -0.027172899, -0.0812036, 0.023119915, -0.06583923, 0.050588228, -0.028285563, 0.06337517, 0.08958614, -0.015304804, 0.037389614, -0.071129166, 0.0044975043, -0.08522271, 0.016440762, 0.093820535, 0.05380073, 0.09533916, 0.030982232, 0.022566034, 0.054396786, -0.0903457, 0.06903052, -0.07049345, 0.041248787, -0.086229205, 0.057782985, 0.050580095, 0.019048572, -0.090276554, -0.0029114604, -0.0017789602, -0.034492195, -0.025854671, 0.08951018, -0.05945269, -0.022578955, 0.06943102, -0.05047381, -0.020228958, 0.00565604, 0.06765105, 0.04717919, -0.09013518, 0.027883291, -0.04314307, -0.027799917, 0.02976246, 0.0043108584, -0.08860409, -0.045849204, 0.082637645, -0.059298526, 0.011703253, 0.034694195, 0.07162636, 0.041002106, 0.09110655, -0.020998836, 0.060245123, 0.06760963, -0.08350483, 0.018693924, 0.081591025, -0.0006367922, -0.03523705, -0.05646297, 0.07990038, -0.084976844, 0.0880968, 0.02082715, -0.04909984, -0.0705046, -0.08167763, -0.07673328, -0.061891224, 0.0850608, 0.026237642, -0.0014159083, -0.0376964, 0.0754234, 0.00031032562, 0.06294536, 0.045404352, -0.068197004, -0.04633987, 0.080165185, -0.09375352, -0.09968322, -0.08900414, 0.030756557, 0.029822469, -0.02925763, -0.06607752, -0.047919657, 0.052075695, -0.0090866685, -0.080759846, 0.06016898, -0.058468938, 0.061901856, 0.06640422, -0.060942866, 0.07846618, 0.00018684864, -0.027707731, 0.07232001, -0.062582634, 0.058296442, -0.01319282, 0.035942245, 0.024379088, 0.068004586, -0.09176705, 0.09674863, -0.024584604, 0.009437061, -0.010186374, -0.054997873, -0.083086245, -0.034501266, 0.027029073, 0.015591395, 0.0697328, -0.023466134, -0.08295729, 0.040475726, 0.07136478, -0.043065634, 0.0038080812, 0.090568915, -0.018821502, 0.09599793, -0.05564716, 0.060529184, 0.065214515, 0.039669346, 0.0444127, -0.024313271, 0.07000699, 0.085558675, -0.09141183, 0.091064274, 0.07194679, 0.058131516, -0.02212075, -0.055326592, -0.0026307702, 0.029075278, 0.05102067, -0.05209526, -0.025303377, 0.00040545463, -0.047308233, -0.06668275, 0.06931346, 0.06671091, -0.06743324, -0.050564993, -0.09172656, 0.03624345, -0.0372332, 0.012985408, -0.016318811, 0.03718027, 0.06982718, 0.07457844, -0.0038905384, 0.096087955, -0.09976303, -0.06636164, 0.040331114, -0.035503864, 0.073954426, 0.09599531, 0.040597856, -0.06298953, -0.02402184, -0.041522563, 0.026126742, 0.04914507, 0.036812164, -0.05981034, 0.027034653, -0.067247726, 0.07793303, -0.046088852, -0.03462801, -0.017060233, -0.053201664, -0.0479952, -0.016599512, -0.06127883, -0.06000024, 0.077692024, 0.087253354, -0.07611898, -0.042499375, 0.014206446, 0.033286847, -0.06266496, -0.08247679, 0.046263278, 0.06917011, 0.082576476, -0.0692079, -0.08048575, 0.013791311, 0.076947145, -0.0587126, 0.022983408, 0.04010061, 0.07733933, 0.0370165, -0.014364183, -0.027644897, -0.022073293, 0.018825246, 0.09354951, 0.04365909, 0.055843737, -0.050692786, 0.054151453, 0.05623857, 0.07430114, 0.040839255, -0.022317458, 0.084119394, 0.03355824, 0.028188718, -0.060897708, 0.058758248, 0.08834318, 0.06813287, 0.056623843, 0.008191312, -0.0047268034, 0.008723724, 0.020283556, 0.036255624, 0.08299949, 0.07171716, 0.04056864, 0.098781966, -0.030963516, 0.009375465, -0.07142717, 0.05746739, -0.09867958, 0.03862939, 0.061178375, 0.06331637, 0.008467889, -0.06719374, -0.0032681108, 0.09594162, -0.08438229, 0.022124374, -0.04417758, 0.033424508, 0.057365287, 0.09464251, -0.04086219, -0.049310207, -0.043582406, 0.09708029, -0.009064949, 0.006031656, 0.07356504, -0.063336514, -0.07390684, 0.049368847, -0.00484674, 0.09138431, -0.09445252, -0.05140369, -0.037864912, 0.07724215, -0.04052061, 0.0039530755, -0.022022128, 0.029888475, -0.04500238, -0.061142396, -0.026030375, 0.09100183, -0.08232456, 0.07705585, -0.058301557, 0.013488484, -0.026424551, 0.056140985, -0.05044171, -0.030724956, 0.039543808, 0.0453411, 0.017253626, -0.09775597, 0.009621012, 0.08749731, 0.050014425, -0.0017326713, 0.032660972, -0.068259336, -0.011725354, -0.08169591, 0.06868211, -0.044632148, -0.0014795661, -0.063798025, -0.08987018, -0.026570642, -0.039036334, -0.031666707, 0.08366078, -0.006646109, 0.007662916, 0.06732589, -0.016052842, -0.043320786, -0.034520555, -0.05709038, -0.00487715, -0.013323343, -0.081539094, -0.038220633, 0.034577608, -0.09775662, -0.09019952, -0.04496875, -0.050078787, 0.034921076, -0.022240985, 0.034006443, 0.07949165, 0.062651955, 0.088289216, 0.07213183, 0.04983784, 0.008309233, -0.024945736, -0.013268018, -0.083711796, 0.052468836, 0.058777034, 0.080296315, 0.02178042, 0.07274387, 0.04055208, -0.054089405, 0.063122764, 0.015318334, 0.09924819, 0.017244125, 0.024139857, -0.020872688, -0.0056838514, -0.069597684, 0.007864416, -0.092661954, -0.037619937, 0.031757247, -0.07799309, 0.088296734, 0.013388991, 0.04784565, -0.081682496, -0.054671515, 0.037530232, -0.027207328, 0.07862637, -0.001470697, -0.0153031945, 0.032618355, -0.08574513, -0.070321, -0.09364766, -0.097129785, 0.06908589, -0.054718424, 0.0092924, -0.010531104, -0.071762495, -0.0889094, -0.09209847, -0.022242201, 0.053822782, 0.07501562, -0.030859042, 0.0069931387, -0.08657873, -0.078045964, 0.046444166, 0.013125086, 0.09629456, 0.02513895, 0.053844858, -0.08296352, -0.04606948, -0.05612148, 0.039854445, -0.020093406, -0.044092417, -0.052752316, 0.022386348, 0.09628178, 0.03834602, -0.00087524654, -0.019707788, 0.006083727, 0.07684088, 0.031421077, 0.066589296, 0.062395643, -0.09914704, -0.07781466, 0.087651365, 0.048865985, 0.00079276564, 0.06936418, -0.0028957247, -0.04101255, 0.008093071, -0.06874158, -0.08928446, 0.033709776, -0.06330084, -0.089079075, 0.057897355, -0.058434036, -0.053848054, 0.04848049, 0.047117867, -0.06507287, -0.096989326, -0.03731382, 0.0032733679, -0.01784413, -0.067534916, -0.011417366, -0.042567518, -0.026046693, -0.08227855, -0.08894978, 0.04122844, -0.003259337, 0.084506266, -0.01863631, -0.045301355, -0.073494196, 0.024843264, 0.057032492, 0.023710787, -0.09590872, 0.02646097, 0.07000929, -0.07125026, -0.013176429, 0.0045162323, -0.054389562, 0.0024398565, 0.092758454, 0.0023073435, -0.08756924, 0.011627686, 0.06757716, -0.09601474, 0.08597062, -0.058553077, 0.07353341, 0.082558624, -0.06909551, 0.08885924, -0.031423867, 0.03756851, -0.0368912, 0.042465415, -0.085377686, 0.06223122, 0.030499196, 0.07951429, -0.03064083, 0.01614554, 0.08527889, 0.06055478, 0.090975665, -0.05156305, 0.08589666, 0.059759784, -0.019361842, 0.045937527, 0.0711507, 0.05131116, -0.061746813, 0.072091065, 0.03091687, 0.08040372, 0.05025164, 0.054728854, 0.087025404, -0.048387386, -0.08196761, -0.043005716, -0.01790973, 0.004874611, -0.079740144, 0.041233327, -0.07890596, -0.034859706, 0.07596369, 0.043998804, -0.082415305, -0.00042107105, 0.089445256, 0.09547841, 0.06840292, -0.056474864, 0.085172035, -0.06678822, -0.008242369, -0.08437579, 0.015376151, 0.059767317, -0.03786799, -0.025913084, -0.00197742, -0.019227302, -0.04350729, -0.07841255, 0.0057632923, -0.084475, -0.052451085, 0.06474743, -0.09350301, 0.06942604, 0.027813042, 0.011640287, 0.061246146, -0.09247612, 0.008263576, 0.07404218, -0.09403413, -0.023850966, -0.070622385, 0.07365954, -0.013610387, 0.07597452, -0.07678755, 0.06908133, 0.074070945, -0.038477253, -0.03281759, 0.0031545998, 0.07720583, -0.086555615, -0.09129478, 0.0036691667, -0.004944718, 0.03151095, -0.06495931, 0.014375842, 0.0158512, 0.0863153, 0.0663204, -0.06512437, -0.04903549, -0.087328695, -0.04189683, -0.092453815, -0.03627926, -0.09379982, -0.07317447, 0.04464356, 0.059708204, 0.06811078, -0.013478065, 0.055382837, -0.037496474, 0.0719818, -0.060233723, -0.037496712, -0.0090558175, -0.05350063, -0.05905367, 0.080369435, -0.087456636, -0.024901856, 0.008109224, -0.061774302, -0.07689091, -0.0027179958, -0.03360566, -0.05569849, 0.05997584, -0.07653626, -0.09220886, -0.016790688, 0.04637133, 0.01367172, -0.044677723, 0.05379654, 0.028079307, 0.039356757, 0.021194959, 0.08497059, 0.04469948, 0.07760789, 0.048631098, 0.049456168, 0.024977684, -0.0042649745, -0.043960046, -0.03020103, 0.051520206, 0.069847286, -0.044850506, -0.023769343, -0.08925017, 0.09594255, 0.06036192, -0.077616684, 0.090504766, 0.058555257, 0.05984962, 0.09882968, 0.033276737, 0.058838796, 0.09564125, -0.070629, 0.091656044, -0.07460517, 0.031520437, -0.060828544, -0.098530844, 0.06681384, -0.021263111, -0.06724719, 0.06197032, -0.057508554, 0.0059407237, -0.012042618, -0.058490932, 0.047777772, 0.009329999, 0.09100743, -0.08389808, -0.04593401, -0.032630753, -0.067080915, 0.037296414, -0.08667947, -0.04353937, 0.046486642, 0.06754094, -0.070641436, -0.011934209, -0.008914995, -0.0786858, 0.0990605, 0.0151113635, 0.012768614, -0.085587434, 0.09309186, -0.055573106, -0.0825447, 0.017062081, -0.06204002, 0.044829417, 0.044558097, 0.021125281, -0.041076314, -0.028659856, -0.015251386, -0.09166256, -0.018778933, 0.0013896704, 0.04368875, -0.05794231, 0.03816087, 0.0385028, -0.08945177, 0.058778763, -0.07346721, 0.017634297, 0.038565684, 0.094158806, 0.055661727, 0.03498441, 0.015507209, 0.097821616, -0.006764281, -0.04519124, -0.01416682, 0.025158836, 0.044078317, -0.036570277, 0.05872749, 0.098486476, -0.061254263, 0.09805955, -0.08476051, 0.0872853, 0.012646735, 0.060466923, 0.09112511, 0.06557015, -0.064813964, -0.09476327, 0.044459917, 0.039458897, 0.05573386, 0.016185451, 0.041308977, -0.056913722, -0.035355475, -0.071451955, 0.03997734, -0.071861826, 0.0903119, 0.011805499, 0.08548657, -0.04354422, 0.096016265, -0.004198003, 0.07944379, 0.0040204646, 0.012668145, 0.09723337, 0.048149657, 0.037501216, 0.045362007, 0.0003399134, 0.003177917, 0.08554491, -0.035927333, 0.091653936, 0.054240454, 0.051582385, 0.060680985, 0.0013825655, -0.027813423, -0.078755796, -0.03517903, -0.08501699, -0.017334735, -0.016683543, -0.08397176, -0.006319273, -0.033792783, 0.06499238, 0.08498641, -0.071104504, -0.07045652, -0.030435776, 0.021691049, 0.095603995, -0.0562595, 0.032506168, -0.058556903, -0.030376434, 0.053317167, -0.08095036, 0.032174446, 0.090200506, -0.06055819, -0.01644112, 0.07446112, -0.037447512, -0.078507714, -0.057442605, -0.081951454, -0.007378614, -0.06321998, 0.031204844, -0.09546646, -0.09419104, -0.08840865, -0.033459485, 0.0024029135, 0.09726826, -0.043967176, -0.0022871257, -0.05274222, -0.054904055, -0.019057322, 0.012261855, -0.06564575, 0.076198876, 0.009393585, 0.06556194, -0.043029644, 0.083407395, -0.09837248, 0.030562354, -0.041035544, -0.06104484, 0.003337729, -0.04308436, -0.060147393, 0.03613299, -0.05776111, -0.004710579, -0.016339732, -0.07598394, 0.077189244, 0.08534565, 0.022450937, 0.0061222794, 0.026786363, -0.04460038, -0.05739006, -0.07283989, -0.04282725, -0.07358152, 0.06688764, -0.0015994668, -0.018705476, 0.07008988, -0.06128155, 0.09073957, 0.0710453, -0.057509758, -0.012775863, -0.028566469, 0.066254854, 0.034914553, 0.079620436, 0.059533764, -0.09152458, -0.095087945, -0.0582976, 0.06743913, -0.03360039, 0.06393293, -0.05541388, 0.092838444, 0.03614503, 0.033759296, 0.05410966, -0.06844216, 0.092855625, 0.09477376, 0.08658882, -0.095235996, -0.040673446, 0.035917617, 0.033266116, -0.041155245, -0.085768424, -0.04699967, 0.031270564, -0.016259898, -0.047974765, 0.032065477, -0.09149877, -0.060847618, -0.030679226, -0.07454004, 0.022704912, 0.030303776, -0.017798496, -0.0026031851, 0.0051306128, -0.0030606866, -0.06770698, 0.08831962, 0.020314896, -0.054923903, -0.033189368, 0.093941025, 0.072546594, 0.09834905, -0.03745563, -0.054127883, 0.0843878, 0.05220964, -0.009530509, 0.0043829917, 0.03828572, 0.0075858, -0.09676575, 0.0024914264, 0.042151727, 0.0774585, 0.010607493, -0.020079315, -0.08063481, -0.0748979, 0.00036791564, -0.032690085, -0.046857893, -0.0011939406, 0.08261012, -0.083562694, 0.072284095, 0.009826362, -0.09804684, 0.07636129, -0.0055198907, 0.017948676, 0.07569655, 0.0019609332, 0.07272326, -0.03133061, -0.09938923, -0.019298304, 0.0046721934, 0.012013614, 0.093587175, -0.08080032, 0.054861415, 0.06266742, 0.025881255, -0.0750139, -0.06216682, 0.00066313747, 0.043092906, -8.624792e-05, 0.01949494, -0.043570448, -0.0020040274, 0.003801489, 0.02040155, -0.00246675, -0.06026442, 0.038529363, 0.040405523, -0.02974441, 0.041563835, 0.07763131, -0.034436952, 0.043580737, 0.07584784, -0.05471872, 0.09841975, -0.06265863, 0.00999701, -0.066012554, -0.09319539, -0.05675565, 0.06827485, 0.05180652, 0.06419009, 0.058628034, 0.0074890736, 0.05770762, -0.005412972, -0.028711403, -0.08214953, -0.010804558, 0.072427385, 0.0042454004, 0.010153151, 0.019090295, 0.09044468, -0.009339607, -0.039018344, 0.033383276, 0.0416872, 0.08395678, 0.07648008, -0.04064014, 0.058894217, 0.096403934, 0.058981813, 0.020734549, -0.014869714, 0.038409676, -0.052541565, -0.05969379, -0.00612849, -0.0058362125, -0.071647644, 0.08908234, 0.06932559, 0.019400382, 0.07930952, -0.053340387, 0.03871577, -0.017101383, -0.057547998, 0.08373866, -0.099054076, -0.08919082, 0.05836574, -0.06120714, -0.014518893, 0.063666165, 0.042553104, -0.084695004, -0.06439247, -0.0010633111, 0.0013364911, -0.0009500146, -0.07563623, 0.018832458, -0.035280515, -0.07294879, 0.0035202862, -0.026161527, -0.0031946779, 0.0068973186, -0.06885649, -0.03777392, 0.019562041, 0.07171925, 0.051561426, -0.0797189, 0.088730514, 0.02235341, 0.00831858, -0.059211876, 0.082564525, 0.06892885, 0.07514115, 0.06795692, -0.099628225, 0.08489443, 0.0166772, 0.0034886121, -0.068382956, -0.047794234, 0.06599633, -0.024163974, 0.02462008, 0.04401629, 0.0030567765, 0.083191924, -0.04230838, -0.09739164, -0.07910802, -0.077491775, -0.09549494, 0.08318001, 0.06660777, 0.028314447, 0.027774705, 0.04240929, -0.02186451, 0.012372446, -0.056584824, 0.0800583, 0.07598789, -0.06976564, 0.055994548, 0.014621759, 0.06443603, -0.08550959, -0.0977629, -0.056618858, -0.04849824, 0.009786749, 0.0750975, 0.091717295, 0.04314084, -0.09925264, -0.01619953, 0.099017285, 0.0026639223, 0.08600592, -0.020055009, 0.08592147, -0.09010595, 0.04800291, 0.054613926, 0.03284651, -0.021109736, -0.09796301, -0.048231483, 0.024150623, 0.05121087, 0.006636453, 0.04229746, -0.085407615, 0.09690791, 0.049370874, -0.094848454, 0.03829378, 0.05143955, -0.07054931, -0.042883217, -0.012386883, -0.015526342, 0.051498126, -0.09718775, 0.04838536, -0.038192343, 0.095063806, 0.0862785, -0.097664915, -0.09471297, 0.007888913, -0.037343334, -0.009219348, 0.024867738, -0.051157035, 0.0016747237, -0.0029811978, 0.023092378, 0.045017328, -0.0723905, 0.09466878, 0.07573517, -0.035643768, 0.051508855, 0.027752697, -0.09321257, 0.08621345, -0.03886608, 0.013971055, -0.058844414, -0.016776014, 0.047222078, -0.010615671, 0.04332416, -0.02941978, 0.042329073, -0.0030955316, -0.010242164, -0.0944642, -0.03872651, -0.06454003, 0.00033768415, 0.044589926, -0.06049229, -0.04769049, 0.03038615, -0.08781514, 0.06310903, 0.07589654, 0.002251494, 0.03351512, -0.07188344, 0.09693488, 0.059250142, -0.015987694, 0.0996858, 0.053551544, 0.0001555562, -0.06418295, 0.010958063, -0.08290707, 0.019979848, 0.07424203, -0.093746476, 0.059127998, -0.04875021, 0.009322107, -0.056774404, 0.029783344, 0.041148912, -0.050747525, 0.07349106, -0.010394061, -0.059005678, 0.095954455, -0.021504058, 0.02207662, -0.09332209, -0.057575762, -0.049411166, 0.0079125045, -0.040412497, -0.07481965, 0.071197666, -0.054208864, 0.045747973, -0.078921735, 0.06693158, 0.040831864, 0.059859075, 0.06347475, 0.089452244, -0.040077485, 0.067482986, 0.033589076, 0.0717618, -0.048384883, 0.0048062443, -0.014591348, -0.05993284, -0.095392995, -0.012506462, 0.04332583, 0.026169563, -0.058314383, -0.017653657, -0.07250285, -0.021905053, -0.07039924, 0.094407596, 0.027240515, 0.064586595, -0.032775808, -0.07022729, 0.0063020946, 0.088162474, -0.002468312, -0.04871687, 0.062003493, -0.004089487, -0.058808483, 0.016799033, 0.055917133, -0.03879589, -0.08064858, 0.026044572, -0.021913648, 0.036782693, -0.070739284, 0.09751516, 0.06028825, 0.009293938, -0.0010269404, -0.026901854, 0.07572301, -0.007668352, 0.07338814, 0.02941872, -0.0594648, -0.041492153, -0.095864095, 0.043311764, -0.08760985, -0.07323891, -0.016955698, -0.07492717, 0.026259482, 0.04575423, 0.016384948, -0.024655689, -0.08671669, -0.048833918, 0.017813563, 0.0054742694, -0.04498315, -0.01167959, 0.06884419, 0.09467619, -0.097919084, 0.030314697, 0.056975245, -0.0039761784, 0.077610016, -0.0031367063, 0.072116315, 0.06812411, -0.0062674764, 0.005487192, 0.09633503, 0.080739036, -0.006744468, -0.09087757, -0.07849552, 0.010107398, -0.0038811087, -0.020015145, -0.09700222, 0.013110161, 0.06324684, 0.02079085, 0.06487315, -0.018825913, -0.094696045, 0.0112795355, 0.024790382, 0.012497854, -0.046201672, 0.04859073, -0.028282596, 0.053308655, -0.0781047, -0.022848045, -0.05735452, 0.07208263, 0.08641, 0.08140581, 0.048468318, 0.062022116, -0.039209735, 0.01366235, 0.042511094, -0.009317565, 0.032282222, 0.014025474, -0.09305119, -0.020642472, -0.023607517, 0.08798962, -0.02158817, -0.06850213, 0.069752716, -0.09078231, -0.062665954, 0.050706375, -0.08015462, -0.095059566, 0.060331464, 0.025285317, -0.05802678, 0.06524628, -0.04225087, -0.0020790815, -0.07977875, 0.047846507, -0.02943089, 0.087123714, 0.049772907, 0.06537501, -0.061406564, 0.053266298, -0.07482896, 0.025086714, -0.076747455, -0.021542812, -0.072679006, -0.0387741, 0.046429623, 0.08379557, -0.09197473, -0.031974223, 0.0036212206, -0.027953232, -0.07163294, 0.019840254, 0.06727078, 0.0063108923, -0.040911008, 0.071217455, -0.0013717056, 0.0980441, 0.07870753, 0.08194226, 0.044021606, 0.073708735, -0.09598988, 0.067833975, 0.033877622, -0.025777746, -0.09806128, 0.06740894, -0.05417032, 0.05109885, 0.047230672, -0.029178739, 0.09807714, 0.0013406397, 0.03625839, 0.057079505, -0.025462557, -0.03237877, -0.03251655, -0.04431299, 0.017962743, -0.075214855, -0.025139129, 0.04342692, -0.09240333, -0.038183033, 0.035504606, -0.079505205, 0.04602207, 0.055265237, -0.05560268, 0.02137326, -0.06577315, -0.005818856, 0.08840988, 0.022512019, -0.0020260334, 0.08176694, 0.037989438, 0.031259634, -0.0003632784, 0.06271111, -0.033738505, 0.009800888, 0.0451581, -0.0922811, 0.015158462, 0.019826734, -0.0076547265, 0.019774342, -0.09709443, 0.09933722, 0.02300222, -0.07625736, 0.0208081, 0.0021806003, -0.05251942, -0.03645375, -0.0638532, 0.031284403, -0.036361396, 0.025279833, 0.016511858, -0.043176364, -0.016406333, -0.0849997, 0.049286317, 0.009029055, -0.023145413, 0.010153961, 0.022487104, -0.018151904, 0.020422721, 0.09304762, -0.08773365, -0.04946344, 0.005552757, -0.03915429, 0.060733296, 0.036568787, 0.016797556, -0.04901707, -0.07970049, -0.011868167, -0.07725841, 0.0050049904, -0.0670433, -0.013531792, -0.006093514, 0.09704663, 0.030896902, -0.069645226, -0.06357942, -0.07640778, 0.06035235, 0.025044858, 0.049050715, -0.043130826, -0.036440242, -0.06399323, -0.094011776, -0.063381866, -0.06938409, -0.041375853, -0.027761733, -0.030235827, -0.083860956, 0.090403095, -0.09666753, -0.026857782, 0.059078038, -0.010340452, -0.081331156, -0.05499811, -0.06633603, -0.06276607, 0.0119273905, -0.028633416, 0.011615909, 0.09698899, -0.040336847, -0.025611842, 0.06998143, 0.04917976, -0.03614534, -0.027915502, 0.07173767, -0.027827097, 0.0069695353, -0.062301587, 0.09032809, -0.061371494, 0.078718126, -0.012120104, 0.091607384, -0.015011824, 0.061556198, 0.027071679, 0.025681078, 0.029162968, 0.09024586, 0.025916338, 0.04209545, -0.06446111, 0.090215705, -0.03723016, 0.07285478, 0.03093338, 0.086775355, -0.059661746, 0.080366805, -0.005946851, -0.080935836, 0.05783558, 0.003915763, 0.06652409, 0.05301359, -0.0023606778, -0.036173154, -0.08523407, 0.03172786, -0.005006123, 0.099148564, -0.083118156, 0.033057988, 0.035813868, 0.027746452, 0.051847875, 0.08185931, 0.00058341026, -0.016395856, 0.09272929, 0.08783869, 0.09243925, 0.022794962, -0.058619786, 0.0780318, 0.0012256623, 0.014757645, 0.011065495, 0.03296546, -0.08324295, 0.028847575, -0.010120332, 0.014201856, 0.020038713, 0.08815397, 0.095735826, 0.061406374, 0.074783556, 0.02918979, 0.09332069, 0.049187757, -0.0015557051, 0.038825788, -0.01767595, -0.050744094, 0.052564826, -0.020801414, 0.07262593, -0.051926028, -0.04337666, -0.050121106, -0.09025822, 0.09502482, 0.09906774, -0.09847104, -0.037374794, 0.036753345, 0.043456793, 0.07345746, -0.008097231, -0.05312964, -0.077331044, -0.09670557, 0.0674217, -0.098486684, 0.022058332, -0.09150999, -0.029633319, 0.050403845, 0.0053649903, -0.045016266, 0.04584638, -0.051717963, 0.007926536, 0.030667365, 0.03311931, 0.013134814, 0.09120965, -0.09637462, -0.051005818, 0.060888935, -0.06171329, 0.06527179, -0.035894275, -0.002947712, 0.05068002, 0.012684441, -0.0017431617, -0.05411501, 0.022429407, 0.056074012, -0.070615254, 0.03577992, -0.010198689, 0.0356625, -0.096683264, 0.08575423, 0.083917655, 0.0215649, -0.09406661, 0.09853908, 0.04733905, -0.05961882, -0.062494695, 0.09844519, -0.03622072, 0.004032898, -0.038508143, 0.03116597, -0.03818306, -0.08637291, 0.017614186, 0.06630399, 0.09584025, -0.024705922, 0.043978002, -0.044927526, -0.05751094, -0.06081133, 0.025446368, 0.092484854, 0.05071963, -0.068972304, 0.08041195, 0.012372124, 0.07220616, 0.021817613, 0.026006414, -0.042973746, 0.014890802, -0.045043338, 0.024315346, -0.07112682, -0.0812748, -0.090374745, -0.017757023, 0.008821619, -0.028359318, -0.016979098, 0.09053459, -0.028900553, -0.059274375, -0.0011633873, 0.045483507, 0.015126944, 0.03445519, 0.070390955, -0.07001, 0.060516514, 0.01721157, 0.008317316, 0.08724024, 0.04051913, 0.051050674, -0.008398319, -0.07700094, -0.09440203, -0.089580335, 0.064407505, 0.012764645, -0.012642789, 0.079001784, -0.0578532, 0.014733148, 0.024099052, -0.09254666, -0.02441287, 0.025136435, 0.037293293, -0.036861993, 0.042879988, 0.021292437, 0.041667618, -0.070143126, 0.0005991817, 0.0989663, -0.09630292, -0.06868067, -0.047050595, -0.075876474, -0.027333116, 0.07370976, -0.0075864196, -0.07186767, 0.060258795, 0.06704569, 0.008378184, 0.06033336, 0.038353708, 0.009125578, -0.051835824, -0.026467001, 0.02558819, 0.02487482, 0.0006590605, -0.04727576, 0.091027215, -0.052143145, 0.02986157, -0.092484765, -0.0808576, 0.05793952, -0.08894719, -0.0885601, 0.0654933, 0.013520348, 0.05500486, 0.07176267, -0.025053263, -0.06759721, 0.03511676, -0.07751127, 0.021513892, 0.00033566952, 0.07090624, 0.09088241, 0.036854327, -0.0031076074, -0.09903858, 0.098323226, -0.050546076, -0.06528598, 0.0066833496, 0.047695387, -0.08282449, 0.041504886, 0.0720161, -0.09296644, 0.051451504, 0.073383585, 0.049247433, 0.05985397, 0.087505534, 0.049529877, 0.014571607, -0.07764708, -0.040765833, 0.012809551, 0.017630374, -0.05171467, -0.080817044, -0.083037734, -0.06901717, -0.0913154, -0.06297834, -0.0224697, -0.06477145, 0.015241111, -0.012598502, 0.028800452, 0.06912537, 0.07549174, -0.08435011, -0.055393647, -0.002044189, 0.0509197, -0.08973857, -0.06629761, 0.03254813, 0.048305213, 0.031870343, -0.07856566, -0.08673332, -0.0015318275, -0.024710966, -0.043389466, -0.05148064, -0.07394295, 0.0012401342, -0.0512995, 0.06909615, 0.08832147, 0.03927448, 0.085551344, 0.048673846, -0.031854536, -0.097008504, -0.011653102, 0.021769559, -0.06441951, -0.057740856, -0.06792333, 0.0013975025, 0.0055611134, 0.038476955, 0.045276534, -0.075628355, 0.066620745, 0.08066469, 0.09096547, -0.006643546, 0.05154368, 0.0030646443, 0.088582315, 0.06918452, -0.03885455, 0.05731095, 0.030941917, -0.043177463, 0.009401619, -0.07492204, -0.08486996, 0.026277041, -0.06996713, -0.057419088, 0.07803797, 0.09825396, -0.06786094, -0.038795438, 0.02617904, -0.021159614, 0.047027458, 0.06814245, 0.03846265, 0.05056882, 0.08323053, 0.085555114, -0.095523894, 0.0064162733, -0.056788504, 0.061495613, 0.020766258, 0.01594832, 0.035995115, -0.092342876, -0.055455245, -0.008930839, -0.032781553, -0.023747325, 0.054837193, -0.0134921195, -0.0535355, 0.09234543, 0.05426035, -0.066094175, 0.023282254, 0.058878984, -0.027937425, 0.07360915, 0.016990578, 0.036173083, 0.044827033, 0.053475738, 0.088153176, -0.011577308, -0.04785763, 0.042154398, 0.025316942, 0.07569039, 0.041761268, -0.041530516, 0.02274518, -0.07771539, -0.09354031, 0.0017438888, -0.06015673, 0.061870467, 0.0021402002, -0.06913295, -0.051427316, -0.059310377, 0.08597356, -0.09041952, -0.016438901, 0.05738982, 0.02658919, 0.013104439, 0.015035582, 0.098649, -0.026205206, 0.057029914, 0.031169236, -0.06366253, -0.0030223608, 0.03216913, -0.01167003, 0.08175387, 0.009496534, 0.049871065, 0.07560217, 0.054897834, -0.094489634, 0.008187902, -0.02667631, -0.00349195, -0.050077498, 0.047195233, -0.04285574, -0.066101074, -0.09939313, -0.035771407, -0.062022246, 0.061948467, -0.08705711, -0.074168004, -0.08579327, -0.06434969, 0.08289053, 0.064278856, 0.026259745, -0.08258027, 0.02628249, -0.0009117603, 0.047031056, 0.0037785054, 0.02467413, -0.025325203, -0.055833053, -0.03480765, -0.02040205, 0.051886, 0.0050836327, -0.0053040865, 0.02767688, -0.06581608, -0.09015309, -0.05812018, -0.0056743505, 0.031237686, -0.0007768512, 0.09749227, 0.021383608, -3.0183792e-05, 0.0016716839, 0.04056095, 0.09155538, -0.028928638, 0.009212148, -0.08090188, 0.073700406, -0.0012889147, 0.06795838, -0.06688704, 0.0896882, -0.0944607, 0.038144898, 0.01748308, -0.07559623, -0.084983625, -0.036120605, 0.0046155574, -0.09129309, -0.0018184662, 0.04351771, -0.059081506, -0.008350349, -0.065474205, 0.049609948, 0.08647175, 0.009386182, 0.0022905827, 0.09910679, -0.03516232, 0.04584023, -0.020618904, -0.06548526, -0.09045509, -0.00289675, 0.0922716, 0.053289797, 0.078365445, -0.02415148, -0.052496996, 0.064193465, -0.057034638, -0.004152298, -0.086985804, -0.003116584, -0.032352842, -0.052768063, 0.05282755, 0.043657612, 0.08213549, -0.0765809, -0.08083375, -0.014999688, 0.03523768, -0.019562889, 0.038235523, 0.05912415, 0.017426861, -0.0023694874, 0.09083294, 0.080373466, -0.039766323, 0.064108446, -0.067867056, -0.061681032, 0.01914835, 0.08706545, 0.079255775, -0.06269234, 0.0042089582, 0.06611736, -0.059646573, -0.09024125, 0.008663798, 0.049613025, 0.007937014, -0.02197193, -0.09005052, 0.09251453, -0.063587025, 0.069847964, -0.011693776, -0.09172646, 0.024741424, -0.004136181, 0.00023659469, 0.07702657, 0.025912618, 0.033893134, 0.081049874, 0.040913608, 0.020504141, -0.04173703, 0.012716794, 0.030870784, -0.08134591, 0.065644674, 0.07859694, 0.056823384, -0.05229179, 0.046820916, -0.03865496, 0.024625504, 0.025685668, 0.0537125, -0.045065153, -0.09068506, 0.066123, -0.06464946, 0.09570266, -0.043643843, 0.06661985, 0.015066588, -0.06850091, 0.06141869, 0.010343015, -0.088106416, -0.09960283, -0.063747264, 0.035851587, -0.09762653, -0.013101351, 0.052870072, 0.08194909, -0.04660088, -0.03639797, 0.05276934, -0.09720049, 0.096787035, -0.014687133, -0.036135208, -0.072318435, -0.022457099, -0.05398618, -0.08464054, -0.08634442, 0.08898168, -0.011695814, -0.021831, 0.099921584, -0.05402068, -0.040930547, -0.08861748, 0.015542472, -0.09066204, -0.0064684274, -0.08867953, -0.035973407, -0.0211895, -0.087319575, 0.012541461, 0.01501441, -0.06586563, 0.01939006, -0.04830674, 0.09848803, -0.051433872, 0.017966902, 0.02938719, -0.07944862, -0.004405153, 0.07227526, 0.04214264, -0.04563409, 0.09122814, -0.024634136, 0.016858447, -0.073197894, -0.095619276, 0.018243229, 0.020695627, 0.03490926, -0.022725094, 0.065248564, -0.044063557, 0.015671253, -0.027968323, -0.04498701, -0.0020264864, -0.06468761, 0.09164585, -0.07030286, -0.018883264, -0.07843032, 0.05010159, 0.092000745, 0.05871221, -0.043865193, 0.09960055, 0.051285114, -0.08336581, 0.09536697, 0.010616374, 0.048974406, 0.0020977617, 0.08392886, 0.08582675, 0.08137852, 0.05017711, 0.015585494, 0.021278322, -0.036994886, -0.018360555, 0.09642803, 0.019849254, -0.030895269, -0.047629964, -0.09058746, -0.029529525, -0.02658689, 0.07666599, 0.019491374, 0.06684835, 0.06531953, 0.01787827, 0.014060045, 0.06141386, -0.0059105754, -0.037450742, 0.09335535, 0.027589047, -0.004846573, -0.089510106, 0.07948728, 0.06385843, 0.0799791, 0.04535048, -0.08370703, 0.07840735, -0.056932498, -0.029787863, -0.084322646, 0.026913393, -0.017482424, 0.092890814, 0.0111320615, -0.08151559, -0.057773925, -0.03093872, 0.032952156, -0.06379302, 0.035141636, -0.054995038, 0.093049586, 0.06436931, -0.045852102, -0.066132784, 0.0020911694, -0.04691079, 0.06871187, -0.028839672, -0.023421204, 0.033824194, -0.062042415, 0.062223613, 0.035212375, 0.0059986236, 0.0975268, 0.001565826, 0.09816982, 0.04287788, -0.0027772428, -0.024329746, -0.04328672, -0.06010505, 0.026892865, -0.077963926, 0.012787449, 0.07306762, -0.088723324, 0.057513535, -0.026264131, -0.0143174175, -0.0030709268, -0.08950456, -0.06824861, -0.08020129, -0.04198817, -0.0064994097, 0.0806484, -0.000730896, 0.026994241, 0.034290887, 0.029577363, -0.021391762, -0.09961142, 0.028539134, 0.036316633, 0.03198247, -0.07912079, -0.026275003, -0.011142957, -0.09287044, 0.06833257, 0.015463078, 0.00055879354, 0.097114205, -0.064570956, -0.03070314, -0.093732946, -0.059799563, 0.08613624, 0.088416494, 0.06872912, -0.079635836, -0.08762012, 0.053227283, 0.09919532, -0.04837946, 0.07682788, 0.076633275, -0.06014928, 0.0017132044, 0.013819182, -0.08941865, -0.04645419, 0.015760446, 0.0066210153, -0.09512099, -0.08428168, 0.06067717, 0.043020427, -0.071947396, -0.0073414086, 0.07426784, -0.0004543543, -0.045559086, -0.049141206, -0.061313022, 0.04325948, -0.021916782, 0.044538833, 0.048725154, 0.013420177, -0.06459321, -0.04374343, 0.0418638, -0.08831655, 0.059591483, 0.056436777, -0.06872499, -0.0013932943, 0.07571118, 0.0070799827, 0.06963853, -0.021454608, 0.027287995, -0.08755757, -0.0114646675, 0.051267862, 0.018476283, 0.025252331, 0.09924524, 0.030675698, 0.076221876, 0.03203373, -0.047657527, 0.023849154, 0.05474118, 0.034208573, -0.06099527, -0.089038074, 0.07542922, -0.020204986, 0.021571815, 0.013450503, 0.07453328, -0.024720192, 0.086791985, 0.039131057, -0.051288366, 0.051157203, -0.074326836, 0.02091434, -0.0008116245, 0.02060864, 0.094411746, 0.050205555, 0.051340234, -0.028590882, 0.06595185, -0.08968609, -0.047661435, 0.085157834, -0.018718172, -0.039112985, 0.041936424, -0.02454493, -0.032894015, 0.028764952, -0.090636134, -0.04286257, 0.04424541, -0.00396632, 0.038121056, 0.05109353, 0.07746072, 0.074409984, 0.029424692, 0.007868648, 0.0155967595, -0.0640594, 0.09114566, 0.036477126, -0.08363368, 0.030795945, 0.031931367, 0.084386624, 0.08580196, -0.028471649, 0.061550748, -0.019604826, -0.017135097, -0.046996057, 0.036602486, -0.07632687, -0.04169022, 0.012409306, 0.022732306, 0.08528831, -0.048610806, -0.05972854, 0.0818839, -0.051315702, -0.08088871, -0.0065796496, 0.008079958, 0.03557842, 0.04671477, -0.03843416, 0.04883914, -0.0039119124, 0.027491247, 0.02973522, -0.06063508, 0.074216865, 0.05803913, 0.09816325, -0.08744897, 0.05028702, -0.028399551, 0.063659094, -0.08544077, -0.07341462, -0.012490583, -0.029457247, 0.008047545, 0.09642094, -0.08468511, 0.07659284, -0.025910366, 0.07059487, 0.054000318, 0.06038455, -0.04450325, 0.09822526, -0.06782675, 0.012333012, 0.068983175, -0.030328274, 0.01003021, -0.009074879, 0.072645225, -0.04283545, -0.049413215, -0.08015734, 0.024718964, -0.07734692, -0.077687316, -0.07128967, -0.04781356, -0.011368168, 0.09568077, 0.060116995, 0.061967563, -0.024432456, -0.038814463, -0.08029663, -0.07724177, 0.09136452, -0.03486372, -0.008768511, -0.08841769, 0.08541461, -0.083505146, 0.08794793, -0.047898855, 0.07874215, 0.021339823, 0.035965886, -0.06526645, 0.05694021, 0.06904786, 0.031742956, -0.034981407, -0.06689221, -0.032856848, -0.07389716, 0.0037147165, -0.032855283, 0.0791656, 0.009557414, -0.09926758, -0.098973654, 0.010689474, -0.027898252, 0.049516525, -0.053789247, 0.011212766, 0.07699188, -0.028130924, 0.09910033, -0.065032, 0.09266633, -0.008929717, 0.06847795, 0.09100165, -0.07077829, 0.06803324, -0.02618971, -0.08606636, 0.029972052, -0.0811001, -0.04641037, 0.046273828, -0.09081805, 0.05040864, -0.09039662, 0.032309987, 0.016767, 0.09817805, -0.009612501, 0.09698047, -0.072714984, -0.008814275, 0.06427969, -0.067854896, -0.009149886, -0.026355863, 0.051683675, -0.01915859, 0.0009267569, -0.007797456, 0.06489765, -0.08438503, 0.071274556, -0.0572461, 0.09100547, -0.07431638, -0.021081805, -0.06218592, 0.07837734, -0.07009021, 0.08995072, -0.079755045, 0.037440468, 0.09709126, 0.0031437993, 0.02795062, -0.042895913, 0.028638292, 0.026896084, -0.052491095, -0.020603359, -0.016165733, 0.051867962, -0.08541316, -0.014417279, -0.07283759, -0.07960325, 0.024322271, 0.00071793795, -0.07338233, 0.04656185, -0.037788104, -0.05747434, 0.07385292, -0.026602495, 0.039995063, -0.08328324, -0.003700149, -0.050200116, -0.013734615, -0.07173275, -0.06598113, 0.09482759, 0.08755007, 0.061562072, 0.08440729, -0.018768966, 0.06160741, 0.0028247952, 0.057497334, 0.09877485, 0.08352401, -0.08811908, 0.08296813, -0.019687284, -0.0971077, -0.08156204, 0.02752837, -0.030143572, -0.022879649, 0.031032635, -0.08480438, 0.06760073, -0.056525815, -0.08861711, -0.02032615, -0.013779092, -0.054381847, 0.09997355, -0.06765107, 0.08602462, 0.08554546, 0.086215176, -0.0012429714, -0.025598992, -0.026798237, 0.08428798, -0.035174873, 0.09545477, 0.03841095, -0.011459315, 0.058106054, -0.058243286, -0.095504165, 0.09711843, 0.04934552, 0.029302597, -0.060650624, -0.09102189, -0.019357396, 0.02063023, 0.018168915, -0.0039072516, -0.045588102, 0.039380252, -0.031489816, 0.056154408, 0.035900127, 0.076458625, 0.066899054, -0.037481856, 0.0016821147, -0.0005342245, 0.06493827, -0.024069011, -0.09467737, -0.067858, -0.014249134, -0.073593676, 0.040602125, -0.07099479, -0.08532734, -0.056251954, 0.015913546, -0.09186609, -0.01851138, -0.027286315, -0.095637575, 0.067850605, 0.03881028, -0.047044672, -0.030151868, -0.03125422, 0.044941034, 0.0682428, 0.0043099523, -0.070854604, -0.025350535, 0.059844043, 0.08169925, -0.010977507, 0.07905503, -0.05823293, -0.08593743, 0.030078067, 0.023241175, 0.07329877, -0.0472538, -0.062237658, -0.00053002837, 0.03523891, 0.033015907, 0.07730696, -0.028381681, 0.049952675, -0.022514224, -0.0821414, -0.089321434, -0.0052709463, 0.06424856, 0.02657392, 0.077919476, 0.012306857, 0.04507494, -0.08745711, -0.049455035, -0.030798066, -0.010885298, 0.0338447, -0.03645518, -0.02967887, -0.0081370715, 0.0077474476, 0.07597741, 0.022577977, 0.07672504, -0.043814313, 0.03213352, 0.08984758, 0.009480501, -0.014346063, -0.04493468, -0.010466886, 0.027240563, -0.024540663, -0.057542052, -0.03637549, -0.008183086, -0.097610585, -0.06769278, 0.004334462, -0.07949521, 0.01064378, 0.06164701, 0.08506944, 0.029313792, -0.09117496, -0.086879924, 0.040107407, -0.037513126, 0.062064767, -0.065647244, -0.031220257, 0.09531249, 0.061259605, 0.02169354, 0.0023975135, 0.0936072, 0.005793369, -0.002221966, 0.083239235, 0.010302449, 0.07519843, -0.0009296656, 0.08252936, 0.025805116, 0.066438, 0.09137012, -0.09582199, 0.028930103, 0.0043397667, -0.020278646, -0.01764791, -0.07342535, 0.051736247, -0.020330537, -0.06037674, 0.016003419, 0.03056327, 0.040330257, -0.04172715, 0.035762917, 0.09779423, 0.00806129, -0.08114276, -0.08361145, -0.015736794, -0.048627555, 0.04962883, -0.050495397, -0.08343466, 0.020435644, 0.021810377, -0.03336817, 0.040044963, 0.045842625, 0.042672135, 0.023326099, -0.024402035, 0.011824406, 0.01920166, -0.06202848, -0.013550306, 0.04587103, 0.026554061, 0.09521424, -0.021866107, -0.04815532, 0.02959974, -0.0988444, -0.009945417, -0.012233592, -0.059635878, 0.017171359, -0.085213006, 0.092287295, 0.04712967, 0.016120387, -0.047395527, 0.00062201027, 0.08034849, -0.03505479, 0.046631824, -0.017681325, -0.049555745, -0.07868999, 0.06130296, 0.009067893, 0.007784629, -0.0030787706, 0.0730796, 0.054027762, 0.034217715, -0.08674522, -0.074128106, -0.033757698, -0.040433552, -0.04461366, 0.04490594, -0.09634987, -0.0645461, -0.04428494, -0.030223895, 0.006971991, 0.036118653, 0.047712732, -0.008098531, 0.06185019, -0.01418016, -0.019161439, -0.038038254, 0.08197726, -0.039711095, -0.034259986, -0.07630541, 0.093886174, -0.08624102, -0.052613426, -0.0051465514, 0.09874717, 0.037719082, 0.0070571187, -0.09233525, 0.0029354214, -0.068135515, 0.023792995, -0.017674733, 0.03303497, 0.036844518, -0.07560124, 0.05716748, -0.025452876, -0.087871864, -0.010658002, 0.026042938, -0.057425916, -0.042234268, 0.041316357, -0.032566693, 0.012472212, 0.06376331, -0.011714923, 0.06588193, 0.027841533, -0.013953328, -0.07776272, -0.077204876, 0.011144388, 0.05083237, -0.09024967, -0.054456223, -0.07739525, 0.077587724, -0.059327092, 0.018355656, -0.061018836, 0.054611456, 0.0114214895, 0.0035745383, 0.036158383, 0.089326456, 0.07186768, 0.05503738, -0.029752875, -0.028376007, -0.05017463, -0.025798345, -0.05724125, 0.05934123, 0.040971708, 0.021400666, 0.029921247, 0.05870489, -0.041814934, -0.076665394, 0.04502883, -0.053054977, 0.00090351107, 0.0042068125, -0.091825, -0.025694812, -0.027469588, -0.07371292, -0.050583817, 0.076341346, 0.010220552, 0.025280131, 0.047993388, 0.0054931045, 0.053906728, -0.08395989, 0.022370994, -0.025756955, -0.06035031, -0.0225343, 0.07554134, 0.025972104, -0.016915297, 0.094806984, 0.040045477, 0.02735815, 0.08265547, 0.041316427, 0.03437543, -0.0068083047, 0.064435564, -0.059699383, 0.034234513, -0.0032667636, 0.0033111812, -0.09982916, 0.0029982328, 0.05989876, -0.09438614, 0.08033132, -0.047113445, -0.06322106, -0.09962388, 0.0835073, 0.06635274, 0.09691743, -0.019703139, -0.040209126, 0.01228261, 0.018730355, -0.094616435, 0.06557504, 0.044833016, -0.043994393, -0.020277226, -0.09376204, -0.045109786, 0.0784657, -0.061122645, 0.0753163, -0.064343825, 0.080841355, 0.074048154, 0.04359455, -0.045754302, -0.0029905916, -0.029630674, 0.037311148, 0.023810161, -0.07452239, 0.032233335, -0.01430688, 0.07290392, 0.060446907, -0.051533975, -0.013279545, 0.08685402, -0.021077706, 0.030854201, 0.09987544, 0.03913827, 0.008488667, -0.070710205, 0.06542758, 0.021574212, -0.035848986, -0.05048121, 0.072736345, -0.040672507, -0.01586305, 0.048660267, 0.025440086, -0.02918309, -0.046434857, -0.0044617415, -0.035034597, -0.005668688, 0.04860265, 0.041548252, -0.08814647, -0.040318646, -0.036532547, 0.014585829, 0.026093101, 0.027960826, 0.07009685, -0.099683024, -0.09015211, -0.05848521, 0.0009808898, 0.011749566, 0.0042693974, -0.046896875, -0.0004501581, -0.043069243, 0.0446931, -0.09006822, -0.0842178, 0.03781271, -0.016023517, 0.07814517, 0.08607806, 0.0075688125, 0.06914715, -0.045467056, -0.09336438, -0.014907467, 0.021727193, -0.03821808, 0.056042373, -0.039153256, -0.050361134, -0.098135926, 0.042793084, 0.09899586, -0.059298802, 0.085089944, 0.07597571, 0.082342185, -0.0058985115, 0.000619936, -0.008686483, 0.08759507, -0.007449901, -0.026924944, 0.0945583, -0.041760694, 0.015718747, -0.029224873, -0.027923942, -0.017434692, 0.03326639, -0.04645027, -0.05882528, -0.053643048, 0.047201633, -0.022894729, 0.0721029, 0.08656966, -0.040031232, -0.09988087, -0.07826004, -0.08635616, 0.09341686, -0.08562411, -0.089973345, -0.005997515, 0.0676437, 0.00048726797, 0.07607376, -0.012936366, -0.04186088, -0.04830519, 0.096898995, 0.09789703, 0.09386412, 0.096547596, -0.08659394, 0.049331974, 0.041147985, 0.032602906, 0.067500375, -0.021346355, -0.0048566223, -0.00507015, -0.09962461, 0.006169915, 0.072806895, 0.093426004, 0.09530319, -0.029814804, 0.0410813, 0.078356676, -0.0728896, -0.033284534, 0.017244471, -0.002896631, 0.018192638, -0.016601587, 0.008154655, 0.05711043, 0.026317848, 0.044872474, 0.011518038, -0.037424363, -0.03375268, -0.05072687, -0.06760652, -0.04766784, 0.010473991, -0.063184164, 0.0010635614, 0.06244384, -0.07909621, 0.09987815, -0.087909475, 0.015603232, -0.019380404, 0.07717352, 0.07944872, 0.08641398, -0.08101187, 0.040459204, 0.09287542, 0.012075472, 0.009341896, 0.056789946, -0.07783761, 0.03190421, 0.08443277, -0.024312973, -0.013223946, 0.080294244, -0.08788385, 0.011846244, 0.03394072, 0.018773187, -0.019439256, -0.058478512, -0.0856864, -0.07936323, 0.04616889, -0.038371827, 0.012856853, 0.04142326, -0.039194513, -0.04590354, -0.033511985, 0.0039945007, 0.019684423, -0.01997211, 0.046492316, -0.05636065, 0.012341368, 0.024947299, -0.09583085, 0.05700294, 0.026817262, -0.05412003, -0.08436965, -0.014245915, 0.028330242, -0.090250924, -0.09125084, -0.08512884, 0.016868342, 0.0957485, 0.0176203, 0.07183774, 0.050174702, 0.02902788, -0.039843153, 0.035872865, -0.09477406, 0.0126660345, 0.066081636, -0.041830707, -0.004151845, -0.06582206, -0.09233625, 0.01931113, 0.07488662, -0.0064839604, 0.010250235, 0.059334673, 4.541874e-06, -0.019118905, 0.051066495, -1.4066696e-06, -0.07601885, -0.036529303, 0.072465874, -0.023473, -0.036015775, 0.090118565, -0.076191895, 0.08540739, -0.05196129, -0.091102, -0.09765899, -0.05285374, 0.038791943, 0.049651742, 0.0414896, 0.052586365, -0.012121284, 0.01680237, 0.0745517, -0.0831326, 0.009407222, -0.09871864, -0.014999307, 0.058662917, 0.029320253, -0.016491009, -0.048824813, -0.05641059, 0.087895684, -0.049580872, 0.043142952, -0.05037005, -0.061148036, 0.03228836, -0.046395566, -0.084928155, -0.09877684, -0.074686386, 0.091922164, 0.095074, 0.0038073063, -0.016777743, 0.079934075, 0.07097185, 0.099633954, -0.069151066, -0.011528933, -0.05110644, -0.033114552, 0.0007016659, -0.007148266, -0.03497708, 0.049962547, -0.019032562, -0.03693954, -0.05823783, 0.08946943, -0.07001638, -0.07954564, -0.0785107, 0.03492067, -0.082507744, -0.058702957, 0.0373253, 0.006057334, 0.050806083, 0.06666664, 0.06996614, 0.080040276, 0.021198167, -0.054447796, -0.044088494, -0.040294148, -0.08031147, 0.01432426, 0.042163122, 0.08141936, -0.02016635, -0.053658903, -0.081617095, -0.008250249, -0.033400275, 0.035525203, -0.040458716, 0.021232713, 0.016715063, 0.013866449, 0.0041296007, -0.058611203, -0.0009873867, -0.031817317, 0.0008908153, -0.03854486, -0.064457655, -0.09121708, -0.03629899, -0.09366759, -0.06673558, 0.025169564, 0.068212986, 0.00659827, 0.0471676, -0.044848442, 0.07856033, 0.0057151555, -0.03046546, 0.04549674, -0.09603653, -0.09824107, -0.016103817, -0.07245076, -0.035545945, 0.02180699, 0.07712483, -0.09234996, 0.055805255, 0.044256628, 0.099299155, -0.07076007, -0.09192002, 0.037070166, 0.09607182, 0.037271786, 0.073502205, 0.058170225, -0.018006338, 0.0689012, -0.051340427, 0.04056574, 0.005482614, 0.091644764, 0.058068004, -0.044348944, 0.08904912, -0.05474725, -0.064961314, 0.008351195, 0.09854968, 0.007707298, 0.091053784, -0.092016116, 0.071371175, -0.025379313, 0.020651722, -0.087884784, -0.058158364, -0.06583458, 0.07152659, 0.09306753, 0.050979566, 0.0047147395, 0.06563356, 0.0118325595, -0.08929687, -0.04288092, 0.021249188, 0.066318825, 0.030424882, 0.077705614, 0.09269079, 0.0015881896, 0.07666663, -0.042698063, -0.030731475, 0.0671816, -0.07016202, 0.045576956, 0.012749815, 0.09781598, 0.003557837, 0.097209655, -0.063814394, 0.055053283, -0.053787887, 0.09463537, 0.06376141, 0.07590212, -0.086337306, 0.088875234, 0.004113853, 0.062298942, 0.06803932, -0.08935561, -0.02879951, 0.07812386, -0.026360977, -0.026874185, 0.044285573, 0.04434625, -0.07059971, 0.03991077, 0.024398386, 0.07721173, 0.03481686, 0.039979935, 0.025194515, 0.071970575, 0.078392744, -0.018163908, -0.0149269225, 0.069288455, -0.04820459, 0.06185943, 0.084019914, 0.012549472, -0.07312206, 0.064917326, 0.05860695, 0.020143582, 0.091029905, -0.03132379, 0.088960625, -0.020654941, -0.038051154, 0.007040668, 0.09086758, 0.0839495, -0.090458326, -0.00169276, -0.049252164, -0.07861515, 0.0025689246, -0.015129983, 0.07482948, 0.08329636, 0.030833721, -0.092178576, 0.0037063719, -0.07348064, -0.08055035, 0.06215893, -0.029354144, -0.0060945633, -0.0021119118, -0.019504761, 0.063847534, 0.08351739, -0.034139063, -0.06078843, -0.037065316, 0.0611688, -0.05602297, -0.019241406, -0.06864607, -0.0153332, 0.08001038, 0.06448891, 0.07060486, -0.08004921, 0.07609562, -0.09053762, 0.09328369, 0.052660193, -0.0032259107, -0.029820025, 0.012256241, 0.010452199, 0.09097319, 0.08411143, 0.060450327, 0.09510163, -0.09355207, -0.075021185, -0.05328108, 0.08771876, -0.063449524, -0.078169726, 0.012139261, -0.092285745, -0.06689664, -0.07170866, 0.001011324, 0.007447481, -0.014406956, -0.035331797, -0.06381036, -0.08161012, -0.081134155, 0.09317241, -0.09001001, -0.063059725, -0.034844436, -0.021315897, 0.07285559, -0.068090275, 0.09740453, 0.0746156, -0.047199797, -0.035587408, -0.06450508, 0.007063079, 0.016153729, 0.03283496, -0.099824965, -0.024411023, 0.04532919, -0.07063444, 0.006813109, 0.07409965, -0.023891723, -0.08860358, 0.053795528, -0.028576255, 0.07939943, 0.051298857, -0.0634795, 0.06670336, -0.07361791, -0.08888685, -0.049055506, -0.07852789, 0.024310732, -0.014346016, 0.08384793, -0.08339854, 0.06807864, 0.08140532, 0.072250165, -0.08883094, -0.012178135, 0.090479724, 0.002235377, -0.08799865, -0.04156158, -0.050517, 0.042937137, -0.027568473, -0.019181406, -0.00796125, -0.07650304, -0.09072336, -0.022401405, -0.088074856, -0.04543792, -0.0826531, -0.07612746, -0.06266762, -0.008684004, -0.05450983, -0.08975392, 0.031680968, -0.091263965, -0.020407273, 0.051298287, -0.09996959, 0.026968552, 0.022057736, 0.011743295, 0.034095395, 0.08768777, -0.056180608, -0.018527878, -0.044395078, -0.080613576, 0.023327744, -0.050943207, -0.06859221, -0.052004613, -0.017798198, 0.025592184, -0.08842945, 0.07384695, 0.046978187, -0.038163792, -0.025648702, 0.01581874, 0.015274799, 0.051439118, 0.05235671, 0.0013400912, -0.06364844, -0.09981374, -0.07274512, -0.0575135, 0.04891474, -0.09750801, -0.08463099, 0.0033608198, -0.021913016, 0.09949793, 0.040457167, 0.075061515, 0.04552876, -0.07529265, -0.021073317, 0.045596387, 0.0070467233, 0.09839984, 0.0346959, 0.005021453, -0.025950743, 0.004224801, 0.013187194, 0.055595316, -0.030757487, 0.0051299217, -0.089814655, -0.07733872, -0.025880385, -0.006906581, -0.07838426, 0.0014418841, -0.031677987, 0.058873236, -0.07204062, -0.08307753, -0.09920311, -0.08570539, 0.019205678, 0.03195417, -0.06983737, -0.08681955, 0.09122944, 0.04043584, 0.08568408, 0.03252826, 0.06556707, 0.022304153, -0.089315586, -0.047551084, -0.013913477, -0.012174643, -0.09414593, -0.016779924, -0.06939807, -0.07487726, -0.073985174, -0.061758447, 0.059245814, -0.0008748889, 0.0061021685, -0.0072014094, 0.08426167, -0.038338672, 0.057393398, 0.013191283, -0.051487435, -0.07413403, 0.04601301, 0.009769547, -0.05171132, -0.023265947, -0.022206997, 0.09066116, -0.057853926, -0.045691382, 0.05642258, -0.08233585, 0.030693818, -0.04016639, -0.03299835, -0.095251516, -0.03725301, 0.026227558, -0.012837875, -0.015862405, 0.075488165, -0.06504156, 0.0020807148, -0.094667174, -0.048186626, -0.04533733, -0.02843299, 0.099748485, -0.03027246, -0.09759276, -0.08105924, 0.03719468, -0.0067460774, 0.08287739, -0.013570309, 0.0350641, 0.023891438, 0.04323372, 0.0036932111, 0.003271723, 0.054179467, 0.045085143, 0.015538776, 0.050274383, -0.02739141, -0.08012729, -0.02025695, 0.0075802803, -0.09911078, -0.09327295, 0.095516376, -0.056962468, -0.0736933, 0.008278954, 0.08070035, 0.066980004, -0.06989383, 0.055870224, -0.0017583609, -0.044247832, -0.09552939, -0.06879856, 0.047698416, 0.06284445, -0.07170168, 0.0050293207, 0.0012640953, 0.09574582, -0.06555102, -0.011971307, 0.05623877, -0.052560296, -0.059281338, 0.09888571, -0.06654536, 0.05588738, 0.026546478, -0.034382056, 0.0009559393, 0.06181648, -0.043037094, 0.073070504, 0.09993958, 0.07307483, 0.02183242, -0.0077322125, 0.0777633, 0.07967335, 0.072481036, 0.0027094246, 0.068192445, -0.062159266, 0.025757348, -0.046440374, -0.053514373, -0.09719475, -0.055749167, -0.08060571, 0.055800952, -0.009344411, -0.04940871, -0.048059072, -0.06713172, 0.05318687, 0.0702508, 0.03116349, 0.09316321, -0.073738374, 0.006448722, -0.055446386, -0.048069287, 0.03921927, 0.08615055, 0.016089106, -0.022802306, -0.01576432, -0.024771214, -0.008023036, 0.034688916, -0.052277397, 0.076646924, -0.058065783, 0.08722842, 0.061193764, 0.03215784, -0.03581629, 0.07461514, 0.059965145, 0.08692739, -0.070753954, 0.059686136, -0.0073258043, 0.06277329, 0.023725891, 0.08174354, 0.011509061, -0.026115049, 0.042297136, 0.032120515, 0.06238681, -0.022762561, -0.060905147, -0.031117404, -0.013278461, -0.06624865, -0.006124127, -0.07833888, 0.035975922, -0.0061459425, -0.07219302, -0.012958074, -0.07058525, 0.038871657, -0.0016141534, 0.07388941, 0.06702363, 0.028022075, -0.05064851, 0.092153266, 0.0008120895, -0.012973333, 0.08578797, -0.056587696, -0.09891417, 0.061639752, -0.09158339, 0.053338494, -0.05679406, 0.03168855, 0.0727694, -0.08777129, -0.07881782, -0.07385447, -0.03702426, 0.044816293, 0.053210713, -0.07861265, -0.06843697, -0.06847104, 0.03820714, -0.03717319, 0.05272987, 0.033843577, 0.07039942, 0.033180714, -0.09557885, 0.035959926, -0.031133497, -0.05628991, -0.095855154, -0.058806885, 0.08923017, -0.009052671, -0.08059346, 0.019927895, -0.09393934, 0.0344959, -0.04502988, -0.09944816, 0.06834936, -0.046605267, 0.06337836, -0.003979647, 0.09994679, -0.016309667, -0.09112672, 0.00077346567, -0.077700034, -0.07368939, -0.0804018, -0.07453611, -0.05984446, 0.06317611, -0.036595967, -0.043415643, 0.09398109, -0.04727627, 0.07763385, 0.027470423, -0.08584984, -0.026917208, -0.0044121267, -0.06626411, 0.03787894, 0.06406907, -0.03771912, -0.063130274, 0.09102621, -0.017699076, 0.0776098, 0.07955684, -0.007494855, -0.022587776, 0.03774401, -0.05910008, -0.022512997, 0.0149277095, 0.053011656, 0.06180371, 0.07461076, 0.059998967, -0.07807245, 0.033181097, -0.06425387, -0.06656231, -0.09282565, -0.09548443, 0.04961418, -0.084248304, 0.074198976, 0.011505986, -0.0038229346, -0.021312846, -0.0003584981, 0.057557415, -0.062195685, -0.036735702, 0.056898095, -0.07726715, -0.027032424, 0.073291115, -0.017173184, 0.031873144, -0.013981915, -0.096336655, -0.0239478, 0.0846668, -0.059281982, 0.06455548, -0.02814672, -0.06451257, -0.031567406, 0.071213044, -0.037695922, 0.06937291, 0.029349172, -0.03755467, 0.0040317415, 0.044774663, -0.07501747, -0.031930435, -0.07462231, 0.09728905, 0.058532465, -0.00037252903, -0.07374314, 0.004755688, 0.061528422, -0.07895585, -0.092374936, 0.085387014, 0.014521516, 0.07574876, -0.0056122066, 0.07667345, -0.031555105, -0.014597786, 0.04490435, 0.07199086, 0.06841051, -0.048705913, -0.0320264, -0.074120544, 0.091356695, 0.050759293, -0.04473419, 0.061347544, 0.032622673, -0.038881637, 0.052886914, 0.099280275, -0.071210794, -0.010253943, -0.020274937, -0.08047553, 0.049173295, -0.06937325, -0.094152145, -0.08349673, 0.023053681, 0.07655823, -0.04142021, -0.053340733, 0.032162514, 0.08704287, 0.047873665, 0.021393621, -0.064280905, -0.0319042, 0.06694766, 0.09983146, 0.073504224, 0.09674008, -0.0036068202, -0.078312315, -0.051500954, -0.031962585, -0.076613426, -0.057625927, -0.059259094, -0.04174441, 0.04558295, -0.09506982, 0.0928532, 0.003735292, 0.039269328, 0.02608931, 0.09462406, 0.00022227764, -0.021370018, -0.07079816, 0.07459446, -0.093532026, 0.09070402, -0.089592315, 0.011119402, -0.014300239, -0.047751367, -0.075441614, -0.07661933, -0.00067384244, 0.038847614, -0.090960465, 0.07004821, 0.06325847, -0.052731205, -0.048682977, 0.004864562, 0.08371371, -0.09507992, 0.051430404, -0.011438108, -0.06271615, 0.033388257, 0.05336043, -0.008298528, -0.04021592, -0.033567667, 0.02197479, 0.054954924, 0.048641514, -0.06719428, 0.005664754, -0.058826637, -0.022032892, -0.07147342, -0.05152581, -0.049635913, 0.002673185, 0.031510662, -0.07030562, 0.06797556, 0.0072184443, -0.060720958, 0.085466266, -0.048491586, -0.044876266, -0.030665923, -0.071883716, -0.043517258, -0.03286717, -0.0118639115, -0.09074769, -0.008908534, 0.0025133968, 0.051895108, -0.058072757, 0.07388313, -0.09316559, -0.01582886, 0.06915837, -0.06692177, 0.06089089, -0.012358558, -0.05450548, 0.00019544363, -0.07326045, 0.018564403, -0.08693556, -0.034369864, 0.08695008, 0.062969886, -0.067648664, 0.06977772, -0.014739371, 0.041276015, 0.066013455, -0.052095402, 0.047808792, -0.060020637, 0.0996055, 0.09056868, 0.056685567, 0.008240009, 0.012470531, 0.02313745, 0.035726547, -0.08511974, -0.05294602, -0.09750376, 0.05076027, -0.03716358, -0.006475508, 0.038820494, 0.0046270015, 0.05842805, -0.09999657, -0.053950965, -0.086557664, 0.030108487, 0.035472203, -0.034004416, -0.066850185, -0.014337468, 0.02147435, -0.024055256, 0.05583922, -0.05608573, -0.060787823, -0.03502972, 0.09797537, 0.090508185, 0.055304658, 0.07128187, -0.04712024, -0.08835479, 0.020845486, -0.0029607296, -0.07173573, 0.0011301518, 0.0747171, 0.012421489, -0.076088466, 0.06818771, 0.08258531, -0.08401125, 0.060979377, -0.0323759, 0.026739229, 0.05530212, 0.040944874, -0.08059295, 0.031294882, -0.09819829, -0.006314063, -0.05980275, 0.07148472, -0.07706261, -0.08755411, 0.012202203, -0.04623276, 0.09794884, 0.06998918, -0.049904503, 0.05733633, -0.01349293, 0.035616696, 0.00038901568, -0.031298187, -0.068605386, -0.09082969, 0.03904065, 0.011507357, -0.027538335, 0.07539066, -0.013701546, 0.047573056, -0.07093525, 0.09099531, 0.09774095, -0.049791288, -0.0030837774, -0.00070568325, -0.048206568, -0.06604912, 0.06315588, 0.07715094, -0.07641478, -0.0083889365, 0.09429099, -0.07093485, 0.05401666, -0.03047446, -0.0024614215, -0.094254434, -0.06574335, -0.06833861, 0.07367376, -0.09416854, 0.08631326, 0.022525383, -0.091888264, 0.053761136, 0.09667114, 0.079700984, 0.07654279, -0.033148527, -0.085485816, 0.086352125, -0.07462599, -0.019736862, -0.06318706, 0.023692822, -0.036100235, -0.04331286, -0.094017185, 0.065116346, 0.037102427, -0.075701155, 0.022983743, -0.03938507, 0.08238222, 0.08232278, -0.09124371, 0.043022063, -0.049818695, 0.09980189, -0.034663405, -0.02978152, 0.09594762, 0.016468406, -0.016968776, 0.08261975, 0.00074071885, -0.06966881, 0.06398872, -0.016608644, 0.02495035, 0.053418826, 0.0460456, 0.096688546, -0.013787985, 0.0631081, -0.0028066158, 0.06827927, 0.06194843, 0.08515163, -0.05654334, 0.05167029, 0.03750503, -0.083069704, -0.05972605, 0.09105797, -0.057262003, 0.059216093, 0.057490896, -0.0007637739, 0.0209131, -0.050486088, 0.05828134, -0.029099321, 0.045989264, 0.013002753, -0.01991005, -0.03953874, 0.09982176, -0.043015983, 0.0990624, 0.05331656, -0.0026994944, -0.032176495, -0.07634359, 0.06957974, 0.047412124, -0.043915153, 0.017615426, 0.017915798, 0.07494026, -0.051496375, -0.0037855506, 0.030209709, 0.092781365, 0.024432087, -0.01604315, 0.03905642, -0.02081777, -0.015554095, -0.07772761, -0.09658778, 0.0062619806, -0.095352374, 0.012780524, -0.07974166, 0.01613251, 0.03158299, 0.080973886, -0.0422513, 0.024554789, 0.003989935, -0.030368244, -0.05000007, 0.0047349813, 0.058285084, 0.019571746, 0.069448054, 0.092805885, 0.093010604, 0.041145004, -0.05136328, 0.040884208, 0.06838488, 0.077907495, -0.016354954, 0.0026997924, 0.047941186, -0.09605849, -0.0814238, 0.09767145, -0.027386606, -0.009885442, -0.022561444, 0.07085832, -0.045213223, -0.040029444, 0.039325763, -0.03555268, -0.0440526, -0.059334945, -0.06795571, 0.027933646, 0.034183215, -0.023473991, 0.0504269, 0.032858204, -0.063444726, -0.05274389, 0.05683421, 0.095226526, -0.051093783, 0.06694456, -0.054054298, -0.09791197, 0.09296944, -0.0072142123, 0.08113942, 0.081964925, 0.039083887, -0.028472578, -0.040698398, -0.06300825, 0.09621539, -0.060051132, 0.03402641, -0.07256582, 0.09463809, 0.015596712, -0.008777964, 0.030516494, -0.013115239, 0.010838461, -0.03252517, -0.0208874, 0.08032813, 0.01339022, -0.047547616, 0.036416125, -0.028281463, -0.035464108, 0.09486987, 0.08436228, 0.09374306, 0.053033855, -0.03375597, -0.02031672, -0.09338377, 0.06638739, -0.0021655203, -0.07013615, -0.006141794, 0.021931648, 0.059159126, -0.071653955, -0.088536836, -0.05338612, -0.044318736, -0.09398492, 0.088929094, 0.033058107, 0.06814498, -0.09868526, 0.060679402, -0.0055240514, -0.054117646, -0.053094815, 0.03524659, 0.06399824, 0.044487633, 0.049912907, 0.015106869, -0.04714619, 0.059482682, 0.045171488, -0.09627552, -0.06112211, -0.080921486, -0.04741135, 0.03665891, -0.017466057, -0.08872006, -0.013224137, -0.06249669, -0.07935809, -0.000344646, 0.09546228, -0.092062354, -0.05738696, -0.04540006, 0.05028012, -0.013149047, 0.05895362, -0.047354914, 0.05294788, 0.01941439, 0.025229717, 0.015497613, 0.083858065, 0.09350964, 0.0131595135, 0.08358206, 0.08624025, 0.014747346, 0.08709475, 0.08760685, 0.011923623, -0.04475255, -0.028199363, 0.034593917, 0.03156438, -0.09116664, -0.0791489, 0.034466993, 0.037531402, -0.015275097, 0.054898467, -0.074990764, 0.0049735666, -0.05690626, -0.00403384, 0.048122883, -0.0032681942, -0.095781885, 0.09787208, 0.08861486, 0.09304134, -0.009985614, 0.09176617, 0.009964908, -0.069652416, 0.042144883, -0.050646104, 0.021553576, 0.044128563, 0.08960537, 0.08661778, -0.07554277, -0.059699275, 0.025850464, -0.091558956, 0.08946544, -0.052628994, -0.04234395, -0.0598567, 0.09473194, 0.033661712, 0.04612304, 0.09950694, 0.06379415, -0.09586959, 0.00058442354, -0.026793063, -0.038528826, 0.05030284, 0.012299168, -0.040446807, -0.0040708543, -0.005612171, -0.02538159, -0.002494204, -0.06564727, -0.046625998, 0.053661514, -0.018658245, -0.054054953, 0.047464397, -0.0431234, -0.023184657, -8.411408e-05, 0.08446532, -0.010773051, -0.03680375, 0.065278545, -0.08318215, 0.08524203, -0.042805135, -0.07299908, 0.0706106, -0.0014375568, -0.045730043, -0.040652215, 0.0808501, 0.079543345, -0.05794946, -0.06759869, 0.002557838, 0.057579376, -0.042686332, -0.026750743, 0.024355805, 0.045404803, -0.042127848, 0.068563834, -0.079564355, 0.057156064, 0.09246631, -0.015256071, 0.019737506, -0.087997936, -0.015941216, -0.06875054, 0.062808774, 0.08868801, -0.073465444, -0.03495357, -0.09841986, -0.031293847, -0.053872395, -0.079293504, 0.0017117978, 0.03617966, 0.04503114, 0.07847716, 0.0020682334, 0.015994107, 0.019382799, 0.039983463, 0.09985327, 0.09332496, -0.059317004, -0.04210458, -0.099567376, 0.04726224, -0.071924426, -0.06461594, -0.0077459933, 0.06980226, -0.094837464, 0.08701228, 0.03280902, -0.027109766, 0.049820494, 0.09801507, -0.051972236, -0.06336065, -0.088092886, -0.0731557, 0.09458683, 0.023036098, -0.08647753, -0.07051831, 0.05928601, 0.052497458, -0.08154899, 0.07422649, 0.008616007, -0.09246471, 0.061171174, 0.065720834, -0.031807255, -0.06885415, -0.036501538, -0.037650395, 0.056239605, 0.07963338, -0.09741693, 0.09605137, 0.05230547, 0.009076655, 0.08345585, 0.016748834, 0.00818851, 0.08036535, 0.022881104, -0.031091869, 0.05755339, -0.05386386, 0.021050239, 0.06625563, -0.038084008, 0.072580874, 0.0540272, -0.026630282, -0.03290111, -0.07150488, -0.00027756693, -0.04173684, 0.06519679, -0.035787106, 0.06862455, -0.03903028, 0.07186808, -0.04055157, -0.09637504, -0.04080827, -0.042680096, 0.07693928, 0.074471526, -0.038001753, 0.09122368, 0.025388325, 0.061094522, -0.09090544, 0.076283865, 0.0076984405, 0.099077046, 0.04166117, -0.015995836, 0.0845376, -0.049857914, 0.00014302731, -0.06880728, 0.054589428, 0.058143675, -0.098592356, -0.00941465, -0.05414175, -0.0029410243, 0.099108756, 0.04098275, -0.07396495, -0.019708026, -0.045117654, 0.002112794, 0.022566354, -0.037424088, -0.02493403, -0.057911374, -0.062104907, 0.015199089, 0.03049462, 0.06373767, -0.07949817, 0.033400383, -0.06349566, -0.0008678436, -0.0908068, 0.092960894, -0.09732916, -0.020532489, -0.041983057, 0.06666531, -0.030546809, 0.0013499976, -0.08153446, -0.05594002, 0.0943257, -0.010688019, 0.06690615, 0.07741847, -0.05679796, 0.010176837, -0.012031174, 0.07740819, 0.06622515, 0.0730353, -0.0005849123, 0.007998752, 0.08865396, 0.054193176, 0.029626573, -0.017299343, -0.05437101, 0.055102326, 0.028739704, 0.037592113, -0.07850021, -0.02798642, 0.042040993, -0.026382709, -0.018387293, -0.084379844, 0.028694166, 0.02480644, -0.043242514, 0.09244102, 0.08841696, 0.04096335, 0.07671, -0.025505805, 0.0616374, -0.033806395, -0.00610379, 0.05214671, -0.043110397, -0.026032627, -0.076432444, 0.061249044, -0.017582072, -0.0702266, -0.048422515, 0.007969654, -0.01717261, -0.036470663, -0.07767939, 0.07720655, 0.037522685, -0.08523742, 0.043789912, 0.003533554, 0.075710356, 0.0064136027, -0.0038115978, -0.0105737215, 0.05992831, 0.04117862, 0.088028386, -0.08875742, 0.02926836, 0.08739855, -0.04485215, 0.06565664, 0.017894972, 0.036357094, 0.051777996, 0.0061670067, 0.08821447, 0.047580745, -0.013218475, 0.017563928, -0.05774206, 0.02595464, 0.094577625, 0.075190544, 0.05329596, 0.05106286, -0.046405282, 0.0693365, 0.06562533, 0.015783776, 0.07276429, -0.058101047, -0.059717454, -0.008245063, -0.013003695, 0.07458264, 0.016094089, 0.027374625, 0.065404594, -0.006753707, 0.037807167, 0.00323447, -0.015274167, -0.08726102, 0.057075012, 0.016074896, -0.01963607, 0.08348211, 0.06827563, -0.09546005, -0.035554912, -0.075888865, 0.0040919185, -0.020702505, -0.03246304, -0.08125546, 0.09202, -0.04886588, -0.04090042, -0.030603576, 0.051373888, -0.0917958, 0.02992903, -0.07664686, 0.09115324, 0.02710004, 0.048292913, 0.035673287, -0.015461755, -0.04070897, 0.03876699, 0.0498137, -0.019857336, 0.05481136, -0.00046459437, -0.04665966, 0.00036576987, 0.07118924, 0.001758492, 0.05573962, 0.049620856, 0.09144147, 0.012431979, -0.049278904, -0.017176664, 0.05983107, 0.07175448, -0.06462685, -0.010156417, -0.025999606, 0.07892635, -0.027684415, -0.031958222, -0.024811232, -0.014779163, -0.008473408, 0.06660175, -0.020250643, -0.018013954, 0.08592242, 0.082341425, 0.06800671, 0.045272183, 0.0586452, 0.021990145, -0.09474663, 0.09761697, 0.07752545, 0.04038192, 0.05580039, -0.035144247, 0.03690065, -0.062123623, 0.06796713, 0.02053678, 0.08690103, -0.095974796, -0.091851905, 0.08547566, -0.015137017, 0.08369777, -0.000811708, -0.025480425, 0.06557472, 0.05272981, -0.06779927, -0.015829874, 0.06405331, 0.084029354, -0.035345674, 0.0956936, -0.063851595, 0.037031747, 0.07453509, -0.07127191, 0.08542895, 0.0043160915, 0.08103162, 0.076542355, -0.032995474, 0.07835336, -0.078488186, -0.06000295, 0.05712619, -0.02375474, -0.06948491, -0.04825535, -0.061183214, 0.04316267, -0.052240897, 0.08659201, -0.071524635, 0.062892035, 0.094719045, -0.08163654, -0.08076008, 0.017042292, -0.037890162, 0.028047228, -0.026956225, -0.025680065, -0.05467824, 0.0027760863, 0.05532054, -0.04373586, -0.04850347, 0.015499509, 0.07985373, 0.062203407, -0.022199308, -0.061897945, 0.010048747, -0.080441974, -0.054380346, 0.0685565, 0.054947626, 0.01093582, 0.039301146, 0.016999139, 0.033327557, -0.06654425, -0.024837721, -0.0051678657, 0.07136132, -0.0076016546, -0.027017772, -0.050779235, -0.07884063, -0.02029103, -0.09524913, 0.009990478, -0.02149955, -0.0036456825, -0.005282748, -0.02585479, -0.045284785, -0.09516039, 0.025155663, 0.08466768, -0.056255747, -0.072568096, -0.06113671, -0.012119985, -0.05858338, 0.013366736, 0.07547015, -0.033333696, 0.021649469, 0.0746789, -0.009357655, 0.050803866, 0.06777302, -0.07609915, -0.041825008, -0.08504049, 0.08248713, -0.08585545, 0.09953238, 0.046567034, 0.030795706, -0.06935435, -0.06943609, -0.07106409, 0.059020724, 0.042927444, 0.014057088, 0.099304974, 0.09381111, -0.05078466, 0.0066071986, -0.029458333, -0.031749573, -0.06872157, 0.05213517, -0.02765124, -0.06311071, -0.0925863, -0.008503473, -0.050516367, -0.0977531, -0.059643377, -0.07400843, 0.01628139, -0.03280237, 0.06870605, -0.07014664, 0.048368074, 0.046331357, 0.03431494, 0.031142367, -0.0009815097, -0.02802596, 0.095346145, 0.08669157, 0.0058992147, -0.0012964488, 0.09606327, 0.040866878, -0.015242577, -0.019089758, 0.071665645, -0.089298666, -0.050180018, 0.034166884, -0.08866804, -0.069906965, 0.009819591, 0.051211834, -0.024382615, 0.09538877, 0.07474188, 0.09964728, 0.08310469, -0.008135426, 0.092543736, 0.09349408, -0.08580386, -0.03997853, -0.045764446, -0.08664911, 0.09618961, 0.09645497, 0.042846657, -0.08607119, -0.017105294, -0.08586104, 0.032542385, 0.011381912, -0.0044567944, -0.009009922, 0.08820206, 0.014907015, 0.07815118, -0.07812136, 0.03241049, 0.074698985, -0.058290232, 0.026446784, -0.027971078, 0.030017639, 0.03130424, -0.016500449, 0.014391708, -0.0101448065, 0.032276224, 0.032959916, -0.09787177, 0.04716132, 0.0073615434, -0.084584415, 0.07725109, 0.09506196, 5.016327e-05, 0.07633274, -0.07217286, 0.04646459, -0.05362749, -0.07630761, -0.022032488, -0.04391209, -0.015443349, 0.018324876, -0.021113599, -0.019496335, -0.019614292, -0.07936598, -0.022866368, 0.07877655, 0.06719979, 0.036484398, 0.068471245, 0.06907085, -0.04923744, 0.024704183, -0.019387294, -0.046660867, 0.0779381, -0.040438186, 0.09930656, -0.06692346, 0.084000066, 0.03487722, -0.037400402, -0.0012910962, -0.015205133, 0.050343014, 0.070375636, 0.027572978, -0.07178857, -0.05337329, 0.026826823, -0.0037773848, 0.075753845, 0.090886615, -0.090904534, 0.06467898, -0.030593038, -0.076486506, 0.097833954, 0.06398034, 0.04469068, -0.07821609, 0.066557504, 0.096606925, 0.024083769, -0.021536231, -0.046785843, 0.07505524, 0.09584482, 0.05872872, 0.02615459, -0.014084185, -0.06475612, 0.047136176, 0.08655596, -0.008397234, -0.09389105, -0.07555969, -0.06662413, -0.02944318, 0.019382013, -0.038740315, 0.030817403, 0.05647055, 0.05187404, 0.0683324, -0.09868159, 0.061662354, -0.04279883, -0.0456036, -0.081265405, 0.074832045, 0.07749659, 0.09614644, -0.040408444, 0.06040275, 0.020401109, -0.082969606, -0.040876567, -0.063002266, -0.0010196805, -0.053696968, -0.03568219, -0.023536026, 0.073676124, -0.006692207, -0.078701876, -0.08966272, 0.023174917, -0.029423906, -0.0940941, 0.044030227, 0.0069117905, -0.009538734, 0.015276385, -0.0004360795, -0.024229193, -0.079437844, -0.049109604, -0.008760953, 0.092512004, 0.023844874, 0.09573704, 0.0770401, 0.094113864, 0.09836399, 0.033102393, -0.027041638, 0.079117835, 0.04490179, 0.08579607, 0.04221164, 0.07249438, 0.016711462, -0.06444367, 0.041802227, -0.016474916, -0.06693186, -0.02530104, 0.09987449, -0.09431352, -0.058811557, -0.0952863, -0.0051959874, 0.017550731, 0.088429295, 0.068456195, 0.035571195, 0.06994752, 0.06221218, -0.097327605, 0.059132803, -0.08193946, 0.000736332, -0.07504169, 0.013018179, 0.06450988, 0.056060135, 0.02748903, -0.029099453, 0.09694811, 0.02168708, 0.021120418, -0.036298838, -0.09330471, 0.04656401, -0.049790036, 0.07833376, 0.083244376, -0.047774363, -0.05832702, -0.026445914, 0.08588119, -0.07253634, 0.06911849, 0.016247213, 0.053127315, 0.059220817, -0.07161609, -0.032249916, -0.07806591, -0.05744474, 0.03426173, -0.059626926, 0.019393409, -0.09055763, -0.06535782, 0.034026872, 0.045749463, 0.04928087, -0.0220196, -0.05915333, 0.047182, -0.05041332, -0.096867256, 0.0957519, -0.066055216, 0.02707013, -0.014973975, -0.06684395, 0.019869054, -0.0733661, 0.06595254, -0.06415005, 0.08924427, 0.08217054, -0.027795112, 0.060038533, -0.09142256, -0.017906964, 0.040683996, 0.05975331, 0.056347575, 0.029808724, -0.04195453, 0.027920235, 0.08036011, -0.027266432, -0.09744773, -0.034525406, -0.084042266, -0.087708496, -0.08475869, 0.019072592, 0.03770441, -0.01894815, -0.09456593, -0.06986003, -0.02766924, 0.09492846, 0.001714778, -0.061527338, -0.047933366, -0.074758165, 0.055057097, 0.08356577, 0.022255516, 0.020372344, 0.0041231993, 0.092649184, 0.033341397, 0.00096437935, -0.07776635, -0.009601272, -0.041643154, -0.025420297, 0.08324873, 0.025807226, -0.062153615, 0.018503953, -0.06811017, 0.039490916, -0.035125997, -0.019284273, -0.025241924, 0.07043574, -0.04049034, -0.006506038, 0.0016770602, 0.07641172, 0.07573631, 0.010865795, 0.00822221, 0.08727216, -0.021873487, -0.097904816, 0.02500478, 0.047616947, -0.050271284, 0.09988723, 0.060760546, -0.02674011, 0.022898411, 0.026092052, 0.07562794, 0.04624647, -0.01770475, -0.011881471, -0.044078972, -0.020922853, 0.08494377, 0.08412886, -0.06291038, 0.03919692, 0.049468685, 0.016007567, -0.018737841, 0.07508099, 0.013686038, -0.09605093, 0.031745948, -0.089179985, 0.088693045, 0.05430143, -0.050464787, 0.022879148, 0.044960357, -0.09113865, 0.06260591, 0.0883077, -0.06283416, 0.021162534, -0.0060180067, 0.006988883, -0.04056648, 0.07844346, -0.023791803, 0.048421692, -0.08438313, -0.07223517, -0.084235765, -0.07319202, 0.038026214, -0.09483613, 0.0008176923, 0.006112778, -0.05176996, -0.015576148, 0.07925846, 0.09736359, -0.056580555, 0.0722082, -0.068085216, -0.044322588, -0.06329093, 0.02495041, -0.09677633, 0.043559875, -0.0045161485, 0.027787209, -0.06799936, -0.05867335, -0.09115922, -0.09378564, 0.010177314, -0.051212132, -0.060920145, 0.08712715, -0.080738686, 0.018211795, -0.05257802, 0.021545542, -0.07865339, -0.006508672, -0.009963989, 0.04915577, -0.07860985, 0.005197072, -0.09894484, -0.08666741, -0.07272916, -0.062216986, 0.062527016, -0.02571447, -0.05058917, 0.070689976, -0.008736146, 0.050257005, 0.017395556, 0.064836875, 0.04658798, 0.037681665, 0.097935535, 0.0522272, -0.06451193, -0.002078867, -0.09389072, 0.050620962, -0.01618811, 0.07936354, 0.042116012, -0.09685414, 0.018188858, 0.017811382, -0.04106077, -0.015484417, -0.04685855, -0.03697616, 0.0013767362, 0.07485683, -0.06536146, 0.09665125, 0.025039805, 0.08932972, 0.051102985, 0.0651867, -0.06913097, -0.05701765, -0.035968494, 0.095250666, -0.044988263, 0.017171085, -0.020751668, 0.07027598, -0.049838196, -0.09107959, 0.09426328, 0.039250195, 0.054840684, 0.053273987, -0.009527576, 0.0020535947, 0.0074218395, 0.037044227, 0.08869789, -0.03648747, 0.030584728, -0.03442521, 0.06238047, 0.08501854, 0.008792698, -0.024550295, 0.045560587, 0.020540595, 0.03740702, -0.0006045938, -0.020838404, 0.06618998, 0.08708159, -0.02042736, -0.091232836, -0.014241266, -0.092650644, 0.08244814, -0.00028330088, -0.06328165, 0.01972009, 0.09181229, -0.076602675, 0.08982843, 0.03155413, 0.046203434, 0.048293676, -0.084512055, 0.008570636, -0.05985829, -0.096468985, -0.041646015, -0.082676984, -0.08829931, 0.08328283, -0.091574684, -0.09329506, 0.032901037, -0.070238054, -0.09540721, -0.040511977, -0.040697016, 0.06607609, 0.033369865, 0.093341485, 0.005098212, 0.038141944, -0.09007819, -0.030321205, 0.09940163, 0.06495835, 0.068160154, 0.011401427, 0.046385504, 0.07845844, 0.09682613, 0.043123018, 0.089629225, -0.059706, -0.066601895, 0.09268712, -0.07443793, -0.009133852, 0.004104424, 0.0617826, 0.099888705, -0.05613277, 0.09814135, -0.016947342, 0.017123414, 0.0031638981, 0.09788119, -0.062348783, -0.03819996, 0.0955169, -0.07303398, -0.09457703, 0.042737592, -0.06558068, 0.045045864, 0.09809073, -0.011729121, -0.03852309, 0.092124045, -0.08668555, -0.048517145, -0.011549759, 0.03657485, -0.007530713, 0.016356183, 0.06658586, 0.011931253, 0.02940737, -0.012890077, 0.003945899, -0.035927605, -0.0023413182, 0.003478527, -0.026727308, 0.014429879, -0.02242731, -0.05007991, 0.02369125, 0.095102325, -0.0054463865, -0.08129753, 0.04253719, -0.095750034, -0.06641314, -0.09897921, 0.014704073, -0.06108898, -0.070701115, -0.04756974, 0.081242025, 0.033425022, 0.09804175, 0.067108095, 0.038298953, 0.04221764, 0.038730025, 0.040860225, 0.044960596, -0.08347275, -0.06070119, -0.041204523, 0.026653504, 0.00068657397, 0.097565725, -0.025397813, -0.030749036, 0.055977263, -0.031812575, -0.00074607134, -0.0835701, 0.052234996, -0.057500076, -0.07508855, 0.019859374, 0.090995364, 0.06800419, -0.08085431, 0.07150308, -0.08118433, 0.041665267, -0.079035774, -0.07562335, 0.09543282, -0.092181586, -0.062326517, -0.05657351, -0.07249137, 0.0024748088, -0.07350291, -0.089617684, 0.060508337, 0.040904414, 0.053476393, 0.014811182, -0.094891146, -0.04140977, 0.05917356, 0.04283762, -0.09270928, -0.04664717, -0.079268575, -0.08670503, 0.09485673, -0.031841397, -0.0045505166, -0.08459383, -0.057834543, -0.07602493, 0.037263703, -0.023647463, -0.02750963, 0.048312582, 0.04333209, -0.057462167, -0.07081854, -0.059465457, 0.047360063, 0.0848104, -0.06863071, -0.08304473, 0.054324757, 0.008049977, 0.061838437, 0.058904853, -0.07075641, 0.0383265, 0.023127675, -0.04098462, 0.077006, 0.0423429, 0.08591767, -0.08890215, 0.07387363, -0.01202594, 0.021279229, 0.05787746, 0.06515218, -0.062986866, -0.06550968, -0.044312336, 0.04767858, -0.04684074, -0.04855906, -0.07847575, 0.030702138, 0.07569696, 0.09251916, 0.04975177, -0.046704806, -0.08408655, -0.08950838, 0.02137276, -0.062249042, 0.038533747, 0.034538772, -0.033473384, 0.020155383, 0.06790747, 0.0062902095, 0.0639471, 0.04618025, 0.059630454, -0.0605914, 0.011407065, 0.02833116, 0.06018504, 0.09672234, -0.047885038, -0.019371057, -0.07573968, -0.05377785, -0.08076512, -0.028498793, 0.054668095, 0.035938334, 0.0862512, 0.06591355, -0.010693217, -0.00561229, 0.043426704, -0.044355143, 0.036667444, -0.018480754, -0.09904801, 0.009141291, 0.082851484, -0.094755255, 0.06466254, 0.037254896, -0.05724473, -0.03839406, -0.020756328, 0.009291244, 0.088008836, -0.016382074, 0.0062718033, -0.050070047, 0.03156134, 0.022581352, -0.034993578, 0.060715426, -0.020559847, -0.06852062, -0.04422505, 0.0077815177, -0.096729256, 0.07970233, 0.033525527, 0.027092624, -0.06131915, -0.08210745, -0.05604395, 0.017388118, 0.074436605, 0.08178224, -0.053099524, -0.008626568, 0.032863762, -0.021634554, 0.086743295, -0.044452786, 0.09309262, -0.048847903, 0.061665, -0.012607229, 0.041596618, -0.013931883, -0.017788112, -0.07970383, -0.024582803, 0.07250669, -0.08831813, -0.054263998, -0.0044644834, -0.07245089, 0.051293015, 0.056617796, -0.015490639, 0.0004819155, 0.016027665, 0.042044427, -0.05608932, 0.060866952, 0.0021627308, 0.0014894129, -0.002890277, -0.09060722, 0.012760269, 0.050462175, -0.098767154, -0.08597662, -0.06790916, -0.033016372, 0.061644353, -0.059644915, -0.08603193, -0.09729276, 0.050719738, -0.07507616, -0.0837564, 0.062982894, -0.0017180085, 0.043530073, -0.015109313, 0.06103761, 0.06165017, 0.033584025, 0.039943766, 0.04176731, 0.0017231464, 0.013133848, 0.08205091, 0.065902986, 0.0058134557, 0.01456629, 0.0076968907, -0.06810625, -0.09020771, 0.02092104, -0.035145402, 0.069276825, 0.05484685, -0.08656446, 0.071885064, -0.05588236, -0.067782365, 0.08082688, 0.03818953, -0.04491483, -0.011447049, 0.087849654, -0.07447612, -0.0351637, 0.08238017, 0.008639765, -0.07385629, -0.06376954, 0.089517675, 0.044788897, 0.004127729, -0.020179426, 0.0925036, -0.02276869, -0.04295782, -0.017553186, 0.056073178, -0.08848679, -0.013027775, 0.07547071, -0.06287875, -0.08932791, 0.07169219, 0.01722405, 0.023909915, 0.004081619, 0.0016483188, -0.06771954, 0.09184849, 0.013398456, 0.03747022, 0.030779446, -0.095922224, 0.037225675, -0.09468961, 0.008379233, -0.01192826, 0.014310372, 0.047097076, 0.016605461, -0.05369537, -0.05028484, -0.026747836, -0.04670913, 0.09409668, -0.042630125, 0.09638243, -0.011257768, -0.08098195, -0.033259954, -0.090353645, -0.00079623464, 0.09343071, 0.085016645, -0.00015500785, 0.07331995, -0.047741294, -0.023318982, -0.07802393, 0.02256987, 0.07126353, 0.015835583, -0.07987747, -0.093048654, 0.06877772, -0.095091596, -0.05784757, -0.015951872, -0.015347111, -0.03396088, 0.07519646, -0.09569398, 0.0038324594, 0.029700255, -0.09229722, -0.078629695, 0.08670153, 0.0839461, -0.062477924, 0.098304965, -0.03948126, 0.041532326, -0.049048673, -0.034594215, 0.074252225, -0.026548196, 0.07154124, -0.065183915, -0.028623248, -0.00789206, 0.010893583, 0.057628404, 0.049866926, -0.02725773, 0.038819086, -0.08282306, 0.06824838, 0.046651494, -0.07719033, 0.06304951, -0.07769864, 0.033979177, -0.02070259, 0.049184512, -0.033648577, -0.044723403, -0.0689135, 0.002376151, -0.062100686, -0.08313097, -0.022465909, 0.06788681, -0.032114863, 0.010606897, 0.053099513, -0.07734442, -0.06738185, 0.03232614, -0.07073089, 0.08026575, 0.033502307, 0.037357, 0.012352228, 0.05228455, -0.064167276, -0.048134197, 0.057271194, 0.06444873, -0.024030913, -0.051043104, 0.082489945, -0.041980457, 0.08519894, 0.023803925, 0.080687605, -0.038683187, -0.039283182, 0.075667836, 0.0089266775, -0.0020035624, 0.07199533, -0.0331028, 0.022821998, 0.03246857, -0.01099844, -0.09074819, -0.013736772, 0.088884115, 0.08194708, -0.03790232, -0.09396733, -0.08929912, 0.05812582, 0.09216068, 0.008075344, -0.04701252, -0.0065623163, -0.041900385, 0.017976725, -0.035583712, 0.012891865, -0.05524646, -0.012383831, 0.052093804, -0.08962848, -0.09623244, -0.008511997, -0.053209733, 0.051135648, 0.08501859, 0.085137226, 0.0122207645, -0.0401595, 0.0540864, -0.045770716, 0.06599932, -0.0767044, 0.08787922, 0.0715991, 0.05513836, 0.08093915, -0.009662795, -0.0027290345, 0.012372673, -0.023447681, -0.0973415, -0.049569666, -0.026239658, -0.06816375, -0.06992819, -0.019580174, 0.075074784, 0.07161218, 0.08882272, 0.0704055, -0.0051351786, -0.032900322, 0.08214656, -0.005867398, -0.023624588, -0.037214257, 0.03700875, 0.01438694, -0.077604555, 0.051535286, -0.016615713, -0.075971484, 0.03221332, -0.09219308, -0.051927675, 0.07134124, 0.018808676, 0.06318597, 0.044011127, 0.003762448, -0.0625633, -0.09401593, -0.07029375, 0.09106761, -0.09514997, 0.008003354, 0.005483985, 0.028681029, 0.08448607, -0.031767238, -0.08129026, 0.058500897, -0.009504509, -0.09780457, -0.09983921, 0.073005676, -0.010133624, -0.009652019, -0.052644756, 0.086601034, -0.054443847, 0.008103609, 0.07149877, 0.00588969, -0.013661945, 0.027626133, 0.042378653, 0.007665789, 0.083133, 0.05043855, -0.02075925, -0.097971156, 0.07488555, -0.028683199, -0.08317392, -0.070043914, 0.033297148, 0.020092595, 0.09546802, -0.06212889, 0.08178258, -0.09159259, -0.08789114, -0.08356688, 0.02320286, -0.048097707, 0.0059493664, -0.062067296, 0.088903405, -0.049760688, -0.087158106, 0.07151701, 0.007956338, -0.051886976, -0.095306695, 0.0906504, 0.08500304, 0.09130474, 0.094309054, 0.08352482, -0.038934886, -0.07202386, 0.045258608, -0.0451934, 0.07332641, 0.08597988, -0.041502025, -0.020254243, 0.06361826, 0.023672808, 0.068720475, -0.023172034, 0.0593204, 0.034065783, 0.021872068, -0.0033836842, -0.04783789, -0.0764026, 0.028469635, 0.0617082, 0.014923108, 0.036568224, -0.045058656, -0.012032366, -0.033715785, 0.027952863, -0.057502795, 0.0910775, -0.055564165, -0.045767307, 0.001709652, 0.045829665, 0.09432595, -0.00560236, -0.05874555, 0.075994074, -0.09038966, -0.0553038, -0.016540814, -0.031799268, -0.029780794, 0.050627004, -0.014216495, -0.020583272, -0.014128447, 0.04564407, 0.0018735289, -0.03321724, -0.019676292, -0.073532335, 0.07137239, 0.0031230927, 0.084455214, 0.052158833, 0.09136977, 0.06243676, -0.0054769753, 0.024853874, 0.046064902, -0.057795703, 0.044002533, 0.022606408, -0.022025276, 0.0041584014, -0.0015313387, 0.032194983, 0.08001258, -0.07895861, 0.075140856, -0.03401786, 0.009727634, 0.0070445896, 0.031051015, 0.04536865, -0.0026342273, -0.053182136, 0.08839984, 0.024460137, 0.062013175, 0.035838068, 0.06788557, -0.05434643, -0.08519872, -0.063190855, -0.030374361, -0.023817671, 0.033369184, 0.083653465, -0.037427235, -0.082677186, -0.034612574, 0.008603955, -0.010162151, -0.0391559, 0.03248428, 0.08843026, -0.058856286, 0.03754543, -0.08687737, 0.07953477, 0.070397794, 0.056479108, -0.05444769, -0.03913821, -0.021686375, 0.08500196, -0.09770371, 0.09542077, 0.08094112, 0.012688982, -0.035227276, 0.07846123, -0.024736738, -0.04129852, 0.050651696, -0.09755178, -0.07415267, 0.09052557, 0.04045986, 0.042222153, 0.096659414, 0.08327341, -0.069425836, 0.059532654, 0.031608272, -0.06026386, 0.092284404, -0.020637417, -0.09674486, -0.07503005, 0.084731795, -0.06021781, 0.07116311, -0.059714295, -0.06314202, -0.020787394, -0.025965417, -0.013126457, -0.051002275, -0.015000022, 0.002426672, 0.04146389, 0.00036565066, -0.049488712, -0.057471048, -0.09917044, -0.048073974, 0.0751928, -0.070278384, -0.07740438, 0.09547975, 0.016296828, 0.03815168, -0.024965703, 0.058224987, -0.007994855, -0.07649811, -0.039832808, 0.002068913, -0.06586685, -0.025748396, 0.054208435, -0.09433644, 0.001907754, -0.089329556, 0.0755955, 0.020032763, -0.028300358, -0.017975677, -0.0221519, -0.04177189, -0.07332512, -0.09469872, 0.07393869, -0.07759672, -0.09571055, 0.07197507, -0.09265538, 0.006101513, 0.076955274, -0.098476425, -0.07333236, 0.09433756, 0.0033496737, 0.016706455, -0.01676469, 0.01289413, -0.08380089, -0.011513591, -0.013376451, -0.09954975, 0.08026214, 0.09899773, -0.017395353, -0.09789064, -0.0916216, -0.014450741, 0.061703097, -0.06869073, -0.04668801, -0.058786202, -0.0073501826, -0.049087238, 0.043269362, 0.060802557, -0.07550498, 0.025957739, 0.0937276, 0.02701639, 0.06918319, -0.079244904, -0.07976069, 0.036672343, 0.07818466, 0.027722884, 0.07697413, -0.048779905, -0.06828108, 0.08546584, 0.041532505, 0.046007335, 0.046632614, -0.090354696, -0.035727777, 0.0067501664, -0.05746727, -0.014305795, -0.09122398, -0.06845752, 0.04008707, -0.0052155256, 0.023637772, -0.0845918, -0.067906275, 0.041710224, -0.091569364, -0.07140555, -0.015256501, -0.07890487, -0.016168524, 0.0056324243, -0.07967316, 0.037979104, 0.01465075, 0.067402385, 0.044704497, 0.06222074, -0.014212847, 0.04837657, 0.03525115, 0.06280728, 0.0206311, -0.011057901, 0.069866434, 0.0922544, 0.09938369, -0.029502392, 0.035722196, 0.08048302, 0.02170123, -0.08563892, 0.002199161, -0.06537547, 0.040052857, 0.09102505, -0.060544062, 0.05542543, -0.04185586, -0.019380927, 0.09339726, 0.0075808526, 0.0066644787, 0.087910436, -0.0053997636, -0.08466126, 0.02250278, -0.07949876, 0.03815942, -0.012546039, 0.00889752, 0.08013149, 0.059875883, -0.09758009, 0.026396776, 0.070207216, -0.014698088, -0.02922498, -0.086707465, -0.06881348, -0.09824955, -0.08774072, -0.032302655, -0.03444151, 0.048062336, -0.0566033, 0.05082163, -0.005516303, -0.08277762, 0.032593787, 0.04754479, -0.06747476, -0.05152997, -0.065659665, 0.011742353, 0.017392362, -0.07635263, 0.06607898, 0.066268526, 0.05381433, -0.006347847, -0.09443062, -0.097755685, 0.04827514, 0.09127032, -0.070138, 0.053874817, 0.098652564, -0.02570417, 0.0066441656, -0.0914725, -0.029978145, -0.05797696, -0.012104643, 0.05545496, -0.024688566, 0.028154744, 0.08261503, 0.014359928, 0.04540459, 0.030679619, 0.07118932, -0.020095468, -0.068487816, 0.070494704, -0.065500356, 0.06416265, -0.033739354, -0.019873237, 0.023507584, -0.041168153, 0.092716314, -0.08582729, -0.09118801, -0.0018062353, 0.05888797, 0.039179064, -0.07890016, 0.033089172, 0.099473655, -0.061312295, 0.004790235, 0.07457073, -0.09446098, -0.0010056496, 0.009174692, -0.08455483, -0.08823501, -0.019157792, -0.07183295, 0.026722014, -0.043235876, -0.07483412, -0.0506405, -0.08706887, 0.09660267, -0.06447969, -0.040324677, -0.0732463, 0.05938114, 0.08208741, 0.09250622, -0.066808574, -0.07811195, 0.060790908, 0.06370763, -0.011796832, 0.025883555, 0.021935558, -0.040955532, 1.4734268e-05, 0.06715901, -0.04558493, -0.022029638, -0.09064448, 0.09882116, -0.01606164, 0.007908106, 0.062742986, -0.03931984, -0.07978474, -0.035210814, 0.06901979, 0.031443156, 0.0013902069, -0.035239197, -0.08595728, -0.009577465, 0.09297644, -0.0735945, 0.023817195, 0.02671559, 0.046211254, 0.0566985, 0.02216059, -0.026258051, -0.03765167, 0.089470625, 0.0754995, -0.026997661, -0.07188477, 0.09496578, -0.03955574, -0.011330581, 0.078480564, -0.025563944, -0.051243987, 0.062214043, -0.04881047, 0.0005675435, -0.080462776, -0.00017213821, -0.07085818, -0.03953408, 0.09684839, -0.06554949, -0.07756074, -0.0063530565, 0.09893757, -0.06370691, 