// *****************************************************************************
// 	THIS CODE WAS AUTOMATICALLY GENERATED ON 2024-02-06 21:41:09
// *****************************************************************************

#include "dummy.h"

static float32_t tensor_W_irweight[6400] = {-0.08272089, 0.06143651, 0.08568807, 0.0010093431, 0.09955809, 0.089584455, 0.056777548, -0.10486252, -0.031235203, -0.042105336, 0.055364765, -0.10850251, 0.08132129, -0.04155256, -0.012669427, -0.059283428, 0.012745463, 0.09545607, 0.018378811, 0.095286764, 0.034114838, 0.009250594, -0.015359991, 0.09286704, 0.037136205, 0.016079996, -0.03907648, -0.06484288, 0.04755689, 0.008728176, -0.07163069, 0.09352992, 0.086599566, -0.042886395, -0.08444104, -0.0020345598, 0.005834467, -0.011712316, -0.054145668, 0.107785165, 0.07043655, 0.042067856, -0.0040323744, -0.020602241, -0.07314574, -0.018759152, -0.059503753, 0.044636562, -0.02709699, -0.03787828, -0.09849336, 0.031810828, -0.040827792, 0.049480252, 0.005964495, 0.035259195, -0.10130293, -0.037212454, -0.09822608, 0.08528765, 0.040942695, 0.04101961, 0.0031773427, 0.110762544, -0.002056191, 0.01779491, -0.016418528, 0.007966361, 0.0027108092, 0.08504199, 0.09976354, -0.053419184, -0.060283214, -0.06945359, 0.07618087, 0.107756205, 0.04190967, -0.067360714, 0.11061847, -0.093646325, 0.011168747, 0.08470983, -0.086865254, -0.011740638, 0.10019128, -0.071208656, 0.010678743, -0.051038403, 0.101071246, -0.106777646, -0.10801414, -0.0064202724, -0.034709707, 0.063854545, 0.059748735, -0.067579694, -0.017358646, -0.073599756, -0.040519238, -0.06770752, 0.065410934, 0.0058261766, 0.05763634, 0.026835028, 0.0802977, -0.06659333, 0.10570563, 0.057422757, 0.02896443, 0.08393801, 0.056993876, -0.054129742, 0.04501456, 0.049211908, -0.0498901, -0.10809695, 0.010843118, 0.07901769, 0.057024304, 0.03420407, -0.087865345, 0.049343187, 0.0028311613, 0.06096426, -0.038769163, 0.10807666, -0.015733136, -0.07358972, -0.0646627, 0.07172056, 0.09605624, -0.037271455, -0.034129657, 0.055263314, -0.017446464, 0.09375391, 0.017526219, -0.0116580585, 0.10241502, -0.08437596, 0.10584963, -0.059721276, 0.020567428, -0.007077623, -0.0968601, -0.07198288, 0.01072839, 0.069687694, 0.016996909, -0.014972866, 0.01989571, -0.05871211, -0.0045498204, -0.010406372, 0.06372788, -0.008607931, -0.07092711, 0.049177267, -0.03448293, 0.109038316, -0.098753735, 0.10867486, 0.05010551, 0.013306159, -0.03342222, 0.09011819, 0.06616687, -0.089251935, 0.033382665, -0.06541852, 0.028513918, -0.051069923, -0.019377612, -0.006428083, 0.031977866, 0.023155833, -0.04369891, 0.08428324, 0.03487355, 0.045863487, 0.021901894, -0.05612433, 0.07913858, 0.01826764, 0.013099788, -0.07515432, -0.079774395, -0.06882188, 0.06306653, -0.044722356, -0.076027066, 0.006194363, 0.06804651, -0.04601525, -0.079569764, -0.09546542, -0.111323535, -0.059931528, -0.111509755, -0.006927723, 0.010907452, 0.08151548, -0.029127978, 0.08024663, -0.109302826, 0.09603802, 0.09426188, 0.006287166, -0.05844872, -0.067410246, 0.08793168, -0.023992965, 0.07668084, -0.10535471, -0.034873508, 0.02752342, -0.0042112493, -0.06355428, -0.017714877, 0.002781141, -0.10431842, -0.096433155, -0.049287263, 0.021310052, 0.009594376, 0.019849302, -0.010801454, 0.027520142, 0.051732793, 0.041785132, -0.0014319874, 0.051723476, 0.07387339, -0.052270018, -0.09474197, -0.08301706, -0.10666708, 0.03333536, 0.029644918, -0.031150276, -0.101843685, -0.025750369, 0.06326409, 0.11002639, 0.046217706, -0.017299695, 0.0019457419, -0.087148175, 0.026301442, 0.08793073, 0.016794791, 0.065186, 0.103961386, 0.017321287, 0.0029739442, 0.071976125, -0.10285388, -0.013843091, 0.028804308, -0.025176106, -0.07143918, -0.024809133, -0.026276879, 0.021310864, -0.0557695, -0.10604706, 0.038311, 0.09250879, 0.02000656, -0.042698152, -0.039585996, 0.02447472, -0.07340139, 0.0813617, 0.043953598, -0.026592726, -0.0950208, -0.09295152, -0.076491416, 0.07632343, 0.06944111, 0.04894972, -0.081934825, 0.058107577, 0.0014665069, -0.036810428, -0.08358248, 0.051907334, 0.07373798, -0.014710824, 0.05741528, -0.0548848, 0.01759739, -0.10817859, 0.03065157, -0.04784829, 0.053092863, -0.10262564, -0.0075087575, -0.013083088, 0.031955943, 0.07366038, 0.03301949, -0.034816064, -0.107481, 0.036324274, 0.0023205255, 0.019988753, -0.026846131, -0.083415166, 0.04249778, 0.034027524, -0.06526614, -0.06537398, -0.07202075, -0.097652815, -0.0934168, -0.02128321, 0.035493765, 0.044020437, -0.037732977, -0.0805492, -0.0975469, 0.024550023, -0.07151668, 0.08047179, -0.051231205, 0.031245638, 0.037611973, 0.1106698, -0.0012539385, -0.07029248, -0.0393321, -0.005750807, 0.084947854, 0.07862624, -0.104533, -0.07549528, -0.099361174, -0.06603988, 0.05032329, -0.100042544, 0.031946357, -0.08116484, -0.08484651, -0.08073125, -0.026104761, 0.014759311, 0.07273061, 0.05642017, 0.018012997, -0.045377214, -0.042110786, -0.0926868, -0.00989455, 0.09869296, -0.07185489, -0.07088224, -0.00017279756, -0.10435503, -0.04900335, -0.06932593, -0.05726911, 0.036057793, 0.110882856, -0.065080225, -0.07195404, 0.005309037, -0.005191684, -0.067517385, -0.007079209, 0.09806542, -0.08016253, -0.09655573, 0.04539895, 0.026668856, 0.1038952, 0.022364244, -0.08064272, 0.00072348403, 0.061111562, 0.09204131, 0.10334001, -0.06418885, -0.036558606, -0.10908748, 0.04653327, 0.03048325, -0.10356581, -0.04690511, -0.027987689, -0.09580373, 0.026612997, -0.10467263, -0.083065785, 0.029334683, -0.0839681, 0.081591584, -0.025151875, -0.0455285, -0.110225, 0.037013344, 0.0155286435, -0.0057151946, 0.054186158, 0.09709164, 0.031464256, -0.028717943, 0.102756694, 0.04044195, 0.018241266, -0.023958819, 0.008573505, -0.090824015, 0.08885743, -0.006723725, -0.110705554, -0.09729689, 0.044118304, -0.0846063, 0.06014467, -0.083098754, -0.06837923, 0.06787774, -0.030758712, 0.09542514, -0.10425583, 0.061782427, -0.042130154, -0.06697023, -0.00811021, -0.06535709, -0.10555905, -0.018772107, 0.0311084, 0.1001288, -0.013949142, 0.07986852, 0.05173839, -0.043998886, -0.064358346, 0.038593166, 0.059289597, 0.026255287, 0.055861354, 0.09899059, -0.07042156, 0.03471616, -0.08182933, 0.088553004, 0.0008603093, -0.08850426, -0.017423432, 0.109146394, -0.06945368, 0.10398262, 0.0896088, 0.06278213, -0.03847096, 0.10409437, 0.09991519, -0.10522538, 0.05398352, 0.005058204, 0.014336481, -0.016902654, -0.0850498, -0.045349464, -0.08644674, -0.0029151142, -0.006212769, -0.05845312, -0.0818852, 0.092769586, 0.07727891, -0.05746213, 0.10497122, -0.06331111, 0.045702618, 0.10361317, 0.011864189, -0.066581324, 0.028655674, 0.077179976, -0.006971252, -0.013591925, 0.026740653, -0.08090306, -0.0006559377, 0.005077583, -0.017355634, 0.01777985, -0.024893925, 0.024243265, 0.08423539, -0.073519, -0.035535842, -0.017178237, 0.085716374, -0.09228834, -0.01602759, -0.060968965, 0.026991019, -0.10337983, 0.073407315, 0.05557627, -0.06089109, 0.027204135, 0.061986, -0.07056859, -0.1003401, 0.07337234, -0.07601144, 0.103880525, 0.064188264, -0.050692383, 0.02574184, -0.057770204, -0.08723365, 0.035163473, -0.005265601, -0.05906558, -0.0685101, 0.08321322, 0.034916196, -0.02072374, -0.057294767, -0.07254564, -0.08159989, 0.10102887, -0.044425476, 0.06299805, -0.0037082904, 0.06467283, 0.04373046, -0.026791353, -0.020574586, 0.017519461, 0.088436715, 0.109998256, 0.04013559, 0.01656403, 0.023069534, -0.09846744, -0.107549496, -0.022015596, -0.014556099, -0.049098127, -0.03771921, 0.05825533, 0.08127331, -0.10469272, 0.09105896, -0.07906474, 0.101304546, 0.0050151143, -0.1079525, -0.050582066, 0.025241679, 0.10148364, -0.08140183, 0.07141751, -0.05236759, -0.0010842731, 0.08456272, -0.035484623, -0.07760609, -0.035109986, 0.04050356, 0.024877705, 0.021712478, -0.007955685, 0.027762432, -5.9976014e-06, -0.06377787, -0.08930649, 0.07123702, -0.09473265, 0.07977798, -0.044019625, 0.058515534, -0.043650772, 0.0033104362, -0.07251046, 0.04786278, -0.08956742, -0.032682464, 0.01637024, 0.10274801, -0.06673747, -0.060624342, -0.06312188, -0.10492917, 0.04908457, 0.0019658671, -0.03699286, -0.06555012, -0.099368155, 0.09439922, 0.036064446, -0.056091998, -0.08123543, -0.06393002, -0.017683022, 0.001389671, -0.1034551, -0.02782578, -0.07973963, 0.05534684, 0.03560952, -0.09566654, 0.08216484, -0.08098844, 0.033773586, 0.08534483, 0.054453053, -0.07477498, 0.037660435, -0.07765847, -0.013944664, 0.06441657, 0.075829476, 0.11180328, 0.043509666, -0.0827397, -0.023873653, -0.021585621, 0.055679627, 0.05704227, 0.012821606, -0.057430927, 0.04356531, -0.106977165, 0.08847198, -0.09729604, -0.010385167, -0.1008046, 0.028314691, -0.07392008, 0.035192166, -0.092806526, -0.00692715, -0.0003928962, 0.07692969, -0.06129005, 0.060182415, -0.077475056, -0.037108745, -0.05867327, -0.07167064, 0.0040526194, -0.06870199, -0.083777845, -0.09538763, -0.010780329, 0.01860412, 0.03650107, 0.046085823, 0.0464488, -0.017495258, -0.0040609096, 0.058947347, -0.015625019, -0.030081743, 0.063547306, 0.0030835536, 0.10062328, -0.033735335, -0.008973625, 0.100381255, -0.018551609, -0.07346305, -0.026396964, -0.04177351, 0.05477111, -0.02418509, -0.08324704, 0.106034346, -0.111358866, 0.06472501, 0.015998123, -0.087193064, -0.07277619, 0.04898481, 0.10139088, -0.097015455, -0.011294924, 0.046119742, -0.04664647, 0.034959834, 0.003749834, 0.09431359, -0.10543632, -0.06514853, 0.047423955, 0.024639133, 0.054113295, -0.010435986, -0.0035051582, 0.07646439, 0.050132114, 0.055257276, 0.02590708, -0.09526634, -0.079957895, 0.07879965, -0.013628377, 0.025509506, 0.0033471682, 0.061953653, 0.07858525, 0.078695506, -0.07795733, -0.09464538, -0.089781456, -0.049061928, -0.05075085, 0.10446245, -0.0960476, 0.013642651, 0.042282104, -0.09272171, -0.06137263, -0.07464538, 0.06017635, 0.08421935, -0.06677745, -0.041262552, 0.08073734, 0.013561403, -0.0038764365, -0.09863569, 0.056766126, -0.111031584, 0.091697745, 0.07843669, 0.012541971, 0.0768174, -0.109568596, -0.031193072, 0.08449028, -0.101859026, 0.08407826, -0.022428764, -0.00742755, -0.060147054, -0.021314543, 0.010841238, -0.052683238, -0.082277454, -0.10799235, 0.088487804, 0.0084907515, -0.011459458, 0.078010656, 0.10897636, 0.024541385, -0.08976628, -0.076850735, 0.04461861, 0.09262402, 0.004192137, -0.09436517, 0.05722618, -0.05529774, -0.030922875, 0.011973346, 0.07141523, 0.108884275, 0.0966571, -0.042731818, -0.070615, -0.049056515, 0.0960979, 0.06828548, 0.06688269, 0.039961845, 0.048943188, 0.07315786, 0.072182685, 0.07176013, -0.013507545, 0.04660379, -0.042169683, 0.009714209, 0.034383237, -0.041647132, 0.018119674, 0.09172708, 0.091571115, 0.027726606, 0.03792773, 0.07078549, 0.04747524, -0.037746787, -0.058479454, -0.047211427, 0.04813787, 0.052826956, -0.062615655, 0.083898835, 0.019942839, -0.015149302, -0.09931554, 0.1041842, 0.020866735, 0.033569176, -0.028720608, 0.00040951624, 0.03809314, 0.05735565, 0.028986076, 0.0129839415, -0.044547547, 0.041123196, -0.009817274, 0.067613445, 0.007994683, 0.08265518, 0.034042586, -0.08808237, -0.08017303, -0.10160172, -0.026851622, 0.08888813, 0.015574892, 0.02477324, -0.009697762, 0.026772054, -0.07175718, 0.08988691, -0.029456874, -0.026610905, -0.10649383, 0.048233524, -0.0859608, -0.085928306, 0.10041273, -0.06691033, 0.025328124, -0.0034403177, -0.058843467, -0.04267724, -0.06868344, 0.031415172, -0.09358329, -0.008495803, -0.10932875, 0.016138626, 0.03142157, -0.10093782, 0.0809185, 0.054821424, 0.0643434, 0.055844575, -0.10853375, 0.0474188, 0.10108646, 0.07258872, -0.023413237, 0.0100472085, -0.06251932, 0.10396929, 0.0764409, -0.024886888, -0.10398827, 0.091412775, 0.032228764, -0.08429848, -0.062693395, 0.023916584, 0.00057394383, -0.053575136, -0.017143358, -0.0045548053, -0.07923437, -0.01446191, -0.10972729, -0.03588805, -0.09877443, 0.021041533, 0.05743102, -0.08363827, -0.09076557, 0.10590241, -0.04460936, -0.089611314, -0.07172336, -0.05764499, 0.03857228, 0.0031111692, -0.087478966, -0.072540715, -0.07119316, 0.00023875786, 0.107048616, -0.0005026123, -0.008662056, -0.09458435, -0.07309543, 0.09570006, 0.030710999, 0.06162072, 0.078398965, 0.09987351, 0.06534933, -0.016298803, -0.04071052, -0.010317034, 0.07727577, 0.05594143, -0.08463062, 0.03173291, 0.020192778, 0.08417951, 0.016467309, -0.106717244, -0.058004417, -0.024247624, -0.088087976, 0.016395524, -0.014426671, -0.09621695, -0.100373276, -0.028721461, -0.102994576, 0.09756724, 0.024071641, -0.045628365, 0.071423344, 0.07347754, -0.0016977744, -0.043495674, 0.0011694124, 0.081107736, -0.0017570707, 0.008431468, 0.049081918, -0.10157902, 0.100744195, -0.10276781, -0.06024147, 0.0012301215, 0.041838564, -0.07321875, 0.05487679, -0.058998328, 0.08286778, 0.090758465, -0.037928794, 0.058788277, 0.047983613, -0.07508873, 0.081219174, -0.07544131, 0.08942075, 0.11130857, 0.029684955, -0.04000291, -0.0077142217, -0.07636712, 0.01689635, 0.08063608, -0.07763485, -0.07444461, 0.031817596, -0.08217762, 0.09790111, 0.10141388, -0.026697764, 0.056203526, -0.1027192, -0.043688864, 0.09697271, -0.037673816, 0.041000403, -0.0149368, 0.027842732, -0.10773065, 0.092044525, 0.0628168, 0.09749398, -0.053459156, 0.0901383, 0.05315385, -0.090732515, -0.10685335, -0.0022308412, 0.085328825, -0.0062688, 0.03955221, -0.10327587, -0.07763705, -0.029821515, 0.051398806, 0.043467123, -0.034309868, -0.042013347, 0.04690779, 0.041717317, 0.086112805, -0.022790072, -0.030678919, -0.02144525, 0.07437965, -0.091195464, 0.036612358, 0.078900315, -0.103400454, -0.10337951, -0.040433526, -0.059187997, 0.0078495275, 0.042296685, 0.10494678, 0.11035307, 0.04854064, -0.00254201, 0.08652732, -0.042344052, 0.0035433432, -0.06622147, 0.08238104, 0.0077367863, -0.023457685, 0.033235855, -0.018137334, 3.037452e-05, 0.054752517, -0.028747225, -0.005122045, 0.08311668, -0.036774613, -0.07624985, 0.05486906, 0.07880469, -0.058663808, 0.02758041, 0.034357782, 0.05980875, -0.10064542, -0.008954473, -0.028435135, 0.098226696, 0.050894193, 0.028743705, 0.10864702, -0.0810537, -0.054666914, 0.030499484, 0.05815345, -0.045894805, 0.018438533, -0.03704753, -0.08824999, 0.034403697, 0.06569045, -0.0013790352, 0.09555478, 0.0729577, 0.087529905, -0.024165297, -0.04346847, -0.022426711, 0.09217715, 0.03539747, 0.108277924, -0.031736948, 0.022493165, -0.015381742, 0.07284286, -0.00412595, 0.03975333, -0.060374897, -0.060949307, -0.031729404, 0.05419714, 0.102009125, -0.023347983, 0.06193506, 0.09728487, 0.026435003, 0.08490898, 0.10707294, -0.033681784, -0.08363165, -0.07620435, -0.10184429, -0.089295104, -0.027271267, -0.042630885, 0.086176045, 0.007869386, -0.08038341, 0.04738825, 0.102699675, 0.008432055, 0.009564669, -0.029177198, -0.0758753, 0.110747606, -0.03626971, 0.032914706, -0.069597006, -0.070230514, 0.06243317, 0.037438348, 0.053290118, -0.060737483, -0.039741173, 0.01814561, 0.0014861258, 0.06675481, -0.10493356, -0.07901195, 0.013913277, -0.1116669, 0.10718976, -0.103807345, 0.073160104, -0.009315648, -0.06912561, 0.04899205, -0.042142227, -0.010387579, 0.001643796, -0.0509639, 0.073064126, 0.07052649, -0.005615821, -0.09618861, -0.063899875, -0.04373166, -0.029743452, -0.037476294, 0.09720343, 0.10791837, -0.0101768635, -0.046515226, 0.095929, -0.09292305, -0.09440358, 0.093628705, -0.08402119, -0.07899941, -0.05546775, 0.06410195, -0.08617949, -0.051290676, 0.0077070114, -9.6388125e-05, 0.095948726, 0.045957062, 0.012231136, -0.021928271, 0.07186889, 0.047703005, 0.03139391, -0.0018704254, 0.0106100105, 0.08451879, 0.10082658, -0.041629713, -0.09432003, 0.029190607, -0.03130315, -0.06608761, -0.0072602034, -0.024150169, 0.09355531, 0.013657339, 0.030719062, -0.020973014, -0.10162227, 0.06932279, 0.061174776, 0.07257855, 0.09488267, -0.023683103, 0.0029900176, -0.021942878, 0.0723961, 0.053737246, -0.0077110897, -0.082936876, 0.09522836, -0.030088382, -0.030012704, -0.0812363, -0.055674296, 0.108569354, 0.078071244, -0.033022303, 0.08754091, 0.10247839, 0.050267577, 0.110772826, -0.059706338, 0.04990375, -0.07835201, 0.003377716, -0.039618462, 0.10493089, -0.09900481, -0.06040815, -0.10306527, -0.069567524, 0.04861424, -0.09507614, -0.012712317, 0.08166048, 0.0038334804, -0.07260874, 0.1021087, -0.09012465, 0.0833761, 0.051477388, 0.040306747, -0.052806083, -0.041488584, -0.05687058, 0.035356503, 0.066912174, -0.009068654, -0.05997071, 0.07658756, -0.060978614, -0.025972681, 0.04687559, 0.060456757, -0.045918226, 0.061352465, -0.021507906, -0.065815896, -0.080597706, -0.054607604, -0.046283666, 0.09569064, -0.094947, 0.014037226, 0.062156025, 0.032498218, 0.06291989, 0.09287061, -0.07683477, -0.11057673, -0.025994591, -0.10177313, -0.05741621, -0.077544175, -0.03662794, 0.033388343, -0.089320935, 0.07380423, -0.031030165, -0.09938814, 0.0065280693, 0.0189895, -0.0070982683, -0.07871178, 0.018594764, -0.013105186, 0.06870117, -0.020844638, -0.052986186, -0.031033617, 0.044280373, 0.08492053, 0.059869085, 0.04181532, 0.031833924, -0.018169321, 0.06474919, 0.030230537, 0.09304076, -0.046754822, -0.0009969347, -0.025770029, 0.100763455, 0.09963652, 0.074501485, -0.008705226, -0.06394151, 0.10942309, -0.031540412, 0.063327156, -0.013532922, -0.068004206, 0.062319398, -0.092394814, -0.048022743, 0.08282388, 0.09925591, -0.074677326, 0.004668973, -0.10146096, 0.0004022658, -0.04058117, -0.049811173, -0.0234398, -0.056298006, -0.06780702, 0.07509929, -0.1097204, -0.056009695, 0.10536431, 0.045793846, 0.039660767, -0.049386557, 0.00650216, 0.039426126, -0.10953183, -0.084933035, -0.06612767, -0.099807315, 0.057240244, -0.07280672, 0.07763938, -0.09998512, -0.06923614, -0.103502356, 0.083391294, -0.053085305, -0.06355374, 0.0037902843, -0.008008278, 0.09593513, -0.034069777, 0.08602301, 0.09780687, 0.10849396, -0.09256221, -0.00782659, 0.081412934, -0.0077444096, -0.0019506866, 0.033713996, 0.018409532, -0.09829401, -0.052838657, 0.09837391, -0.07384322, -0.09635003, -0.06000123, 0.014719114, -0.008917741, -0.045067765, -0.024166122, -0.03385637, 0.0042579775, -0.0684496, -0.10589004, -0.066022694, 0.07477882, -0.06056542, -0.023211585, -0.035832446, 0.055717546, 0.0169748, 0.08157999, 0.055211455, -0.0338283, 0.010841611, 0.0052123824, 0.06201953, 0.07726885, 0.01968614, 0.10168836, -0.056006644, -0.10194328, -0.050640337, -0.06962493, 0.02550708, -0.101656586, 0.0021899776, 0.09736433, 0.034774866, 0.035242748, -0.10284058, -0.10887605, 0.104327135, 0.0742447, -0.04912305, 0.047782265, 0.10614314, 0.010583968, -0.009692618, -0.09892036, 0.054387543, -0.039455503, -0.02331345, -0.031153383, -0.03709406, -0.0018427831, -0.07944071, 5.2565647e-05, -0.012437213, -0.022165377, -0.06197506, -0.037992127, -0.019107625, 0.08722608, -0.0083137425, -0.039382197, 0.07300109, -0.032631803, -0.01319339, -0.020493818, -0.026527086, -0.105893694, -0.040804897, -0.05060708, 0.06106554, 0.0004316407, -0.042646945, 0.0057540457, -0.0032995073, -0.079429746, 0.082466505, -0.053960394, -0.10909344, 0.04956651, 0.094685934, -0.07249938, -0.081114285, 0.11095062, 0.11163276, 0.061522692, -0.03567108, 0.07499594, -0.055444643, 0.054444816, 0.0015267628, 0.030620195, -0.032476988, 0.019389393, 0.059762023, -0.023552675, 0.095367186, 0.006322192, -0.00014600829, 0.018010238, -0.049560167, -0.041114304, -0.03818004, 0.0050451956, -0.10859812, -0.013384288, -0.017516728, -0.034678787, -0.0269225, 0.056391038, 0.07213558, 0.046805736, 0.08756351, 0.0076356265, 0.061272804, -0.085959665, 0.06804584, -0.10531058, -0.06659329, 0.057984892, 0.106860265, -0.06430238, 0.08010867, 0.0015311344, -0.011844557, 0.014547822, -0.034420077, 0.11040465, 0.07421698, 0.111514635, 0.08781283, -0.067435436, -0.015311424, -0.019194711, 0.054861583, -0.074625425, 0.078964315, 0.064577654, -0.07996224, -0.02901933, 0.044240575, -0.037659753, -0.0039859395, -0.047150437, 0.08972224, 0.037464246, -0.09209131, -0.029809, -0.09688426, 0.085081205, 0.076165386, -0.07255074, 0.06625418, -0.08538134, 0.025187062, 0.07922778, 0.04441196, 0.071606316, -0.0436915, 0.07218904, -0.0059617492, -0.10666113, 0.04833591, -0.05405253, -0.064377256, 0.08504904, 0.029460566, 0.07458359, -0.095258094, -0.07857197, 0.01772294, -0.010052794, 0.054054517, -0.012498122, 0.019961871, -0.05520331, -0.009287712, -0.0777029, -0.0070278696, 0.03672298, 0.041947518, 0.09781874, 0.07758688, -0.052362528, 0.037577935, -0.028586915, -0.09140936, 0.03635013, -0.04551292, -0.075905554, -0.049140364, 0.07386981, 0.057100687, 0.046213012, -0.03850735, 0.07294957, -0.09042504, 0.06063178, -0.03303383, -0.08814422, -0.06368561, 0.05591372, -0.019360084, -0.010875171, 0.043540828, -0.042111665, -0.006296602, 0.098128654, 0.063473284, -0.019506453, -0.07014049, -0.044613373, 0.05148877, -0.080899075, -0.0576985, 0.06521624, -0.08478876, 0.056589812, 0.07857038, 0.09259051, -0.0682587, -0.00091371464, -0.08428247, 0.10488063, -0.08022407, 0.08242434, -0.09275428, -0.050777588, -0.09684451, -0.09397403, -0.075913124, -0.09304009, -9.1483416e-05, -0.10959093, 0.08761092, 0.04684064, -0.09870536, -0.10013348, 0.09587187, -0.0178744, 0.028306067, -0.09030498, 0.064948134, 0.04310647, -0.09008816, -0.069160305, -0.0112923905, 0.083434224, 0.06708732, 0.05944223, 0.027035015, 0.039868295, 0.060616095, 0.10725176, 0.08887177, 0.01540532, 0.022294419, 0.06592396, -0.0568055, -0.0047355862, -0.021512238, 0.087662674, -0.11071169, 0.0076183, -0.023026738, 0.06710216, 0.04415826, 0.021567496, 0.07847832, -0.075180285, 0.10493696, -0.10839224, -0.03762445, 0.026692726, 0.033454116, -0.012145863, 0.066040315, 0.09360157, 0.10271934, 0.04280303, -0.008781969, 0.08326125, 0.08689921, -0.05243951, -0.10542843, -0.095981486, -0.048816238, 0.07817464, -0.06893839, 0.027080385, -0.10718546, -0.046340175, -0.093387, 0.011599428, 0.09932516, 0.11065828, 0.035543293, 0.013622126, 0.10299343, 0.0239211, -0.07154203, -0.06437378, -0.07220002, 0.09278145, 0.019292032, 0.076501995, -0.08258203, -0.07609551, 0.011922685, 0.014936521, -0.103308745, -0.061659236, -0.05256566, 0.08836594, -0.028910985, 0.06745894, 0.08551591, -0.06425632, 0.0827036, -0.09198713, -0.08211517, 0.070384145, -0.11068945, -0.06156662, 0.09550389, -0.06175465, -0.010022872, -0.010760257, 0.025872147, 0.003544156, -0.04254003, 0.08519588, -0.063854575, -0.024237774, -0.050011415, -0.11008333, 0.029649796, -0.09860512, -0.089408636, -0.072610766, -0.003128109, -0.095910035, -0.014962337, -0.10211994, 0.009705732, 0.086077936, -0.024807652, -0.00892871, -0.025646238, 0.018440172, 0.069929086, 0.08527067, -0.09729877, 0.06229133, 0.019319594, -0.0073636286, -0.031267364, 0.034304988, 0.08540779, 0.0952624, 0.08641572, -0.010013183, -0.041307334, -0.06183798, 0.020726591, -0.019295458, -0.09451132, -0.0385233, -0.093827054, -0.0644877, -0.0061709723, -0.062548816, -0.006471972, -0.083478965, 0.064505175, 0.059632234, 0.05436482, -0.016142998, 0.009497176, -0.027936641, 0.09393306, 0.039548706, 0.06623757, -0.08466309, -0.0098314015, 0.0012100094, -0.08309, 0.046489023, 0.042620942, 0.039468523, 0.111206785, 0.08993476, -0.055988252, -0.10723583, -0.005492537, -0.025726778, 0.015428737, -0.05914112, -0.09555812, 0.082946375, -0.025101468, 0.07156741, -0.06594863, 0.07482492, -0.022615677, -0.008609757, -0.082392916, -0.0064290958, -0.063453466, -0.019577451, -0.08627865, -0.0637811, -0.023611771, -0.09715215, -0.020185076, -0.09123809, -0.06318488, -0.096849166, -0.10004782, 0.08592036, -0.09750621, -0.03142334, 0.09285162, -0.10831326, 0.07714662, 0.028534016, 0.103089765, -0.0625733, -0.034722183, -0.03812827, -0.052387465, 0.110701345, 0.067188516, 0.107588306, -0.0800238, 0.032783985, -0.028061831, -0.013293951, 0.034716703, -0.09810885, -0.07322385, -0.030376159, 0.05085017, 0.10787444, 0.06616827, 0.10959648, -0.09438451, 0.057578243, -0.055901885, 0.018615462, 0.016689966, -0.00070936966, -0.04521336, 0.10814518, -0.024100043, 0.041305803, -0.10613849, -0.040101696, 0.07536673, -0.04156815, -0.024644304, -0.09700844, -0.09160138, 0.026782038, -0.08282821, 0.0048549385, 0.050280254, 0.06914919, 0.00047638282, -0.046271816, -0.0033021728, -0.0074856468, 0.024760831, 0.020020887, 0.10642679, 0.02042891, -0.027929459, -0.09424633, 0.022160858, -0.104556814, -0.036333457, 0.110650845, -0.025827818, -0.08933021, 0.09686804, -0.044721596, 0.1035846, -0.05320795, 0.076897904, -0.048241775, -0.005887859, -0.0036652943, -0.044656184, -0.061139192, -0.09009155, -0.05925469, 0.024449423, 0.10044305, 0.10333885, -0.02003832, 0.01061037, -0.030050144, 0.007920193, -0.00045375188, 0.018503854, -0.04688973, -0.041143082, -0.01448069, 0.04296318, 0.073933065, -0.04339726, 0.102707475, -0.08143786, -0.11132845, 0.027851796, 0.07578374, -0.10646492, -0.05001444, -0.04115217, -0.020103268, 0.068712845, -0.027301349, 0.03262186, -0.024830591, -0.09305913, -0.10962756, -0.107094504, -0.021820914, 0.047098074, 0.04565853, 0.058172192, -0.035464272, -0.041694593, -0.07976, 0.022540532, -0.08030229, 0.09191181, 0.07165359, -0.11008431, 0.09903604, -0.0015323606, 0.0073508737, -0.079625145, -0.044936962, -0.07670546, -0.08944246, 0.08302451, 0.08086238, -0.010071945, 0.08619211, -0.049168833, 0.07107827, 0.091076314, 0.05220764, 0.04746321, 0.0907058, 0.008186979, -0.081152804, 0.05188645, -0.026295858, 0.0640382, 0.106294066, -0.053649586, -0.0843946, 0.06600403, -0.070490316, 0.007047635, 0.062374763, 0.011149901, 0.055435378, -0.0429772, -0.08490159, -0.09313581, -0.03857572, 0.0466794, -0.10296111, -0.051556036, 0.06417527, 0.027849384, 0.01987969, 0.09246906, 0.082658626, 0.06455922, -0.0038890583, -0.026754942, 0.042974774, 0.0436496, -0.08719842, -0.08571335, 0.023011625, -0.03780171, -0.04569874, 0.09632815, 0.052757464, 0.067682385, -0.09584247, -0.057605922, -0.086833596, -0.025120208, 0.0023345863, 0.05247375, -0.025458086, 0.067496926, 0.06328676, -0.09016469, 0.08618643, -0.10151879, -0.038519196, -0.04555405, 0.094958186, -0.08831406, -0.025188927, 0.10034298, -0.0107034, -0.061213695, 0.0345386, -0.044663206, -0.10474829, -0.0029149943, -0.039937362, -0.09578278, 0.081049204, -0.074071676, -0.016158832, -0.049064685, -0.0949252, -0.089471325, -0.04870334, 0.081717625, -0.04480811, 0.0023299216, -0.08181511, -0.06774331, -0.03666959, -4.7714253e-05, -0.051838297, 0.030545944, 0.02309342, 0.086552374, -0.00042930833, -0.00746059, -0.06806726, -0.10008722, -0.014793311, 0.11132428, -0.038617358, -0.05313743, -0.10821438, -0.08393249, 0.108364396, 0.1075153, 0.0635704, -0.010225191, 0.10420899, -0.089064874, -0.027420914, -0.046480186, -0.039090473, 0.045851693, 0.015486128, -0.08345684, 0.105922215, 0.038406815, -0.059468113, 0.0754345, -0.014440519, 0.06458664, 0.08836187, -0.01651165, 0.039932817, -0.07269682, -0.039310865, -0.04577944, -0.0685552, -0.09783439, -0.10812703, 0.10727219, 0.054334298, 0.08287085, -0.08672043, 0.0110113565, -0.02223171, 0.10508768, 0.046326887, -0.057237033, 0.08393518, 0.0024281756, -0.031749222, 0.059584986, -0.09443642, -0.07964954, -0.07383484, 0.10165135, -0.088027015, -0.0062061315, -0.054798752, 0.107565425, -0.009074331, 0.00911938, -0.10233273, -0.057970937, -0.046882197, -0.042752996, 0.104171075, 0.09547747, -0.059710696, -0.07796473, 0.09258595, -0.013389526, -0.08347362, 0.059450973, 0.08569395, 0.014530216, 0.0071762637, 0.047993675, 0.016417902, -0.034261033, 0.04964008, 0.013157685, -0.09846077, -0.092861146, 0.06352308, -0.00848622, -0.064019464, 0.024342213, 0.10040901, 0.04637107, 0.049907535, -0.02570456, 0.06868544, -0.029602868, -0.102550976, -0.045594834, -0.07871719, -0.013444996, -0.0074287895, -0.017601268, 0.069397755, 0.10889046, 0.10069264, 0.022653848, 0.10776957, 0.09170633, -0.1039354, 0.09365104, -0.008542517, -0.069446765, 0.0015574838, 0.073168434, 0.022169229, 0.06747374, 0.038199272, 0.06771977, -0.043604854, 0.06932659, 0.10549912, 0.057265207, 0.11060962, 0.09131628, 0.100126244, 0.03261681, 0.060896315, -0.05100043, 0.11060048, -0.00694397, -0.10991366, 0.10422059, -0.021704601, 0.069602914, 0.07839393, -0.031120142, -0.01798185, 0.051667284, 0.045660153, -0.038149264, 0.035104416, -0.006650647, -0.020021407, -0.008850341, -0.05864867, -0.018644465, 0.018267201, -0.0010504599, 0.003966094, 0.050648388, 0.015917422, -0.108157106, 0.002104132, -0.10118071, -0.001672851, 0.010187473, -0.106792256, -0.010688752, 0.11132555, 0.04889442, 0.085448645, -0.023597376, 0.091751814, -0.10781443, -0.02403139, 0.06276562, 0.069517136, 0.00034380917, -0.008561363, 0.044267204, 0.08009776, 0.053677868, -0.01593576, 0.019782782, 0.110414125, -0.090874165, 0.08056737, 0.011088313, 0.072393864, 0.044499725, 0.06704499, 0.047796234, -0.078777246, 0.106641315, 0.060337204, -0.08485822, 0.041117877, 0.057944242, 0.009009571, 0.040530592, -0.100852214, -0.06753602, 0.09344114, 0.06176778, 0.07948099, 0.05136994, 0.006482408, 0.11057875, -0.00714385, -0.040032525, 0.043797113, -0.08603293, 0.025651421, 0.039319236, -0.06613409, -0.081097186, -0.002291937, -0.062253065, 0.035106335, -0.05362742, -0.04632665, 0.08118734, -0.081538595, 0.004090857, 0.10335744, -0.08209305, 0.07806433, -0.060798526, 0.026453901, 0.05252953, 0.019997617, -0.010549928, 0.026197176, -0.021973826, -0.10588859, -0.0024244438, -0.0756789, 0.0385287, 0.055997193, -0.09015702, 0.029784143, -0.051190544, 0.10610838, -0.024712011, -0.09692392, -0.030765524, 0.09380489, -0.02399875, -0.028017435, 0.09812031, -0.030444065, 0.053815905, -0.08030983, -0.07367041, -0.10729505, 0.030794779, -0.018195577, 0.032123353, 0.0670976, 0.09202305, 0.10338348, -0.10787343, -0.100362055, 0.037336137, -0.059012774, -0.08097178, -0.008179623, 0.047126953, -0.058156144, -0.08281479, -0.06394124, 0.0947097, -0.058856238, 0.1023193, -0.007683847, -0.06386093, 0.049553502, 0.00923556, 0.07052632, 0.06531662, -0.03456478, -0.09848468, 0.093203515, 0.03458998, 0.0728546, 0.09678473, 0.023027645, -0.047943816, -0.065331995, 0.031936377, 0.014751981, 0.03721053, -0.10461211, 0.1087565, -0.023188233, -0.057370804, 0.040204708, 0.094111525, 0.05979569, 0.10960105, -0.030433457, -0.034374226, 0.07345569, -0.09369858, -0.09003316, 0.07051701, -0.10611994, 0.0058745574, -0.06262349, -0.10222234, 0.033121515, -0.013504799, 0.03690303, -0.024503762, 0.043646414, -0.07877139, 0.095063545, -0.021261537, 0.0016827538, 0.033250358, -0.088519506, -0.012910464, 0.030974828, -0.08357299, -0.020507332, 0.059348628, -0.010447595, -0.004948808, -0.075238764, 0.0044631087, 0.07936372, 0.058254503, 0.06666842, -0.10502303, -0.06027471, 0.008650248, 0.08907054, 0.06776936, -0.054686558, 0.048641387, -0.085819244, -0.054163326, -0.06874623, -0.055633634, -0.06685686, -0.022664176, 0.0486458, 0.10066569, 0.017921433, 0.04266606, -0.08987778, -0.07844383, 0.036400564, 0.107479475, 0.056598634, -0.033833202, -0.025785288, 0.11022827, -0.034082916, 0.030379811, 0.0360603, -0.058404073, 0.05705605, 0.10845618, 0.09494815, -0.0075337472, 0.0753485, 0.036461446, 0.045809854, -0.010459044, 0.03373972, 0.00095081975, 0.00023457286, -0.014120953, 0.0010415701, 0.045815572, 0.07851399, 0.09923789, 0.0725186, 0.025897257, 0.097036585, -0.008546369, -0.10892316, -0.07305768, -0.10616965, -0.08530142, 0.09190292, -0.044632886, -0.081928626, -0.034657646, 0.0024085436, 0.088294946, -0.06550611, 0.042800885, -0.052673858, 0.0642895, -0.019046556, 0.047466364, 0.08940834, 0.10444128, 0.091025695, 0.017320568, -0.09839188, 0.0018711317, 0.03169727, 0.0012846995, -0.016633041, -0.05998152, 0.009839745, -0.04909722, 0.043085463, 0.01504597, -0.08586441, -0.05614267, -0.007542597, 0.068965316, -0.013441611, -0.06347888, 0.10080569, -0.08122445, 0.09360108, 0.089920305, 0.10948795, -0.10009871, 0.0032054249, -0.087698944, -0.0792462, -0.100397795, -0.0952226, -0.048388556, 0.015164069, 0.049754225, -0.024424912, -0.06688456, 0.029775653, 0.033827033, -0.044008348, 0.03588805, 0.046172336, 0.102988005, 0.046339322, -0.04115321, -0.06789001, 0.034575533, -0.052724183, 0.024439387, -0.03706511, 0.083822176, 0.014174812, 0.09394995, 0.051116224, -0.017130136, 0.086594865, 0.048543613, -0.014141065, -0.047059234, 0.06407074, -0.023601761, -0.06958191, 0.10229997, 0.10563181, 0.04768497, 0.07295383, 0.0544281, -0.035459965, 0.02336603, 0.00018318008, 0.045119185, 0.06367827, -0.045729913, -0.0018584569, -0.059587304, 0.107593894, -0.07910189, -0.0038635351, 0.048103005, 0.08565178, -0.036435004, -0.070724174, 0.015150768, 0.062343456, -0.10765659, -0.091024384, 0.093261465, -0.021993324, 0.08653093, -0.031188289, -0.062359504, -0.101151764, 0.07485547, 0.017829856, 0.004424924, -0.03285229, 0.005603266, 0.033629287, -0.016335402, -0.041181717, 0.07618215, 0.08355486, 0.03782682, -0.013157645, 0.10486853, -0.007956872, 0.08222955, -0.040027086, -0.025251755, -0.029851636, 0.014252154, -0.045699406, -0.10457542, 0.099348806, -0.10226249, 0.068336524, -0.032367576, 0.014009531, 0.024169255, 0.029333137, -0.043333177, -0.09156404, -0.058550507, -0.045539364, -0.039643746, 0.0708454, 0.053783614, 0.10808734, -0.0020381182, 0.004347408, -0.039135817, -0.022408945, 0.08041375, 0.05850727, -0.065927796, -0.039080907, 0.053136084, -0.009207118, 0.087782405, -0.028388688, 0.096375205, 0.09723982, 0.0072764903, 0.03923811, -0.015255899, -0.06564227, -0.09596755, 0.067066446, -0.058521718, 0.07015053, 0.09222581, -0.05769474, 0.04491765, -0.008211423, 0.054075297, -0.08855519, -0.019711211, -0.0525283, -0.006944143, -0.106644556, -0.077330686, -0.07522325, -0.090830594, 0.05468561, 0.031229857, -0.010458338, 0.002118113, 0.07013057, 0.06415059, -0.06667506, 0.047358982, 0.00025013997, 0.0005772625, -0.02885057, -0.062688276, 0.108663574, 0.101618566, 0.017534748, 0.10356779, -0.026224433, -0.04758116, -0.08111363, 0.014950075, -0.10556925, -0.075609654, 0.06490532, 0.028389527, 0.0006520193, -0.03932666, 0.07918243, 0.084517844, 0.08934121, -0.0759687, -0.0031485942, -0.001872851, 0.10973846, -0.049473483, -0.01271966, -0.012184821, -0.093543805, 0.06515781, 0.01384653, -0.10199268, -0.064284414, -0.08021817, 0.08969416, -0.048622984, 0.08616188, 0.09235094, -0.03849666, 0.088357694, 0.047782145, 0.07045264, 0.06908377, 0.05109714, 0.10870955, 0.101403, -0.06927746, -0.01945598, -0.06574528, -0.064992145, -0.08628347, 0.03857647, -0.0571526, -0.0134528605, -0.044844534, 0.01629775, -0.10780909, 0.012926977, -0.040193487, 0.019061258, 0.03009975, -0.06034355, -0.10876777, -0.08594196, -0.0023675333, -0.026539441, 0.009593937, 0.089691386, 0.03311877, -0.00952026, 0.04388464, 0.09639303, 0.065214574, 0.096903555, 0.06578349, 0.10712584, -0.028808294, -0.050678242, -0.07317647, -0.0342567, 0.067768954, 0.027776878, 0.00786936, -0.0057643214, 0.03427412, 0.042596806, 0.0694529, 0.0684431, -0.060155116, 0.1062659, 0.07962271, 0.051895633, 0.09634334, -0.024194885, -0.07762981, -0.11140889, 0.10245407, 0.0425824, 0.093079835, 0.07277171, -0.019595537, 0.08249908, 0.05619665, -0.040445987, -0.07092677, -0.11105246, -0.017828085, 0.07813529, 0.044310894, -0.081369326, -0.08111691, 0.025945451, 0.03742662, 0.08057129, 0.08250792, -0.059885506, 0.10679424, -0.011770906, -0.0976764, 0.0569939, -0.09151154, 0.037398286, -0.040248517, -0.04936647, -0.0930179, 0.071013786, 0.04602809, -0.04496663, -0.100873314, 0.010967574, 0.11041855, 0.03939975, 0.0005463815, 0.09206713, 0.07371539, 0.093743965, -0.069206044, -0.05079174, -0.10988273, -0.08716248, -0.056271605, 0.098784566, 0.0910822, -0.1093793, -0.06778987, 0.09770894, -0.088969916, -0.012067401, -0.028444571, 0.09949496, -0.07379597, -0.031416755, 0.06725182, -0.083725706, 0.074191555, -0.022391565, -0.10341442, 0.029354768, -0.034506533, -0.004148501, -0.11042143, 0.008491244, 0.037652478, 0.018215543, 0.026779931, -0.11113501, 0.111461416, -0.005019606, 0.09498544, -0.0987604, 0.07125515, -0.07540025, -0.0020668667, 0.08981714, 0.051574364, 0.10778696, 0.028597591, 0.015589112, -0.06253449, -0.0476673, 0.026399216, -0.10773122, -0.019062897, -0.11099451, -0.03424973, 0.101937875, 0.034648716, -0.086547926, -0.042608775, -0.029570002, -0.10735967, 0.096333995, -0.021652129, -0.05018788, -0.050203525, 0.00031463418, -0.0212523, 0.09387269, -0.050405215, -0.1002372, 0.004948088, 0.04342257, -0.073063366, -0.10871618, -0.09722222, -0.01524597, 0.09839087, 0.053544667, -0.0038694392, -0.0074832477, 0.048383344, -0.03396876, 0.033707388, 0.045208722, -0.044189744, 0.11051972, 0.03145709, 0.07383531, -0.037585396, -0.07366137, -0.042641014, 0.041138656, 0.09588011, -0.105775796, 0.009443983, -0.11119214, 0.010891777, -0.011771239, -0.057741802, 0.11169278, -0.038049784, 0.0045206724, -0.06239233, 0.03526767, 0.0026012664, 0.0051578972, 0.02136399, -0.009733081, 0.016107438, 0.07102662, 0.021386847, -0.007959284, 0.0037839934, 0.04057191, -0.0070140352, -0.019950569, 0.06834123, 0.07577447, 0.037204042, -0.08897169, -0.073355116, -0.10626004, 0.043185957, 0.10913818, 0.037845865, -0.07735248, -0.003289058, -0.10759001, -0.011663616, 0.066008925, 0.10079012, 0.108559005, 0.008676704, -0.008088806, 0.078960754, -0.060799565, 0.06298664, 0.104194865, -0.110456735, 0.066015, -0.046370722, -0.08257927, 0.0059316014, 0.032836027, 0.013815222, -0.024697004, -0.066329904, -0.09565382, -0.0066140885, 0.060769074, -0.08645874, 0.0543542, -0.07502404, -0.059480175, 0.07555307, -0.097087644, 0.08700253, 0.069002315, -0.06955199, 0.047760542, 0.011503067, 0.04464957, 0.10164531, -0.022322634, 0.029268643, 0.09538077, -0.09846128, -0.009991618, -0.06831303, -0.059399113, 0.110574566, 0.0684699, 0.047073804, -0.09732487, -0.0086894315, 0.009833428, 0.045377202, 0.017732669, 0.034441147, 0.016770294, 0.010365202, -0.06013402, 0.052672416, 0.09012969, 0.07114747, 0.05088273, -0.014147209, 0.012801614, -0.028382504, 0.04835582, 0.1084825, -0.0041621756, 0.0011088899, -0.11123656, -0.015148662, -0.01798726, -0.02953303, -0.1054352, -0.089081034, 0.065125555, -0.07146738, -0.048117664, 0.005396535, 0.029971002, -0.01914329, -0.009318687, 0.038691476, 0.076885164, -0.07288897, -0.02234144, -0.102702074, -0.027467337, 0.055904966, 0.10605937, 0.05880146, 0.08644146, -0.099290706, 0.04599919, -0.001186992, 0.04999133, -0.111533396, 0.082352094, -0.08142957, 0.024443759, -0.08067169, -0.100420885, 0.03603691, -0.08916543, -0.06741692, -0.015192685, -0.026282823, -0.05788836, -0.083597355, 0.09463839, -0.05496202, 0.04989117, 0.10475984, -0.007845063, 0.043013588, -0.0113979755, -0.05354704, 0.051038843, -0.08582465, -0.009825631, -0.02471901, 0.097647525, 0.09246397, -0.013895364, -0.09534587, -0.047329873, -0.10552225, -0.0128543265, 0.10266041, 0.07888784, 0.044191983, 0.05547058, 0.09301741, -0.02058129, -0.05211692, -0.0002973744, -0.0589327, 0.022643732, 0.06760198, -0.03710436, 0.1036178, 0.09235354, 0.074335195, 0.024372187, -0.110454686, 0.01992322, -0.10299791, 0.035726633, 0.10788625, 0.058438566, -0.06565389, 0.030335922, 0.08709552, -0.0048257103, 0.00015051315, -0.03140937, -0.092553414, -0.08734323, -0.06524403, -0.06992778, -0.015080529, 0.08337788, -0.007871559, 0.020832842, -0.11075813, -0.060780387, 0.007650634, -0.0630297, -0.05256105, 0.013234934, -0.06795504, -0.027283117, 0.07112031, -0.055714052, 0.08028695, -0.0070114364, -0.09469681, -0.06523701, -0.049626794, -0.016230524, -0.0065532727, -0.08106326, -0.062906414, 0.033892926, 0.07280057, 0.0011361723, -0.06627179, 0.005381568, -0.0074279495, 0.035548013, -0.07249324, 0.029799923, -0.046528902, -0.008519926, 0.02452418, 0.06497403, -0.064662635, -0.055887464, 0.108795136, -0.09141122, 0.046587996, -0.089380674, 0.102509424, -0.0211744, 0.03950456, 0.045514133, 0.015389366, 0.05379966, 0.016711691, 0.05488821, -0.036769297, 0.009721486, 0.08338423, -0.06620708, 0.013612463, -0.04673563, -0.0077374927, 0.08357691, -0.019860804, -0.0290231, -0.08862055, 0.011336933, 0.0676269, 0.02755598, 0.007955752, 0.0230209, -0.108746395, -0.004473944, 0.0050171404, -0.02760476, -0.06421175, 0.054941535, -0.082634315, 0.017339252, -0.05254179, 0.01665114, 0.09218254, 0.07351099, -0.11070188, 0.061374724, 0.014275785, -0.07585022, -0.07909328, -0.01787028, -0.089551605, -0.08293392, 0.09225928, 0.02840115, -0.018475972, 0.065620065, -0.06652755, 0.04377936, 0.06011443, -0.012217501, -0.06750155, 0.07277094, 0.051654622, 0.02568345, -0.09498738, 0.0109038, 0.10302596, 0.070659265, -0.0741351, 0.0895876, -0.09968337, -0.06647407, -0.012007211, -0.054067727, 0.024902442, -0.056025315, -0.08346701, -0.01570324, 0.09394783, 0.09438362, 0.013411596, 0.052676816, -0.015416275, -0.07379694, -0.05345641, -0.10382751, 0.040279064, 0.097980835, -0.05063755, 0.04304472, 0.097136065, -0.08298334, -0.03277331, -0.0030352662, 0.040329125, -0.07484343, 0.068167634, -0.006606105, -0.08600547, -0.10784265, 0.009224191, -0.030810399, -0.07999426, 0.110050365, 0.10677695, -0.051791716, -0.035725355, 0.096346736, 0.10748776, 0.013489952, -0.06389966, 0.05372565, -0.101626426, -0.09436911, -0.0048874454, 0.033816304, 0.087444685, 0.10341788, -0.042148277, -0.11114886, -0.09916742, -0.024274226, -0.08881327, 0.0124413045, -0.071499504, 0.08074674, 0.056658234, 0.06611316, -0.022151675, -0.09289394, 0.067808434, 0.049002446, -0.026135335, 0.031457193, 0.034572653, -0.057333447, 0.07609436, 0.057746135, -0.08467333, 0.091871314, 0.03761352, 0.0755985, 0.01878077, -0.09128668, 0.08141332, -0.065638915, 0.032073416, 0.065501675, -0.020006252, -0.042500712, 0.06271093, -0.031272456, -0.082384415, -0.054875135, -0.10966132, -0.10784327, 0.096883215, 0.009387979, 0.066886276, -0.0094075315, -0.09866357, -0.05969974, 0.00033886448, -0.10229993, -0.053204898, 0.023649942, -0.11173227, 0.07062548, 0.026364071, 0.063644685, -0.07751658, -0.11154626, 0.034214053, -0.082084656, -0.082334206, 0.051947147, -0.03487432, 0.020429723, -0.085961, 0.060173485, 0.061460342, 0.018110318, -0.008236187, 0.03960764, 0.046816424, 0.09535431, -0.11021514, 0.05519554, 0.03713655, -0.020883236, 0.035018716, -0.029107373, 0.047524754, 0.09361226, -0.06621573, -0.05509361, -0.007190005, 0.10615907, 0.10524765, -0.078943364, -0.10891084, 0.10552183, -0.056037057, -0.067087784, -0.09377292, 0.070694946, 0.06100747, 0.08612666, -0.08478054, 0.060418278, -0.10536048, -0.06526889, 0.055509217, -0.03001465, 0.094884254, 0.019871641, 0.09029774, -0.08102015, 0.107806206, 0.04869141, -0.05867692, -0.010874918, -0.06429845, 0.0010165802, -0.076851174, -0.062381946, -0.033595033, -0.041876946, 0.10001595, -0.08532663, 0.04600006, 0.097890854, -0.028483743, -0.01986427, 0.028450582, 0.033025086, -0.09238563, 0.10435162, 0.009890964, 0.10728374, 0.07784636, 0.027908213, -0.05273815, -0.06430988, 0.10105212, 0.04285837, 0.049927834, -0.0984568, -0.02742066, -0.08233946, 0.029357834, -0.013618754, -0.040617783, -0.101822644, -0.019499242, -0.006572905, -0.009754766, 0.103721365, 0.021655153, 0.037148345, 0.079401165, 0.08224143, 0.07348359, -0.05653275, -0.01640015, -0.008473865, 0.014525738, 0.06544819, 0.091785535, -0.031901363, 0.06667114, -0.014582449, 0.024127299, -0.008223005, 0.07457707, -0.08744947, 0.09593149, -0.107825905, 0.06747222, -0.061256863, -0.027643666, -0.04734849, 0.05325905, 0.020291232, 0.035090726, -0.0662249, -0.08135711, 0.10713586, -0.11060053, -0.09185848, -0.062352344, -0.051583108, 0.011507291, -0.0052163275, 0.031000163, -0.047327116, -0.045040563, 0.07551699, 0.0807643, -0.023213023, -0.06566732, -0.07081964, -0.06277574, 0.077846125, 0.08724779, -0.08271634, -0.07072011, 0.013200921, -0.09946861, 0.039319623, 0.015798682, -0.072129704, -0.06477692, -0.10322811, 0.009310584, -0.021044211, -0.040453516, -0.023213796, 0.019207893, -0.10030348, 0.05769325, 0.059905216, 0.09489452, 0.039881386, -0.0036813146, -0.008337933, -0.0314581, -0.026474332, -0.013712383, -0.001017913, -0.011010904, -0.07068417, 0.0018660937, -0.011340825, -0.034036882, -0.054487705, 0.0872514, -0.10175975, -0.007504439, -0.047546, -0.08442867, 0.059769005, -0.08852231, 0.0846741, -0.08450183, -0.076724574, -0.043351196, 0.012265469, 0.061840616, -0.07933478, 0.096103996, -0.041351717, -0.038158674, -0.05165212, 0.11058375, -0.0067107696, 0.097268626, 0.10521163, 0.075194664, -0.0009329869, 0.0048503405, 0.10713004, 0.028044345, -0.098359324, 0.06457297, 0.05167388, 0.018931016, 0.006526137, 0.063661024, -0.029413877, 0.021350835, 0.062212054, -0.04437464, -0.104444765, 0.04936895, -0.026895445, -0.046288062, -0.087414764, -0.08544493, 0.0900511, 0.100314766, -0.05679365, 0.00053417304, 0.01315434, 0.023372374, -0.018888887, -0.08769518, -0.02650147, 0.03588429, 0.075017296, -0.003527696, 0.021917515, -0.07566838, -0.09838604, 0.003363335, -0.0010798482, 0.09556056, 0.02729074, -0.051243067, -0.019826192, 0.067226075, 0.108728185, -0.061377924, 0.008488539, -0.104005024, 0.01716327, -0.04158108, -0.063480824, -0.097870514, 0.04074833, 0.07228048, -0.09125619, 0.009563109, 0.07970823, -0.0991671, 0.082827814, -0.07572937, -0.012226844, 0.009554965, -0.070493154, 0.03946955, 0.10576375, 0.08406061, -0.059866354, -0.0148734255, -0.027471853, -0.01581377, 0.0060256836, 0.10209981, -0.02863343, 0.0003968413, 0.014896217, -0.091316335, -0.110971436, -0.011109024, 0.020865962, -0.026812438, 0.053320117, -0.10572856, 0.0021572306, 0.010416995, -0.073760666, -0.032292765, 0.0943846, -0.09669276, 0.04486806, -0.045205057, 0.0713205, 0.056325797, -0.07611602, -0.084784694, -0.06484965, -0.034747664, -0.09523882, -0.021099096, -0.09529072, 0.11024986, 0.024812678, 0.09844661, -0.006075344, 0.052419703, 0.028062806, -0.04663182, -0.034392513, -0.07776285, -0.041577507, 0.009043903, 0.09132796, 0.051986065, -0.051403113, 0.063838415, 0.07531896, 0.02310808, -0.0005273891, -0.031892285, 0.07256344, 0.035997726, 0.008747742, -0.015389819, -0.05110262, -0.03604965, -0.002905678, -0.0025492606, -0.048614107, 0.10639473, -0.100897625, -0.002172638, 0.050726566, 0.07949638, -0.011976624, 0.10177137, -0.028175466, -0.03747479, 0.09720103, -0.0929811, -0.04721768, 0.012647876, -0.06008569, -0.09521206, 0.06666513, 0.015242438, 0.053582095, -0.020076025, -0.04406455, -0.033079773, 0.07902201, 0.09304297, 0.057957023, 0.014221326, -0.08157678, 0.060092878, -0.08633317, -0.104591295, -0.048861247, 0.05567303, 0.09258906, 0.09292564, 0.05730002, 0.04427651, -0.020409744, 0.06847557, -0.106325544, -0.0004253366, 0.002651273, 0.0712786, -0.057288133, 0.11139264, 0.03390607, 0.06730673, -0.06764968, 0.06720588, 0.10953613, -0.10846257, 0.045256797, 0.084782004, 0.0514852, -0.013634655, -0.012216901, -0.029474787, -0.09500125, 0.06340484, 0.03326042, 0.08845038, -0.082904965, -0.10048092, -0.047100406, -0.08562231, 0.020736268, -0.06395335, -0.052636724, -0.06579577, 0.022098403, 0.010243664, 0.1066067, 0.051797155, 0.052789863, 0.10098239, 0.08325301, -0.0483253, -0.03790824, -0.0009210717, 0.032363966, 0.094219364, -0.02505778, -0.034840133, -0.064890906, 0.0078052655, 0.038538214, -0.028893752, -0.06560923, 0.085048735, 0.077945925, 0.01604513, 0.025300829, 0.019899668, -0.09130979, -0.102560975, 0.098657005, -0.08666471, -0.052207883, -0.09586542, 0.042715933, -0.011114209, -0.09118923, -0.048375547, 0.05332465, -0.044273295, 0.028554834, -0.0038262967, -0.038389437, -0.0066781426, -0.03722854, -0.016103907, 0.08654408, -0.053186223, 0.025112184, -0.103771225, -0.07364467, 0.0866737, -0.09772155, 0.049788035, -0.02293331, 0.014143358, 0.10976502, 0.01073696, -0.0093555655, 0.101014055, 0.041673854, -0.021148464, -0.022158353, 0.049847506, 0.0039812215, 0.102122575, 0.012998642, 0.10827642, -0.095062785, -0.023852674, 0.07263502, 0.05618909, -0.050787743, 0.091069356, 0.06214275, 0.05443502, -0.03131096, 0.050895542, -0.066913106, 0.0731782, 0.0032136615, -0.047606762, -0.021056287, 0.07140066, -0.009621859, 0.036200885, -0.06932017, 0.0953037, 0.096435755, 0.039911654, -0.023362178, 0.089553215, 0.051830128, -0.07735352, -0.026563112, 0.004837892, -0.045627672, 0.06738685, -0.0681762, 0.11126577, 0.09840854, -0.09216854, 0.022891086, 0.061798353, 0.02497428, 0.10260461, -0.023451395, -0.0060084374, 0.043892607, 0.0005288952, 0.103030264, 0.059035074, -0.08083409, 0.11020185, -0.037545413, -0.04739317, -0.07840736, 0.011655873, -0.009582502, 0.063409366, 0.07849156, 0.079072036, 0.040055875, -0.0211034, 0.033616945, -0.033759512, 0.025996724, -0.03628945, -0.038068842, -0.08681376, 0.07752008, -0.11167834, 0.015859539, 0.099911205, -0.056089558, -0.060446948, -0.074163385, -0.084341355, 0.02376823, 0.07124111, 0.065515466, -0.108678035, 0.042318292, -0.10939764, 0.09958162, -0.07698044, -0.06432638, -0.08380322, 0.082241476, -0.07895508, -0.105279244, 0.04351861, 0.067496546, 0.070022196, -0.027253035, 0.042846944, 0.009971865, 0.04375642, -0.10283387, -0.072180085, 0.00077517, 0.0972391, 0.012508024, 0.01036776, 0.06731788, 0.06590255, 0.029104229, 0.03477292, -0.00047199792, 0.049795914, -0.062273283, -0.0058307485, 0.08370846, -0.09294944, 0.047040574, 0.04103607, -0.009520353, 0.09106907, -0.017790686, -0.09859779, -0.037161898, 0.05204023, 0.047865845, 0.036416024, 0.05242945, 0.025660338, 0.08143393, 0.03173335, -0.10174523, 0.06537995, 0.08427361, -0.044868406, 0.044321798, 0.10980918, -0.07461879, -0.08864698, -0.09934806, -0.03668128, 0.08762372, -0.09022116, 0.004138385, -0.047865897, 0.068104155, 0.068118416, -0.01697809, -0.0681715, -0.07579252, -0.07599641, -0.108123325, 0.091571316, 0.088220805, 0.036165126, -0.0781878, 0.071460426, -0.07358551, 0.01547733, -0.06517519, -0.036808096, 0.028005641, 0.04051597, 0.105565935, 0.014618141, -0.10119, 0.08625785, 0.047136005, -0.09558924, -0.040209774, 0.08008451, -0.05031609, -0.09263346, 0.012587166, -0.10580514, -0.049816813, 0.07192144, -0.060767446, -0.08714942, 0.042223874, 0.054143175, -0.05884479, 0.047962714, 0.07646378, 0.08688702, 0.09106496, 0.05467559, 0.10678474, -0.09005178, -0.059633087, -0.06397352, 0.0022645877, -0.09681875, -0.045790862, 0.01079435, 0.0681794, -0.09429589, -0.062014706, -0.033915292, 0.060908496, 0.005395762, 0.09263108, -0.03224108, -0.04096406, 0.0072423704, -0.060152784, 0.025171388, -0.10113808, 0.044332217, -0.0667048, -0.06765104, 0.073826574, -0.058625184, -0.07602617, 0.045157462, 0.0035646944, 0.005950487, 0.0030868324, 0.02761309, 0.043671735, 0.0979374, 0.04667624, 0.033447333, 0.106376365, -0.0849024, -0.078913376, -0.013156832, -0.037936777, -0.037688464, -0.000694269, -0.08649373, -0.027117316, 0.03447528, -0.09239332, -0.037164606, 0.108304754, -0.025570162, 0.0063363197, 0.05645934, 0.06193446, -0.07632951, 0.11152104, -0.037940882, -0.11033941, 0.1063181, -0.047726646, 0.082489505, 0.076324075, 0.0968789, -0.08121809, 0.04705453, 0.028380131, -0.059873644, -0.008100428, 0.041762646, -0.0372901, 0.06720654, 0.022396844, -0.09795479, -0.058245696, -0.010472212, 0.10399251, -0.007016221, -0.026730297, 0.06022417, 0.043074016, -0.03462786, 0.07182741, -0.05267635, -0.023205733, 0.07701156, 0.029599523, -0.029306108, -0.07748698, -0.09928244, 0.093601346, -0.07890734, -0.0608468, -0.08859332, 0.005133614, 0.045969296, -0.11054361, 0.09354575, 0.0023564177, 0.048625037, -0.009362736, -0.09678343, 0.030746385, -0.0858566, -0.08382311, 0.07208392, -0.08818945, -0.07114547, -0.10932908, 0.018726645, -0.06451892, 0.081392094, -0.046161592, 0.06264696, 0.041368216, 0.06427816, -0.028837282, -0.07783209, 0.098001234, -0.018135494, 0.01768994, -0.008293617, 0.10670346, 0.09839001, -0.07287315, -0.054754436, 0.04238993, -0.074934185, 0.0054257503, 0.1046817, -0.058178667, -0.10565816, -0.100520924, 0.055832792, -0.0013990805, -0.064985186, -0.05507939, -0.107160084, 0.024493871, 0.01379355, -0.09264502, -0.096939966, -0.066029824, 0.09999192, -0.08560564, -0.0024658272, 0.07658259, -0.047409803, 0.0067299088, 0.076990895, -0.013890512, -0.06749584, -0.028111732, -0.009784434, 0.079575874, 0.10087154, -0.07330274, -0.0051271366, -0.10826103, -0.07448364, -0.05607455, 0.023644425, -0.053235777, -0.045826167, -0.084938765, 0.0786456, -0.04330919, 0.09767713, 0.059903473, 0.017761111, 0.1096034, 0.08546169, 0.1016069, 0.06755283, 0.07213817, -0.06864841, 0.027847383, 0.10075407, -0.08213802, -0.047344133, -0.05246887, 0.0592603, 0.04554235, -0.049441375, 0.11167558, -0.09017802, -0.07188751, 0.053066205, -0.06497189, -0.048825115, 0.029482784, -0.08495561, 0.00868446, -0.102289684, 0.045503885, -0.073450685, 0.048725314, -0.053594034, -0.04374984, 0.08317179, 0.013900268, -0.023202201, 0.035909865, -0.048466846, 0.035944812, 0.075779885, 0.020861778, -0.11103119, -0.019374665, -0.01160332, 0.024631018, 0.062988505, 0.016741171, -0.10088377, -0.034995046, -0.023321128, -0.09797357, -0.062032808, -0.023972707, -0.102939144, 0.02249763, 0.09171435, 0.11001767, 0.035947464, -0.044719398, 0.004545289, -0.05587807, 0.052509323, -0.056304697, -0.036761113, -0.06065161, 0.0007692124, -0.091222905, -0.017512437, 0.047022704, 0.040903628, 0.00807693, 0.01609655, 0.087671034, 0.056329686, 0.07455225, 0.044252105, -0.0015499135, -0.08637543, 0.031404283, -0.026178224, -0.07274198, -0.10060861, 0.10555644, -0.038458712, 0.031045225, 0.041085184, 0.040963873, 0.0882705, -0.06604759, 0.015674092, -0.08230222, -0.015432908, 0.023868069, 0.09116945, 0.102775835, 0.0023497138, 0.04505834, -0.10171257, -0.08460905, -0.004601067, -0.0981948, -0.025461392, -0.07678511, 0.0007490338, -0.08282969, -0.011786207, -0.033577614, -0.05759614, -0.05171148, -0.10096532, 0.1078909, -0.051494233, 0.0034190994, 0.0034818077, 0.035720423, -0.09372256, -0.046759635, 0.04205758, 0.054188542, 0.07369934, -0.04457768, -0.032483265, 0.023453621, -0.07064847, -0.0819051, -0.0056945095, 0.07415545, 0.007656125, -0.021353101, -0.07435605, 0.01786904, -0.024262324, 0.045945026, 0.0480935, -0.05928697, -0.10785063, 0.018376132, 0.06499437, -0.054271497, -0.10096468, -0.07301347, -0.072492115, -0.03072538, 0.08317745, 0.07820833, 0.011751594, -0.05445769, -0.030260246, 0.038726915, 0.054225795, 0.073392026, -0.056000713, -0.093407206, 0.07398748, 0.013371866, 0.056797434, -0.06360959, -0.0010669467, -0.08059428, -0.06266227, 0.084052496, -0.019733641, -0.08720979, -0.08540266, 0.07071629, -0.08156531, 0.08956161, 0.012635267, 0.096667945, 0.04267379, 0.099606365, 0.092794396, -0.102347724, -0.022435002, -0.052498166, -0.07178675, 0.10054723, 0.032529272, 0.06901507, -0.030337282, -0.057618666, 0.08503226, 0.038267657, -0.014227497, 0.042294435, -0.014709718, 0.08442236, 0.079747975, -0.084353454, 0.05987688, -0.043879308, 0.097402394, -0.032380544, -0.025479464, -0.09082674, -0.094682895, -0.03802618, 0.09769668, 0.022009626, 0.06547304, 0.10434866, -0.0045469683, 0.10991551, -0.030556941, -0.021693273, -0.00047558316, -0.014948183, -0.00408474, 0.09057158, 0.10752275, -0.0089713195, -0.051885944, 0.064320855, -0.0710213, 0.10492557, 0.10308752, 0.10462844, 0.099330224, -0.016518781, 0.10284157, -0.031455766, 0.030894313, -0.08487895, -0.10374894, -0.07162114, 0.040583532, -0.06258236, -0.005839065, 0.046201326, -0.0973895, -0.04972978, 0.025470749, 0.040729232, -0.011173119, 0.05726389, 0.032072175, 0.04160992, 0.047281865, -0.034371268, -0.04343463, -0.011852301, -0.05362882, 0.04161276, 0.06406471, 0.08543919, 0.07985981, -0.010029829, 0.070208006, -0.023553021, 0.06769156, 0.09472745, -0.06538092, -0.09599595, -0.06696234, 0.00442643, -0.046553172, 0.09032953, 0.027062777, 0.08560602, 0.046655115, 0.00087812886, 0.029686822, 0.022997336, 0.076214455, -0.04798845, -0.03921849, -0.0015990272, -0.09317927, 0.0015370253, 0.047693193, 0.036877546, -0.07760882, 0.025833016, -0.07202889, -0.026817556, -0.03921712, 0.052676268, 0.07564494, 0.09183742, 0.09917247, 0.093754545, -0.07906398, 0.010188739, 0.09504069, 0.09275482, 0.049882572, 0.03971412, 0.08241655, 0.00455923, -0.06079341, 0.036471162, 0.020532468, 0.055636097, -0.02084809, -0.0983066, -0.0104640685, -0.0032745039, 0.10703631, 0.016737787, -0.051329248, 0.063674524, 0.08498578, -0.10081337, -0.07700719, 0.059405725, -0.111195296, 0.011527483, -0.042868685, 0.09649589, -0.063091785, -0.023673814, 0.07558919, 0.10268538, 0.024053728, 0.04993972, 0.066996984, 0.091035046, -0.036159087, -0.035810348, 0.054617412, 0.063694075, 0.049765445, -0.08088353, -0.08612657, 0.026328538, 0.0669364, 0.047869284, -0.047594566, 0.06772878, -0.08224495, -0.087015934, -0.057681162, -0.05131629, 0.06622977, -0.065176986, -0.033578694, 0.10933368, 0.058719106, 0.10848607, 0.008633801, 0.06148424, -0.04513419, -0.028964898, -0.10827469, 0.063068315, 0.11117528, -0.06543061, -0.06618977, -0.05648052, 0.07648877, -0.0886566, -0.09739759, -0.08161283, -0.08193476, 0.08520086, -0.04569658, -0.08509347, 0.09257855, 0.08679072, 0.061979387, 0.058987625, 0.0069271233, 0.050306723, -0.07274407, -0.0065071713, 0.013803134, -0.047225248, -0.1038447, -0.044631165, -0.010645903, 0.09476225, -0.026662152, 0.07337407, -0.09707178, 0.052815866, 0.07675031, -0.07883485, -0.054122664, 0.015072626, 0.025249517, 0.09290972, -0.057953063, -0.09805879, -0.09069284, 0.0134525, -0.038657967, -0.0570299, 0.106147274, 0.074868806, -0.07273754, -0.10431335, 0.107481, -0.06389239, -0.059584785, -0.054200914, 0.010475891, 0.059434325, -0.028987955, -0.084105246, 0.004798135, -0.109285325, 0.029759472, -0.045322143, 0.03226435, -0.07647292, -0.06574514, 0.04216887, 0.09572128, -0.064404726, -0.0012423565, 0.07166312, 0.09587385, 0.10130072, -0.00016983875, -0.0328949, 0.0053749704, -0.048245586, -0.09089548, -0.005648648, 0.10697694, -0.034873974, 0.07778753, 0.015197443, 0.107565105, 0.012071133, 0.02199739, 0.06013162, -0.08704018, -0.007626537, -0.097796015, 0.027194273, 0.04433203, -0.011125724, 0.09805438, -0.043638255, -0.06403334, -0.02539202, 0.09619062, 0.061699286, 0.07566897, -0.064774975, -0.05369678, -0.04930843, -0.014857512, 0.10814357, 0.004665654, 0.092104025, 0.069477454, -0.042571068, -0.10402248, 0.067209855, -0.03589851, 0.07679641, -0.015407252, -0.044364057, 0.09159872, -0.013984288, 0.0082143685, 0.014259364, -0.014606199, -0.10995408, -0.03961629, 0.108980715, -0.03579386, -0.019159071, -0.09159492, 0.0826755, 0.09989836, 0.098775156, 0.09851903, -0.09711362, -0.08044974, 0.026894726, -0.044303324, -0.074172236, -0.09032456, -0.06899708, 0.05163198, -0.10988022, -0.09065731, 0.035311893, 0.06312375, -0.09921317, 0.07113022, 0.06617447, -0.086392455, 0.060027156, -0.084805325, 0.06240846, -0.029146625, 0.02263419, 0.058894727, 0.08403858, -0.022084475, 0.06260975, 0.08352904, 0.017145904, -0.03922586, 0.09052957, -0.10144842, 0.06531296, 0.05522597, 0.010555406, 0.018334707, -0.06883554, 0.046451785, -0.05016818, 0.06771512, -0.046485636, 0.05354268, -0.11077805, -0.027634123, 0.003926643, -0.016216248, -0.018365683, 0.0807401, -0.029258886, 0.02641829, 0.074988, 0.010013675, 0.019384902, 0.08057598, 0.03191173, 0.021183835, -0.061290972, 0.013284568, -0.09027313, -0.031214584, 0.03795064, 0.09316802, 0.090119004, 0.10321067, -0.007517007, -0.0030453021, -0.023936402, -0.07402609, 0.0071016266, 0.10395044, 0.01715434, -0.03515741, 0.05653972, -0.052483145, -0.02773539, 0.055482186, -0.022256993, -0.0042643747, 0.04322975, 0.094262734, 0.091381416, 0.109410875, -0.047029033, 0.04574168, -0.09841639, 0.09285196, 0.06619081, -0.03600996, -0.02568257, -0.0013133815, 0.053576108, 0.010134054, 0.030245839, -0.10043876, -0.09092639, 0.08759399, 0.034387954, -0.03790476, -0.047888875, -0.09434002, 0.10442559, -0.072569914, 0.11171182, 0.082302846, 0.0059331474, 0.029097285, -0.023464017, 0.07484434, -0.009797961, 0.079182684, -0.012328804, 0.04823278, -0.07258541, -0.056311853, -0.06321745, 0.107729, -0.06361596, -0.04439309, 0.061346054, -0.0076021864, -0.067135274, -0.041443642, -0.040864486, 0.07413454, 0.057340216, -0.08393041, 0.051506802, 0.0274935, 0.03514381, -0.029104268, -0.060296234, 0.028220288, 0.07926197, -0.008741051, -0.07050376, -0.09603741, 0.08793758, -0.033846304, 0.0645005, -0.058142908, -0.10069027, 0.08475509, 0.06588776, 0.024487315, -0.054391198, -0.048448052, 0.111187175, 0.08912072, -0.013416195, -0.0898288, -0.038461447, -0.093093775, 0.0075019733, 0.004321605, 0.089203075, 0.03782923, 0.014590966, -0.035918385, -0.008407758, 0.073192626, -0.08743757, 0.0068447697, 0.02417424, -0.077454425, -0.022746917, 0.02288189, -0.11130505, -0.057177294, -0.033049412, 0.06908207, 0.014663443, -0.008143757, 0.02206519, -0.10424389, -0.0443188, 0.015627565, 0.046942562, -0.041906044, -0.096799344, -0.06779168, -0.060762703, 0.092655145, -0.045993887, 0.104609884, 0.10268507, 0.03928333, -0.07222445, 0.078612335, 0.07986016, -0.08477785, 0.09443608, 0.061832488, -0.08256709, 0.044352196, 0.09916059, -0.007298015, 0.0070275497, -0.05352842, -0.10914104, 0.00046999872, -0.086210735, -0.023603214, -0.09434066, -0.07282181, -0.110316515, -0.078266025, -0.029454889, -0.034359846, 0.091361396, -0.0039257635, -0.097172596, -0.01716323, 0.0039461018, -0.08335507, -0.056232832, 0.06940872, 0.064141974, -0.0672045, 0.008999708, -0.11057495, 0.10764266, 0.041910972, 0.093281046, -0.09983965, 0.08292704, 0.098292574, -0.07422911, 0.024858939, 0.049498178, 0.0282778, -0.08709536, 0.0034844733, 0.034866925, 0.04753772, -0.07013302, -0.06407361, -0.04126887, -0.023385169, 0.08953794, -0.068348825, 0.06231384, 0.08395528, -0.04265605, 0.0064341603, 0.05133522, 0.10347442, 0.06367442, 0.074313186, 0.011481542, -0.091418415, -0.01379419, 0.07885801, -0.011723818, 0.016812837, 0.1000618, -0.016935095, 0.10110998, 0.09355087, -0.047308203, -0.0048334403, -0.06018528, -0.039764352, 0.037279118, -0.07114067, -0.038354877, 0.09159538, -0.02139795, 0.10640621, -0.04846603, -0.03325394, 0.10865947, -0.013532069, -0.10201683, -0.067752376, -0.068192475, 0.012873505, -0.043181717, -0.055196527, 0.03517288, -0.06654674, 0.0027922168, -0.061262634, -0.04112886, -0.0658428, 0.014397683, 0.047465138, -0.09388712, 0.051278003, -0.028845891, 0.10873417, 0.085350245, -0.08262396, 0.018269854, 0.018825699, 0.07300205, -0.03817539, -0.07984794, 0.052972883, 0.048400246, -0.085002445, -0.0918643, 0.070477605, -0.111052096, -0.007982475, 0.06867471, -0.06640825, -0.022191819, -0.10201078, -0.0942938, 0.054268166, -0.09423853, -0.11056079, -0.018821914, -0.044178933, 0.08893722, 0.06041568, -0.10937089, -0.083629414, 0.011325431, -0.0962506, 0.07724374, -0.0764553, -0.006327243, 0.059463847, -0.006174171, -0.098857, 0.07807136, 0.10058584, -0.03602798, 0.040628858, -0.058760997, 0.0053488878, 0.030801803, -0.0326513, 0.090452, -0.08436548, -0.04350287, -0.08954139, 0.003823511, -0.06384948, 0.008658377, -0.010763615, -0.10348593, 0.089028075, -0.013253953, -0.111053646, -0.013991832, 0.058507096, -0.009573745, 0.103850655, 0.00086652016, 0.086382814, 0.042570964, -0.014053487, -0.012045823, 0.033577014, -0.0914628, -0.091693975, -0.018869681, -0.07634524, 0.02992013, 0.03545694, 0.03608044, -0.092033, 0.0396201, 0.024426525, 0.0737618, 0.008638878, -0.05752281, -0.014539119, 0.09740116, -0.021250116, -0.023275612, -0.09717809, 0.07322044, -0.00012529656, -0.0039487276, 0.00978622, 0.011726857, -0.11007456, 0.07381965, -0.04718689, -0.06620578, 0.10380101, -0.10978379, 0.006437106, -0.09176109, 0.077909976, -0.07743094, 0.08378472, 0.008519553, -0.021009052, 0.045883667, -0.046399526, -0.022101281, 0.02436435, -0.071080044, 0.011968161, -0.065568805, -0.09212696, -0.09811585, 0.009755312, 0.055181734, 0.055192888, 0.065807074, -0.07401993, 0.090186626, 0.050538883, 0.070403084, 0.111414045, 0.0068177003, -0.08737058, 0.014873372, 0.01897276, 0.007886686, 0.065795355, 0.010617968, 0.024435615, 0.06968727, -0.096198276, -0.10886088, -0.10698213, -0.012157898, 0.051592022, -0.06794923, 0.10636357, 0.05834856, 0.09718772, 0.043475922, 0.10112131, 0.032106508, 0.026022434, -0.070641965, 0.10369153, -0.031782743, 0.030691553, 0.024757406, 0.044999857, 0.03400664, 0.009010304, 0.05125553, 0.09295099, -0.034080464, 0.09199332, -0.0802127, 0.06274911, -0.09726714, -0.028232682, 0.071240336, 0.03204728, 0.039452903, -0.023045784, -0.04001857, -0.011146956, -0.027578104, -0.0029727179, 0.03586903, -0.0755739, 0.07985736, -0.076700024, -0.020867055, 0.068987094, -0.085996434, 0.025089167, 0.06657602, -0.07913466, -0.021398762, -0.049615454, -0.06946954, 0.07435263, 0.09568533, 0.088941075, 0.07882629, -0.06002045, -0.027450236, 0.07861586, 0.0057873526, 0.06031604, -0.072519906, 0.04163899, -0.008446063, -0.08793719, 0.047886077, 0.0022908172, -0.080056384, 0.06929501, 0.086097956, 0.08887797, -0.09460781, 0.09210587, 0.047289543, -0.047143616, -0.015828578, -0.0386615, 0.051801592, 0.0817862, 0.100104086, 0.004603972, -0.081875004, -0.029912358, -0.10420333, -0.00230925, -0.046522956, 0.11026644, -0.06817362, 0.09420264, -0.096218176, -0.05486575, -0.091031596, 0.013258631, -0.06686027, 0.042420678, -0.07215777, -0.10591005, -0.01203664, -0.065413535, -0.03441544, 0.08891019, -0.04930895, -0.10016379, -0.097735904, -0.044531632, -0.076762795, -0.0015683062, -0.007466081, 0.10912912, -0.0035480477, -0.031483475, -0.05428645, 0.060592595, -0.00093118765, 0.054747295, -0.105969794, 0.079875685, -0.042797327, -0.10004855, -0.0830162, -0.08414158, 0.08487422, -0.0065203393, -0.007821192, -0.028859327, 0.07015153, -0.099689625, 0.0024551381, -0.10886605, 0.088150136, -0.111628644, 0.054753996, -0.090714045, 0.04619638, 0.015333761, -0.080899864, 0.04549934, 0.025481584, -0.083471686, 0.06942397, 0.076134205, 0.04184019, 0.058080666, 0.023361858, 0.110952124, -0.019852474, -0.0729824, -0.06590962, 0.017243039, -0.02343868, -0.052928567, -0.06361973, 0.07698284, 0.019423686, 0.06665676, 0.05438757, -0.028940747, 0.0013545917, -0.013194004, -0.07141315, -0.040687237, -0.019384542, -0.0945663, -0.007045036, -0.03482675, -0.018333321, 0.04117948, -0.049901403, 0.014912716, -0.03384409, -0.06619237, -0.089488894, -0.1095157, 0.10923212, 0.035625726, -0.09300385, 0.05146562, 0.032995004, 0.09532343, -0.10114901, 0.11091926, -0.09722693, -0.061557118, 0.08920694, -0.023130031, -0.015031469, 0.03873768, 0.025018742, 0.10024605, -0.04777118, 0.09928023, -0.034024622, 0.07478127, -0.07790227, -0.06929718, -0.06510178, -0.017148037, 0.0024599496, -0.015377237, 0.014454447, -0.013661457, -0.06536016, -0.06344727, 0.026411759, 0.05372917, -0.011066908, 0.02342751, 0.0022456488, -0.048341535, -0.058750533, -0.026646264, -0.084083706, -0.10017317, 0.064036876, -0.10648954, 0.06836998, -0.003729442, 0.03833587, -0.08276091, 0.030858953, 0.08691167, 0.105443954, -0.052542947, -0.09163293, 0.056197662, 0.023171734, 0.015310357, -0.026598683, 0.028064111, -0.061956916, 0.017153181, 0.091788776, 0.055476457, 0.063613884, 0.093611136, -0.042334456, 0.0460627, 0.07312371, 0.099525854, 0.06325012, 0.019642932, 0.106624015, 0.10481276, -0.098237306, -0.07407634, 0.04181268, 0.014332788, -0.0069472617, -0.10394566, -0.058588505, 0.110824734, 0.06260527, 0.09014964, 0.10470526, 0.03129149, 0.08269416, -0.052326303, 0.023309719, 0.042059995, 0.10383734, -0.006485953, -0.080756, 0.09246834, 0.06971335, 0.044728193, 0.0685419, -0.06960831, -0.07428857, -0.073165104, 0.06496949, -0.093928546, 0.10959314, 0.009756552, -0.10852199, 0.022801481, 0.071587056, -0.023927059, 0.10076921, 0.046145946, -0.10160677, -0.06527643, 0.06297506, -0.067692265, -0.011433708, 0.053255998, 0.06418992, 0.09855808, 0.09886552, -0.046640843, -0.06649923, 0.08527861, -0.031524673, -0.106084354, 0.012581076, 0.02837416, -0.05709858, -0.09224813, 0.044744853, 0.08864414, 0.010762069, -0.02891645, 0.020825658, 0.052519344, 0.005049927, -0.092915885, -0.04059209, 0.089475356, 0.0659318, 0.03724588, 0.018183475, -0.042445652, 0.0439969, -0.06355102, 0.05778552, -0.03564456, -0.035883985, -0.042172123, -0.069731474, -0.04303899, -0.08047169, 0.06997618, -0.012538826, -0.05177951, -0.08714153, -0.025410704, -0.09257082, -0.017078757, -0.036805134, -0.08555604, -0.062454037, 0.09254608, 0.09146749, 0.07545469, 0.05774828, 0.08690722, -0.03540595, 0.09506341, -0.062844284, -0.029858619, 0.0142873395, 0.025402162, -0.018199202, 0.10099295, 0.0062330943, -0.024720581, 0.021721408, 0.0047637885, -0.105134785, -0.099208646, 0.0118839415, -0.030682556, 0.10289209, -0.005294816, -0.101460464, -0.050036564, 0.02019186, -0.06362276, -0.02034084, -0.10060658, -0.106172316, -0.094688505, 0.058804937, 0.058043055, -0.063420095, 0.06998739, -0.10416553, 0.040282637, 0.10219957, 0.03798938, 0.05547438, -0.048968963, -0.017491672, -0.09791346, -0.014897736, -0.09057226, -0.05198348, 0.08124318, -0.08949802, -0.039771084, -0.05319907, -0.02193728, 0.038494993, -0.02742754, -0.069389135, 0.08716745, -0.06087038, -0.061671913, -0.0912298, 0.09316979, -0.085164115, 0.04321592, -0.046307042, 0.012176824, 0.088389985, -0.07154886, -0.078292795, 0.03389061, 0.049542587, 0.0110431705, -0.053476322, 0.07404644, 0.09729355, -0.079300985, 0.06644143, -0.05649497, -0.06375837, -0.0066781295, 0.015252301, -0.100329705, -0.051526874, 0.05683583, -0.04049441, -0.07054002, -0.0068421704, 0.031376146, 0.07900462, 0.07443804, -0.012141945, 0.047121756, 0.002843143, 0.024802042, -0.10226872, 0.042382624, -0.07025684, -0.09436793, 0.030785676, -0.089568906, 0.07095982, 0.00091187534, -0.045503166, -0.023734601, -0.07239637, 0.07519649, 0.0987859, -0.10316128, -0.023697177, 0.06861247, -0.10021474, 0.1085447, 0.04670134, -0.07284572, 0.10019863, 0.09806281, 0.04657159, -0.07478004, 0.01084537, -0.06971888, 0.048411466, 0.03335225, -0.050922383, -0.09889968, 0.04241769, -0.053258702, 0.051257715, 0.10523216, 0.040578492, 0.08800985, -0.08853137, 0.02143251, 0.023599416, -0.09463555, 0.032424115, 0.053015612, 0.014872239, 0.08957947, -0.031294204, -0.032159634, -0.111380555, -0.0068906313, 0.01234665, -0.0029001336, 0.0045148213, 0.026365524, 0.033360764, 0.09756305, -0.033617835, -0.022225473, -0.034789328, 0.095074885, -0.026170041, 0.018075906, -0.034044266, 0.030772215, 0.06394279, -0.06309317, 0.08401847, 0.019164763, -0.10527477, -0.024159633, 0.029471895, 0.08801591, 0.101586215, -0.090188295, 0.024923394, 0.06427963, -0.07673194, 0.02267368, 0.03154521, -0.05037867, -0.031362258, 0.006928869, -0.075014174, -0.097945236, -0.10971364, 0.08636306, -0.10902179, 0.081076555, -0.06357518, 0.029630179, 0.06361215, 0.015191605, 0.06341592, -0.020376839, -0.062775895, -0.008561537, -0.017187113, 0.0154376, -0.03736575, -0.07589669, -0.074584305, 0.013828137, -0.03155846, 0.1075055, 0.09863116, -0.037938137, 0.034641452, -0.0682085, -0.015716009, 0.042664032, -0.04629134, 0.105504796, 0.09827203, -0.060545616, 0.06521007, -0.039925687, -0.041103855, -0.10468765, -0.02558377, 0.032998525, -0.0509035, -0.08848111, -0.010868267, -0.07263261, 0.0920709, 0.05353523, 0.033445757, 0.07532685, -0.068446375, -0.097716935, 0.0538987, 0.043537922, -0.10285094, 0.068517536, 0.065192066, -0.10805711, -0.0699984, -0.109197214, -0.017682489, -0.049159847, 0.102451056, 0.005496029, 0.06633856, 0.055660207, -0.07520406, -0.006323578, 0.033405866, -0.06864708, 0.08427724, 0.053867407, -0.007629589, -0.08410661, -0.09890713, -0.07898648, 0.10411324, -0.01712683, -0.08893643, 0.0054994407, -0.0397563, -0.10344199, 0.06857664, 0.062352974, 0.102509156, 0.03367708, 0.036864884, -0.07655564, 0.06805856, 0.07114354, 0.07772561, 0.07075877, 0.019766683, -0.050653264, 0.031221822, -0.016061084, 0.052707564, 0.10109299, -0.018167323, 0.0731359, 0.040177546, 0.06389906, 0.08710834, -0.0045577507, -0.10406901, 0.055379283, -0.06325224, 0.05567034, -0.0697743, -0.10191103, -0.053826954, -0.09066206, -0.08549657, -0.06189081, 0.016274173, 0.022203095, -0.08063642, -0.06840714, 0.026025578, -0.025226273, 0.021000016, -0.082103685, -0.058370817, -0.071927264, -0.10165575, -0.04019166, 0.027137082, -0.006333241, 0.04570768, 0.089753285, -0.013276424, -0.04274813, -0.06347403, -0.071460396, -0.02681068, 0.108894736, -0.08345565, -0.06132088, -0.076957196, 0.08582921, 0.048591994, -0.040964432, -0.111797415, -0.09460133, 0.023005027, -0.0056303884, -0.04745401, -0.010287033, 0.08156778, 0.059785534, -0.10723805, -0.09510053, 0.09472461, -0.014278997, -0.0031952555, -0.0044772094, 0.049692955, -0.028877, 0.04830951, 0.04864532, -0.05924567, 0.10127745, -0.01573059, 0.03491785, -0.029818395, 0.090052925, -0.038017984, 0.036368217, 0.068978645, -0.03722714, 0.053122185, 0.03574685, 0.07049045, -0.022886194, 0.10492871, -0.0050204857, -0.060921267, 0.05322649, -0.0026442092, 0.052714467, -0.007325537, -0.095436126, 0.10655627, -0.10411892, 0.054457195, 0.06382276, -0.09794914, 0.0931658, -0.10336412, 0.023101749, -0.02518561, 0.06992222, 0.05632589, -0.041394327, -0.03361869, 0.00085237913, 0.027632816, 0.00063345337, -0.06639676, -0.065432474, -0.05537527, -0.08328766, 0.0073398515, -0.08287879, -0.08754935, 0.038202856, 0.022092152, 0.012612436, 0.021016076, -0.09751216, 0.06557563, 0.0967087, 0.10084342, -0.08212348, 0.08656798, 0.049711775, -0.045507707, 0.04496979, 0.03819678, -0.04658276, 0.06861499, -0.051906325, -0.043512307, -0.019702561, 0.032728273, 0.041071787, 0.004210543, -0.04076634, -0.10258385, 0.104788244, -0.049504522, 0.07822242, -0.059056, 0.0065712654, 0.08105396, -0.08083891, 0.08934775, -0.08249893, -0.07867772, -0.09982857, 0.034311987, 0.0183034, -0.017393097, -0.022050261, -0.015401561, -0.08287018, 0.042372122, -0.09296992, -0.061485827, -0.06807283, 0.10919352, -0.074840896, 0.0020390647, -0.078798436, -0.045501564, -0.008934507, -0.088672996, -0.022951249, 0.042714518, 0.10688145, 0.0013752767, 0.09787894, 0.039039414, 0.0554438, -0.027607946, 0.09320662, -0.043444894, -0.0013756366, 0.08454216, -0.043364484, 0.055500578, -0.07864384, 0.03025946, -0.108216204, -0.0055978815, -0.09986653, -0.08751286, -0.08773225, -0.008630549, 0.01093848, -0.08250542, 0.09761404, 0.022634588, 0.09591323, -0.013698469, 0.08993324, 0.052171256, 0.08480994, -0.09194628, -0.088730134, 0.07825383, 0.07028118, 0.007196922, 0.060431395, -0.110081725, -0.07097535, -0.038430233, 0.036286715, -0.03337928, -0.04900951, 0.09001748, 0.08637301, 0.027532777, -0.034255102, -0.029503776, -0.11131632, -0.006022978, 0.10776748, -0.06256642, -0.058291916, 0.033491235, 0.049913652, -0.07417956, -0.08536032, 0.103890255, 0.0291712, 0.096827134, -0.06854776, 0.094430305, 0.026208626, 0.06864432, -0.051421024, 0.10353322, -0.059934378, 0.10107553, 0.05482253, -0.021228911, 0.012972945, -0.04032934, 0.0049700257, 0.037147745, -0.026083304, -0.013661097, -0.10070679, 0.024961365, 0.064287744, -0.0039129285, 0.01095418, 0.100470915, -0.016131643, 0.09741347, 0.08632704, 0.072526574, -0.068937324, 0.10546336, 0.03307564, -0.012580009, -0.05181588, 0.05698749, 0.10597611, 0.002669106, -0.020039253, -0.07192814, -0.083377086, 0.09515674, 0.10707426, -0.043705404, 0.044162888, -0.09374494, 0.043804057, 0.09463775, 0.086004704, -0.06373638, 0.016022805, 0.0715423, -0.10791533, -0.08214627, -0.0025270695, -0.110842206, -0.0089650415, 0.07438936, 0.039506227, -0.075087614, 0.06580554, -0.041229885, 0.043928325, -0.08915016, -0.040800083, -0.09630252, -0.04269827, -0.06953625, -0.10071891, -0.106727466, -0.10371287, -0.057427917, -0.10375363, 0.004936346, -0.044798926, -0.1075785, -0.010715275, 0.090638034, 0.054823756, -0.050259743, -0.086147845, 0.041329246, -0.01966275, -0.05703322, 0.008867987, -0.053426675, 0.09944819, 0.024825485, 0.0348762, 0.09292477, -0.03197829, -0.071502805, 0.05253422, 0.09481689, 0.022515396, -0.030636549, 0.08517282, 0.0044099833, 0.039078694, -0.0851574, -0.07049341, -0.022980863, 0.07420678, -0.04364732, 0.053988438, -0.002147248, -0.077156655, 0.04605621, 0.08339366, 0.05123687, -0.08428888, -0.0021301615, 0.05667315, -0.08358051, 0.030217502, 0.08810217, -0.046061315, -0.025441745, 0.052032232, 0.010241758, 0.066671416, 0.071353905, -0.098586366, 0.0061830343, -0.054411616, -0.061779495, 0.07580667, -0.08579308, -0.01843852, -0.10398691, -0.035869017, 0.07483698, 0.06470283, -0.08390529, 0.10473626, 0.102341205, -0.07679334, -0.10268497, 0.052718118, 0.095948376, 0.0930117, -0.049974628, -0.09253096, 0.08363569, -0.053895116, -0.09561423, -0.04500223, 0.10294805, -0.054742787, 0.089178875, 0.07047058, 0.09711503, 0.04071265, 0.011049221, -0.09703142, 0.069438234, 0.055360727, -0.11013278, 0.078345366, 0.02113636, -0.051272776, 0.107648194, 0.0039220983, 0.08288388, -0.07583897, 0.00554285, 0.018425446, 0.040091887, 0.07045894, -0.033865377, 0.015816342, 0.024391713, 0.020247316, -0.095446914, -0.09730438, 0.08816668, 0.09378963, 0.061374925, 0.02047216, 0.033630192, 0.045290623, -0.09866133, -0.07354431, 0.03651824, -0.034953624, -0.089183226, -0.10004907, 0.060935725, -0.03534837, 0.10293044, 0.077438034, 0.0277575, 0.050919756, 0.09488047, -0.02143115, -0.02934096, 0.108405344, 0.009666774, -0.10616184, 0.02405418, -0.08710021, 0.08390634, -0.051953465, 0.027562218, 0.09401672, -0.09009728, 0.07847516, 0.0817383, -0.060886107, 0.06909081, -0.01740228, -0.10864744, -0.028679557, 0.05465965, 0.0154215135, 0.09276184, -0.06158083, -0.032095645, -0.05830327, -0.047693636, -0.069518134, -0.032078024, 0.08619461, -0.050272845, 0.017510064, -0.10829625, -0.019024085, 0.06082706, -0.007001627, 0.012545969, 0.026108254, -0.012242397, -0.11142607, 0.018086968, -0.023030883, 0.012243384, 0.09938797, 0.06403594, -0.08216121, 0.024526753, -0.029443933, 0.052692063, -0.046940375, -0.097736366, -0.0024985075, -0.08698736, 0.034524154, -0.09085267, -0.07783883, 0.10355772, 0.036216397, -0.09687258, -0.06907752, -0.025939107, 0.058168393, 0.04116438, -0.04997711, -0.07629429, -0.03891285, 0.033960912, 0.042572536, -0.026577385, -0.10546604, -0.04814912, -0.075670324, -0.049797848, 0.066612124, -0.08365929, -0.019913184, -0.049562395, 0.0098966425, 0.024799842, 0.014265548, -0.047232885, -0.09781483, -0.030172734, 0.10713893, -0.068653, -0.10444655, -0.080055095, -0.0063967085, 0.039109934, -0.08740025, -0.028882356, -0.03154036, 0.03330304, -0.067457356, -0.068820134, 0.06623129, -0.04737564, -0.02815946, 0.08027225, -0.055884838, -0.036427725, -0.106644884, -0.106215656, -0.05304511, 0.03171201, 0.062765874, -0.01959587, 0.062453184, 0.05247431, -0.009249262, -0.08702926, 0.03504733, 0.077979416, 0.0044229515, -0.09833628, -0.091650724, -0.08076543, 0.06835034, 0.03388942, -0.045810893, -0.07198163, -0.057821903, -0.109821044, 0.0026182462, 0.04137303, -0.060773496, 0.03169427, 0.010647049, 0.10244827, 0.004767627, -0.003185606, -0.07263033, 0.052232247, 0.060276844, -0.08925812, -0.022394897, 0.10028716, 0.10649183, 0.079837464, 0.04034661, -0.077369355, -0.050281145, -0.0155433845, -0.09387979, 0.06096566, -0.07042826, 0.0749523, -0.038859595, 0.02799074, -0.09325295, -0.008598268, -0.038913373, -0.08683052, 0.08029825, -0.017686553, -0.082917124, 0.020585569, -0.043731645, 0.06773766, -0.042856317, -0.05031152, -0.052947175, 0.042990383, -0.01684024, -0.047043666, -0.020228976, -0.08109052, -0.108771436, -0.084726386, 0.052885413, 0.012016182, 0.029829085, -0.052473575, 0.05717763, 0.09015816, 0.038582984, 0.06993983, -0.010173332, 0.082330436, 0.015804933, -0.029506175, 0.051105097, -0.054543708, 0.0026073575, -0.039460447, 0.089475885, -0.055191223, -0.009708318, 0.10819079, 0.0751663, 0.050517026, -0.06675832, 0.08563253, 0.08685716, -0.0370629, -0.11149152, 0.03882349, -0.018931616, 0.100066036, 0.03218334, 0.029637787, 0.07766849, -0.025533082, -0.022125551, 0.03403996, 0.04315817, -0.070385136, -0.103142515, -0.08075543, -0.033284623, -0.09694084, 0.039255876, 0.0590812, -0.090823784, 0.03870203, 0.053066634, 0.012866162, 0.00972787, -0.09857802, -0.07177884, -0.045957077, 0.10079864, -0.1078724, 0.091277555, -0.0072352667, -0.047712147, -0.04026787, 0.058586504, 0.10796372, 0.05552918, 0.007539065, -0.06510354, 0.085557796, 0.08950969, 0.04132962, -0.059322357, -0.03191296, 0.10115621, 0.08815617, -0.09765764, 0.07943418, 0.05780791, 0.031964537, 0.04771757, 0.0459728, -0.11027225, 0.04097799, 0.07981672, -0.050884172, 0.08164977, -0.100790456, -0.07729307, 0.059041698, -0.10944065, 0.00959495, -0.06443926, 0.006439385, 0.0131003745, -0.032667495, 0.03151397, -0.057385825, 0.015815223, 0.0467617, 0.0052261236, -0.0785892, -0.109482676, -0.014780836, -0.0403919, -0.046476014, -0.007071119, 0.091742285, -0.08690635, -0.08004278, 0.08866328, -0.009362442, 0.045743346, -0.0007514462, 0.033557195, 0.07816597, 0.043601416, 0.009246996, 0.051240616, -0.08077407, -0.09505812, -0.042264793, 0.07488279, -0.06912957, 0.06317748, -0.10473877, 0.013939292, 0.09566805, 0.02926431, -0.06031203, -0.07002905, 0.08784663, 0.05246574, 0.06531668, -0.008174731, 0.041922223, -0.008321086, 0.10242911, 0.057347346, 0.067264475, -0.07679197, 0.035766058, -0.101086736, -0.08126297, 0.074086815, 0.10085871, -0.039400257, -0.009154046, -0.099579476, 0.045760553, -0.0074250842, -0.10734218, -0.097102664, 0.10997409, 0.048221823, -0.048662912, 0.0095511405, 0.05001188, -0.0361645, 0.075085305, -0.0934294, 0.03347516, 0.08872553, -0.109758295, 0.04408648, -0.108163506, 0.081391945, -0.0007737439, 0.014406785, -0.086608954, 0.049380627, 0.08165469, 0.048558127, -0.07375702, 0.05777772, 0.03612538, -0.09052458, -0.02358257, -0.09942262, -0.10184679, 0.060531475, 0.016752047, -0.110688366, -0.0694894, 0.026888128, -0.05259919, -0.008524485, 0.037507627, 0.058251906, -0.10641069, 0.10409156, -0.006133814, 0.009089512, 0.0115244845, -0.07619237, -0.03831116, 0.10768034, -0.030009227, 0.10617454, 0.04305076, 0.02039058, -0.04435085, 0.0590418, -0.085760094, -0.082197025, 0.013279823, 0.08428683, 0.08764096, 0.06626895, 0.026574614, 0.060824424, -0.008119513, 0.041716624, -0.030929111, -0.04813971, 0.006848035, 0.05955989, 0.10866802, -0.041882865, -0.07808384, -0.08282577, -0.038109265, -0.026977519, -0.031184303, -0.054854225, 0.06492653, -0.10226444, -0.10730468, 0.07250819, -0.042635445, 0.025436616, -0.0770363, -0.04632561, 0.07465962, 0.11060705, -0.09736679, -0.03629959, 0.10442689, 0.06416811, 0.025299497, 0.060193196, -0.07116491, 0.019805066, 0.014098869, -0.008622525, 0.0599299, 0.068372674, -0.06409436, 0.08001009, -0.09188391, 0.059854917, -0.005180555, 0.018808626, -0.036384623, -0.07728991, 0.026545344, 0.06932477, 0.017199868, 0.055111255, 0.044069044, 0.089022145, -0.002232574, -0.05070211, -0.0873766, 0.0036238309, -0.020607665, 0.03807332, -0.07795007, 0.07837081, -0.08042256, 0.096386045, -0.039548717, -0.06276633, 0.07677099, 0.067200676, 0.031263527, -0.10296625, -0.008731935, -0.018111011, 0.0928568, -0.01626788, 0.0050551654, -0.041325074, -0.0033302417, 0.016084008, -0.09299033, 0.003868853, 0.08979291, -0.07107944, 0.089658946, -0.05600911, -0.03327143, 0.0003737572, -0.09318066, 0.049186666, -0.05332902, -0.07519625, -0.019392006, -0.025846465, -0.012907132, -0.06762808, 0.0007484607, 0.089233436, -0.05383486, -0.021280464, 0.071591705, 0.099919446, -0.046532657, -0.06935026, -0.10048585, -0.0019245903, 0.009129683, -0.08381177, -0.047634605, -0.03807032, -0.054513972, 0.09574129, -0.06645572, -0.09303334, 0.0870384, -0.044544972, -0.06565977, -0.069042176, -0.088758625, -0.035184305, 0.02356715, -0.048301645, -0.07239919, 0.062310256, -0.1086278, 0.026737908, -0.09981191, 0.029563684, -0.095111616, -0.02752202, 0.11152695, 0.10482675, -0.098488376, 0.039636537, 0.02628914, -0.0096637355, -0.04368741, 0.002807824, 0.0061785025, 0.032221474, -0.016438372, -0.08718767, 0.06587432, 0.056998607, -0.07458655, 0.022544092, -0.048985653, 0.0036331338, 0.07600436, 0.09167671, 0.10171602, 0.035347316, 0.09575143, 0.01759819, -0.029022701, 0.009164508, 0.023492286, 0.101413235, 0.0088835545, -0.08204534, -0.10275262, -0.0676394, -0.04896659, -0.0038174735, -0.08225612, 0.017998442, -0.02684549, 0.031818755, -0.05351372, -0.0889798, 0.097025454, 0.100787096, -0.019932482, 0.035278894, 0.0025846332, 0.022455381, 0.037018918, -0.101234466, 0.073235594, -0.033496432, -0.10694629, 0.05150594, -0.10449564, -0.07494049, -0.050558556, 0.057395503, -0.06366611, -0.039508987, -0.012617008, -0.020254767, -0.057950307, -0.10323056, 0.055635687, 0.076388694, 0.05038092, 0.03417255, -0.06914728, 0.07178394, 0.056840617, 0.05333762, 0.027245544, 0.10750521, 0.036481064, -0.10402455, 0.08458318, -0.07262324, };

static float32_t tensor_W_irbias[80] = {0.0959691, 0.06945364, 0.08870608, 0.03686851, -0.054581627, -0.091492936, -0.044673562, -0.049248878, -0.010681502, 0.07343157, -0.08794678, -0.110999756, 0.026234323, 0.020399243, 0.08969213, 0.04146358, 0.009269999, 0.048933525, 0.07151752, -0.059732232, 0.018421793, 0.07336388, -0.11054538, 0.050856475, 0.08586568, -0.00491033, 0.021960313, -0.10552099, 0.075089134, 0.037496034, -0.025161711, 0.0662866, -0.09814464, 0.036118835, 0.08089103, 0.063168235, -0.09931221, 0.045740083, 0.10957995, -0.110712364, 0.039314665, -0.046001177, 0.03444965, -0.09710745, -0.04104492, -0.030012451, -0.030589154, 0.040597793, 0.07853759, -0.034166496, -0.036401205, 0.06995287, 0.07683293, 0.0035637082, -0.056634378, -0.078537874, 0.040579014, -0.017753353, 0.024664737, -0.060526263, -0.05916217, 0.08229862, -0.072107695, 0.023709413, -0.10887553, -0.007556725, -0.0502208, 0.030731644, 0.10839073, 0.094761185, -0.01309591, 0.05315705, -0.024809038, 0.05843594, -0.0903471, -0.06519185, -0.09394671, 0.07194928, -0.05976586, 0.031216504, };

static float32_t tensor_W_hrbias[80] = {0.052955784, 0.05689698, -0.0410277, -0.10612752, 0.021654781, 0.04490155, 0.031993847, 0.10560581, 0.020415023, -0.036710534, 0.016057486, 0.106522605, -0.05119866, -0.07481072, -0.005673558, -0.03234664, -0.10974213, 0.061976258, 0.07827883, -0.11011587, -0.09029671, -0.028257767, -0.070429206, 0.001621205, -0.062085144, 0.0045331474, 0.06587282, 0.03558377, -0.037254423, -0.027499296, 0.09116512, 0.06349754, -0.020583555, 0.036748946, 0.046156794, -0.07778476, -0.0956127, -0.059252866, 0.100132465, 0.06053826, 0.022563843, 0.020368202, 0.0012319207, -0.08701803, 0.013546903, -0.10256978, 0.0770135, -0.09560325, -0.082392454, -0.04799365, 0.07919357, 0.04770191, -0.097234294, 0.044735685, 0.09860073, -0.088013455, -0.031384263, -0.10149897, -0.037662886, 0.08754567, -0.09650793, -0.07403437, -0.039073348, -0.11177929, -0.018728977, -0.036242027, 0.027494019, 0.0075116493, -0.051161114, -0.09629068, 0.082663074, 0.04323795, 0.016361004, 0.046577826, -0.040233646, -0.013529363, -0.04714344, 0.094521746, 0.0370112, 0.10594266, };

