// *****************************************************************************
// 	THIS CODE WAS AUTOMATICALLY GENERATED ON 2024-02-06 21:39:06
// *****************************************************************************

#include "dummy.h"

static float32_t tensor_W_irweight[1600] = {0.011324548, -0.024507139, 0.13057064, -0.03489393, 0.102992155, -0.113218546, 0.035717163, 0.1292004, 9.93889e-05, 0.06891865, 0.14311208, -0.04122085, 0.0706371, 0.09979077, -0.14188015, 0.0015472663, -0.004262357, -0.06305448, 0.13837563, -0.0544218, -0.0040897033, 0.1204407, -0.12382102, -0.10690417, -0.07018441, 0.0076093106, -0.10490333, 0.0066930777, -0.08706183, -0.145123, 0.13703927, 0.12978075, -0.06808381, 0.04902962, 0.031611003, -0.12350641, -0.10195906, -0.027412111, -0.0009158556, 0.04769787, -0.12973987, -0.049882654, -0.14243415, -0.033312302, 0.09556505, 0.053067073, -0.10916307, 0.15280278, 0.13175856, 0.0988325, 0.014460548, 0.0918003, -0.06093955, -0.14840545, -0.024768418, -0.118045285, 0.08282005, -0.0027974404, 0.030090917, 0.07906167, -0.013399633, 0.04634953, 0.08357185, 0.13374034, 0.104248025, -0.13346896, 0.062128615, -0.047119178, 0.08363539, -0.07244276, -0.11322953, -0.055690825, -0.016847426, -0.13000596, -0.10498868, 0.025145976, -0.06990905, -0.070209935, 0.11489096, -0.13130088, 0.1527754, 0.11828739, -0.05109456, 0.10038776, 0.10714807, -0.06741306, 0.07521287, -0.10375963, 0.0063775517, 0.011677036, 0.09899626, -0.0422298, -0.007678975, 0.021374531, -0.00454831, 0.07302236, 0.09412786, 0.022681534, -0.15567854, 0.14973444, -0.11565611, -0.031057833, 0.1237461, -0.012655074, -0.12221711, -0.14099519, 0.15772596, -0.12364069, 0.14754868, 0.15013754, 0.14247426, -0.1445079, 0.14616576, 0.07393607, 0.07607092, -0.015036261, -0.016124826, -0.09830697, 0.12240843, 0.15129614, -0.045385912, -0.080263406, -0.12386141, 0.09228869, -0.098083004, 0.003930979, 0.04565102, -0.0514908, 0.08502174, -0.03749879, -0.059908096, 0.15636946, -0.13326038, -0.13383831, 0.14293735, 0.021161899, -0.08064345, 0.14528982, -0.047569, -0.068838716, 0.15533358, -0.06391247, -0.019634953, -0.082554586, 0.03021349, 0.092917725, 0.02729653, 0.07603903, 0.09650536, 0.046411827, -0.048207123, -0.031052386, 0.12150674, 0.030539798, 0.06649078, 0.15050182, 0.0052778274, -0.05593612, -0.12835, -0.09819836, -0.061117444, -0.062643185, -0.103461675, -0.10165186, -0.036030088, 0.1311197, -0.12727498, 0.043230966, -0.04868467, 0.11501495, 0.030748527, 0.041726902, -0.10167262, -0.11112953, 0.03495132, -0.090645015, -0.07187934, -0.0959327, -0.002546659, -0.039351575, -0.105506904, -0.008980663, -0.08487789, -0.13602982, 0.0019808982, -0.09600723, -0.04984409, -0.040650304, 0.05816908, 0.13215668, 0.067921974, 0.07402831, 0.14460768, 0.05158591, -0.11697274, -0.13951707, 0.061721183, 0.01850669, 0.06530883, 0.15002534, 0.07134355, 0.018885832, -0.11767715, -0.09489095, -0.039755803, -0.10515916, -0.019817369, 0.042503145, 0.14435905, 0.15450546, 0.11967156, 0.15732162, -0.10432029, -0.03013932, 0.08466896, -0.03385403, -0.024958394, -0.106224865, -0.09882002, 0.007411701, -0.009518885, 0.05345134, -0.06773328, -0.15016565, -0.0234718, -0.101093754, 0.030322472, -0.10557919, 0.010713832, -0.009532777, 0.13856818, -0.008257251, -0.0282593, -0.11501386, 0.13152048, 0.05797839, 0.14913535, 0.09773414, 0.023311814, -0.10781526, 0.03353281, 0.13430928, -0.086369686, 0.09956048, -0.010174818, 0.096314006, -0.07888883, -0.077688456, 0.075544216, -0.03847078, 0.057772677, 0.15307768, -0.13600565, -0.040136755, 0.0099231135, 0.034642976, 0.13256413, -0.075396195, -0.07290845, -0.08883266, 0.08447979, -0.15028016, 0.11006781, -0.14533561, -0.14660345, 0.11991641, -0.09604062, -0.09433028, -0.0067824395, -0.08999502, -0.13653032, -0.07635851, 0.021570388, -0.09378341, 0.039948646, 0.012830065, 0.14545573, 0.09894631, 0.069276854, 0.15571603, 0.14855622, 0.0041525257, 0.022837054, -0.04240743, 0.11531534, -0.052525796, -0.06361711, -0.022219328, -0.0137595665, -0.09078743, -0.10175697, 0.025457505, -0.07074529, 0.050577074, 0.06787783, -0.1287414, 0.046831585, 0.06435202, -0.078552365, 0.12009149, -0.0735455, 0.15498511, -0.094605185, 0.101722, 0.14868055, 0.057475038, -0.05227036, -0.09304414, 0.0054412074, -0.15629269, 0.021582885, 0.15127043, -0.08181425, 0.004115865, -0.09186746, -0.058454055, -0.09365301, 0.15496963, 0.09131069, -0.014041354, 0.10220364, 0.087195486, 0.008060075, 0.10380598, 0.034570806, -0.1353352, 0.09477876, -0.10952896, 0.0357198, 0.033756584, 0.017195411, 0.013102145, 0.066415966, 0.11800534, -0.14568855, -0.10639121, 0.12984508, 0.1036277, -0.13874109, -0.13846934, 0.055320974, 0.05541665, 0.071778685, -0.08039535, 0.08750334, -0.074784555, -0.06426803, -0.12564112, -0.13974236, 0.06670804, -0.04294396, -0.14862366, 0.045929264, 0.058136925, -0.015000957, 0.08461396, -0.025152232, 0.007046358, 0.106457025, -0.01578949, -0.089248985, -0.15172088, 0.14723639, -0.15154293, 0.019918926, -0.023667883, 0.02245716, -0.086192414, 0.11297477, -0.14731637, -0.008665381, 0.03590518, 0.010945181, -0.14523524, -0.055186547, -0.073748745, 0.04166536, 0.13832957, -0.01261813, -0.10553065, 0.027670901, 0.05091599, -0.12926956, 0.05766473, -0.028182266, 0.0323078, 0.0015843039, -0.07135469, 0.015711475, 0.06865954, 0.11957898, 0.07021877, -0.110828966, -0.0007068241, 0.012097135, 0.065878965, -0.03372537, 0.0012531143, 0.040693767, -0.06254059, 0.086215094, 0.010804664, -0.07474588, 0.018854978, -0.14156044, 0.09084688, -0.025860282, 0.15222791, 0.039512016, 0.13894746, 0.082150266, 0.13627464, 0.06320625, -0.08204439, -0.036982793, -0.14005578, 0.052037053, -0.106724486, 0.13487765, -0.103159286, 0.045184948, 0.024873104, 0.08306173, -0.042446487, 0.011342812, 0.15375933, -0.1050554, 0.10885501, -0.026352553, 0.008765806, -0.0060068555, 0.00086551084, -0.15211855, -0.07216942, 0.14408858, -0.13199206, 0.1112528, 0.073026635, -0.008144291, -0.10486726, 0.1268127, -0.07687868, 0.14205943, 0.022477385, -0.1119447, 0.044145484, 0.089877926, -0.072255425, 0.08536824, -0.093951195, -0.04151199, 0.061977506, 0.062809184, 0.13473594, 0.09501468, 0.14908962, 0.068639934, -0.033951968, 0.10381665, 0.023914631, 0.15669301, 0.100870624, 0.1400415, 0.06735267, 0.00783016, -0.026869062, 0.009144608, 0.061777502, -0.02519255, 0.14400317, -0.1161705, 0.004440137, -0.1534353, 0.15442246, 0.14283113, -0.038561817, 0.020682259, -0.00428228, 0.15096273, -0.1527373, 0.034683727, 0.081889324, 0.0071882885, 0.114231504, 0.07012485, -0.114240386, 0.15034144, -0.09254599, 0.15479133, -0.121307045, 0.103571184, 0.0037242847, 0.025363808, 0.0018698985, 0.075316615, -0.10646328, 0.026495915, -0.024614407, 0.117957674, -0.084241584, -0.07094096, -0.086485684, 0.087556966, -0.11740494, 0.10830655, -0.10918096, -0.14205547, 0.024385715, -0.0771871, 0.047601044, -0.029162414, 0.035127614, 0.15297328, 0.023869263, -0.06934329, -0.011816554, 0.07827378, -0.037992816, -0.0888388, -0.085832916, 0.07765068, 0.09252756, 0.05877467, -0.0326228, 0.15560965, 0.12212394, -0.1054661, -0.02430606, 0.1414031, -0.11717408, -0.08389631, -0.12541391, -0.114614174, -0.083814204, -0.1329558, -0.030585542, 0.030096967, 0.10832135, -0.14992969, -0.09404126, 0.11411416, -0.08323987, 0.063303776, 0.12199234, 0.08300379, 0.14238992, 0.14772353, -0.06540981, 0.04768298, 0.06684016, 0.074365065, 0.1280581, 0.12679656, -0.029436944, 0.07936941, 0.033818897, -0.031600296, -0.1577606, -0.15805824, -0.07147177, -0.015851295, 0.00016843148, -0.12505059, -0.15270504, 0.12225845, -0.019715192, -0.061148938, 0.014372958, -0.0052698357, 0.07517659, 0.11119989, 0.1297564, 0.0068516517, -0.08550947, -0.106728576, -0.0057237865, 0.048079234, -0.10687019, 0.022540621, 0.09464922, -0.016187139, -0.03335405, 0.11268835, -0.0790219, -0.12882568, 0.066830784, -0.020694586, -0.13070095, -0.065084666, 0.01634543, 0.1256831, -0.15005995, 0.08728377, 0.13068034, -0.007782077, -0.053072993, 0.059938554, -0.13352019, -0.047164224, -0.1262309, -0.064568706, -0.1559212, 0.05292537, -1.0102873e-05, -0.08374073, 0.10099993, -0.069673784, 0.15034398, 0.03073228, -0.1032933, 0.061994698, 0.13758707, 0.08605426, -0.10682931, 0.07947489, -0.086548425, -0.015669763, -0.10484198, -0.071764626, 0.03264161, 0.111148246, 0.079022676, 0.022285242, -0.10006982, 0.15442213, 0.0839751, -0.09310127, 0.06338167, 0.11908047, 0.05703526, 0.09003085, -0.05554535, -0.11444787, 0.113737315, 0.019502785, 0.05519793, 0.070742205, 0.041111775, -0.0874758, 0.10820217, -0.09039917, -0.05263293, 0.13748054, 0.10766815, 0.032557018, 0.033943713, 0.043462086, -0.08628138, 0.057552844, 0.05988932, 0.077330366, -0.14690807, 0.03946452, -0.048219543, -0.035838548, -0.06768391, 0.089190856, -0.035561077, -0.06890003, 0.011901637, -0.09214331, -0.0494562, 0.14157207, 0.11635051, -0.0002548902, -0.12637056, 0.14794111, 0.119105555, -0.06503076, -0.105994746, 0.043435607, -0.07425721, 0.102425374, -0.0060025766, -0.056141496, 0.008085672, 0.062071543, 0.08841763, -0.08135695, -0.013507748, 0.063031204, -0.15278153, -0.07826496, -0.13031177, 0.09078534, -0.052607298, 0.04783388, -0.09769527, -0.046949502, -0.10943494, 0.08579164, 0.052325193, -0.08427877, -0.10706823, -0.05314375, -0.04618082, 0.08905345, 0.10707722, 0.09877223, 0.11990634, 0.0017061792, -0.091277406, 0.059740927, -0.058866896, -0.038276825, 0.014676741, 0.0023633938, -0.067316346, -0.09932839, -0.1343414, 0.08594499, 0.107584774, 0.0005554507, 0.05359627, 0.028101876, -0.076980144, 0.101551875, 0.06372494, -0.088468805, -0.13718772, -0.10712008, -0.08298268, 0.106203325, 0.04366241, -0.15474004, -0.10185982, 0.14115281, 0.13165565, -0.119895205, -0.1484617, -0.011629764, -0.01669645, -0.06511564, -0.057955205, 0.0012497216, -0.06818648, 0.05049625, 0.06957751, 0.08610737, 0.07040172, -0.143075, 0.12164594, 0.029883826, 0.072842374, -0.15009353, -0.08093745, -0.09165643, -0.035150837, -0.047774527, 0.047485124, -0.07579767, -0.02197473, -0.094231345, 0.047067665, 0.029232739, -0.13356952, -0.11912508, -0.07446059, -0.01464157, -0.059009787, 0.048370764, -0.05248742, 0.00096838677, -0.12201281, -0.023451991, -0.05715331, -0.11309171, 0.087664686, 0.015220902, 0.15780774, 0.07377086, -0.014761485, -0.0784126, -0.0904855, -0.07317228, 0.11930882, -0.1103366, 0.095874414, 0.12012953, -0.055443868, 0.13040467, 0.11992389, -0.027418274, 0.13864775, 0.013316133, -0.15291269, -0.09574195, -0.003641803, 0.04957248, -0.122718506, 0.1266514, 0.016872061, -0.07546705, -0.1341493, 0.14326838, -0.024987835, 0.14440627, 0.020405881, 0.10083887, -0.02364225, -0.04890224, -0.017903741, -0.023076395, 0.023079354, 0.04443174, 0.06969452, -0.0043570525, -0.01580619, 0.1485455, 0.12545328, 0.08975654, -0.052091733, 0.024815144, -0.01587906, -0.025495278, 0.14794372, -0.049612947, 0.00061016827, 0.062211756, -0.107485145, -0.08038144, 0.017837677, 0.120871186, -0.14137474, 0.011567676, -0.13815948, 0.087446205, -0.060682908, 0.03476653, -0.0050181877, 0.14453943, -0.07298172, 0.0015046495, 0.059431355, 0.030015446, 0.09077416, 0.114674315, -0.035959687, -0.012253691, -0.1394927, 0.011397435, -0.037574716, -0.093652576, -0.018464414, 0.09755157, 0.058332387, -0.047077633, -0.007537516, 0.011749735, 0.11871912, 0.068577096, -0.15625313, 0.086809106, 0.07123914, 3.5510846e-05, 0.068868324, 0.13062868, -0.06735672, 0.06789657, -0.072069, 0.10073262, -0.09987864, 0.068159334, 0.03180126, -0.11275771, 0.12900941, -0.0025155023, -0.06280556, -0.032415748, -0.12045585, -0.05520408, -0.048913136, -0.033651426, -0.106869735, 0.0033335711, 0.10086817, 0.08037911, -0.019445881, 0.026168646, 0.13427487, -0.108438544, 0.011000238, 0.07540737, 0.046612713, -0.016492639, 0.10678228, 0.13391408, -0.035523698, 0.094375856, 0.14184594, 0.14023334, -0.05884243, 0.028004806, 0.03399845, -0.11473168, 0.04561894, 0.0927911, 0.1042579, 0.11534678, 0.035493616, 0.11935504, 0.10498221, 0.01898343, -0.067106865, 0.025500085, 0.016842112, -0.008984772, 0.004350983, 0.02871653, 0.043999463, -0.0911943, -0.036240175, 0.1345665, -0.013447263, -0.043204032, 0.11248897, -0.06687968, 0.020175606, -0.039283324, 0.121378325, -0.11824738, -0.084710196, -0.08665001, 0.13429415, -0.1387554, 0.09157911, -0.12606044, 0.0991243, -0.13142256, 0.055810872, -0.051143136, 0.15096225, -0.046540692, -0.15428902, -0.13248758, 0.12296597, 0.1017361, -0.01364376, -0.10448843, 0.05998494, -0.12766851, -0.14342408, 0.036702022, -0.06343036, -0.050824538, -0.06920376, 0.14020629, 0.12024204, 0.010637722, 0.15726347, -0.028565573, 0.12713048, -0.10939764, 0.15668654, 0.107965216, 0.029128468, 0.065889016, 0.07882493, 0.13966087, 0.08058272, -0.040393718, 0.14394669, 0.12973483, 0.1299652, 0.1203752, -0.08130087, 0.15685634, -0.031789143, -0.005825456, -0.1447544, 0.08753761, 0.07469571, -0.088199705, 0.0074190143, -0.039433323, 0.013234802, -0.11855603, 0.13328764, -0.060800333, 0.08883228, -0.14099963, 0.039394815, 0.026816305, 0.03756301, 0.08770281, -0.061837874, -0.06562947, -0.107487366, 0.15693788, 0.056278184, 0.13479504, -0.06013605, 0.10800759, 0.11224332, 0.1473377, -0.093265615, -0.026086919, 0.03375568, -0.1022321, 0.1038139, -0.02030146, 0.016350048, 0.1409777, 0.016225478, -0.06674024, 0.08129126, 0.12023599, -0.13855115, -0.077762134, -0.044780172, 0.099393986, 0.010588716, 0.06431762, -0.04391302, 0.01181367, -0.092356205, 0.09013638, 0.14392109, 0.10693146, -0.101830944, -0.105736665, 0.007479123, -0.020324567, 0.09398192, -0.08999422, 0.14798974, 0.08226852, -0.024721654, 0.035757706, 0.15683602, 0.023842176, 0.09903618, -0.0075436607, -0.07264555, -0.025004894, 0.11346574, 0.08227224, -0.13380983, -0.06836642, 0.060257625, 0.027629774, -0.011163674, -0.11707486, -0.12688312, -0.09877999, -0.11960435, 0.06542771, 0.021783246, 0.06408545, 0.07745262, -0.11229897, 0.046258397, -0.12482793, -0.011356929, -0.051661793, 0.13441746, -0.007681369, 0.10658111, -0.008628588, 0.1262327, 0.09482686, -0.09222385, -0.012338548, 0.019011252, 0.0756947, -0.13786761, -0.028774302, -0.07746502, 0.04706759, -0.019534264, 0.08347893, 0.002073577, -0.15638831, -0.06831523, 0.00762667, -0.038857702, -0.08210064, 0.061985217, 0.026407214, -0.029780405, 0.051339503, -0.08668201, -0.015074636, 0.14390214, -0.1133525, 0.10996393, -0.0062275543, 0.11170894, -0.11906025, 0.12248701, -0.02368102, -0.007677863, 0.120758794, 0.116762504, 0.075965784, 0.007402164, 0.14585556, -0.07200218, 0.12665248, 0.029631048, -0.08739999, 0.057774335, 0.053765472, 0.07725405, 0.091750726, -0.03498753, -0.09489112, -0.0089266235, -0.06991092, -0.03424429, 0.06346572, 0.12800795, 0.08493707, 0.058305714, -0.11856813, -0.14265901, -0.06100145, -0.04303411, -0.050179593, -0.045223475, -0.13986684, 0.063777216, -0.0379711, -0.10137777, -0.069531836, -0.051762257, 0.072173566, 0.1390925, 0.050113983, -0.116534926, 0.0002584526, 0.08924382, -0.071239576, 0.1417554, 0.014374974, -0.10716031, 0.09326871, -0.03790234, -0.080011606, -0.11646147, -0.035181843, -0.037819445, 0.12255889, -0.07426739, -0.10969645, 0.10057056, -0.11568924, -0.1573365, 0.055371508, -0.0873173, -0.15623054, 0.07567122, 0.09615328, -0.14461856, -0.061065007, 0.12370104, 0.0205218, 0.01878665, 0.13168186, 0.058234673, -0.025227007, -0.0700383, -0.14731951, -0.01514743, 0.14237778, 0.12783991, 0.15311643, 0.08882044, -0.11673853, 0.09823445, -0.021796836, -0.06049736, -0.10843276, 0.12885922, -0.07878739, 0.1351785, -0.04716511, -0.05071201, 0.0544425, 0.13973638, 0.054771822, 0.117813595, 0.04344228, -0.033082273, 0.14806704, -0.033008177, -0.12775002, -0.016143298, -0.1534734, 0.1563166, 0.058551766, -0.102937154, -0.016644973, 0.009504315, 0.100923516, -0.084893614, 0.072989374, -0.018839275, 0.15667808, -0.08070831, 0.054874565, 0.08905699, 0.04422199, -0.1271123, -0.11371319, 0.10661522, 0.047034282, -0.07674467, 0.058293972, 0.15520048, -0.092540696, 0.04063106, 0.011084134, -0.0074108155, 0.103093445, 0.060511988, -0.049539022, 0.026553083, -0.10812313, -0.08877886, 0.02319173, -0.057572052, -0.13484615, -0.06452132, 0.09331798, -0.06860535, -0.11733036, 0.07522119, 0.088176854, 0.09660591, 0.15341368, -0.020129427, 0.13019612, 0.00904013, 0.09277229, -0.12698674, 0.12561616, 0.1001029, -0.06735874, 0.047485992, -0.039893135, 0.06567859, -0.056889467, 0.030792879, 0.0018335206, 0.13034718, -0.08518903, 0.007827031, -0.04174281, -0.043718636, -0.11278182, 0.12912491, 0.15498766, -0.034661468, 0.088923864, -0.025393853, 0.08510349, -0.13956156, 0.025240785, -0.033360854, -0.08856018, 0.02182931, -0.12067345, -0.10659062, 0.007035935, 0.06325716, 0.15797043, -0.020575443, -0.061466012, -0.10884619, -0.009071815, 0.06446317, 0.12202414, 0.14632776, 0.07073367, 0.14088288, 0.06555134, 0.12771338, 0.07705747, 0.14599986, 0.054721873, 0.099221766, -0.042420514, 0.1108531, 0.13338119, 0.08334086, 0.13461918, 0.020522742, 0.111462034, 0.017641256, 0.12897328, 0.15046768, -0.029905163, 0.1294566, 0.017377602, 0.07457388, -0.018759245, -0.07130444, -0.10041777, 0.08203912, 0.041283637, -0.09543636, 0.13102734, -0.103872955, 0.015265931, -0.003746281, 0.078941904, 0.057454888, 0.0051510893, 0.0690848, 0.02016358, 0.06932614, -0.12849116, 0.06857461, 0.13940494, -0.011013394, -0.007433415, 0.114566766, -0.09830282, -0.04359663, 0.151507, 0.10222384, 0.1441678, 0.03047771, 0.09299564, 0.011583284, -9.961508e-05, 0.035807014, -0.05225988, 0.09864752, -0.07122258, -0.007304189, -0.07920112, -0.03962511, 0.08198662, 0.0589929, -0.008227113, 0.053323057, -0.14779566, 0.13904622, 0.084748894, 0.115644984, -0.13220936, 0.06588983, -0.020113237, 0.08455239, -0.057519387, 0.06028503, 0.06833536, -0.09717661, -0.0045746225, -0.04877064, 0.13072154, -0.09881884, -0.15081742, -0.046984617, 0.04659884, 0.06920302, 0.012980891, -0.13474251, 0.11533494, 0.06469143, 0.052732058, 0.018818052, -0.028454723, 0.14910556, -0.061382644, -0.08018718, 0.12601468, 0.124294005, -0.058016803, 0.09964605, -0.06278732, 0.12872793, -0.05807282, 0.09460662, 0.064748086, 0.08336124, 0.10029812, -0.15432853, 0.06300691, 0.047266215, -0.11291913, 0.0832712, -0.13987683, -0.14213523, -0.14265662, -0.12098991, 0.07979743, -0.14162767, 0.04906592, -0.06433485, -0.083288684, 0.06895833, -0.030405726, -0.14907731, -0.10827024, -0.13410309, -0.11568466, 0.10490224, 0.025287434, -0.005711158, -0.026366556, 0.08132157, -0.13419893, 0.0975419, -0.10663023, 0.03941308, -0.068348125, 0.1314205, -0.07757498, 0.08262166, -0.031822786, 0.05832351, 0.028317071, 0.10767484, -0.10498396, -0.090364225, 0.021569578, -0.004802955, -0.1419327, 0.09992047, 0.026884725, -0.14278102, -0.1302986, -0.10051222, 0.12268831, -0.088345215, 0.12832333, -0.03604268, 0.12040165, 0.0642521, 0.024083119, -0.012293557, -0.11128656, -0.062810674, 0.10918719, -0.0747894, 0.0065132054, -0.1551235, 0.00075251324, 0.054451562, -0.011857022, -0.011741555, -0.13169023, -0.08126526, -0.09976649, 0.08181456, -0.009526783, -0.15173957, 0.0018728201, -0.123429365, 0.05492751, -0.13423243, -0.14601423, -0.102471426, 0.07610076, -0.0864794, -0.07315078, -0.068357, 0.1063978, -0.14487703, 0.11379373, 0.023477757, -0.09457889, 0.105837755, -0.1531797, -0.095024474, -0.043737374, 0.06244258, -0.09933981, 0.015826376, 0.087857865, 0.120816395, 0.07530665, -0.15620995, 0.095344074, -0.07116377, 0.08663012, -0.12157871, 0.122387916, -0.060399875, 0.135049, -0.01842468, -0.016021498, 0.1284197, -0.13063426, 0.05231609, 0.03304695, 0.053265832, 0.13397887, -0.09763646, -0.059491143, -0.11325679, -0.15090574, -0.15596752, -0.13328636, 0.063141055, 0.042250518, 0.1403163, 0.07269062, 0.13633637, 0.0916504, 0.06121702, 0.109410755, 0.12965667, -0.08075109, 0.05765572, 0.13331889, 0.022335548, -0.114304185, -0.05091196, -0.1482433, -0.005706898, -0.11313793, 0.027832454, -0.08307517, 0.123281024, 0.07090027, 0.013575566, -0.091332346, -0.1107024, -0.01722472, 0.011360681, 0.027693389, -0.06650463, 0.14643805, 0.023272552, 0.057334125, -0.107619815, -0.082489505, -0.039436113, 0.019258017, 0.1373592, -0.0027243642, -0.1387873, 0.12231202, -0.07231806, -0.027658574, -0.14350697, 0.15417519, -0.10837337, -0.084407486, 0.013564483, 0.13418597, -0.06781804, 0.052158814, -0.14709713, -0.08703376, -0.07277976, -0.11084152, 0.012952241, 0.096036986, 0.09938775, -0.15640634, 0.035677202, -0.06813202, 0.022440555, 0.105503984, -0.03964818, 0.10356564, -0.11850587, 0.07457364, -0.07511842, 0.120886, -0.13714495, 0.0065979487, -0.07076942, -0.016818475, 0.0069524352, -0.07954063, -0.01264957, 0.021600375, -0.08693292, 0.15099822, 0.0854871, 0.0798133, 0.09764945, 0.008273989, -0.02263839, 0.11685263, -0.12732735, -0.12590611, 0.05743602, -0.13963266, -0.08746042, -0.0026077474, 0.062657945, -0.11774022, 0.11746053, 0.07067182, 0.07967763, -0.12880181, 0.118904255, 0.08612806, -0.0089611355, 0.12857516, 0.100448415, 0.037416536, -0.088387355, };

static float32_t tensor_W_irbias[40] = {-0.15460278, 0.09814473, 0.11423068, 0.061397422, -0.07065925, -0.019158175, -0.08354279, 0.09780062, 0.1343231, 0.1211548, -0.07171799, 0.07140285, -0.016862525, -0.09757111, -0.047275208, -0.062210493, -0.104348846, -0.10072977, 0.06065616, 0.046591397, 0.055000305, 0.025861979, 0.08971106, 0.04425128, -0.06776323, -0.013131624, 0.006721728, -0.0425251, -0.10302435, -0.078674994, -0.055072155, -0.02636865, 0.11282406, 0.03399715, 0.030072615, 0.064836994, 0.044503476, -0.0017209565, 0.06550011, 0.07399776, };

static float32_t tensor_W_hrbias[40] = {0.12365794, 0.13803624, -0.018734327, 0.036703248, 0.12101063, 0.05535562, 0.03026736, -0.12266714, -0.15656585, -0.14710109, -0.10526138, -0.0636304, 0.08940754, 0.07433424, 0.0797229, -0.08870083, -0.115236916, 0.084475815, -0.14611585, 0.022157995, -0.09177508, 0.14489616, -0.024900679, 0.15237002, -0.11220498, -0.062162053, 0.13314736, 0.10777873, 0.12746957, 0.11181962, 0.06707226, -0.017050954, 0.034934904, 0.10930381, -0.11913931, 0.013298283, -0.058571838, -0.021038158, 0.114870705, 0.0445591, };

static float32_t tensor_W_izweight[1600] = {-0.091758326, 0.06255631, 0.119820975, 0.11074611, 0.08350181, 0.0010538653, -0.15414678, -0.02857426, -0.023704676, 0.055493835, 0.13836713, -0.03340728, -0.013464303, -0.0021055632, 0.10036755, -0.12858908, 0.12608035, -0.04521748, 0.11338861, 0.060920306, -0.12646075, 0.11843434, -0.14610562, 0.15324618, 0.021051956, -0.00803446, -0.14358589, 0.013115697, 0.07402652, 0.0713941, -0.046473764, 0.10871734, 0.08945862, 0.15671329, -0.10224392, 0.10583438, -0.092719436, 0.037511665, 0.140203, -0.05861634, 0.031357754, -0.0095646875, -0.12619136, -0.06719474, 0.11956449, 0.13035275, 0.0076795216, -0.014139009, 0.15338953, -0.0070486953, -0.08466786, -0.12673795, -0.09443834, -0.06899659, 0.085560046, -0.11635995, 0.15161659, 0.13023107, 0.08367237, 0.005055112, 0.09010008, -0.011620924, 0.10226047, -0.08444897, 0.02990032, -0.024367243, -0.029461447, 0.024699941, -0.11908074, 0.1461069, -0.13406822, -0.12516344, 0.042962052, 0.152631, -0.06515062, 0.115214914, 0.0058345976, 0.083236836, 0.14276215, -0.051387094, -0.13323893, 0.09519907, -0.08301751, -0.025580436, 0.015048927, -0.13433386, -0.086144425, 0.092500225, -0.062184937, 0.12751076, -0.008205191, -0.1108206, 0.15778592, -0.12234345, 0.087963715, -0.13119738, 0.102205284, -0.15112105, 0.05976162, -0.11017411, 0.06400268, 0.15451199, -0.10048161, 0.07947749, -0.10178335, 0.04432939, -0.045136224, 0.1573986, -0.038418513, -0.06206487, 0.052391615, -0.06763347, 0.14098081, -0.12034092, -0.14027837, -0.1502607, -0.04961977, 0.15435931, 0.07170062, -0.037992775, 0.07411688, -0.08496935, 0.024623435, 0.13643579, 0.10603681, 0.15340115, -0.06934744, -0.051212784, -0.08785847, -0.04804014, -0.032360747, -0.012965718, -0.04390083, -0.010071396, 0.08002097, 0.04815902, 0.098104246, -0.15085168, -0.07421782, 0.057100516, -0.10496994, -0.0685819, -0.02558956, -0.07358064, -0.054421555, -0.05348165, -0.106780976, 0.15225305, -0.0144574, -0.12139446, 0.14001718, 0.0028726086, 0.019227577, -0.12323598, 0.13258192, 0.053895038, 0.13574961, -0.05030782, 0.13137709, -0.08611261, -0.13419214, 0.07390001, 0.058475845, -0.09683344, 0.11140979, -0.037331756, -0.14665157, -0.14894284, 0.08147873, 0.021751618, 0.030730866, 0.1092828, -0.03834521, -0.13568209, 0.029878004, -0.14721878, 0.018845968, -0.104316615, 0.097313814, 0.14393088, 0.14493246, -0.11997248, -0.07670474, -0.08869314, -0.091075286, -0.11233792, -0.13721392, -0.10144012, 0.15784378, 0.07838214, 0.105805315, -0.15763874, 0.1478649, 0.08816926, -0.003280512, -0.12961963, 0.031175317, -0.084893614, -0.09890633, 0.03051682, -0.058900222, 0.03140557, -0.1456173, -0.04561453, 0.05450732, -0.051813677, -0.10968073, 0.051943958, -0.10290083, 0.07709123, -0.11954368, 0.05688564, -0.118989035, 0.024269948, -0.04045869, -0.056916665, -0.0022033877, -0.1299111, -0.070396855, -0.1209676, 0.100466326, 0.084140815, -0.07480614, 0.07231763, 0.089072995, 0.10812436, 0.10733918, 0.0896361, 0.02208358, 0.05717472, 0.036171302, 0.1306015, 0.11775322, -0.13645975, -0.13107371, 0.08607883, -0.0828526, -0.047954474, -0.010126415, 0.002529997, -0.10844989, 0.08496092, 0.1419573, -0.084845394, 0.044116307, -0.11661892, -0.034300648, 0.11175012, -0.12369318, 0.026248867, -0.09617426, -0.097794734, -0.13966897, 0.056164376, 0.1384869, 0.024892122, -0.1039772, -0.14119628, -0.03846669, 0.08760109, -0.041131753, -0.060736585, 0.07500109, 0.08854278, 0.15212233, -0.06890625, 0.085278064, -0.13688594, 0.07424522, 0.085271716, 0.11880952, -0.0673565, -0.093309194, 0.06522098, -0.10094114, -0.08537012, -0.11189246, -0.07059503, -0.082201816, 0.12714739, -0.1277758, 0.07367656, -0.10095371, 0.089262895, 0.14646554, -0.038148127, 0.037182644, -0.043463632, -0.12014353, -0.021783529, -0.07462632, 0.05646801, -0.07520903, 0.09717661, -0.092924476, 0.11141801, 0.14173676, -0.13998829, -0.14937377, 0.054581206, 0.07583442, 0.0020094162, -0.027108816, -0.10260921, -0.13846734, 0.13331528, 0.08097581, 0.036110513, -0.090136535, 0.09074425, 0.11145559, -0.09425447, -0.13818829, 0.05812539, -0.13494803, -0.049457766, 0.050694294, 0.1230129, -0.103358254, 0.008109572, 0.094848074, 0.12146066, 0.08993088, -0.10441314, -0.13511232, 0.050150264, 0.08559653, -0.1411535, -0.13968253, 0.04174266, -0.1230329, -0.12336965, -0.0014063162, -0.09134942, -0.052225254, -0.12579058, 0.028539956, -0.11598283, 0.056981523, -0.08878793, 0.11403723, 0.13159446, -0.07049153, 0.055256307, -0.13937964, -0.13517761, -0.081146955, -0.08283868, -0.06905112, 0.08441425, -0.082649454, 0.10394995, 0.01594714, 0.12520604, 0.07920677, -0.058102753, 0.12364917, 0.08733061, -0.06317072, 0.06819068, -0.11560011, -0.04375901, -0.0944685, -0.08166863, -0.09855219, -0.024932345, 0.081310034, 0.030384108, 0.11346938, -0.13637565, 0.13612407, -0.136036, 0.13096622, 0.064275175, 0.018185493, 0.07622148, 0.14509912, -0.08301934, 0.001932721, -0.052592125, 0.1224765, -0.0761551, 0.011149727, 0.15187465, 0.13079196, 0.10249789, -0.016063813, -0.012527996, 0.09416948, 0.112966835, -0.14073443, -0.112078615, 0.0066954903, 0.043166637, 0.102628395, 0.005179494, -0.031247301, -0.07104546, 0.05030805, -0.1486296, 0.1256844, 0.016793275, -0.1337385, -0.009552285, -0.15219001, -0.06799284, 0.13051794, -0.120334, -0.1433275, -0.029291207, 0.012514651, 0.019531418, -0.08918294, -0.11494616, 0.06915641, 0.10367007, -0.098872766, 0.049541906, -0.15131834, 0.00462557, -0.114411585, 0.1411756, -0.032192636, 0.05278832, -0.00030252073, -0.043050133, -0.07504378, -0.1130602, -0.09404731, 0.11844836, 0.00038897945, 0.13058311, -0.0009810718, 0.089716114, 0.13366733, -0.09193024, 0.0131798005, 0.14858396, -0.08397653, 0.15769881, -0.110815115, -0.078479625, 0.006848862, -0.14378424, 0.038595952, -0.09060311, 0.15424757, 0.017802374, 0.034806978, 0.06667391, 0.034434248, 0.09025238, 0.14850701, 0.06764324, -0.15789019, 0.1493236, 0.011913078, 0.04091213, -0.1279796, -0.028424075, -0.05519795, -0.1416486, 0.11956471, -0.06254283, -0.016187046, -0.106873296, -0.13496502, 0.1489538, 0.14151469, 0.12131413, -0.14284667, 0.00092920044, -0.02554715, -0.069473006, -0.06272947, -0.13650607, -0.08287385, 0.13325334, -0.08911535, -0.05130697, -0.009833318, -0.033060595, -0.0475612, -0.14317337, -0.0314349, -0.034939166, -0.029875176, 0.0582984, -0.066502765, -0.03623529, -0.14131588, 0.14792807, -0.07381461, -0.018660383, -0.033197682, -0.15465274, -0.059458688, 0.107785895, -0.061925504, 0.1217065, -0.010613501, -0.07794408, 0.11723131, 0.054689076, -0.025476241, -0.030653303, 0.15482123, 0.052124813, -0.07730342, -0.15469879, 0.07969676, -0.09070516, 0.04342765, -0.13681963, 0.015959693, 0.06985187, 0.13874023, -0.06807491, -0.14553809, -0.121835954, 0.13073313, 0.061078012, 0.04197872, -0.01011356, 0.087733574, -0.009171204, -0.1286085, -0.09156701, 0.04978969, 0.029016884, -0.12503368, -0.037657008, 0.053507473, 0.052973565, 0.057051357, -0.0067167706, 0.14673673, -0.017051144, -0.0671793, 0.07797755, -0.1308204, 0.051854994, -0.15642455, 0.07656434, -0.12972657, -0.054794837, -0.08221882, 0.06274466, -0.07031582, 0.067000255, -0.024078878, 0.05865321, -0.10246681, 0.11398404, 0.12946264, -0.058986586, -0.13926046, -0.14308383, 0.0787463, 0.1268706, -0.054525018, 0.0125163095, 0.011316028, -0.06195157, -0.15025991, -0.015722727, 0.07506212, 0.08825248, 0.06832494, -0.08143123, -0.08546957, 0.06278325, -0.044996463, 0.10326133, 0.0039541437, -0.15049995, 0.105984166, 0.14306611, 0.012203912, 0.09185161, 0.09306205, 0.14868015, 0.10210384, -0.0063427384, 0.10097923, 0.15110333, -0.002895359, -0.027519943, 0.13246271, 0.12729089, -0.09861073, 0.14992024, -0.054245565, -0.1351823, -0.12528089, -0.14217739, -0.14017764, 0.02347608, -0.1402726, 0.14034803, -0.11698443, -0.15081821, -0.12446349, -0.0452136, 0.112240806, -0.14530575, -0.01027415, 0.08253016, -0.1499636, -0.130964, 0.0625788, 0.15458827, 0.026929585, 0.15702756, 0.052827902, 0.1510709, 0.13933802, -0.032383967, -0.053900845, -0.09072913, -0.031495668, 0.055135656, -0.042008482, -0.1297747, -0.12288614, -0.04656388, -0.0950408, 0.08209842, 0.12860079, 0.07637755, 0.102620065, 0.056865282, -0.08699133, 0.0041838335, 0.14018281, 0.1439546, 0.14124423, 0.02762868, 0.10335923, 0.031953447, -0.12177526, -0.08771348, 0.13695607, -0.017921422, 0.06486744, -0.015486197, 0.0029346962, -0.14823638, -0.05693506, 0.1308533, 0.12807879, -0.12767158, 0.054925777, -0.011152724, 0.03617705, -0.09240365, -0.04603063, 0.13431014, -0.1089064, 0.002357645, 0.13235842, 0.019788437, -0.123155415, -0.14298958, 0.057452645, -0.010110148, -0.15550578, -0.029605715, 0.005722448, -0.09168406, -0.063243344, -0.1009788, 0.093742765, 0.06733983, -0.010009723, 0.04059847, -0.037206016, -0.05764209, -0.10269866, 0.0075567607, 0.13867125, -0.045700703, -0.006196699, 0.0677224, -0.11654998, 0.11517198, 0.11398755, -0.12082046, -0.13078554, -0.033385605, 0.023717644, 0.029980728, -0.12739491, -0.09721442, 0.07330088, 0.09305242, 0.07653305, -0.038607866, -0.13373621, 0.098421566, -0.115854524, 0.14992121, 0.1098056, -0.079464994, -0.05261137, -0.11013072, -0.03914658, 0.08458742, -0.0877085, 0.09789686, -0.0024152086, 0.14798565, 0.12983547, 0.06722925, -0.1228646, -0.052509286, -0.11676838, -0.15138477, -0.10373017, -0.10943447, -0.0880059, 0.14922178, 0.12933677, -0.11554202, 0.087575905, 0.090141945, 0.06356852, -0.09731875, -0.11365346, -0.09474495, 0.12253748, 0.08257246, 0.048735637, -0.023487503, -0.10676115, -0.058335535, 0.05972366, 0.0026666496, 0.043513883, -0.023484543, -0.12031494, 0.048822172, -0.005368018, -0.026879203, -0.061881963, -0.038503952, -0.05797496, -0.10946955, -0.06426394, 0.12139448, -0.1062378, 0.11393545, -0.10814703, 0.1007345, -0.024966292, 0.11352374, -0.030717785, 0.0056786817, -0.056415517, -0.14589977, 0.108702466, 0.054582316, -0.08754509, 0.08119423, 0.039903183, 0.1414383, -0.10133459, -0.013463793, -0.11170956, 0.03646762, 0.10784186, 0.08774009, 0.029888105, 0.059678838, -0.021373909, -0.06822608, -0.044412438, -0.13361219, 0.121068455, 0.059530932, 0.05694639, -0.055113453, 0.09669535, 0.001223522, 0.11489551, 0.15191963, -0.12441831, -0.105055325, 0.055432767, 0.0996017, 0.0049862014, 0.032102443, 0.14819525, 0.09111986, 0.09921149, 0.05855218, -0.14955936, 0.1476432, -0.13095324, 0.0500148, 0.05336496, 0.020897605, 0.07965147, -0.052724443, -0.009788157, -0.013901892, -0.017137319, -0.0040999567, -0.050617296, -0.09324207, -0.008214521, -0.14534467, -0.10858983, 0.1476826, 0.08850524, 0.041881554, -0.066559404, -0.12628755, 0.14009628, -0.14638132, 0.11750062, -0.15222076, -0.056002844, -0.021048658, -0.06477874, -0.061755393, 0.015288983, -0.06266247, -0.061791, 0.09093686, -0.092389695, 0.0027050066, 0.14220749, -0.10468022, 0.035441406, -0.14302842, -0.15608431, -0.025255129, 0.003330461, -0.003583768, -0.02998546, 0.09598, -0.0035592082, -0.03341921, 0.04226337, 0.039556365, 0.09051656, 0.015704313, -0.013665191, 0.05005732, 0.03739965, -0.105498895, 0.11700701, -0.1143432, -0.04877411, 0.14705348, 0.14334835, -0.092185095, -0.06880401, 0.08505019, -0.0769294, -0.08797653, 0.15566094, 0.0006179339, -0.10304263, -0.13851963, -0.0998744, -0.022728693, 0.14523417, -0.094474286, 0.016733129, -0.086969696, -0.14344801, -0.045385025, -0.09812943, -0.15358108, 0.12604493, -0.021266906, 0.10886259, 0.0030713112, -0.023907846, 0.03220242, 0.01351297, -0.07534934, -0.14678697, 0.0097460495, 0.08360674, 0.014432897, 0.111603476, -0.01902354, -0.0845732, -0.036181968, 0.042734362, -0.12860848, -0.022347875, 0.10072855, -0.05263768, 0.11757499, -0.13784842, 0.13168304, -0.11948089, -0.060329683, -0.019549718, 0.11214219, -0.038821176, 0.13912228, 0.0060769534, 0.12691891, -0.053778816, -0.035998233, 0.05285235, 0.0036223324, 0.062400356, 0.04360168, -0.073382385, -0.08331877, -0.018028012, -0.13026266, -0.0644375, -0.011831576, -0.10233441, -0.099275544, -0.11464105, -0.13890532, 0.06688386, 0.010613143, 0.028090322, 0.08247567, 0.07256502, 0.013141595, -0.06512067, 0.13956161, -0.08767249, -0.035515442, 0.025467081, 0.059226226, -0.017029976, 0.045416806, 0.1371798, 0.07650668, -0.036734592, 0.12421128, -0.0009796771, -0.006771149, -0.04924391, 0.078277625, 0.0753021, -0.05856694, 0.028271288, -0.10073424, -0.039987754, -0.15443137, 0.009609868, 0.015239562, -0.07423093, -0.07245351, 0.016192643, -0.091689415, -0.06906154, 0.11229524, 0.07009401, -0.039803132, -0.022069085, 0.009412127, -0.11247551, 0.10439374, 0.09590727, -0.08059582, -0.046787255, -0.14202662, -0.07260158, -0.029171726, 0.009474082, 0.08577034, 0.060603347, -0.13971505, 0.02167449, -0.0060745785, 0.12090617, 0.018984543, -0.15673584, -0.01666399, 0.11483547, -0.13504218, -0.009732478, 0.12677214, -0.15249623, -0.15292825, 0.0669731, 0.094491415, -0.058981553, 0.029139701, -0.026187947, -0.12593356, -0.014318109, 0.09665034, 0.08345701, -0.06156951, 0.040084846, 0.106040716, 0.035662424, -0.07691997, 0.0019409014, -0.032949295, 0.15655072, -0.07352383, 0.15739748, 0.0481757, 0.018403042, -0.13550411, 0.043013096, 0.14669879, -0.10216666, 0.07970624, -0.14506581, -0.0029823266, -0.092909925, 0.11617693, -0.13317914, 0.048867974, -0.09817742, 0.008605574, -0.15130356, -0.15483901, 0.028068552, -0.1219852, -0.13171573, 0.14875785, -0.052290056, 0.025009887, -0.0342962, 0.06885264, -0.03856985, -0.117212534, -0.047611825, 0.10749996, -0.07258656, -0.046071816, 0.04930726, 0.018426716, -0.08276792, -0.016905291, 0.016502911, -0.110322036, -0.009752703, -0.055429168, -0.03172813, -0.035293087, 0.08238591, 0.021408062, 0.1054546, 0.026513916, 0.15501581, 0.093202285, -0.014403869, 0.08128464, -0.11335774, -0.12947653, 0.03963197, -0.040685043, -0.0010364492, 0.022465924, -0.010574881, -0.04657973, -0.07098859, 0.15531948, 0.035363957, -0.09089689, -0.11611147, 0.08503918, 0.06392757, -0.08784874, -0.03131911, 0.03984596, 0.02289818, -0.08629309, -0.10827814, 0.06504855, -0.038765006, 0.008282509, -0.027708769, 0.12761712, 0.13634542, -0.002818777, -0.039298724, 0.014143702, -0.055596016, 0.12343421, 0.08100348, -0.029700335, -0.06707682, 0.017362654, 0.0035246965, 0.042336673, 0.12304502, -0.120916195, -0.15439054, -0.05054249, 0.10673917, -0.05575559, 0.023724146, 0.0823017, -0.08529603, -0.12877584, -0.043675587, 0.13160829, -0.042545065, -0.13247797, 0.114090145, -0.105740175, 0.1176542, 0.14679053, 0.06638498, 0.054470204, -0.035628725, 0.088781424, 0.11044306, -0.028698284, -0.028895762, -0.15490443, 0.11700987, 0.108163126, -0.010907503, 0.09220534, 0.047699865, 0.14720121, 0.020081213, -0.08814014, -0.047877666, 0.06313051, 0.08902908, -0.051841836, -0.044863597, 0.13665791, 0.084503256, 0.0580755, -0.14608023, 0.06360139, 0.0642158, 0.06710247, 0.07251499, -0.008108328, -0.006278502, -0.054174714, 0.07616154, -0.1381017, -0.0066041877, 0.15376623, -0.024785476, 0.031830855, 0.02221092, -0.15337884, 0.09027512, -0.03508, 0.091764845, 0.07123525, 0.087405, 0.05329311, -0.05973446, -0.09949032, -0.03716996, 0.052845113, 0.08602751, -0.098585136, 0.085825995, 0.0023744956, 0.023646453, 0.017433394, 0.014067082, 0.05118566, 0.03507623, 0.09827777, 0.05927729, -0.12183727, 0.10485289, -0.034205575, -0.07362744, 0.061354484, -0.08410263, 0.009260451, -0.07210735, -0.118718445, -0.08720738, 0.08186299, 0.08543085, 0.013595281, 0.0019995018, -0.03278175, -0.15729816, 0.0035983946, 0.055777207, 0.004146928, -0.04366982, 0.11515262, 0.14871264, 0.021768901, 0.10599657, -0.12176452, 0.052072205, 0.014392466, -0.14009714, -0.09721585, 0.08457475, 0.09009648, 0.11679583, -0.05530437, 0.060069006, 0.06127283, -0.04670688, -0.09621215, -0.10694376, 0.08930651, -0.042009026, 0.0035052635, -0.14005849, 0.067241125, -0.025174437, 0.0023877085, 0.020276692, 0.016773012, 0.13728206, 0.15140486, 0.08234569, -0.13669898, -0.11545262, 0.05206148, 0.02470616, -0.09325323, -0.12551472, 0.04872529, 0.008329932, 0.04274058, 0.13580754, -0.15599662, 0.11336206, 0.084871106, -0.056737415, -0.07244175, -0.06877482, 0.111794695, 0.046213068, 0.077635564, 0.13019088, -0.0734826, -0.13049221, -0.049345598, -0.15286878, 0.15134226, -0.113626204, -0.11873456, 0.02205214, 0.14384621, 0.09612844, -0.10667297, -0.09391755, -0.031067673, -0.12349899, 0.0053910324, -0.09895071, -0.038037222, -0.15469408, -0.07693487, -0.018533418, -0.15066496, -0.043022558, -0.12760268, -0.09509619, 0.027424041, -0.03641571, -0.105714105, -0.07792508, 0.04465129, -0.112179, -0.15554614, -0.13031538, 0.10319419, -0.10093172, 0.087333836, 0.03726422, 0.07514539, 0.027528802, 0.108794145, 0.115260646, 0.040389553, -0.050376166, 0.037521392, 0.07084744, -0.052328847, -0.031764995, -0.14374441, 0.0750346, -0.09535828, -0.15661702, -0.09752731, 0.15457384, -0.09079972, 0.14352742, -0.06468935, 0.10956147, 0.12359374, -0.13949236, -0.1167583, 0.07367222, 0.06448268, -0.007099002, -0.051832546, -0.083897576, 0.113941975, -0.09687285, -0.001182564, 0.04858875, 0.11187149, -0.15434821, -0.13606372, 0.095951945, 0.080899715, -0.018436443, 0.087596975, -0.048195284, 0.018179083, -0.0043824418, 0.018870601, 0.117171764, -0.14180335, 0.10265987, -0.09470147, -0.01856286, -0.122585714, -0.0603088, 0.076157585, 0.052747834, 0.13502707, 0.10774022, -0.07039836, -0.14743465, -0.12084378, -0.091913015, 0.11826687, 0.111883454, -0.12704611, -0.10764364, 0.05126767, -0.0028617897, 0.065507025, 0.15706496, 0.14383443, -0.12128582, 0.09740602, -0.15119617, -0.05904918, 0.061636347, 0.051939584, -0.008247507, -0.13106334, -0.007825618, 0.12592952, 0.08082534, 0.14624473, -0.1430466, 0.038154367, 0.018151922, 0.13397963, 0.056549042, -0.0250945, 0.0746342, 0.1555182, 0.120115034, -0.0632448, 0.018347006, 0.1467709, 0.024382135, -0.10260342, 0.10747214, -0.13246599, 0.10859188, -0.08625626, -0.119687356, -0.06916517, -0.102814846, 0.13283427, -0.008535985, 0.058474522, -0.11491805, 0.016156567, -0.05378564, 0.023966145, -0.022283563, -0.14055248, -0.08784977, -0.13288978, -0.10119356, 0.13618454, 0.024903638, -0.034955148, -0.11922526, -0.009562219, -0.09310499, -0.018788837, 0.092281245, 0.15067564, -0.051086083, -0.15810536, -0.036548387, -0.09140333, 0.15782477, 0.06310577, -0.013888151, -0.096763, 0.039684445, -0.03353786, 0.056870222, 0.01263466, 0.05418693, -0.12546411, 0.030870667, -0.08006642, 0.050370775, 0.119960815, -0.120224304, 0.14711866, -0.055729672, -0.12566184, -0.10392292, 0.10476142, -0.11330037, -0.14227995, 0.111252196, 0.1009418, 0.09518337, 0.15562636, -0.081757195, -0.09905662, 0.03753093, -0.058258593, -0.06116183, 0.018583274, 0.12227322, -0.068187855, 0.048567772, -0.019647751, -0.07571698, 0.060220927, -0.12164483, 0.0691965, 0.15179731, -0.10514891, 0.09769046, -0.06224987, -0.15621038, 0.09036213, 0.15167138, 0.01623149, 0.01867908, 0.019225579, -0.051721167, 0.005885809, 0.107748084, 0.053657357, -0.08216346, -0.06961381, 0.08068156, 0.13580601, 0.12751605, -0.007623089, -0.004776661, -0.120581165, -0.085814916, 0.017401313, 0.08078634, -0.043024745, 0.09876152, -0.14305638, 0.13355765, 0.04489807, 0.10943325, 0.08389171, 0.13290349, 0.10233532, -0.07666625, -0.015503801, -0.09841523, 0.12539169, -0.07689811, -0.078321844, 0.05620185, 0.0039188405, -0.13721511, 0.03522148, 0.13475846, -0.041227903, -0.12015047, 0.04740168, -0.15188834, 0.11071708, 0.061556615, 0.15056184, -0.07420428, -0.004204209, 0.0772378, -0.104921974, 0.15365951, 0.07946788, -0.05044263, 0.1489762, 0.008520981, 0.048638605, -0.14971729, 0.14383899, -0.11530854, 0.102296434, 0.12837559, 0.06811934, -0.13422284, 0.06949103, 0.028768873, -0.034421355, -0.035752032, 0.008889963, 0.018718833, 0.061293583, -0.086461425, 0.08357726, -0.10351409, 0.095508605, -0.11672643, 0.082476385, -0.042077616, 0.051852316, 0.074993305, -0.027745241, 0.032504827, -0.0984072, -0.14630868, -0.11453208, 0.07598305, 0.057428237, 0.04688027, 0.110425755, 0.005597972, -0.06013735, 0.06879078, 0.09551266, -0.056677666, -0.10865438, -0.06704943, 0.082676746, 0.07144908, -0.04805166, -0.10481857, 0.1281501, 0.06619704, 0.095106296, 0.022189377, -0.028713176, 0.15475215, -0.089025706, -0.102775656, -0.004932596, -0.045250505, -0.0553622, 0.008133774, 0.13547364, -0.030167254, -0.07820719, 0.016307753, 0.00784867, 0.023202473, -0.10419611, 0.08172432, 0.051974796, 0.032167945, -0.034828655, 0.033360988, 0.1465353, -0.008321563, 0.12991041, 0.074553, 0.057242256, 0.019788116, -0.07150248, -0.017555514, -0.039735675, -0.07199392, -0.14224274, 0.027411733, -0.07941182, 0.107384734, -0.12330732, 0.0729103, -0.12593429, -0.12499384, -0.12623484, 0.06829902, 0.08807901, 0.054605708, 0.14233343, -0.03571884, -0.121833466, -0.02221569, -0.00823861, };

static float32_t tensor_W_izbias[40] = {0.07730714, 0.14296466, 0.09626694, -0.0684607, -0.064033836, -0.046975117, -0.12111875, -0.062104322, -0.028296206, 0.027880764, 0.043690346, 0.055079468, 0.008831815, 0.10862294, 0.13274619, -0.11864441, 0.0056990758, -0.12804528, 0.121253625, 0.0414676, -0.012231488, 0.027288388, -0.004637539, 0.10115077, -0.092664264, -0.14944667, -0.062031414, -0.029934945, 0.13846321, 0.08563257, -0.0063795685, 0.07369017, 0.035894115, 0.115914255, -0.060596503, -0.056415856, 0.011290507, -0.15596315, -0.10789382, -0.1047672, };

static float32_t tensor_W_hzbias[40] = {0.09294468, -0.050945036, 0.07817779, -0.008961116, -0.063462175, -0.010590695, 0.14837193, 0.097662926, -0.07402138, -0.11231654, 0.003854001, -0.030202482, -0.12405974, 0.12592043, -0.082435355, -0.15722428, 0.050221175, 0.09349947, 0.005656271, -0.06423322, -0.08005963, -0.030816985, 0.1499928, 0.11045537, -0.038518522, -0.107446976, -0.010642245, 0.11821104, -0.049146406, 0.01421789, -0.054500043, 0.08698511, -0.09610175, 0.014391467, 0.025042534, -0.010650257, 0.06720678, -0.08651098, -0.036115564, -0.06467616, };

static float32_t tensor_W_inweight[1600] = {-0.06132921, 0.09256482, -0.030698502, -0.01605603, -0.13161674, 0.12572391, 0.045532215, -0.04390456, 0.15105097, -0.012947322, -0.01600819, 0.08993751, 0.05434079, -0.12850946, -0.088289745, -0.1312555, -0.06982689, -0.091650076, -0.072207175, 0.057825867, 0.0021603561, 0.10647011, 0.12571105, 0.008927076, -0.08932932, -0.051747102, -0.14555666, -0.056120254, -0.07618503, -0.108133346, 0.033087116, -0.02305485, 0.083396085, 0.0049549313, -0.11080085, -0.1564838, 0.014006106, 0.12989223, 0.0043726778, 0.09703433, -0.05201338, 0.06618856, -0.048908725, -0.03799227, -0.13174373, 0.017633434, -0.028930048, -0.056686543, 0.060586628, -0.0037634333, 0.08003238, -0.07480083, -0.040070616, 0.11668651, 0.032098487, 0.06701516, -0.1352564, 0.046233594, -0.030363789, -0.13906604, 0.09369273, -0.15136316, 0.062784076, 0.010092543, 0.15473798, -0.12411907, -0.109779045, 0.0011982272, -0.008719779, 0.07925244, 0.01515595, 0.046297885, -0.02939525, -0.12678006, -0.123018876, -0.05483753, 0.12555759, -0.093263544, -0.06603724, -0.07583079, -0.09734478, -0.127802, 0.10233741, -0.0008838694, -0.031148288, -0.104078196, -0.06924189, -0.065634936, -0.074614316, -0.09152215, 0.103968404, -0.10302015, -0.12624633, 0.053612027, 0.05912224, 0.0083941305, -0.123789765, 0.13176109, 0.04170345, 0.13901821, 0.1093473, 0.04612723, -0.07345026, -0.10755117, -0.021454524, -0.051814355, 0.08613242, -0.11187015, 0.029131748, -0.045065977, 0.112752095, 0.11716839, 0.05218882, 0.1348598, 0.090245195, 0.0011903296, -0.050618503, 0.047096822, 0.041212108, -0.097665586, -0.14301634, -0.06494619, -0.08421719, 0.00648923, 0.14587179, -0.080755465, 0.008933032, -0.013545483, 0.13320357, -0.032367174, 0.034511056, 0.057942294, 0.12607497, -0.024359403, -0.031117018, -0.043383602, 0.07863577, -0.03297135, 0.08558577, 0.15105084, -0.015636778, 0.11814728, 0.10804806, -0.06545892, -0.07408216, 0.13273346, -0.1385957, -0.07735348, 0.03810849, -0.024142398, -0.14394, -0.05586621, -0.028114354, -0.10438937, 0.04953659, -0.12548071, -0.05165565, -0.07285683, -0.08493643, -0.042642962, -0.06332822, 0.016724061, -0.074844874, 0.07132042, -0.095634304, -0.09261019, -0.030717522, -0.15409443, 0.14016148, 0.04851916, -0.119732335, 0.13872129, 0.049753126, 0.03473083, -0.058495805, 0.0498966, 0.062194586, 0.06095627, 0.119945966, 0.1400838, -0.11408948, -0.037064858, 0.08799346, -0.100698486, -0.09183698, -0.037384927, -0.03042535, 0.12916838, 0.13691181, -0.15732516, 0.12971976, -0.14435394, 0.0482022, 0.027183326, 0.052044574, 0.008360014, 0.14640166, 0.05281603, 0.15310527, -0.08115504, -0.007424745, -0.03563956, 0.1318767, 0.07955479, 0.020498032, 0.053469513, -0.0488587, 0.022788217, 0.15492173, -0.10664476, 0.105004735, -0.012674167, 0.062437132, 0.07660811, 0.08499324, 0.09323139, -0.09178875, -0.085516766, 0.11388292, 0.05734779, 0.074151225, 0.08188252, 0.038576744, -0.13311748, 0.104953505, -0.12904596, 0.031966075, 0.12520209, -0.08554585, -0.08389541, -0.059652507, -0.015449912, 0.13663295, -0.15270579, 0.030600755, -0.023253685, 0.13959508, 0.12006771, 0.120339185, 0.09774756, -0.07440483, -0.02471666, 0.15255074, 0.15593117, 0.056029383, -0.15362114, 0.09964959, 0.11086765, -0.04390933, -0.039461955, -0.10592212, -0.04608872, 0.036313195, -0.019265557, 0.14632846, -0.041637126, 0.024127224, 0.067208774, 0.0060065915, -0.0939433, -0.102129094, -0.009159498, 0.14742135, -0.100899614, 0.12971711, -0.14201069, -0.047304895, 0.095352344, 0.10002523, 0.09025786, 0.03294739, -0.13413891, 0.03626549, 0.012487603, -0.14099434, 0.09637939, -0.119678445, 0.1307103, -0.012574571, 0.11427639, 0.04288206, 0.06597538, 0.005576145, 0.017365556, -0.0048473245, 0.12622051, 0.056486785, 0.10127431, -0.0046101897, 0.14968322, 0.034594424, -0.06493015, 0.13073163, 0.020079555, -0.15160957, 0.09124462, 0.01665515, 0.07117525, 0.05067109, -0.007434188, 0.012331122, -0.11934859, -0.06649096, 0.07590581, -0.052971587, 0.062860474, -0.11142502, -0.14054297, 0.0589461, 0.15558954, 0.09464083, -0.15526572, 0.0037762881, -0.0636059, -0.021084866, -0.074063316, 0.067860775, 0.113706574, -0.11218449, -0.0030496917, -0.028429259, 0.025957579, -0.04332949, -0.07552791, 0.15566005, 0.033582665, 0.00091655296, 0.10213213, -0.14645398, 0.0840285, -0.126154, -0.115764275, -0.13042076, 0.12164886, -0.027024807, -0.14717367, 0.0020217998, -0.095154665, -0.085271135, 0.13906607, -0.1015583, 0.05071957, -0.13363558, 0.15311632, -0.0764694, 0.045034707, 0.028831074, -0.066147394, -0.11136796, 0.13002717, 0.12888429, 0.0031706623, -0.1196425, 0.039058328, -0.118367426, -0.07073074, 0.12882747, 0.05721585, 0.05828421, -0.014596277, -0.007914904, -0.005734662, -0.09541598, -0.082001776, -0.027575433, -0.048780005, -0.021123035, 0.038457885, 0.020396985, -0.11765996, 0.14865898, -0.062578775, -0.12436561, 0.05663612, -0.07229386, 0.095949605, -0.10344578, 0.068718515, 0.06777009, -0.08268022, 0.08480097, -0.0768527, 0.10355411, 0.01585286, 0.1144271, -0.105831794, 0.1037962, 0.10992851, 0.006952624, -0.049992748, -0.030043438, 0.14651667, -0.12601054, -0.034066867, 0.087377205, -0.089727215, 0.04530507, -0.018138295, 0.11452358, -0.124222495, -0.10377168, -0.046921737, 0.050418954, 0.071971625, 0.08370824, -0.10226752, -0.052283704, -0.0570238, -0.016411778, -0.15422529, 0.044403333, -0.020053204, 0.064145006, 0.15787287, -0.031596377, -0.113890424, 0.040792406, 0.021127332, -0.09125103, -0.14168224, -0.066447705, -0.02562081, -0.0481469, -0.06582086, 0.124088876, -0.0738043, 0.028624041, 0.036987465, 0.10212668, -0.01856039, 0.10969258, 0.068920836, 0.03421683, -0.1282686, -0.11180186, -0.004874278, 0.14329244, 0.066916816, 0.06935364, -0.101669304, -0.12515134, -0.12934491, 0.0072469455, -0.09692451, 0.13112603, -0.08105158, -0.05387949, 0.031764336, 0.0012311368, -0.15705495, -0.05840128, 0.1121886, 0.114140846, -0.15754688, 0.07160554, -0.15363687, -0.12889387, 0.14975365, 0.03732578, 0.104249924, -0.083531514, 0.116172954, 0.1373566, -0.12780753, 0.07681491, 0.15234947, -0.051376652, 0.012294744, -0.049818095, -0.0847985, -0.058467437, -0.03384291, -0.13424197, 0.011144129, 0.14028369, -0.016702462, 0.045966055, -0.06533681, 0.028170655, 0.15488389, 0.11560152, 0.1507975, 0.10477748, -0.1049906, -0.014325497, 0.06836476, 0.14261085, 0.011071976, 0.15626806, -0.11840217, 0.15795264, -0.034799308, 0.044308506, 0.026785016, -0.11389191, 0.15370373, -0.1080349, -5.5603497e-05, -0.0028148752, 0.048897434, -0.14843191, 0.087173864, 0.1554167, 0.074406356, -0.11664394, -0.051646903, 0.026332686, -0.018543974, -0.07160645, 0.01414636, 0.08879457, -0.08168942, -0.017197069, -0.101856016, -0.06219472, 0.09673071, 0.051140763, 0.1112286, -0.07831945, -0.06404485, 0.06977932, 0.112061836, -0.06016653, 0.0563418, -0.006581023, -0.1572561, -0.014318409, 0.07195679, 0.08990976, 0.01738874, -0.08242834, -0.07581811, 0.033693478, 0.003854868, 0.1254557, -0.06580749, -0.13597848, -0.1346069, -0.016626708, 0.007835947, -0.11966329, -0.15158232, 0.08247567, -0.050249994, 0.08205962, 0.15524608, -0.026707888, -0.15769625, 0.15035498, -0.08791484, 0.06524974, -0.01156123, -0.050575152, 0.12923521, -0.11316209, -0.021186987, 0.09521426, -0.030569974, 0.14402533, 0.0053717126, -0.08566482, -0.018086875, 0.083230674, 0.085485876, 0.0061465427, -0.09965775, 0.023967331, -0.12052448, 0.12071288, -0.04014778, -0.07808823, -0.035927966, 0.10410607, 0.10346366, -0.11637149, -0.032110002, -0.12826687, 0.034886558, 0.08809451, -0.097630754, -0.05236937, -0.06300517, -0.1502644, -0.12631102, 0.099771544, 0.050056852, -0.019343704, -0.13616219, -0.1540932, 0.05041505, 0.08332444, -0.08239089, -0.10496312, 0.10851711, -0.05665857, 0.12447363, 0.022029145, 0.024969779, 0.11554066, -0.09821815, -0.12011677, 0.021587031, 0.07555172, 0.06762435, 0.061084986, 0.1311302, -0.0011076028, 0.07139861, 0.03936089, 0.08710124, 0.08387286, -0.14094429, 0.15216106, 0.026742436, 0.083088346, 0.046180967, -0.06916683, -0.13113452, 0.040988468, 0.07470194, 0.06773403, -0.060179647, 0.09517869, -0.11384837, 0.017214334, -0.11212568, -0.10165296, -0.106517226, -0.14218359, -0.006862471, -0.11106116, -0.11082224, -0.0361075, 0.0059385104, -0.03291433, -0.05022677, 0.09212714, 0.15191616, -0.14688377, 0.03779739, 0.13611124, 0.10478675, -0.023678005, 0.099083096, 0.1324303, -0.062157698, -0.1544943, -0.108136535, 0.0024620476, 0.1050552, -0.052575085, 0.059089027, -0.036252256, -0.028719038, 0.040181294, 0.07974211, -0.1492057, -0.078182325, 0.083061464, 0.15283698, -0.07235723, -0.07114709, 0.10057028, -0.11270567, 0.05056422, -0.09722871, 0.15043028, -0.13958777, -0.14847296, 0.034871988, -0.09210507, -0.0841047, -0.1209335, 0.14657158, -0.13520017, -0.030960405, 0.10171165, 0.15413107, -0.103828244, -0.11770379, 0.02232373, -0.07932753, -0.07108261, -0.06370964, -0.12046449, 0.15126996, -0.020749737, -0.050210714, 0.07760051, -0.108607225, -0.10439517, 0.062547624, -0.1107223, -0.12775768, 0.015537484, -0.019757526, 0.071132705, -0.025322398, -0.080601156, 0.065374486, -0.07920266, 0.09918801, 0.10051552, 0.07841971, -0.12491043, 0.029615235, 0.11077853, -0.056381796, -0.10058584, -0.10237806, 0.019114051, 0.084851354, 0.039720934, 0.0893423, -0.14209905, -0.1406018, 0.041490294, 0.082790345, 0.05992425, 0.021804413, -0.15145092, -0.008377544, 0.14820622, -0.014022448, 0.063670754, -0.10927622, 0.10961344, 0.018580126, 0.066597834, -0.12210945, 0.05806351, 0.07254366, -0.0958168, -0.010528607, -0.022719966, 0.10603331, -0.14586134, 0.09730069, -0.03194425, -0.11282442, -0.06720073, 0.076785035, -0.01959077, 0.08204445, -0.036992934, -0.03014409, 0.03295312, 0.09417717, -0.0054761907, 0.109153606, -0.010005652, -0.14229834, 0.005291342, -0.037080936, 0.1415383, -0.14878744, 0.0359562, -0.046169035, -0.10754921, -0.013477477, 0.1509709, 0.13835101, 0.09173445, -0.0657246, -0.019612353, -0.11991641, -0.054824483, 0.031823747, 0.14626358, 0.1277554, 0.09655287, 0.08638797, 0.022445869, -0.09442075, -0.013962547, -0.021900898, 0.09781871, -0.14087637, 0.101699285, 0.0036064994, -0.12959073, 0.12398936, -0.06596824, 0.1095323, -0.12891805, -0.032201096, -0.09080089, 0.06190149, -0.14287467, -0.08714829, 0.13024126, 0.07361441, -0.090412214, 0.06300071, -0.026945926, -0.04274733, 0.10398378, 0.0352873, -0.019053057, 0.07535288, 0.15118666, -0.12128478, -0.08577087, -0.15044181, -0.08049994, -0.1021906, 0.15302795, -0.030337946, 0.09259848, 0.10954522, -0.067806505, -0.058580793, 0.002914264, -0.024458792, -0.12518848, 0.05072479, -0.08691558, -0.01736109, 0.010657834, -0.07725426, 0.111959055, 0.09542166, -0.034832407, -0.10706752, 0.14534922, 0.030055162, 0.11523872, 0.074282825, 0.11860991, -0.071582854, 0.028650673, -0.053316347, 0.15350072, -0.08575202, -0.01568241, 0.14554524, 0.058914866, -0.072035424, -0.06295792, -0.027354848, -0.14663956, -0.021707248, 0.12446536, -0.14967851, 0.14522268, 0.12797807, 0.076278575, 0.061341062, -0.07225816, -0.10922425, -0.14917608, -0.029151652, 0.048885595, -0.08774571, 0.006879868, -0.017602257, -0.14774947, 0.09026095, -0.110640295, 0.11674963, 0.005078315, 0.035649043, 0.09273557, -0.105768144, -0.13777447, 0.047721203, -0.05657411, 0.014138726, 0.020290961, -0.008667699, 0.13524677, 0.004888999, 0.08704038, -0.042298768, 0.06098605, 0.0051773456, -0.007482968, 0.15790617, -0.13501146, 0.15274934, -0.081442386, 0.070970364, 0.14523304, -0.057875704, 0.130677, -0.09319109, -0.0060615162, 0.10378734, 0.10342756, -0.15029833, 0.023802124, 0.14795846, 0.0030101095, 0.030747792, 0.04308698, -0.15252814, -0.14718056, -0.047342062, -0.101470746, 0.03367706, -0.0782237, 0.12182344, 0.092091195, 0.11017618, 0.06513009, 0.07046015, 0.0752387, -0.058693904, 0.011383317, -0.14803785, 0.05849665, 0.03353709, -0.085482724, -0.010585776, 0.08182294, 0.05632167, 0.09005079, 0.02243409, -0.1537429, 0.099639244, -0.043516655, 0.14373884, -0.101654425, 0.10001733, -0.059177615, 0.016167877, -0.06286415, 0.07943258, 0.02133037, 0.14777489, -0.14037436, -0.06576002, -0.13556308, -0.08995636, 0.07758628, 0.14788811, -0.10811893, 0.032852262, -0.044776402, 0.0851148, 0.11157068, 0.0063739703, 0.15373625, -0.06761048, 0.1362786, 0.08969943, 0.106743924, 0.13126385, 0.04107374, 0.1364012, 0.0019277451, -0.13362442, -0.09576391, 0.11135671, -0.15625255, 0.03039553, 0.1013337, 0.08977249, 0.13003911, 0.07970924, 0.15513983, 0.10249819, -0.12258867, -0.013198366, 0.011124677, -0.015019315, 0.1432861, 0.14224334, -0.02741916, 0.11744254, -0.018347044, -0.03744941, -0.10053471, -0.0423323, 0.0014125739, -0.14060514, 0.12757632, 0.1297841, 0.07588136, 0.007196261, -0.10352836, 0.039710812, -0.054671038, -0.048769243, 0.0024860417, 0.04250795, 0.062078197, -0.031606026, 0.10182663, -0.05873277, 0.12336741, -0.02536034, 0.11252097, 0.09566046, -0.06416074, -0.13248856, -0.04924472, 0.06062617, 0.02057778, 0.10998012, -0.13094734, -0.097060524, 0.08903607, -0.08747433, 0.04573708, 0.13645956, 0.022321053, -0.121271476, -0.10555246, 0.11134861, -0.15296477, 0.036386043, 0.06822845, 0.07325808, -0.10992961, -0.091871984, -0.109825864, -0.13583648, -0.14418133, -0.07328867, 0.08346534, 0.047068946, -0.093600966, -0.073987275, 0.08646655, -0.1514249, -0.01470394, -0.015330412, 0.13543762, -0.09507275, -0.060645003, 0.10361697, -0.06503674, -0.14831448, -0.091247, -0.0612717, -0.025896963, 0.06508252, 0.094724536, 0.15650234, 0.088114396, -0.111691184, 0.15355788, 0.11400544, 0.06533389, 0.09580543, -0.04611334, 0.1389565, 0.06587989, -0.053206913, 0.0027999096, -0.054419596, 0.049061645, 0.07581158, 0.0867289, 0.019045498, 0.10236785, -0.11344693, -0.060135845, -0.13067813, 0.0088660065, -0.1078673, 0.14354114, 0.027388569, 0.013347328, -0.10568764, -0.0941656, 0.07039612, 0.00022918066, 0.07653524, -0.1474613, 0.07043231, -0.006208046, -0.07201088, -0.072516724, 0.111258395, 0.13133106, -0.14167877, -0.047753546, 0.0153420605, -0.019239828, 0.14586756, -0.056204148, 0.14338347, 0.14440136, -0.054222517, -0.13336365, -0.017468093, 0.114344865, -0.02453445, -0.12032329, -0.12574753, 0.057129994, -0.07821836, 0.11784283, 0.08015698, -0.094292656, 0.037735153, -0.10180516, -0.10888249, 0.10768019, -0.026895411, 0.086544886, 0.15184605, 0.074560694, -0.124646775, 0.14144512, 0.01022929, -0.12717186, -0.058166724, -0.1215431, -0.08303915, -0.028786818, -0.011346638, -0.14433694, 0.04988403, -0.089221805, 0.156379, 0.059813682, -0.065600835, 0.04188894, 0.011475318, -0.08142158, -0.13139844, 0.0269722, 0.1490618, 0.079072885, 0.056878213, -0.13277051, 0.04665899, 0.13918261, -0.14837687, 0.008022755, 0.072170325, 0.05174224, -0.017764036, 0.0958953, 0.11774431, -0.10300869, -0.08184126, -0.08079281, 0.040967733, -0.13659337, 0.027853865, 0.06925553, -0.029475736, 0.06921697, -0.13259149, 0.12932557, -0.14559619, -0.093075246, -0.06531547, -0.021735992, -0.11324246, 0.060999338, 0.018944263, 0.056156386, 0.05335374, 0.10820601, 0.071220785, -0.15528874, -0.06338166, -0.0061992058, -0.09659943, -0.04837284, -0.025736786, -0.15078484, 0.006552467, -0.053118043, 0.13006018, -0.07643097, 0.008531273, 0.13098785, 0.1361804, 0.10756766, -0.035302773, 0.108984046, -0.04208629, -0.054609008, -0.05896312, 0.06549048, 0.021623258, -0.0011664483, 0.052069396, 0.012622409, -0.069841534, 0.089115635, 0.078395374, -0.09263209, 0.12837629, -0.15526897, -0.15202715, -0.019291926, -0.11163843, 0.06565531, -0.0041018417, 0.12467663, 0.036753986, 0.089047134, -0.14686723, 0.03907763, -0.06569866, 0.046692424, -0.070828, 0.14277175, -0.083931014, 0.1440163, 0.10665026, 0.119399995, -0.14788832, -0.12093014, -0.037236813, -0.04386447, -0.049575496, 0.017038155, -0.14834885, 0.09270719, 0.096308954, -0.04264417, 0.117721595, -0.13800536, -0.15711707, -0.096622825, -0.077036425, -0.15690567, 0.028386604, 0.006923088, 0.1314068, -0.061709385, 0.04978694, 0.037375636, 0.04034215, -0.1538473, -0.027685868, 0.052338198, -0.031691205, 0.10779294, 0.056600533, -0.11254397, 0.11488007, -0.10956728, -0.14067714, 0.06861994, 0.1493025, 0.11919494, -0.07724144, -0.04510254, -0.014652973, -0.12612782, 0.020400094, -0.1167, 0.01710424, -0.027491802, -0.057899583, 0.088423476, 0.15425166, 0.044434246, -0.06018694, 0.05531828, -0.009091662, -0.15042964, 0.10821604, 0.013177954, -0.103210196, 0.03950734, -0.06646503, -0.11415621, -0.13460058, 0.121984065, 0.05265557, -0.14887722, 0.072998576, -0.12930855, -0.13390101, 0.006838759, 0.0744305, -0.039794367, 0.076110296, -0.06557741, 0.027539358, 0.15230465, 0.05737484, -0.030978838, 0.12550403, 0.13236724, -0.08605921, 0.034277163, -0.09359437, -0.07857506, 0.15798922, -0.016024156, 0.1496207, -0.043249287, -0.052555937, -0.10668453, -0.01503381, -0.059109025, 0.05244786, -0.08523432, -0.12669723, -0.09405643, 0.10745299, -0.15736885, 0.0023669938, 0.124767505, 0.14615981, -0.09698758, 0.1314158, -0.013177087, 0.1225787, 0.024530943, -0.09567213, -0.1256755, 0.1271334, 0.11938597, -0.11617944, 0.01508489, 0.038344663, 0.0043903766, 0.1533393, -0.13050266, -0.14463462, -0.113481954, -0.054083373, 0.06585088, -0.02785592, -0.12780428, 0.10863282, 0.07711517, -0.06821217, -0.036852002, 0.14948028, 0.1197466, -0.008668604, 0.019727707, -0.14985761, 0.011574368, 0.07490345, -0.08370913, -0.027311722, 0.065940864, -0.09628302, -0.036782317, 0.14234787, 0.02549967, -0.0075017978, 0.03512852, 0.06275729, 0.017582014, -0.02683227, -0.07390842, -0.012610459, -0.026107067, 0.04230139, -0.02010551, -0.045407135, -0.13094996, -0.012314855, -0.08607923, -0.003135227, -0.088622876, 0.13830814, 0.13946167, 0.13887762, 0.0654021, 0.09941185, -0.007909739, -0.15513325, -0.15488671, 0.121051624, -0.13478822, -0.003723738, -0.15141302, 0.0795254, -0.04822929, 0.028070003, -0.12310528, 0.1511058, 0.02910862, -0.05285107, -0.13321422, -0.04504102, -0.042675383, 0.08576021, -0.07673373, 0.026115926, -0.03318296, -0.0409208, 0.026398053, -0.10639403, 0.03201014, 0.015078255, -0.055190846, 0.028045198, 0.0033537392, -0.15656607, 0.14427887, 0.089472644, 0.15604532, -0.13454247, -0.021486323, 0.038618647, -0.12447993, -0.07528001, 0.1572846, -0.040235747, 0.019187843, -0.05919166, -0.15015203, 0.073644474, 0.065160476, -0.022410791, -0.14495029, 0.11456499, 0.11575545, -0.055206865, -0.12539859, -0.010225389, 0.0011060572, 0.12920643, -0.09133089, -0.009473347, 0.120958135, 0.024051001, -0.08407204, -0.03396058, 0.048654813, 0.07624516, -0.07058566, -0.06307391, -0.03967351, 0.1209485, -0.09890362, 0.089003876, -0.14209664, 0.14452173, -0.09564714, 0.008479646, -0.032543972, -0.009831773, 0.091644175, -0.04444286, 0.06558219, 0.13305362, 0.11257307, -0.10312579, 0.025031094, -0.030835815, 0.06153807, 0.050695065, -0.028623777, 0.08119278, 0.013886192, 0.07421563, -0.13629954, -0.03984511, -0.13684219, -0.034416247, 0.15522897, -0.058609933, 0.12477657, -0.023138313, 0.10857803, -0.13152683, 0.05811165, -0.036987334, -0.038502954, 0.062403034, 0.121229105, 0.06548494, -0.06758256, 0.12262631, -0.020567602, -0.024554769, 0.14928311, 0.047329716, -0.06482007, -0.15124314, 0.107155785, 0.028493287, 0.12259371, -0.12520875, 0.08911179, -0.13820858, -0.07314316, -0.0940471, 0.14541054, -0.12560561, 0.13403493, 0.0677157, -0.048638113, 0.15204208, 0.115811534, -0.02869723, -0.09938158, -0.04953761, -0.0037116937, -0.099134386, -0.07792827, -0.017375886, 0.07688914, 0.012052275, -0.13032664, -0.05473254, 0.058131196, -0.12957117, 0.083881535, -0.088177085, 0.034578007, 0.086670436, -0.09835716, -0.10279943, -0.14177608, -0.121685974, 0.10611183, -0.028510533, 0.13397779, 0.1404051, 0.045896653, 0.12272987, -0.12531109, -0.06136489, -0.13783528, 0.01657642, 0.012118283, 0.083840236, -0.07624576, 0.05015984, -0.008278663, 0.08338506, -0.14933968, -0.057632647, 0.031605124, -0.01922835, -0.07401951, 0.06926631, -0.053214695, -0.03437608, -0.033318426, 0.09069965, 0.11164519, -0.1448452, -0.110263035, -0.096989915, 0.05299573, 0.08627535, -0.10187275, -0.0035646367, -0.06604559, 0.11976451, 0.024392048, 0.008700477, -0.1534816, 0.14227174, -0.0064869868, 0.11677943, -0.077583075, -0.09502932, -0.08948209, 0.08010112, 0.07656317, -0.09337362, -0.09723225, -0.007461575, -0.1498943, 0.024378402, 0.15725142, 0.09641124, -0.095210716, 0.14914127, -0.051100556, 0.037851714, -0.10041112, 0.025647255, 0.043418963, 0.007392306, 0.04105282, 0.092837654, -0.10247452, -0.13288309, 0.014985519, -0.09304058, 0.096612304, -0.009252592, 0.04920231, 0.018498285, -0.12283427, -0.053125806, 0.038350977, -0.007845163, 0.0066906842, -0.14780393, 0.06697907, -0.051240772, -0.017770048, 0.058752578, -0.11707167, 0.0063144276, -0.14107476, 0.03493123, };

static float32_t tensor_W_inbias[40] = {-0.12703276, -0.07973281, -0.0641088, 0.0908429, -0.036624443, -0.0764762, 0.12361721, -0.14553256, 0.09299084, -0.022230957, -0.11970668, 0.062750906, 0.1485589, -0.08784616, 0.15751132, 0.0251292, 0.15286422, 0.07672561, -0.068328254, 0.059729204, -0.10295672, -0.14814012, 0.009294982, -0.036458272, 0.04741203, -0.15558174, 0.03998035, -0.11914685, -0.034812465, 0.018492932, -0.09667735, -0.09992533, -0.025777593, -0.04576952, -0.0026416562, 0.06692607, -0.015732925, 0.1326658, -0.0011360266, -0.0067762383, };

static float32_t tensor_W_hnbias[40] = {-0.070136085, 0.11069006, -0.09837075, 0.06429087, -0.15345857, -0.10347018, -0.08722889, 0.06399101, 0.0071967514, -0.09676613, -0.1520018, -0.084577784, -0.14469324, 0.030432887, -0.027291913, 0.06648017, 0.07402215, 0.15320253, 0.007398206, -0.11609585, 0.026645385, -0.01512468, -0.043807752, -0.04571305, -0.0322076, 0.050409906, -0.018949747, 0.09592048, 0.106265426, 0.116406016, 0.030673943, 0.027077263, 0.0759328, 0.049671076, -0.14087288, -0.05297822, 0.080409385, -0.07438564, 0.15610617, 0.06864135, };

static float32_t tensor_onnxMatMul_38[1600] = {-0.01599935, -0.057559423, 0.05181656, 0.1036283, -0.00014905508, -0.021555988, -0.09743181, -0.15198073, 0.08398703, -0.10625932, -0.14929351, -0.045292158, 0.11839308, 0.13721932, -0.12189029, -0.13562517, -0.056429822, 0.033906676, -0.10802073, -0.14560172, -0.12048334, -0.12599903, 0.077576794, -0.079910085, -0.06723935, -0.08780324, -0.08540387, -0.1049677, 0.046733044, 0.01840161, -0.056629073, 0.11477555, 0.12270987, 0.0651267, -0.11663927, -0.058696166, -0.05846327, -0.092243545, -0.14576766, -0.005090133, -0.03735822, 0.128707, 0.12023787, 0.13112542, 0.10468523, -0.08963205, 0.035673093, -0.02564358, -0.13903797, 0.07583573, -0.06334652, 0.12653972, 0.09135084, -0.09339512, 0.04224601, 0.008437388, 0.11282858, 0.047316033, 0.09161274, -0.11752074, 0.022801995, 0.05871707, -0.12910888, -0.15380158, 0.13404739, -0.07420194, -0.0126477415, 0.13259551, -0.006329714, 0.088116504, -0.121117555, -0.084559485, -0.035411343, 0.087742016, -0.15085477, 0.04738055, -0.035570897, -0.051991023, 0.023626229, -0.029930025, 0.0831218, -0.015051528, -0.07412216, 0.06675407, 0.0122242505, -0.037733722, 0.1503246, 0.044074915, -0.099577725, 0.024954794, 0.13022885, -0.073987976, 0.08897217, 0.120146625, 0.11318511, -0.017584315, -0.06974183, 0.03220404, 0.017028563, 0.116054304, -0.058450133, -0.03228767, -0.0029793486, 0.0863299, 0.14622857, -0.10629572, -0.071148746, -0.107256584, 0.079722546, -0.024806568, 0.041493874, -0.05654674, -0.021117907, -0.04683447, 0.018167228, -0.009151808, 0.12895349, 0.086949565, 0.13454151, -0.025835156, 0.15801494, 0.06590304, -0.08068963, 0.026946736, -0.03481135, -0.12786527, -0.078289144, -0.03723212, 0.05720392, -0.11650637, -0.05327878, 0.1021457, 0.13454907, 0.035769824, -0.07818442, -0.006636155, -0.13367622, 0.07872694, 0.11831107, -0.051965844, -0.09067911, 0.022081299, 0.032902494, -0.023143703, 0.052239902, 0.020002576, -0.051679607, -0.14297433, -0.09117204, -0.07430269, -0.012887515, 0.060972724, -0.020277616, -0.09022001, 0.047574427, -0.038929272, 0.08217956, 0.12473593, -0.1482963, 0.045631718, -0.14496195, -0.1356556, -0.09710904, -0.10244739, 0.1242351, -0.08599386, -0.013300413, -0.037941642, 0.15147579, 0.038446918, 0.06459634, -0.048774276, 0.04756704, 0.015157231, 0.07917529, -0.023344422, 0.035886347, -0.007795592, 0.14272729, -0.06135944, -0.13200264, 0.039063796, -0.12631124, 0.09569485, 0.117348, 0.12982042, 0.059850268, -0.09961602, 0.0376846, 0.0911599, -0.012976424, 0.071883276, 0.106870204, 0.056696136, -0.0696755, 0.027561467, 0.10219282, -0.05005864, 0.14348978, 0.113711715, -0.013282564, -0.025265928, 0.06790974, 0.08858966, -0.04665976, -0.050324313, 0.09712312, -0.0043925443, 0.09327423, -0.15305866, -0.019524971, -0.075200036, -0.098460995, 0.07811426, 0.013338563, 0.07489575, 0.12203839, 0.018462604, -0.06954756, 0.048097026, 0.1576352, -0.1261049, -0.027873073, -0.010637383, -0.047746234, -0.05198156, 0.00615199, -0.15144917, -0.028285405, 0.010220055, -0.021396246, 0.12953039, 0.07207363, 0.10018551, 0.11062855, -0.041459627, 0.020533768, -0.030841507, -0.11240971, 0.07646208, -0.000556657, -0.083073944, 0.08252038, 0.095892005, -0.101360016, 0.1557312, 0.13599499, 0.15642849, 0.03271427, 0.130156, -0.085823305, -0.055720795, 0.1224098, 0.03368884, -0.110672735, -0.011102398, 0.110891454, 0.027837317, -0.08844865, 0.106962, -0.12886585, 0.08379085, 0.12079021, -0.096209906, 0.14321466, -0.15228963, -0.08369514, 0.03675048, 0.13444248, 0.12615412, 0.11369711, 0.013723453, -0.025557177, -0.06181654, 0.08774362, 0.06006874, -0.118006796, 0.15764886, -0.080107585, -0.008528257, 0.10328167, -0.121667996, -0.039706532, -0.07669905, 0.013424023, 0.010754112, -0.057544854, 0.115990974, 0.024762575, 0.14360751, -0.07952686, -0.11802719, -0.035880845, -0.1454898, -0.15182662, 0.09851087, -0.10644238, 0.11706953, -0.07709448, -0.13830128, 0.003017008, 0.14659785, -0.04816771, -0.12106808, 0.0258364, 0.0089086415, -0.13577259, 0.056502637, 0.07549291, -0.09763207, 0.047846697, 0.042863343, -0.1145177, 0.09499543, -0.018171016, 0.00048015034, 0.01076691, 0.14109126, 0.040211074, 0.12751833, -0.063551426, 0.11953395, 0.11267932, 0.13412237, 0.024350788, -0.059844404, -0.015913684, -0.06704698, 0.09143896, 0.119129084, -0.0576836, 0.056645412, -0.035319246, -0.03192751, 0.061825983, -0.12620486, -0.11501591, -0.091491014, -0.07031822, 0.13374494, -0.1466973, 0.043508492, 0.1395423, -0.05104927, -0.12244363, 0.023036059, 0.1127137, -0.06505617, -0.14238465, -0.083856165, -0.06836312, -0.14909638, -0.094142415, 0.14283063, -0.0759518, 0.031880427, -0.14525783, -0.0148174465, -0.021243533, -0.019578671, -0.04943204, -0.01958242, 0.028347831, 0.14790995, 0.018378785, 0.012211773, 0.011964422, 0.075318724, -0.15029591, 0.05079683, 0.08079914, 0.02773755, 0.11843257, 0.026845444, -0.15260714, 0.096168794, -0.082125366, -0.050415426, 0.006611991, 0.10801536, -0.043950494, -0.039615326, 0.11670975, -0.109834686, -0.029872442, 0.010840421, -0.09115811, -0.008525317, 0.075566754, 0.15704682, -0.14297229, 0.09119181, -0.13977556, -0.09996222, 0.028169598, 0.07601307, -0.009700511, -0.0769546, -0.05848572, 0.09746658, -0.050270747, -0.032536794, 0.08683623, -0.0039038367, 0.14525615, -0.121741205, 0.06341162, 0.112504855, 0.00019321745, 0.06425267, -0.14127356, -0.115763396, 0.14155416, 0.00015977996, 0.15162912, 0.04528509, 0.1449912, -0.023540014, -0.09681609, -0.08824837, 0.09148291, -0.14872028, -0.030275935, 0.07252481, -0.084095694, -0.0040979967, 0.07102619, -0.0020292827, -0.015343927, -0.110902496, -0.08199718, -0.058562737, 0.06413867, 0.09966927, -0.09489342, -0.08228455, -0.03621128, -0.012969205, 0.08700374, -0.04294192, 0.041662965, 0.047879778, 0.04096189, 0.0790992, 0.01962204, 0.08059433, -0.11131911, -0.060259867, -0.06267788, 0.046865985, 0.086105034, -0.10811836, -0.045807954, 0.07704253, -0.03593905, -0.012968169, -0.036516324, 0.04073963, -0.06632325, 0.089530714, 0.005886884, 0.038741276, -0.08027132, -0.108088225, 0.15423095, 0.049647495, 0.007446854, 0.1315545, 0.051469784, 0.15244609, 0.01891369, -0.043940242, -0.13907243, -0.03588256, -0.08943923, 0.09679257, -0.041621555, 0.09997384, -0.12134785, 0.05985577, 0.019590111, 0.117730476, -0.014769552, 0.022865403, -0.06909249, -0.099783584, -0.023448994, 0.09094912, 0.088571794, -0.029202335, -0.12279356, -0.054714937, 0.12398054, 0.11183513, 0.066990264, 0.0648078, -0.05952426, 0.11735637, -0.12655477, -0.14971234, -0.0013969484, -0.06464125, -0.15124297, 0.05269127, -0.11660065, 0.106886394, -0.14155895, 0.099932075, -0.15357985, -0.02391546, -0.13191757, 0.15520538, 0.11873916, 0.06912638, 0.084192686, 0.00031741115, 0.07859871, -0.07783125, -0.0963419, -0.09941928, 0.025115931, 0.12484022, -0.031184308, 0.094238885, 0.014272645, 0.12067388, 0.15183245, -0.11456128, 0.087641895, 0.08604153, -0.032869566, 0.11537975, -0.13507557, -0.15347458, -0.116838425, -0.0570828, -0.10271879, 0.10020424, -0.09735449, -0.099001974, 0.075453624, 0.08865448, -0.026394622, 0.014312472, 0.08433643, -0.06723568, -0.070238076, 0.066559024, -0.018357731, -0.076390535, 0.13738415, -0.15518066, 0.092786126, 0.0082836775, 0.012857659, 0.13020225, -0.015519803, 0.14189866, 0.14845788, 0.05087023, -0.10417898, -0.008086483, 0.12691908, -0.09860242, -0.10643512, -0.08588761, -0.13738397, 0.14636825, -0.11979981, -0.030946909, 0.087026976, -0.14482072, 0.14210497, 0.045558926, 0.0360397, 0.07766644, 0.08971348, 0.13036732, 0.075045384, 0.13911915, 0.1281302, -0.15067235, -0.110184625, -0.096056774, 0.13290353, 0.08689445, -0.026346935, -0.085699074, 0.04131702, 0.12980588, 0.045377187, 0.14850622, 0.046757076, 0.039407086, 0.024816463, 0.112988025, 0.14269088, 0.057011228, -0.058993068, -0.041627266, 0.04407855, 0.1026244, 0.0980111, 0.028793527, -0.006674983, 0.06739069, 0.14289631, -0.069059774, 0.07999719, 0.14298499, 0.14885277, -0.14531066, 0.043076918, -0.05072724, -0.13193673, 0.08544194, -0.002118531, -0.15265846, -0.054209303, -0.1127199, 0.12672973, -0.10395543, -0.035455674, -0.14959058, 0.10934969, -0.13025294, -0.15107465, 0.1352268, 0.060267538, -0.041828286, 0.030504776, -0.06111782, 0.032828156, 0.13191465, 0.0791382, 0.08941237, -0.11806592, 0.04556588, -0.075240016, 0.061447237, 0.038013585, -0.025293844, -0.13946545, 0.051734474, 0.06678619, -0.12390499, -0.030374533, -0.11980914, 0.15293315, -0.12861566, -0.15159702, -0.07830903, 0.08317661, 0.12131933, 0.043975882, 0.13489786, -0.06347185, 0.11136663, -0.0012524923, -0.05712679, -0.028411295, 0.13073295, 0.080372296, -0.10238118, 0.03207302, -0.11980758, -0.074986875, -0.10320675, 0.14767505, -0.13658571, 0.007850535, 0.032200232, -0.11156703, -0.14995132, -0.046830058, 0.041227564, 0.034308866, -0.07997042, -0.03259824, 0.047443807, 0.02865254, -0.13495052, 0.027665624, -0.06668036, 0.06289353, -0.026340207, -0.003065355, 0.10577891, 0.1415163, 0.087200195, 0.12753043, 0.12990476, -0.15136074, 0.01583778, 0.053114798, 0.12825641, 0.12171063, -0.04494084, 0.019320745, -0.09902923, -0.023035191, -0.14755851, -0.08062326, -0.07731165, -0.03908451, -0.10952317, -0.11703911, -0.049021553, 0.12743177, -0.057322174, 0.102716304, -0.10157044, 0.10922732, 0.06240818, -0.1329662, -0.15154916, 0.004834187, 0.07552105, 0.06550111, -0.14084724, -0.11380816, 0.0797154, 0.08548785, 0.07033011, 0.03075993, -0.016137661, 0.008069255, -0.091191284, 0.0046013496, 0.11382304, -0.08694001, -0.0012474032, 0.035240762, 0.08922056, 0.012326541, -0.015037033, 0.06413016, 0.09327202, 0.057838798, 0.15175642, -0.04432453, -0.14008573, -0.0061241128, 0.10432115, 0.11811146, 0.08913258, 0.15162557, 0.13345876, 0.08523809, 0.13218951, 0.1426246, 0.0743818, 0.033512626, 0.029826263, -0.029899359, -0.09785724, 0.08299961, -0.0748966, -0.14148414, 0.115799166, 0.11846057, 0.11914669, -0.04329543, 0.0037279413, -0.008494556, 0.11669868, -0.1458819, -0.10801929, 0.1402112, -0.14128545, 0.14948054, 0.082692355, 0.12190653, 0.006921976, 0.14961478, 0.14511609, -0.046080466, -0.114064656, -0.06348308, -0.11974283, 0.15608831, -0.05606271, 0.12037113, 0.10934077, 0.054593757, 0.072086655, -0.12598653, -0.07669368, 0.10653216, 0.01561007, -0.01279052, 0.1273931, 0.12795141, 0.04134171, -0.013968937, -0.041944582, 0.041995477, -0.11094911, -0.080268756, -0.026975367, -0.038324796, 0.05385101, -0.008268862, -0.097236834, 0.12986323, 0.1264227, -0.08760682, 0.106453635, -0.08134479, -0.0260715, -0.095615156, -0.08098491, -0.15728879, 0.017706152, 0.053811558, -0.04873884, 0.065269426, 0.06558753, -0.10172958, -0.11368601, -0.072709136, 0.06359472, -0.12178934, 0.04503789, 0.05705377, 0.10839538, -0.12676525, 0.11552098, -0.11727873, 0.1572495, -0.023184642, 0.09386457, -0.00018797752, -0.05896747, 0.049689963, -0.022680478, -0.13304354, 0.10007518, 0.10706299, -0.05981436, -0.056476682, -0.111213006, -0.13732664, -0.0038470835, 0.09135027, -0.0919646, 0.121909276, -0.066460565, -0.0022617618, 0.078792945, 0.15588202, -0.11479593, -0.05803993, -0.05281503, -0.03292662, -0.05927265, -0.103416175, 0.04932283, 0.12972634, -0.13749833, 0.0779837, -0.13071507, -0.027354697, -0.10060379, -0.13152987, 0.03206226, 0.108886085, -0.075030774, 0.13218446, -0.080559105, 0.056080427, 0.012236728, 0.0027945566, -0.09539291, 0.0008927095, 0.10729204, 0.03950293, -0.12912583, -0.0053057233, -0.03533787, 0.04927646, 0.07626195, -0.017425533, 0.088111, 0.07225277, -0.05139388, 0.1419085, 0.024425317, -0.0048551844, 0.07791622, 0.15303114, -0.13570991, 0.15005015, 0.061741088, -0.14472935, -0.030503042, -0.043338895, -0.017679198, 0.043042667, 0.04901503, 0.08261581, 0.05438601, 0.07715142, -0.08999479, 0.039683122, -0.07480226, 0.05526914, 0.033281483, -0.022236725, 0.009052382, -0.017873906, -0.053534992, 0.050733007, 0.008816453, -0.044468794, 0.10765845, -0.014898608, -0.112526625, -0.13531376, -0.059866816, 0.010893234, -0.035087522, -0.10908121, -0.100535646, -0.10470972, -0.009542352, 0.06299079, 0.15155743, 0.037396386, 0.1521192, 0.105273165, 0.025529658, -0.002382883, -0.0059985053, -0.023134882, -0.063662894, 0.14749669, 0.012123844, -0.106269956, 0.1066015, 0.13991664, 0.08415735, -0.079727955, -0.042366605, -0.06870283, -0.013248975, 0.0606883, -0.01153897, 0.11017633, 0.09383426, -0.061288364, 0.013467488, 0.05060152, -0.08535207, -0.048885617, -0.026614549, 0.14899285, 0.07479127, 0.14343679, 0.041816752, -0.016417546, 0.14606185, 0.15434799, -0.15646054, -0.008666191, 0.101148665, 0.1243718, -0.060574073, 0.14186104, 0.030837437, 0.102749854, 0.057203844, 0.09198449, 0.03740031, -0.042413235, 0.047902394, 0.0068566655, 0.12945755, 0.0029436303, 0.15081565, -0.046299506, 0.026174188, 0.14244616, -0.11906396, -0.0134316, 0.07956687, 0.10199762, -0.13475333, 0.14898038, 0.12062923, -0.09938192, 0.03816296, 0.027377164, 0.12113567, -0.026156658, 0.09018288, 0.13901131, -0.15575346, -0.13903321, 0.14992703, -0.13968472, 0.06573365, -0.1156199, -0.0001709572, -0.09357916, 0.10070614, 0.11083724, 0.016474072, -0.10480749, 0.056363855, -0.14878528, 0.051220547, -0.04127182, 0.04734227, 0.0361779, 0.14030051, 0.11850728, -0.0996157, 0.09883759, 0.15810244, -0.053296708, 0.12867387, 0.013561713, 0.038225766, 0.13948025, 0.0017943531, -0.073810495, 0.010853464, -0.12264059, 0.1477894, 0.13695754, 0.050823748, 0.1092915, -0.07031385, 0.07472049, 0.0010036337, 0.1365783, -0.006236356, -0.14080195, -0.10291372, 0.09785332, -0.12571344, -0.1136612, -0.039304286, 0.14735238, 0.014521975, -0.100600906, 0.10837472, 0.083659574, -0.08413456, -0.15255612, 0.020931061, 0.065188, 0.15003449, -0.037968766, -0.08070405, 0.1028552, -0.06816208, 0.040680744, -0.06304873, 0.007338738, -0.016165558, -0.093244426, 0.1041242, -0.107276075, 0.15643264, 0.09786155, -0.057830296, 0.05781893, -0.014352582, 0.14768857, 0.038516976, 0.12390026, -0.10551482, 0.058032315, 0.13612998, -0.078333326, -0.09671552, -0.14153098, -0.07450812, 0.06142053, 0.15258591, -0.067066416, -0.101046726, -0.1332489, 0.057447158, 0.03784538, -0.064013496, -0.13974962, 0.13556564, -0.12827218, 0.07647078, 0.05556322, -0.13732068, -0.103694364, -0.050646003, -0.11518617, 0.08752599, 0.15210927, -0.051422905, -0.08479713, 0.08584954, 0.05600388, -0.15037753, -0.016072635, -0.014340859, -0.11578392, -0.044763476, 0.13922314, -0.055220626, -0.029447444, 0.12255405, 0.006490964, 0.13297799, 0.06772564, 0.09350829, 0.07681978, -0.14991249, -0.053595647, 0.085564375, 0.12830675, -0.11286545, -0.00033190576, -0.1297789, 0.080907576, -0.11706642, 0.0419116, 0.008131625, -0.1559681, 0.08617668, -0.13050066, 0.051300034, -0.10852708, -0.07350973, 0.12406554, -0.07316951, -0.13055305, -0.046783824, 0.065292604, -0.12966004, 0.15095297, 0.05579981, 0.11302921, -0.13509497, -0.10499775, 0.10131393, -0.086629726, 0.016179148, 0.13814485, -0.13570637, 0.07161723, -0.008426041, 0.053396266, -0.011061949, -0.0627205, -0.09695139, 0.03514699, 0.04726354, -0.0917286, 0.14912768, 0.07068411, -0.0779228, -0.016906347, 0.011047492, -0.004493592, -0.00041695085, 0.056941584, -0.06024475, 0.15150303, 0.15151905, 0.08116115, -0.11301368, -0.033574317, 0.11161598, 0.03735279, 0.106263466, -0.110491276, -0.06474556, 0.059824992, 0.031138148, -0.03581397, -0.15243301, -0.028475003, -0.03599514, -0.0022373905, 0.008869286, 0.09691855, -0.107660905, 0.056570772, -0.041151244, 0.10020016, 0.037091453, -0.14069167, -0.05918033, 0.07172293, 0.14489207, -0.044306412, 0.12034599, -0.08945229, -0.023391921, -0.10445106, 0.029639812, 0.113000706, -0.065049894, -0.10602098, 0.05004673, -0.14126474, -0.12349177, -1.5078915e-06, 0.03904762, 0.022430584, 0.13959993, 0.15535676, 0.045348216, 0.1572782, -0.1358633, 0.03585992, -0.15512028, 0.06944792, 0.13813819, -0.110741965, -0.029843397, -0.049951676, 0.15623793, 0.03063749, 0.095382355, 0.027116394, 0.1560557, -0.121232875, -0.07175876, 0.00036266676, -0.0045350967, -0.11907919, 0.010163471, -0.10368394, 0.0059153643, -0.11509287, -0.08505566, 0.14024018, -0.12552908, 0.049197163, -0.14372812, -0.03561323, 0.13699748, -0.058685046, 0.09718336, -0.054344937, -0.11730335, -0.09844813, 0.06724476, 0.1311158, -0.04344467, -0.06197662, -0.017692411, -0.004339768, -0.027265562, 0.017876148, -0.15325163, -0.08564967, -0.11753032, 0.15633185, -0.1261569, 0.12515062, 0.010074995, -0.10736316, 0.09072276, -0.0051245503, 0.023699908, 0.07556934, -0.094700225, 0.03647546, 0.055552665, 0.07086962, -0.013889471, 0.14011751, 0.10630686, -0.045337472, 0.116546646, 0.06602073, 0.07009926, 0.050843216, -0.14699978, -0.097272664, -0.097095266, -0.010366603, 0.14652795, 0.022844348, -0.02080174, -0.09843412, -0.109738156, -0.06957225, 0.09559727, -0.06659874, 0.016643541, 0.09333518, 0.01986696, -0.124859616, 0.08486687, -0.10501803, 0.010172745, 0.080327, -0.101285145, -0.11116208, 0.13907675, -0.07887028, -0.046834618, 0.05378664, -0.14834379, -0.13974561, 0.09114114, 0.08749244, -0.11396838, 0.017361674, -0.037474215, -0.13094282, 0.0077383295, 0.06888923, 0.0073017194, -0.15354581, -0.016290618, -0.047301218, 0.06824023, -0.099746965, -0.08134466, 0.14925252, -0.010181189, -0.107486404, 0.032930974, -0.011585884, 0.0039882786, 0.053269755, -0.059274442, 0.07305646, -0.0802946, -0.090841964, 0.06102403, 0.052208897, 0.0015352974, 0.0920649, -0.116114765, -0.14124615, -0.044331953, 0.006920261, 0.07880058, 0.099188685, 0.07738175, 0.087362915, 0.06575195, 0.08266864, 0.097546235, 0.10888124, -0.10408715, -0.12732886, 0.058206253, 0.019599989, -0.14666186, -0.052704275, -0.13141689, -0.113816984, 0.07112349, -0.035363846, -0.0717824, -0.089816086, -0.102715194, -0.14940564, 0.12431008, -0.11396099, 0.08158766, -0.04859005, -0.082046844, 0.08912899, 0.013599522, 0.09542482, 0.09037253, 0.0476407, 0.12596488, 0.11051748, -0.1536029, 0.014369923, -0.092487164, -0.091103315, -0.1511228, 0.024080008, -0.05284255, 0.0078056944, 0.051061712, -0.0974616, 0.15283056, -0.013076529, 0.11328555, 0.05363911, -0.059122786, -0.049576815, 0.10851524, 0.11144423, -0.04652507, -0.09040925, -0.0110030845, 0.03142508, 0.042319898, 0.06672209, 0.024698094, -0.12744772, -0.11882061, 0.13799062, -0.0124907885, -0.06952967, -0.032916386, 0.060339633, 0.09534886, -0.04945, 0.056030363, 0.043261312, 0.08973174, 0.11698482, -0.1167492, -0.07486095, -0.045119222, 0.14873153, -0.021705966, 0.14205174, -0.058106467, -0.06756833, 0.09238549, 0.07277095, -0.07024904, -0.069823444, -0.032945205, 0.11916316, -0.020337818, -0.11008965, 0.11782123, -0.12053628, -0.028347606, 0.07582676, 0.108262666, -0.076267816, -0.05310907, 0.0321703, -0.010948989, 0.13191745, -0.021731582, 0.030568277, 0.023945298, 0.04679044, 0.055097263, -0.10382163, 0.081751354, -0.107714154, -0.15539598, 0.07902396, 0.11610378, 0.037017114, -0.110622555, 0.011457054, -0.0022902044, 0.09337956, 0.08673486, 0.14328536, -0.13392738, -0.018826874, -0.013264469, -0.07826024, -0.018092416, 0.11369313, 0.013139333, 0.07551189, -0.0021959802, -0.06123881, 0.086815625, -0.121119834, -0.09524725, -0.10483451, 0.096938856, -0.1447799, -0.13006857, 0.1449152, 0.011124828, -0.10543352, 0.053082343, -0.109723516, 0.1235172, -0.1255724, 0.041129436, -0.01725891, -0.021480102, 0.052849352, -0.097371094, 0.14122061, -0.15642582, 0.012363956, -0.06504678, 0.04199406, -0.13739932, -0.1451737, 0.05932258, 0.07392287, 0.027790384, 0.0908754, 0.019614294, 0.11308732, 0.08392737, 0.011941257, 0.03543006, 0.015258957, 0.05001397, 0.07260243, 0.030744191, 0.110996135, 0.09583606, 0.08620757, 0.11085038, 0.11932103, -0.13431628, 0.14163272, 0.038370844, -0.07522752, -0.0896989, 0.05160864, 0.020379266, 0.0059680836, -0.063091874, 0.11888539, 0.034335274, 0.12722696, -0.011650968, 0.09637992, 0.15621977, 0.083639614, 0.10367723, 0.14880472, 0.10466803, 0.0517511, 0.13547589, -0.13091627, 0.017146988, -0.026275707, -0.083882496, -0.14235175, -0.14488539, 0.026659483, -0.08184254, -0.03781496, -0.14206408, -0.0918985, 0.15273668, -0.05875533, -0.06605458, 0.12617463, 0.09245019, 0.011903107, 0.020061515, -0.04497422, 0.027976891, -0.15342803, -0.1363676, -0.070830315, 0.14327022, -0.048453774, -0.04157417, 0.028856123, -0.1351273, -0.03504353, -0.069690086, 0.03359198, -0.119194694, 0.037838537, 0.05847398, -0.08483254, -0.077648096, 0.087254666, -0.047630202, -0.10910522, -0.13334876, 0.10491834, 0.031750463, 0.12010212, -0.064360105, -0.043276522, 0.11168087, -0.15303549, -0.12174987, -0.111922115, 0.037381157, 0.01885918, 0.009346515, 0.09938773, 0.03527273, -0.15158436, -0.1009625, 0.11199206, 0.015327999, 0.14835526, -0.08025436, 0.004900779, -0.04241011, -0.086013466, 0.07832092, 0.014490498, 0.1460573, };

